tree
version=v4
num_class=1
num_tree_per_iteration=1
label_index=0
max_feature_idx=118
objective=regression_l1
feature_names=inflow_vehicles_per_hour_lag_0 inflow_vehicles_per_hour_lag_1 inflow_vehicles_per_hour_lag_2 inflow_vehicles_per_hour_lag_3 inflow_vehicles_per_hour_lag_5 inflow_vehicles_per_hour_lag_10 inflow_vehicles_per_hour_lag_15 inflow_vehicles_per_hour_lag_20 inflow_vehicles_per_hour_lag_29 queue_length_vehicles_lag_0 queue_length_vehicles_lag_1 queue_length_vehicles_lag_2 queue_length_vehicles_lag_3 queue_length_vehicles_lag_5 queue_length_vehicles_lag_10 queue_length_vehicles_lag_15 queue_length_vehicles_lag_20 queue_length_vehicles_lag_29 average_wait_seconds_lag_0 average_wait_seconds_lag_1 average_wait_seconds_lag_2 average_wait_seconds_lag_3 average_wait_seconds_lag_5 average_wait_seconds_lag_10 average_wait_seconds_lag_15 average_wait_seconds_lag_20 average_wait_seconds_lag_29 average_speed_kmh_lag_0 average_speed_kmh_lag_1 average_speed_kmh_lag_2 average_speed_kmh_lag_3 average_speed_kmh_lag_5 average_speed_kmh_lag_10 average_speed_kmh_lag_15 average_speed_kmh_lag_20 average_speed_kmh_lag_29 saturation_percent_lag_0 saturation_percent_lag_1 saturation_percent_lag_2 saturation_percent_lag_3 saturation_percent_lag_5 saturation_percent_lag_10 saturation_percent_lag_15 saturation_percent_lag_20 saturation_percent_lag_29 inflow_vehicles_per_hour_mean_3 inflow_vehicles_per_hour_std_3 inflow_vehicles_per_hour_mean_5 inflow_vehicles_per_hour_std_5 inflow_vehicles_per_hour_mean_10 inflow_vehicles_per_hour_std_10 inflow_vehicles_per_hour_mean_15 inflow_vehicles_per_hour_std_15 inflow_vehicles_per_hour_mean_30 inflow_vehicles_per_hour_std_30 queue_length_vehicles_mean_3 queue_length_vehicles_std_3 queue_length_vehicles_mean_5 queue_length_vehicles_std_5 queue_length_vehicles_mean_10 queue_length_vehicles_std_10 queue_length_vehicles_mean_15 queue_length_vehicles_std_15 queue_length_vehicles_mean_30 queue_length_vehicles_std_30 average_wait_seconds_mean_3 average_wait_seconds_std_3 average_wait_seconds_mean_5 average_wait_seconds_std_5 average_wait_seconds_mean_10 average_wait_seconds_std_10 average_wait_seconds_mean_15 average_wait_seconds_std_15 average_wait_seconds_mean_30 average_wait_seconds_std_30 minute_sin minute_cos weekday_sin weekday_cos is_weekend intersection_code phase_code strategy_code device_status_code inflow_vehicles_per_hour_same_time_day_7 inflow_vehicles_per_hour_same_time_day_14 inflow_vehicles_per_hour_recent_week_mean inflow_vehicles_per_hour_recent_week_std inflow_vehicles_per_hour_previous_week_mean inflow_vehicles_per_hour_previous_week_std inflow_vehicles_per_hour_week_over_week_delta queue_length_vehicles_same_time_day_7 queue_length_vehicles_same_time_day_14 queue_length_vehicles_recent_week_mean queue_length_vehicles_recent_week_std queue_length_vehicles_previous_week_mean queue_length_vehicles_previous_week_std queue_length_vehicles_week_over_week_delta average_wait_seconds_same_time_day_7 average_wait_seconds_same_time_day_14 average_wait_seconds_recent_week_mean average_wait_seconds_recent_week_std average_wait_seconds_previous_week_mean average_wait_seconds_previous_week_std average_wait_seconds_week_over_week_delta average_speed_kmh_same_time_day_7 average_speed_kmh_same_time_day_14 average_speed_kmh_recent_week_mean average_speed_kmh_recent_week_std average_speed_kmh_previous_week_mean average_speed_kmh_previous_week_std average_speed_kmh_week_over_week_delta saturation_percent_same_time_day_7 saturation_percent_same_time_day_14 saturation_percent_recent_week_mean saturation_percent_recent_week_std saturation_percent_previous_week_mean saturation_percent_previous_week_std saturation_percent_week_over_week_delta
feature_infos=[35:1144.373046875] [35:1143.51904296875] [35:1144.4320068359375] [35:1144.373046875] [35:1144.4320068359375] [35:1143.51904296875] [35:1144.373046875] [35:1144.4320068359375] [35:1144.4320068359375] [0.75:17.011999130249023] [0.75:17.027000427246094] [0.75:17.025999069213867] [0.75:17.011999130249023] [0.75:17.025999069213867] [0.75:17.027000427246094] [0.75:17.011999130249023] [0.75:17.025999069213867] [0.75:17.025999069213867] [8.8839998245239258:73.344001770019531] [8.8909997940063477:73.400001525878906] [8.8839998245239258:73.376998901367188] [8.8839998245239258:73.344001770019531] [8.8839998245239258:73.376998901367188] [8.8909997940063477:73.400001525878906] [8.8839998245239258:73.344001770019531] [8.8839998245239258:73.376998901367188] [8.8839998245239258:73.376998901367188] [10.423999786376953:51.387001037597656] [10.414999961853027:51.387001037597656] [10.446999549865723:51.387001037597656] [10.423999786376953:51.387001037597656] [10.446999549865723:51.387001037597656] [10.414999961853027:51.387001037597656] [10.423999786376953:51.387001037597656] [10.446999549865723:51.387001037597656] [10.446999549865723:51.387001037597656] [3.434999942779541:100] [3.434999942779541:100] [3.4360001087188721:100] [3.434999942779541:100] [3.4360001087188721:100] [3.434999942779541:100] [3.434999942779541:100] [3.4360001087188721:100] [3.4360001087188721:100] [35:1143.18505859375] [0:10.657426834106445] [35:1143.465576171875] [0:84.149345397949219] [35:1140.290771484375] [0:86.634246826171875] [35:1136.739990234375] [0:92.146446228027344] [35:1127.52197265625] [0:97.102348327636719] [0.75366663932800293:17.02166748046875] [0:0.24086649715900421] [0.76099997758865356:17.011199951171875] [0.00040000019362196326:0.97860175371170044] [0.79500001668930054:16.965099334716797] [0.0012688577407971025:1.0715705156326294] [0.84886664152145386:16.880399703979492] [0.0016519349301233888:1.187225341796875] [1.0839333534240723:16.588333129882812] [0.012067818082869053:1.9474644660949707] [8.9173336029052734:73.373664855957031] [0:0.99613296985626221] [8.94219970703125:73.303802490234375] [0.00074832624522969127:3.3725080490112305] [9.1282997131347656:73.090202331542969] [0.0054046283476054668:3.8981418609619141] [9.4459333419799805:72.706466674804688] [0.016141043975949287:4.9151420593261719] [10.78773307800293:71.233436584472656] [0.10528100281953812:8.2019529342651367] [-0.99999046325683594:0.99999046325683594] [-0.99999046325683594:0.99999046325683594] [-0.97492802143096924:0.97492790222167969] [-0.90096884965896606:1] [0:1] [0:11] [0:3] [0:2] [0:3] [35:1153.3740234375] [35:1144.676025390625] [43.862712860107422:1023.4545288085938] [6.6567287445068359:158.13336181640625] [44.792289733886719:1023.0302734375] [6.6567287445068359:163.64022827148438] [-13.927570343017578:14.085281372070312] [0.75:17.221000671386719] [0.75:17.191999435424805] [1.5411428213119507:13.933857917785645] [0.22044433653354645:2.9986586570739746] [1.5412856340408325:13.916000366210938] [0.20490722358226776:3.3295767307281494] [-0.53328585624694824:0.55785703659057617] [8.9139995574951172:73.817001342773438] [8.939000129699707:75.260002136230469] [13.175143241882324:61.779426574707031] [0.87105578184127808:11.335524559020996] [13.175143241882324:61.968433380126953] [0.87189322710037231:12.936964988708496] [-1.9184303283691406:2.0849990844726562] [9.880000114440918:51.387001037597656] [9.9770002365112305:51.387001037597656] [18.520715713500977:49.686428070068359] [0.47360092401504517:8.2404270172119141] [18.558145523071289:49.686431884765625] [0.4406965970993042:9.1543693542480469] [-1.1994285583496094:1.1625709533691406] [3.437000036239624:100] [3.434999942779541:100] [5.0032858848571777:97.464576721191406] [0.43157610297203064:15.818800926208496] [5.0709996223449707:96.072998046875] [0.45697438716888428:15.629770278930664] [-2.086578369140625:2.6900100708007812]
tree_sizes=2749 2928 2927 2931 2930 2931 2943 2936 2946 2973 2945 2949 2951 2953 2973 2967 2969 2980 2991 2981 2983 2972 2983 2988 2990 2976 2991 2979 2987 2982 2978 3005 2989 3000 3010 3004 3001 2995 3005 3005 3011 3006 3003 2992 2980 3000 2998 2995 3001 3002 3009 3009 2989 3016 3021 3010 3007 3016 3030 2998 3016 3020 3009 3024 3011 2992 3010 3013 3009 3028 3014 3001 3010 3007 3001 3026 3024 3011 3006 3038 3020 3015 3004 3030 3033 2976 3041 3035 3042 3020 3039 3036 3031 3021 3037 3019 3016 3033 3032 3011 3032 3037 3006 3009 3013 2995 3028 3024 3036 3017 3009 2998 3023 2998 3012 3028 3018 3024 3024 3015

Tree=0
num_leaves=31
num_cat=0
split_feature=9 111 95 102 94 97 94 17 96 27 97 76 111 95 106 76 14 102 76 63 76 76 95 88 60 35 76 44 97 76
split_gain=34258.9 4366.39 1844.64 919.177 905.643 277.515 270.235 249.219 265.569 309.093 221.905 161.281 159.577 203.214 154.983 131.476 147.299 116.532 111.902 119.658 98.3151 95.2643 121.356 149.099 94.1758 73.6027 70.7949 68.8648 67.9115 64.4411
threshold=2.5505000352859502 0.31043052673339849 2.0717142820358281 18.431785583496097 0.44524209201335913 -0.14242845773696897 0.78694707155227672 2.5664999485015874 0.45024453103542333 49.218500137329109 0.22042858600616458 -0.72536745667457569 0.19378471374511722 2.4892143011093144 47.581501007080085 0.99894830584526073 2.5824999809265141 20.709642410278324 -0.99826323986053456 2.9411833286285405 0.23344304412603381 0.99894830584526073 1.6588571667671206 136.4580001831055 0.15449881553649905 49.225500106811531 0.271438017487526 38.404500961303718 -0.11207151412963866 -0.99826323986053456
decision_type=2 2 2 2 2 2 2 2 2 2 2 2 2 2 2 2 2 2 2 2 2 2 2 2 2 2 2 2 2 2
left_child=1 3 5 7 -3 -2 12 21 9 28 11 -5 13 -4 15 18 -17 -12 19 -8 25 29 23 -23 -16 -13 -15 -19 -9 -1
right_child=2 4 6 10 -6 -7 14 8 -10 -11 17 20 -14 26 24 16 -18 27 -20 -21 -22 22 -24 -25 -26 -27 -28 -29 -30 -31
leaf_value=2.4051000654697416 2.4594500660896301 2.4498000621795653 2.4408500671386717 2.4337250649929048 2.4577500700950621 2.436050069332123 2.4830000638961791 2.462250065803528 2.4267000675201418 2.4474000692367555 2.4182250648736954 2.4729500651359557 2.4900000691413879 2.4896250665187836 2.4467500686645507 2.4795500636100769 2.4203000664710999 2.4706000685691833 2.5439000606536863 2.4314500689506531 2.4490500688552856 2.3970000654459001 2.3941000640392303 2.479050064086914 2.4864500641822813 2.4468500673770905 2.4503500699996947 2.4363000631332397 2.4515000641345979 2.4070500671863555
leaf_weight=537 139 377 211 200 1694 666 118 221 743 231 574 471 769 632 170 95 91 141 20635 97 264 86 249 131 219 120 131 143 90 20562
leaf_count=537 139 377 211 200 1694 666 118 221 743 231 574 471 769 632 170 95 91 141 20635 97 264 86 249 131 219 120 131 143 90 20562
internal_value=2.45316 2.41435 2.4966 2.40852 2.4841 2.42219 2.49918 2.40573 2.42712 2.45374 2.44181 2.45717 2.48025 2.46681 2.50072 2.5013 2.45945 2.42293 2.50168 2.46579 2.46663 2.40446 2.42682 2.45415 2.46945 2.47796 2.47882 2.44913 2.48628 2.40396
internal_weight=50807 26834 23973 24763 2071 805 23168 22850 1285 542 1913 1055 1743 974 21425 21036 186 858 20850 215 855 21565 466 217 389 591 763 284 311 21099
internal_count=50807 26834 23973 24763 2071 805 23168 22850 1285 542 1913 1055 1743 974 21425 21036 186 858 20850 215 855 21565 466 217 389 591 763 284 311 21099
is_linear=0
shrinkage=1


Tree=1
num_leaves=31
num_cat=0
split_feature=9 97 95 108 102 108 96 35 96 27 97 97 109 92 76 76 63 95 76 63 102 76 95 116 56 9 58 76 95 14
split_gain=33648.2 4441.68 1799.35 1041.96 918.508 296.444 267.429 204.424 221.624 236.389 196.708 166.329 193.221 160.884 147.621 140.074 154.657 130.554 114.56 116.39 97.2549 88.0835 117.866 148.292 81.1988 76.7032 73.7526 70.9304 93.0828 64.6764
threshold=2.5505000352859502 -0.13999962806701657 2.0717142820358281 0.96370658278465282 18.613858222961429 1.5796581506729128 0.55527767539024364 47.520500183105476 0.45024453103542333 49.378499984741218 0.22042858600616458 -0.09100013971328734 47.62335395812989 2.5494999885559086 -0.72536745667457569 0.99894830584526073 2.9530167579650883 1.7290714383125307 -0.99826323986053456 2.9411833286285405 20.709642410278324 0.99894830584526073 1.6588571667671206 12.111000061035158 0.071039110422134413 1.8815000057220461 0.057944802567362792 -0.99826323986053456 1.6442858576774599 2.8085000514984135
decision_type=2 2 2 2 2 2 2 2 2 2 2 2 2 2 2 2 2 2 2 2 2 2 2 2 2 2 2 2 2 2
left_child=1 3 6 17 7 11 -2 8 9 -3 14 -4 -13 26 -6 18 -17 -1 19 -15 -12 24 23 -23 27 -16 -7 28 -9 -27
right_child=2 4 5 -5 10 13 -8 21 -10 -11 20 12 -14 15 25 16 -18 -19 -20 -21 -22 22 -24 -25 -26 29 -28 -29 -30 -31
leaf_value=-0.0043400073051452553 0.0058024972677230835 0.0022975000739097642 0.032899996638298033 0.0044624930620193572 -0.018436256349086768 -0.004487497806549068 -0.016152507662773142 -0.02770500570535659 -0.025785002708435069 -0.0064450013637542772 -0.031561256200075154 0.023057501316070563 -0.011417504549026481 0.024999992847442632 -0.0048250070214271527 0.014472499489784241 -0.036265003681182864 0.00098624736070633827 0.087379989624023449 -0.019647499918937685 -0.0037650001049041705 -0.056750005036592492 -0.05595500439405441 0.024547498226165778 -0.0026524987816810564 0.01705249130725861 0.028877491354942331 -0.044002505838870998 -0.051905001103878017 -0.0041775047779083257
leaf_weight=407 144 363 678 1808 178 147 653 169 871 200 487 658 232 122 182 111 80 86 20666 102 275 85 247 125 91 451 261 20298 360 134
leaf_count=407 144 363 678 1808 178 147 653 169 871 200 487 658 232 122 182 111 80 86 20666 102 275 85 247 125 91 451 261 20298 360 134
internal_value=0.000233862 -0.0381941 0.0434351 0.0282269 -0.0444281 0.0459882 -0.0304266 -0.0470757 -0.0288006 -0.00435169 -0.00905097 0.025 0.0107865 0.0475197 0.00619048 0.0481215 0.00549738 -0.0362069 0.0485112 0.0129464 -0.0279528 -0.0483018 -0.0265864 0.000952381 -0.0487762 0.0157106 0.0164216 -0.0489821 -0.0309074 0.0245299
internal_weight=50671 26817 23854 2301 24516 23057 797 22809 1434 563 1707 1568 890 21489 945 21081 191 493 20890 224 762 21375 457 210 20918 767 408 20827 529 585
internal_count=50671 26817 23854 2301 24516 23057 797 22809 1434 563 1707 1568 890 21489 945 21081 191 493 20890 224 762 21375 457 210 20918 767 408 20827 529 585
is_linear=0
shrinkage=0.05


Tree=2
num_leaves=31
num_cat=0
split_feature=9 111 109 28 95 102 96 111 106 95 17 75 60 94 94 14 96 27 9 64 76 95 88 8 56 9 111 72 58 76
split_gain=30364.9 4271.8 2321.55 1904.28 1078.03 938.335 545.079 214.095 198.343 197.624 178.187 190.61 146.021 145.45 120.127 119.729 111.346 169.604 100.973 84.5035 83.8283 107.991 138.11 82.3028 96.1904 111.667 67.8073 67.4315 66.5917 66.0982
threshold=2.5505000352859502 0.29442882537841802 48.014215469360359 45.718500137329109 1.7119285464286806 18.431785583496097 0.55790045857429515 -0.15128135681152341 47.554500579833991 2.8934999704360966 2.5404999256134038 0.82411834597587597 0.13350003957748416 0.43970215320587164 0.78694707155227672 2.2204999923706059 0.47653934359550482 49.161499023437507 1.7735000252723696 0.4119772613048554 0.99894830584526073 1.6588571667671206 136.4580001831055 476.87850952148443 0.053098440170288093 3.7335000038146977 0.21271228790283206 1.6613160371780398 0.061732972040772445 -0.99826323986053456
decision_type=2 2 2 2 2 2 2 2 2 2 2 2 2 2 2 2 2 2 2 2 2 2 2 2 2 2 2 2 2 2
left_child=1 5 8 -4 -3 10 -5 9 14 -7 20 16 -10 -6 23 -11 17 26 -15 -19 29 22 -22 -2 -25 -26 -12 -8 -17 -1
right_child=2 4 3 6 13 7 27 -9 12 15 11 -13 -14 18 -16 28 -18 19 -20 -21 21 -23 -24 24 25 -27 -28 -29 -30 -31
leaf_value=-0.044659751310944552 0.084029998332262046 -0.0047730075120925759 0.015985996246337897 0.010646179169416426 -0.0013893106132745637 -0.022883189432322971 -0.0038139991760253846 0.012599877327680599 -0.0075631340742111199 0.014499870747327816 -0.034717813722789294 0.0036576194912195216 0.029442309692502024 0.00020762516558170407 0.10958599519729616 0.0058232480883598338 -0.026270755052566531 0.00016974890232086538 0.00428937670588494 -0.0071967557966709176 -0.053412505261600018 -0.055607255414128302 0.022370120644569405 0.039023434907197951 -0.010750253379344944 0.036460439071059225 0.0090226207524537923 0.00013600063323975233 -0.023341753423213964 -0.042152379021048542
leaf_weight=503 514 410 1411 320 85 857 1608 371 253 279 80 80 536 162 18674 125 742 82 1729 298 83 233 122 184 199 122 119 87 249 20128
leaf_count=503 514 410 1411 320 85 857 1608 371 253 279 80 80 536 162 18674 125 742 82 1729 298 83 233 122 184 199 122 119 87 249 20128
internal_value=-0.0015036 -0.0381138 0.0394387 0.00134267 0.0257334 -0.0443698 -0.0298511 -0.0104466 0.045811 -0.0188079 -0.0472096 -0.0299429 0.0212294 0.0410425 0.0467958 0.00191424 -0.0344815 -0.0180484 0.0439186 -0.0376316 -0.0483578 -0.0267123 -0.000243902 0.0300785 0.0157426 -0.000778816 0.0193467 -0.0411504 -0.0165775 -0.0488173
internal_weight=50645 26737 23908 3426 2386 24351 2015 1881 20482 1510 22470 1401 789 1976 19693 653 1321 579 1891 380 21069 438 205 1019 505 321 199 1695 374 20631
internal_count=50645 26737 23908 3426 2386 24351 2015 1881 20482 1510 22470 1401 789 1976 19693 653 1321 579 1891 380 21069 438 205 1019 505 321 199 1695 374 20631
is_linear=0
shrinkage=0.05


Tree=3
num_leaves=31
num_cat=0
split_feature=9 97 95 55 94 88 96 9 111 76 17 93 44 96 62 27 17 32 27 56 36 35 58 76 95 88 76 56 76 36
split_gain=28082.4 4265.05 2548.85 2243.28 969.972 942.126 531.065 401.202 721.541 307.032 298.59 288.209 244.682 234.059 210.26 185.079 174.566 145.489 151.18 140.179 107.823 101.081 97.0279 92.0812 112.864 156.189 83.9307 83.3029 80.0857 79.3689
threshold=2.5505000352859502 -0.13999962806701657 2.3342143297195439 3.4061666727066044 0.44246834516525274 339.28361511230474 0.55527767539024364 3.461499929428101 0.44257164001464849 -0.73431548476219166 2.528500080108643 2.2199285030364995 38.404500961303718 0.46981406211853033 0.30698961019515997 49.161499023437507 1.7154999971389773 47.208499908447273 49.00849914550782 0.056764621287584312 37.561500549316413 47.388500213623054 0.082116261124610915 0.99894830584526073 1.6588571667671206 136.4580001831055 0.99894830584526073 0.070228990167379393 -0.99826323986053456 35.844499588012702
decision_type=2 2 2 2 2 2 2 2 2 2 2 2 2 2 2 2 2 2 2 2 2 2 2 2 2 2 2 2 2 2
left_child=1 4 3 6 -1 10 -2 8 11 -7 23 -4 29 15 -8 -12 20 22 -19 -14 -11 -17 -18 27 25 -25 28 -3 -10 -13
right_child=2 5 7 -5 -6 9 14 -9 26 16 13 12 19 -15 -16 21 17 18 -20 -21 -22 -23 -24 24 -26 -27 -28 -29 -30 -31
leaf_value=-0.0035593562781810698 0.011622689373791207 -0.040194761119037858 -0.0029433061838149976 0.018436699295043945 0.0039749031975865323 -0.027685625156201422 -0.0036333011746406464 0.18090670802593234 0.013620696687698365 -0.02839189739953726 0.0078275018820539114 0.0052566955327987726 0.012035864564776422 -0.023932214105129246 0.0045695687472820266 -0.0066054773956537253 0.0094813783064484625 0.020009065811336046 -0.0026351402761414567 -0.012997801443934443 0.015092904260382057 -0.00012775637879967051 -0.021574661555886276 -0.052691878734901554 -0.051576887875050305 0.020801611465215687 -0.00056792843937873987 -0.025637259445339435 0.039031697297096261 0.05486978737823666
leaf_weight=408 309 20463 316 1613 1866 598 1976 13713 100 278 206 637 486 801 91 204 101 446 262 384 89 347 203 92 235 129 84 146 3684 598
leaf_count=408 309 20463 316 1613 1866 598 1976 13713 100 278 206 637 486 801 91 204 101 446 262 384 89 347 203 92 235 129 84 146 3684 598
internal_value=-0.00248796 -0.0375902 0.0368326 0.000338431 0.0279244 -0.0436463 -0.0305556 0.0441106 0.033654 -0.0105463 -0.0465389 0.012247 0.0189311 -0.0254172 -0.0396952 -0.00548217 0.0024293 0.0131423 0.025565 -0.00137931 -0.0271117 -0.0205989 -0.0157895 -0.0481011 -0.0258772 -0.000226244 0.0470527 -0.0485928 0.0481501 0.0332389
internal_weight=50865 26874 23991 3989 2274 24600 2376 20002 6289 1977 22623 2421 2105 1558 2067 757 1379 1012 708 870 367 551 304 21065 456 221 3868 20609 3784 1235
internal_count=50865 26874 23991 3989 2274 24600 2376 20002 6289 1977 22623 2421 2105 1558 2067 757 1379 1012 708 870 367 551 304 21065 456 221 3868 20609 3784 1235
is_linear=0
shrinkage=0.05


Tree=4
num_leaves=31
num_cat=0
split_feature=9 97 109 97 94 102 110 27 105 93 8 9 111 62 109 91 14 35 75 76 109 88 36 91 56 94 15 109 63 111
split_gain=26770.4 3956.63 2638.49 2250.14 1236.7 1017.48 464.629 418.968 631.088 296.055 300.207 291.42 273.259 221.689 220.445 153.157 131.539 111.319 172.298 101.364 117.142 153.716 91.841 177.48 85.3258 84.5268 82.1712 89.7637 74.9878 74.3181
threshold=2.5505000352859502 -0.12685698270797727 47.965497970581062 -0.21500003337860105 0.44524209201335913 18.09364223480225 1.1963846683502199 45.093500137329109 49.642499923706062 2.252357125282288 489.53199768066412 1.7824999690055849 -0.22786140441894528 0.30527171492576605 46.86956977844239 2.4405000209808354 2.2204999923706059 47.628499984741218 0.82411834597587597 0.99894830584526073 49.43257141113282 136.4580001831055 37.561500549316413 2.4595000743865971 0.057580862194299705 0.92968660593032848 1.4524999856948855 47.417572021484382 3.6984332799911503 0.31542778015136724
decision_type=2 2 2 2 2 2 2 2 2 2 2 2 2 2 2 2 2 2 2 2 2 2 2 2 2 2 2 2 2 2
left_child=1 4 7 -4 -1 17 29 -2 9 25 22 -6 14 -8 16 -12 -7 18 -3 -19 -21 -22 23 -11 28 -9 27 -16 -17 -5
right_child=2 5 3 6 11 12 13 8 -10 10 15 -13 -14 -15 26 24 -18 19 -20 20 21 -23 -24 -25 -26 -27 -28 -29 -30 -31
leaf_value=-0.0039051876672170915 0.18726135316967965 -0.015085603542923921 0.019914857273101806 -0.0010560678470880047 -9.4766042977578738e-05 0.012397795729115613 -0.0032916331094503316 0.0033113581287860907 0.036161361371278768 0.016893868480920806 0.027181090000867859 0.0039761554627865568 0.0084898436213750369 0.0044635963323712341 0.0058726405687257628 -0.006107765869945281 -0.01508093411907554 -0.03858502387370915 0.0030386253270879185 -0.052498046103902164 -0.052507283057700853 0.019411532417833801 0.059720880129281451 -0.0013093396988510975 -0.013857606365233678 -0.0034961378228664411 -0.031296147861941716 -0.0099350202020630288 0.013704907978922144 0.014207736648246629
leaf_weight=632 12518 1213 1659 119 373 293 2171 80 3991 687 175 1769 535 99 80 183 391 20051 83 221 87 132 769 343 403 304 838 115 166 204
leaf_count=632 12518 1213 1659 119 373 293 2171 80 3991 687 175 1769 535 99 80 183 391 20051 83 221 87 132 769 343 403 304 838 115 166 204
internal_value=-0.00304041 -0.037327 0.0354719 -0.000235183 0.0192141 -0.0438517 -0.029329 0.0432107 0.0335094 0.0166238 0.0224138 0.0373483 -0.0118561 -0.0373128 -0.0215783 -0.000701187 0.000438596 -0.0471589 -0.0329475 -0.0480577 -0.0243182 0.00159817 0.0343246 0.0245631 -0.0105053 -0.0244792 -0.0361568 -0.00692308 0.00759312 0.0267802
internal_weight=50684 26813 23871 4252 2774 24039 2593 19619 7101 3110 2726 2142 2252 2270 1717 927 684 21787 1296 20491 440 219 1799 1030 752 384 1033 195 349 323
internal_count=50684 26813 23871 4252 2774 24039 2593 19619 7101 3110 2726 2142 2252 2270 1717 927 684 21787 1296 20491 440 219 1799 1030 752 384 1033 195 349 323
is_linear=0
shrinkage=0.05


Tree=5
num_leaves=31
num_cat=0
split_feature=9 97 95 97 95 86 9 97 110 11 76 107 8 56 96 36 88 75 97 14 92 36 17 97 109 32 64 94 106 92
split_gain=25760.1 4040.36 2520.59 2221.26 1252.54 952.549 480.998 634.525 426.12 374.571 302.907 275.691 321.936 183.628 170.651 142.371 137.564 144.705 219.426 130.518 126.349 120.056 121.72 110.744 105.13 103.489 92.2467 91.9824 80.67 78.1438
threshold=2.5505000352859502 -0.11800038814544676 2.3475713729858403 -0.21757102012634275 1.7162857651710512 350.74632263183599 4.053499937057496 -0.21500003337860105 1.1963846683502199 1.6574999690055849 -0.74313774704933155 48.238786697387702 476.87850952148443 0.058800037950277335 1.0460191369056704 35.844499588012702 255.1029968261719 -0.70710006356239308 0.061285793781280525 1.6324999928474428 3.7804999351501469 36.428501129150398 1.8044999837875368 -0.20542848110198972 47.372856140136726 46.465499877929695 0.42579185962677008 0.44246834516525274 49.419498443603523 2.0314999818801884
decision_type=2 2 2 2 2 2 2 2 2 2 2 2 2 2 2 2 2 2 2 2 2 2 2 2 2 2 2 2 2 2
left_child=1 4 3 -2 -1 16 7 14 28 26 -7 12 15 29 -4 20 -3 18 -18 -20 -9 22 -12 -10 -16 -23 -6 -11 -5 -14
right_child=2 5 6 8 9 10 -8 11 23 27 21 -13 13 -15 24 -17 17 -19 19 -21 -22 25 -24 -25 -26 -27 -28 -29 -30 -31
leaf_value=-0.0041611299392180449 0.020319120226860044 -0.036605770343521617 0.03510329854792358 0.012767855725828548 0.00016997938930245484 -0.028608887936790364 0.20282329094713925 0.0013299184173941826 -0.00022705898800492454 -0.0002884697679774617 -0.025588860315678641 -0.0020713261633515281 -0.0081058557858727631 -0.0098457179119214155 0.016873291853129867 0.059658406993331393 0.0047942271292414464 -0.02848076915142872 0.0022151363251376789 -0.028017643024872287 0.010131853032171734 -0.013664384325420942 0.0031878069733164874 -0.0033770571760237235 -0.0018638286858200905 0.02233185759973131 -0.0028529091539308384 0.00382735598661379 -0.0020982697285525597 0.016772486467642258
leaf_weight=667 1727 19758 4404 248 443 508 11118 583 450 88 225 290 94 625 146 1040 238 1390 139 548 418 103 426 1960 189 456 107 1780 86 512
leaf_count=667 1727 19758 4404 248 443 508 11118 583 450 88 225 290 94 625 146 1040 238 1390 139 548 418 103 426 1960 189 456 107 1780 86 512
internal_value=-0.00344916 -0.0370293 0.0343282 0.000480877 0.0168071 -0.0440103 0.0421211 0.0330141 -0.0274781 0.0335401 -0.00814901 0.0170691 0.0212103 0.00101543 0.0449989 0.0333905 -0.0468015 -0.03527 -0.0199459 -0.0342795 0.0199301 0.00545455 -0.00913978 -0.0348133 0.010597 0.0224508 -0.00272727 0.0442184 0.0254491 0.0206271
internal_weight=50766 26876 23890 4471 3085 23791 19419 8301 2744 2418 1718 3562 3272 1231 4739 2041 22073 2315 925 687 1001 1210 651 2410 335 559 550 1868 334 606
internal_count=50766 26876 23890 4471 3085 23791 19419 8301 2744 2418 1718 3562 3272 1231 4739 2041 22073 2315 925 687 1001 1210 651 2410 335 559 550 1868 334 606
is_linear=0
shrinkage=0.05


Tree=6
num_leaves=31
num_cat=0
split_feature=9 97 109 111 94 95 9 111 27 110 97 44 109 56 62 110 86 97 95 111 100 44 9 64 9 110 95 17 76 95
split_gain=24882.6 4193.61 2548.84 2238.72 1319.58 907.056 480.995 592.107 398.937 394.847 308.208 279.198 312.561 207.091 184.444 163.876 149.51 216.087 185.412 128.492 117.56 113.87 104.823 96.7784 94.3586 85.324 113.704 83.4754 82.2246 104.634
threshold=2.5505000352859502 -0.11207151412963866 47.945856094360359 0.47442817687988287 0.43970215320587164 2.4627857208251958 4.5460000038146982 0.47442817687988287 49.128499984741218 1.1963846683502199 0.22042858600616458 48.164999008178718 47.545137405395515 0.063691094517707839 0.30698961019515997 2.1247667074203496 258.65664672851568 0.083428442478179946 2.0383570194244389 0.44257164001464849 21.43992900848389 31.788499832153324 2.935500025749207 0.4285795539617539 1.8404999971389773 2.2394790649414067 2.5598570108413701 4.7964999675750741 0.99894830584526073 1.660857141017914
decision_type=2 2 2 2 2 2 2 2 2 2 2 2 2 2 2 2 2 2 2 2 2 2 2 2 2 2 2 2 2 2
left_child=1 4 6 9 -1 16 7 11 -6 -4 24 12 22 27 19 -14 28 18 -18 -11 -12 -20 -2 -10 -7 -9 -27 -13 -3 -30
right_child=2 5 3 -5 8 10 -8 25 23 14 20 13 15 -15 -16 -17 17 -19 21 -21 -22 -23 -24 -25 -26 26 -28 -29 29 -31
leaf_value=-0.0044655723574526188 0.0129007329782314 -0.035275481349508378 0.0084817420389866286 0.020853159161043158 0.0035859798903165488 -0.0048664369156168341 0.21015712344339194 0.034791876432207249 0.00020096010818672073 -0.0032582006932601274 -0.026969249607261481 -0.0076400105164464716 0.0030418769090444055 -0.00999780608217158 0.005181078550164398 -0.0020827977360218688 -0.015781731313745585 -0.038418308751653765 0.0054818323937253057 -0.00023056215656845904 -0.0043040773564134273 -0.0078252421655048421 0.045953830314335226 -0.0030102538733888465 0.0056745189365939204 -0.00096101195374429524 0.019707134601381428 0.019381034966417545 -0.015901630053853723 -0.04249285222977317
leaf_weight=664 554 18900 330 1727 1900 225 10015 4429 560 1933 670 98 367 679 96 376 380 1336 316 502 313 214 1865 141 723 171 315 425 233 255
leaf_count=664 554 18900 330 1727 1900 225 10015 4429 560 1933 670 98 367 679 96 376 380 1336 316 502 313 214 1865 141 723 171 315 425 233 255
internal_value=-0.00338579 -0.0364294 0.0337367 0.000239756 0.0166769 -0.0437874 0.0417021 0.0335004 0.0327374 -0.0268962 -0.0109529 0.0200962 0.0278937 -0.000415973 -0.0336033 -0.000471063 -0.0467181 -0.0345058 -0.0157143 -0.0362834 -0.0305697 0.00339623 0.036606 0.000499287 0.00938819 0.0454018 0.0255144 0.0232314 -0.0481329 -0.0278689
internal_weight=50712 26830 23882 4588 3265 23565 19294 9279 2601 2861 1931 4364 3162 1202 2531 743 21634 2246 910 2435 983 530 2419 701 948 4915 486 523 19388 488
internal_count=50712 26830 23882 4588 3265 23565 19294 9279 2601 2861 1931 4364 3162 1202 2531 743 21634 2246 910 2435 983 530 2419 701 948 4915 486 523 19388 488
is_linear=0
shrinkage=0.05


Tree=7
num_leaves=31
num_cat=0
split_feature=9 111 9 97 94 102 93 9 96 97 62 27 8 8 58 64 76 107 36 105 58 102 64 76 102 111 96 64 102 110
split_gain=24171.9 4046.15 2250.98 2513.39 1332.77 1036.5 902.112 406.08 397.286 253.594 250.821 232.175 283.717 174.423 167.173 166.337 162.295 151.102 134.943 174.169 149.773 117.584 116.737 114.574 109.613 215.928 95.788 117.903 190.969 91.3408
threshold=2.5505000352859502 0.23221778869628909 3.4384999275207524 -0.22292864322662351 0.45120513439178472 17.933214187622074 2.1916427612304692 1.8065000176429751 0.55385357141494762 0.2339277267456055 0.28373219072818762 42.373500823974616 613.10601806640636 524.21249389648449 0.14022766798734668 0.34236711263656622 -0.7603987157344817 49.600215911865241 36.962501525878913 47.90050125122071 0.10184282064437868 20.498928070068363 0.43324476480484014 -0.052335416898131364 16.952999114990238 -0.1690711975097656 1.044066369533539 0.4119772613048554 19.461356163024906 2.1699855327606206
decision_type=2 2 2 2 2 2 2 2 2 2 2 2 2 2 2 2 2 2 2 2 2 2 2 2 2 2 2 2 2 2
left_child=1 5 3 -2 17 24 8 22 -5 16 -10 -4 26 18 -14 -12 -7 -3 19 -8 -21 -11 -6 -18 -1 -26 -13 28 -28 -22
right_child=2 4 11 6 7 9 13 -9 10 21 15 12 14 -15 -16 -17 23 -19 -20 20 29 -23 -24 -25 25 -27 27 -29 -30 -31
leaf_value=-0.033511707282032968 0.033952288904847382 0.001648878695984668 0.21287427432841227 0.01045106731099732 0.0002950652462622272 -0.015545228711226289 -0.0050886519543186688 0.0035566819448424659 -0.0028952932335177817 -0.030275901473185065 -0.0013574208019415225 0.031010500058581816 0.029254757990361303 -0.0044628934896955965 -0.0057429777647980858 0.00076603467521051409 0.0094066959557829854 -0.0040584247501943343 0.043243919048348706 0.0092897841126339253 0.022681766554141169 -0.0036284593699235979 -0.0027097401306776627 -0.0027448249759250646 -0.027497392956443212 -0.00078960880375048568 -0.0013343615631323691 0.012891894329424714 0.066058483047018307 -0.0019936910570545366
leaf_weight=19568 3269 86 9226 263 638 236 400 1735 1987 679 500 3075 456 635 420 340 711 783 608 475 94 287 153 460 1124 374 342 1310 450 137
leaf_count=19568 3269 86 9226 263 638 236 400 1735 1987 679 500 3075 456 635 420 340 711 783 608 475 94 287 153 460 1124 374 342 1310 450 137
internal_value=-0.00349363 -0.036096 0.0329783 0.0126895 0.014919 -0.0434852 -0.00813569 0.0332937 -0.02589 -0.0121576 -0.0313583 0.0445415 0.0369321 0.0152192 0.0106164 -0.00845238 0.00138593 -0.0384925 0.0235123 0.0131103 0.0280453 -0.0318841 0.00360303 0.00900939 -0.0470141 -0.0339786 0.041385 0.0331589 0.0179293 -0.00497835
internal_weight=50821 26834 23987 8708 3395 23439 5439 2526 3090 2373 2827 15279 6053 2349 876 840 1407 869 1714 1106 706 966 791 1171 21066 1498 5177 2102 792 231
internal_count=50821 26834 23987 8708 3395 23439 5439 2526 3090 2373 2827 15279 6053 2349 876 840 1407 869 1714 1106 706 966 791 1171 21066 1498 5177 2102 792 231
is_linear=0
shrinkage=0.05


Tree=8
num_leaves=31
num_cat=0
split_feature=9 97 109 111 108 102 92 97 28 110 75 111 62 97 44 92 32 60 35 102 102 111 109 64 66 8 66 97 14 45
split_gain=23589.8 4117.8 2358.82 2154.06 1327.43 982.706 532.734 673.594 378.364 357.634 253.76 221.753 182.2 166.454 160.125 152.455 241.27 165.185 145.947 134.241 129.547 218.907 119.141 115.056 121.904 95.0166 96.5028 91.2125 89.6478 87.3609
threshold=2.5505000352859502 -0.10314261913299559 47.936496734619148 0.48028755187988287 0.9454142451286317 18.09364223480225 4.5864999294281015 -0.22578573226928708 49.25849914550782 1.1905378103256228 0.85263198614120495 -0.49986076354980463 0.30883021652698522 -0.20542848110198972 33.65950012207032 3.873499989509583 45.666500091552741 0.14821688830852511 47.464500427246101 20.709642410278324 16.952999114990238 -0.15128135681152341 49.299715042114265 0.35854683816432958 0.34213042259216314 503.75450134277349 0.26546207070350653 -0.081999957561492906 2.5045000314712529 386.35217285156256
decision_type=2 2 2 2 2 2 2 2 2 2 2 2 2 2 2 2 2 2 2 2 2 2 2 2 2 2 2 2 2 2
left_child=1 4 6 9 -1 20 7 -2 22 -4 15 19 13 -11 29 16 23 27 -10 -7 -3 -22 -6 -9 -25 -17 -27 -18 -23 -13
right_child=2 5 3 -5 8 11 -8 10 18 12 -12 14 -14 -15 -16 25 17 -19 -20 -21 21 28 -24 24 -26 26 -28 -29 -30 -31
leaf_value=-0.0044085547720905003 0.03130467178931693 -0.032236122728554494 0.0097285045994391483 0.019359979919391736 0.0035288488966420898 -0.02825134781046601 0.1907555697672651 -0.0034816819252070255 -0.0019459143825532822 -0.00014054101226257387 0.04598112085451133 0.00094392652419510452 0.0047619142854897108 -0.0029505259969212273 -0.0077644492365371853 0.022540788442979076 0.024006725940595053 0.02423750410360628 0.00037085437017851945 0.00022275401200105849 -0.024149586966945746 0.0033222029704716438 5.2276476272461464e-05 0.0047298587599051926 -0.014235212439613943 0.022255551647453076 -0.0071558248711260488 -0.0058632579172305244 -0.010497782915859344 0.0253099678272251
leaf_weight=743 4738 19310 299 1804 1730 663 9841 508 232 622 1030 399 109 1938 565 562 122 697 666 260 1272 250 203 493 213 291 263 413 129 299
leaf_count=743 4738 19310 299 1804 1730 663 9841 508 232 622 1030 399 109 1938 565 562 122 697 666 260 1272 250 203 493 213 291 263 413 129 299
internal_value=-0.00332978 -0.0356255 0.0327131 0.00125733 0.0143257 -0.0433382 0.040543 0.0319829 0.0299364 -0.0249326 0.0183362 -0.0114364 -0.0307419 -0.0334375 0.00217736 0.0120157 0.00502862 0.0206169 0.00311804 -0.030065 -0.0466652 -0.0332223 0.0423952 -0.0107908 0.00226629 0.0273297 0.0126354 -0.000280374 0.000131926 0.0181948
internal_weight=50664 26721 23943 4772 3574 23147 19171 9330 2831 2968 4592 2186 2669 2560 1263 3562 2446 1232 898 923 20961 1651 1933 1214 706 1116 554 535 379 698
internal_count=50664 26721 23943 4772 3574 23147 19171 9330 2831 2968 4592 2186 2669 2560 1263 3562 2446 1232 898 923 20961 1651 1933 1214 706 1116 554 535 379 698
is_linear=0
shrinkage=0.05


Tree=9
num_leaves=31
num_cat=0
split_feature=9 97 109 97 95 102 9 97 10 76 76 62 110 111 17 56 56 76 97 17 64 102 56 56 14 92 76 17 17 76
split_gain=22593.1 4048.3 2389.41 2254.44 1354.18 997.375 621.547 630.137 394.438 376.039 530.734 355.831 235.324 223.637 222.506 210.517 186.972 158.328 148.456 143.291 136.371 132.091 129.776 115.388 254.786 97.5756 96.9454 95.5818 89.0974 104.173
threshold=2.5505000352859502 -0.10014319419860838 47.918071746826179 -0.22878563404083249 1.7162857651710512 17.933214187622074 5.11549997329712 -0.23157131671905515 1.7465000152587893 0.052335681393742568 -0.66912424564361561 0.31603379547595983 1.1671572923660281 -0.49986076354980463 3.3255000114440922 0.059198347851634033 0.055948389694094665 -0.76883456110954274 -0.20542848110198972 2.528500080108643 0.42125812172889715 20.498928070068363 0.048584405332803733 0.067376226186752333 2.0364999771118169 3.7395000457763676 0.3338038176298142 2.2124999761581425 2.344500064849854 0.99894830584526073
decision_type=2 2 2 2 2 2 2 2 2 2 2 2 2 2 2 2 2 2 2 2 2 2 2 2 2 2 2 2 2 2
left_child=1 4 6 -4 22 23 7 -2 19 10 15 12 -5 21 -11 25 -16 -15 -14 -6 -21 -7 -1 28 -25 -9 -19 -10 29 -3
right_child=2 5 3 11 8 13 -8 9 27 14 -12 -13 18 17 16 -17 -18 26 -20 20 -22 -23 -24 24 -26 -27 -28 -29 -30 -31
leaf_value=-0.0049564454668005412 0.030889438295218508 -0.031024317402749937 0.020716979302175823 0.010609706155699184 0.00080620622264167003 -0.027922015271054115 0.19809278412634446 0.00041341703153383594 0.00016432567374196074 -0.0030947780769017275 0.047380461683993971 0.0073552768898424549 -0.00023795150150633939 -0.015036914120912749 0.013153677817312227 -0.0067490037060534249 -0.0027205269738205698 0.0051141177849127976 -0.0028029996970751593 0.00016540035284395849 -0.0027695096234993111 -0.00033712098746819797 4.2395134622175146e-05 0.0064488703481828452 -0.047169690836578272 0.0098183887467871555 -0.004102290893482974 0.0033524064518099862 -0.010949871903201226 -0.029330819548266621
leaf_weight=733 4484 18817 1882 149 291 700 8864 379 160 405 2765 196 804 221 570 505 625 959 2058 458 226 266 130 122 219 235 210 1679 1291 391
leaf_count=733 4484 18817 1882 149 291 700 8864 379 160 405 2765 196 804 221 570 505 625 959 2058 458 226 266 130 122 219 235 210 1679 1291 391
internal_value=-0.00391385 -0.0353757 0.0314305 0.00103164 0.0133669 -0.0431023 0.0396453 0.0310795 0.0301706 0.0197119 0.0281153 -0.0244621 -0.0287114 -0.0122666 -0.0006875 -0.000938338 0.0101674 0.00057554 -0.0319008 0.00446154 -0.00804094 -0.0307453 -0.0414253 -0.0465883 -0.0177419 0.0187296 0.00791275 0.043801 -0.0470681 -0.0479227
internal_weight=50794 26873 23921 5089 3677 23196 18832 9968 2814 5484 3884 3207 3011 2356 1600 1119 1195 1390 2862 975 684 966 863 20840 341 614 1169 1839 20499 19208
internal_count=50794 26873 23921 5089 3677 23196 18832 9968 2814 5484 3884 3207 3011 2356 1600 1119 1195 1390 2862 975 684 966 863 20840 341 614 1169 1839 20499 19208
is_linear=0
shrinkage=0.05


Tree=10
num_leaves=31
num_cat=0
split_feature=9 97 95 97 95 102 92 97 62 56 97 109 106 32 96 56 109 44 56 60 56 95 106 14 107 33 58 8 9 96
split_gain=21894.4 4239.35 2066.32 2040.66 1551.51 1029.43 619.327 623.963 316.45 305.235 283.073 290.734 270.61 378.187 207.988 189.416 184.407 174.563 220.129 165.507 156.39 145.909 131.24 126.627 111.182 110.261 117.776 109.107 101.144 99.2164
threshold=2.5625000000000004 -0.097142875194549547 2.3687857389450078 -0.23157131671905515 1.7034285664558413 17.301786422729496 4.9865000247955331 -0.2374998331069946 0.31603379547595983 0.056764621287584312 0.089714109897613539 46.946359634399421 44.599498748779304 45.369499206542976 0.54717263579368602 0.058397106826305396 49.07771301269532 52.325500488281257 0.082144860178232207 0.12890806794166568 0.057976048439741142 1.9644285440444949 46.812500000000007 2.2204999923706059 48.042570114135749 49.881500244140632 0.10594300180673601 357.11900329589849 2.9815000295639043 0.92144581675529491
decision_type=2 2 2 2 2 2 2 2 2 2 2 2 2 2 2 2 2 2 2 2 2 2 2 2 2 2 2 2 2 2
left_child=1 4 3 -2 -1 -3 7 -4 14 16 27 23 17 15 -5 24 29 -9 -19 22 21 -16 -15 -12 -14 -13 -27 -7 -21 -6
right_child=2 5 6 8 9 10 -8 12 -10 -11 11 25 13 19 20 -17 -18 18 -20 28 -22 -23 -24 -25 -26 26 -28 -29 -30 -31
leaf_value=-0.0059532599738016728 0.021456132816620246 -0.028873097336445455 0.030046631255756597 0.0098954129384255414 0.0061423431837839939 0.010672453398472182 0.18433813786283731 0.046923884272343841 0.0064249329797012589 0.0028847840311359897 0.0094381822547102492 -0.026333235937646651 0.0052057057682735166 0.019805621225730652 -0.012493724900333692 -0.004835116325489431 5.8545193051506851e-05 0.027468257026169188 -0.011551236192199733 0.0035949611352488423 -0.0021628501890585518 -0.00033398777044229004 -0.0094612888382813454 -0.011303439103756708 -0.0021861327492094908 -0.0076776961167445484 0.0054453086685719359 -0.0023002844833788895 0.050878388371967155 -0.00057254126217921592
leaf_weight=814 1888 19863 4110 158 740 373 9032 1337 195 1236 331 1331 518 230 465 647 1256 406 297 721 870 1425 326 423 171 282 134 341 658 80
leaf_count=814 1888 19863 4110 158 740 373 9032 1337 195 1236 331 1331 518 230 465 647 1256 406 297 721 870 1425 326 423 171 282 134 341 658 80
internal_value=-0.0039441 -0.0344655 0.0314573 0.00294941 0.0122152 -0.0428113 0.0391833 0.0302144 -0.0219242 0.0274155 -0.016563 -0.0244902 0.0188947 0.00998166 -0.0260452 -0.010479 0.0157033 0.0331863 0.0130156 0.0241085 -0.0292391 -0.021164 0.00107914 0.00145889 0.00776488 -0.0356898 -0.0132212 0.0112045 0.0333938 0.0341463
internal_weight=50658 27204 23454 5001 4126 23078 18453 9421 3113 3312 3215 2501 5311 3271 2918 1336 2076 2040 703 1935 2760 1890 556 754 689 1747 416 714 1379 820
internal_count=50658 27204 23454 5001 4126 23078 18453 9421 3113 3312 3215 2501 5311 3271 2918 1336 2076 2040 703 1935 2760 1890 556 754 689 1747 416 714 1379 820
is_linear=0
shrinkage=0.05


Tree=11
num_leaves=31
num_cat=0
split_feature=17 27 27 27 97 13 109 36 97 111 56 44 76 56 14 56 106 76 64 76 30 27 62 113 97 92 92 76 64 60
split_gain=21022.3 2913.6 2863.94 1597.26 1739.88 1127.77 1273.26 852.979 674.684 560.199 400.645 356.258 439.484 287.08 362.828 234.685 220.603 178.608 159.082 152.665 146.695 252.719 134.735 127.779 133.553 127.574 126.022 122.602 112.606 132.627
threshold=2.2124999761581425 47.002498626708991 49.055500030517585 41.397499084472663 -0.23457133769989011 2.2265000343322758 47.821359634399421 34.887001037597663 -0.15321427583694455 0.19999504089355472 0.053914541378617294 47.48649978637696 1.0000000180025095e-35 0.066140424460172667 1.9334999918937685 0.057580862194299705 45.153499603271491 0.99826323986053478 0.43822488188743597 -0.99690786004066456 45.093500137329109 44.742000579833991 0.27609609067440039 39.220998764038093 -0.23457133769989011 2.2775000333786015 1.391499996185303 -0.61908787488937367 0.37467618286609655 0.1524087265133858
decision_type=2 2 2 2 2 2 2 2 2 2 2 2 2 2 2 2 2 2 2 2 2 2 2 2 2 2 2 2 2 2
left_child=1 22 3 -2 17 26 10 8 -3 28 16 12 27 -10 -15 -8 -7 19 -11 -5 21 -21 23 24 -1 -17 -6 -12 29 -4
right_child=2 7 9 4 5 6 15 -9 13 18 11 -13 -14 14 -16 25 -18 -19 -20 20 -22 -23 -24 -25 -26 -27 -28 -29 -30 -31
leaf_value=0.02841763486535347 0.18764622915771426 0.00022061826551713628 0.0071780794610538656 -0.01723280351773393 -0.002546798108170956 0.027074091313957195 -0.00045563391210461384 0.011562396099727756 -0.026829444233920665 0.00030988948622214798 -0.00018757811303846684 -0.0090424932725164282 -0.0028390544175156186 0.0053430573826312557 -0.048131080593177639 0.019352574505170084 0.0053788046654695172 -0.015764510776390673 -0.0025850896944389027 0.03400497899592967 0.025992637774060134 -0.001405729743756401 0.039215423495944028 0.04110791986711089 -0.0023292411895625476 -0.0024047061537267214 0.0036776705912766163 0.084042112199420149 -0.010583165078386615 -0.013404445712115853
leaf_weight=82 8317 414 97 92 105 1420 1969 545 20336 958 151 1309 342 268 286 80 1079 83 214 1017 4517 294 767 230 238 1066 2068 792 1449 160
leaf_count=82 8317 414 97 92 105 1420 1969 545 20336 958 151 1309 342 268 286 80 1079 83 214 1017 4517 294 767 230 238 1066 2068 792 1449 160
internal_value=-0.00404276 -0.0391565 0.0254523 0.0309522 0.0218933 0.00950294 0.00102339 -0.04351 -0.0450901 -0.0217512 0.0164245 0.00265998 0.0213619 -0.0463427 -0.0108303 -0.0241573 0.0307123 0.04332 0.00486348 0.0443412 0.04535 0.0306255 0.0330676 0.0141818 -0.00625 -0.0421466 0.0415324 0.0389714 -0.0400352 -0.00953307
internal_weight=50745 23166 27579 24701 16384 10381 8208 21849 21304 2878 5093 2594 1285 20890 554 3115 2499 6003 1172 5920 5828 1311 1317 550 320 1146 2173 943 1706 257
internal_count=50745 23166 27579 24701 16384 10381 8208 21849 21304 2878 5093 2594 1285 20890 554 3115 2499 6003 1172 5920 5828 1311 1317 550 320 1146 2173 943 1706 257
is_linear=0
shrinkage=0.05


Tree=12
num_leaves=31
num_cat=0
split_feature=17 27 36 111 111 27 33 58 27 56 107 44 56 102 111 92 82 58 62 95 59 113 95 97 102 93 64 44 27 14
split_gain=20482.8 2803.65 2729.47 2316.49 1373.1 889.52 1124.87 576.666 494.366 448.024 350.682 298.883 351.379 288.529 247.299 216.908 169.819 157.704 145.868 232.241 369.029 136.673 135.931 127.302 127.218 125.01 111.798 124.207 114.829 107.67
threshold=2.2124999761581425 45.415500640869148 35.844499588012702 0.49843025207519537 0.32485771179199224 49.829500198364265 48.094501495361335 0.089698381721973433 40.589000701904304 0.057580862194299705 48.321071624755866 55.588499069213874 0.078814834356307997 16.864928245544437 -0.46935653686523432 3.8255000114440922 1.5000000000000002 0.10806608945131303 0.2120110094547272 2.8545714616775517 3.6395999193191533 39.737499237060554 1.8670713901519778 -0.2374998331069946 20.107356071472172 1.6118572354316714 0.44090075790882116 40.091999053955085 49.255500793457038 2.4335000514984135
decision_type=2 2 2 2 2 2 2 2 2 2 2 2 2 2 2 2 2 2 2 2 2 2 2 2 2 2 2 2 2 2
left_child=2 8 4 5 13 6 7 10 -2 25 16 18 -13 -1 -15 -9 -3 -16 19 20 -10 -4 -12 -6 -18 -8 27 -27 -28 -24
right_child=1 3 21 -5 23 -7 9 15 11 -11 22 12 -14 14 17 -17 24 -19 -20 -21 -22 -23 29 -25 -26 26 28 -29 -30 -31
leaf_value=-0.026137972594429227 0.19026390625573675 0.012652714037727386 0.0033821421096156493 0.027242999877208931 0.024321750308746573 -0.011179020597634627 -0.00022462033328685127 -0.0025202687394266124 0.0049396305816922894 0.0031566654961823651 -0.008009220184017396 0.02626734775964611 -0.010553814769791071 -0.027591642566922116 -0.005969976790721321 0.002136111441990851 -0.01420701044491759 0.0051444714225342691 0.02615368909432958 0.049849331253859111 -0.0034335442454545896 0.052103429431868901 0.0044530623921080759 7.5185783343800774e-05 0.0062225802044959871 0.00099839759440150115 0.0014256594103013943 -0.010390673543586894 -0.0037190923071902526 -0.0002540839261310546
leaf_weight=18922 7737 860 319 3216 269 940 178 2466 361 1442 275 758 642 1156 838 384 163 258 2831 1055 433 859 279 539 490 1488 187 135 153 1058
leaf_count=18922 7737 860 319 3216 269 940 178 2466 361 1442 275 758 642 1156 838 384 163 258 2831 1055 433 859 279 539 490 1488 187 135 153 1058
internal_value=-0.00418122 0.02497 -0.0388342 0.00895435 -0.0428078 -0.00241951 0.0021448 -0.0111381 0.0408663 0.0242953 0.003696 0.0301974 0.00992857 -0.0452489 -0.0283304 -0.0274035 0.0209848 -0.0113139 0.0362607 0.025338 0.00491184 0.0353141 -0.012531 0.0211634 0.0017611 0.00978515 0.0134233 0.0188848 -0.0126471 -0.00594615
internal_weight=50691 27531 23160 13714 21982 10498 9558 5975 13817 3583 3125 6080 1400 21174 2252 2850 1513 1096 4680 1849 794 1178 1612 808 653 2141 1963 1623 340 1337
internal_count=50691 27531 23160 13714 21982 10498 9558 5975 13817 3583 3125 6080 1400 21174 2252 2850 1513 1096 4680 1849 794 1178 1612 808 653 2141 1963 1623 340 1337
is_linear=0
shrinkage=0.05


Tree=13
num_leaves=31
num_cat=0
split_feature=9 97 9 97 102 109 109 96 56 8 111 76 56 56 12 95 36 9 44 56 76 102 32 95 12 35 110 76 95 76
split_gain=19930.3 4321.59 1740.62 2380.71 1103.6 1072.33 904.834 455.48 346.077 298.223 281.385 276.557 215.674 204.238 199.928 231.298 192.684 165.697 272.476 263.305 160.895 160.845 146.664 138.67 193.248 126.487 130.2 125.867 113.75 104.95
threshold=2.5715000629425053 -0.09100013971328734 4.371000051498414 -0.2374998331069946 17.086142539978031 49.345285415649421 47.685644149780281 0.56115525960922252 0.057983715087175376 476.87850952148443 -0.49986076354980463 -0.77713853120803822 0.060014814138412483 0.058792479336261756 3.6984999179840092 2.5219284296035771 39.280498504638679 5.928499937057496 54.313001632690437 0.092677459120750441 -0.065402328968048082 19.93457126617432 49.447500228881843 1.7916429042816164 2.6045000553131108 47.109500885009773 2.1938140392303471 -0.013089472427964209 2.0475000143051152 0.99894830584526073
decision_type=2 2 2 2 2 2 2 2 2 2 2 2 2 2 2 2 2 2 2 2 2 2 2 2 2 2 2 2 2 2
left_child=1 5 3 14 -3 8 9 -8 23 16 21 -12 28 -11 29 -16 25 18 -4 -20 22 -6 -13 -1 -25 26 -5 -28 -9 -2
right_child=2 4 17 6 10 -7 7 12 -10 13 11 20 -14 -15 15 -17 -18 -19 19 -21 -22 -23 -24 24 -26 -27 27 -29 -30 -31
leaf_value=4.0129635279417824e-05 0.02363085798958018 -0.025331073487870604 0.07528603254748277 0.011208735366353518 -0.028439537018698724 -0.005284997546706461 0.0085382786735469732 -0.011070670817973617 0.0023988280252062568 0.0099550094501877247 -0.013120243831344903 0.00062406827931102979 -0.0020084563600272888 -0.0096348539625819921 -0.0038129954366496691 0.019483045116010067 0.052258758348305658 0.18495074031611886 0.029241804667230545 -0.0097442454121007271 -0.0032775585497621163 -0.0044915471156820042 0.008108221560552676 0.0044784709345885854 -0.00043872303112176827 -0.0026696017664824879 0.0035218123282641182 -0.0034444696948416013 -0.00033538676363866762 -0.011675409291146011
leaf_weight=1401 4641 19361 1718 555 993 881 469 396 1096 710 408 620 847 773 200 507 1046 7520 758 404 750 372 410 972 204 352 206 139 1985 96
leaf_count=1401 4641 19361 1718 555 993 881 469 396 1096 710 408 620 847 773 200 507 1046 7520 758 404 750 372 410 972 204 352 206 139 1985 96
internal_value=-0.00405395 -0.0329147 0.0299374 0.017683 -0.0417561 0.0115722 -0.00062851 -0.0182175 0.0234549 0.0165697 -0.0161413 -0.00502742 -0.0249071 -0.000910317 0.0428361 0.0180339 0.0278503 0.0451635 0.0349653 0.0162651 0.00348315 -0.033956 0.0163107 0.0134459 0.0261054 0.0146166 0.0245556 0.000434783 -0.0171987 0.0465379
internal_weight=50790 27468 23322 12922 22914 4554 7478 3697 3673 3781 3553 2188 3228 1483 5444 707 2298 10400 2880 1162 1780 1365 1030 2577 1176 1252 900 345 2381 4737
internal_count=50790 27468 23322 12922 22914 4554 7478 3697 3673 3781 3553 2188 3228 1483 5444 707 2298 10400 2880 1162 1780 1365 1030 2577 1176 1252 900 345 2381 4737
is_linear=0
shrinkage=0.05


Tree=14
num_leaves=31
num_cat=0
split_feature=17 106 97 27 27 15 97 36 109 56 56 56 14 97 92 44 56 62 9 14 60 15 56 29 109 109 96 35 93 64
split_gain=19291.9 2696.49 2929.23 2428.74 859.965 1070.18 737.277 604.347 595.764 457.434 337.712 327.938 440.749 299.966 226.189 263.708 360.584 213.496 193.764 163.836 151.267 241.652 145.116 132.321 194.222 128.337 172.934 113.221 126.017 142.861
threshold=2.1744999885559086 43.854499816894538 -0.24042749404907224 47.128499984741218 49.847499847412116 2.2904999256134038 -0.13228553533554074 34.887001037597663 47.685644149780281 0.058397106826305396 0.059203978627920158 0.06533078104257585 1.8885000348091128 0.049428820610046394 6.0175001621246347 52.325500488281257 0.090700361877679839 0.29484848678112036 3.2315000295639043 3.6924999952316289 0.22277376055717471 1.5684999823570254 0.053914541378617294 45.092498779296882 47.62335395812989 49.049573898315437 0.56366717815399181 48.828498840332038 1.8696429133415224 0.37829056382179266
decision_type=2 2 2 2 2 2 2 2 2 2 2 2 2 2 2 2 2 2 2 2 2 2 2 2 2 2 2 2 2 2
left_child=3 14 23 18 5 9 -5 11 13 -4 17 20 -13 19 15 -2 -17 25 -1 -7 27 -22 -15 24 -3 26 -10 28 -8 -30
right_child=1 2 4 6 -6 8 7 -9 10 -11 -12 12 -14 22 -16 16 -18 -19 -20 -21 21 -23 -24 -25 -26 -27 -28 -29 29 -31
leaf_value=0.0023364928385029684 0.070617776532583415 0.023097506440661986 0.00037924189878841831 0.00011626157119839498 -0.010379546004824892 0.017674252074737096 -0.012964519670425924 0.00874921549617751 0.0072855033413703925 0.0037788851934344781 -0.002258032016147027 0.0046245553914490206 -0.044723974546418133 0.0019897572662612609 0.17932819090254679 0.028184572326979553 -0.0092968110048018641 -0.0021999239074278476 0.037662209546521552 0.0013621621673820417 0.004678122788875411 -0.047605522986321716 -0.02274101677179903 0.02201446212160383 -0.0018630461451019876 -0.0058696519989549058 -0.00019168635427333492 -0.025064518859802754 -0.00022931095912295254 -0.019517555399392206
leaf_weight=612 1669 714 2397 803 932 881 622 445 452 1410 1152 302 327 692 7336 908 471 860 741 996 176 230 673 4374 240 188 1519 17803 463 237
leaf_count=612 1669 714 2397 803 932 881 622 445 452 1410 1152 302 327 692 7336 908 471 860 741 996 176 230 673 4374 240 188 1519 17803 463 237
internal_value=-0.0039516 0.0239449 0.0119565 -0.0381025 -0.00159645 0.00223708 -0.0422085 -0.0440403 -0.00882908 0.0237851 -0.0213258 -0.0453125 -0.00977742 0.00724861 0.0441256 0.0326772 0.0164975 -0.0125373 0.0268662 0.0202184 -0.0464569 -0.0162562 -0.0105861 0.0428679 0.0259958 -0.00414544 -0.000380518 -0.047098 -0.0329803 -0.0184286
internal_weight=50625 27864 17480 22761 12152 11220 21408 20605 7413 3807 4171 20160 629 3242 10384 3048 1379 3019 1353 1877 19531 406 1365 5328 954 2159 1971 19125 1322 700
internal_count=50625 27864 17480 22761 12152 11220 21408 20605 7413 3807 4171 20160 629 3242 10384 3048 1379 3019 1353 1877 19531 406 1365 5328 954 2159 1971 19125 1322 700
is_linear=0
shrinkage=0.05


Tree=15
num_leaves=31
num_cat=0
split_feature=35 106 97 9 27 15 97 36 109 56 56 56 15 56 27 44 56 62 76 76 62 113 9 62 27 29 109 76 76 95
split_gain=18639 2657.83 2884.6 2292.33 748.099 974.525 723.314 595.934 585.219 480.108 351.739 335.674 442.046 298.803 242.993 278.376 319.656 200.634 191.971 330.622 188.068 174.487 149.372 141.248 197.823 129.524 173.353 139.223 130.926 109.799
threshold=48.327499389648445 43.687500000000007 -0.24371421337127683 2.711499929428101 49.847499847412116 2.2904999256134038 -0.12942856550216672 34.887001037597663 47.656003952026374 0.058397106826305396 0.060014814138412483 0.064927309751510634 1.8525000214576723 0.052683541551232345 39.352500915527351 62.944000244140632 0.092677459120750441 0.25130179524421697 1.0000000180025095e-35 -0.59831893444061268 0.29484848678112036 41.682498931884773 1.9545000195503237 0.3187836110591889 48.776500701904304 45.092498779296882 47.545137405395515 -0.99690786004066456 0.99740713834762584 1.8515713810920718
decision_type=2 2 2 2 2 2 2 2 2 2 2 2 2 2 2 2 2 2 2 2 2 2 2 2 2 2 2 2 2 2
left_child=1 14 25 6 5 9 -2 11 13 -4 20 23 -13 22 -1 -16 -17 21 19 -15 29 -5 -7 -8 -25 26 -3 -27 -29 -10
right_child=3 2 4 17 -6 8 7 -9 10 -11 -12 12 -14 18 15 16 -18 -19 -20 -21 -22 -23 -24 24 -26 27 -28 28 -30 -31
leaf_value=0.18578677201141114 8.5193913435688276e-05 0.024398961113823406 0.00031060863737533142 -0.0024084098803437205 -0.0093978829329112393 -0.010774717085632447 -0.022643303554036334 0.0090609960463668981 -0.0052710369751107437 0.0035899409337627475 -0.0021451304153396801 0.0040542539905131019 -0.042988333273883288 -0.0085843620508127775 0.058207258928813205 0.027054547016598197 -0.011997418690095586 0.025927777302833046 -0.0090717221037368793 0.063466378650078675 -0.002100204710587228 0.03615124640490306 0.0086685677955568256 0.0039232877504965071 -0.041961294681110109 -0.019270208070644192 -0.0013030811259910902 0.021943741251889914 -0.015330700985094148 -4.3077450244632946e-05
leaf_weight=6765 837 704 2414 380 960 105 18867 444 191 1427 1094 339 353 518 2412 555 414 856 652 382 879 171 1716 181 233 80 256 4079 88 2193
leaf_count=6765 837 704 2414 380 960 105 18867 444 191 1427 1094 339 353 518 2412 555 414 856 652 382 879 171 1716 181 233 80 256 4079 88 2193
internal_value=-0.00413988 0.023232 0.0115571 -0.0378205 -0.00144043 0.00207847 -0.0419121 -0.0437797 -0.00815006 0.0226634 -0.0202548 -0.0450533 -0.0108382 0.00748592 0.0436428 0.0326974 0.0100619 0.0239872 -0.00863402 0.00633333 -0.0120288 0.000453721 0.0212246 -0.0462813 -0.0173913 0.0428366 0.02625 0.0465858 0.0478402 -0.00473993
internal_weight=50545 27884 17738 22661 12531 11571 21254 20417 7730 3841 4357 19973 692 3373 10146 3381 969 1407 1552 900 3263 551 1821 19281 414 5207 960 4247 4167 2384
internal_count=50545 27884 17738 22661 12531 11571 21254 20417 7730 3841 4357 19973 692 3373 10146 3381 969 1407 1552 900 3263 551 1821 19281 414 5207 960 4247 4167 2384
is_linear=0
shrinkage=0.05


Tree=16
num_leaves=31
num_cat=0
split_feature=35 9 85 97 113 13 95 111 62 64 44 76 56 58 14 56 106 64 97 62 9 61 91 92 97 95 13 109 109 76
split_gain=18208.4 3366.2 1731.38 1836.34 1697.91 955.039 903.577 896.911 715.677 580.217 381.618 386.131 369.106 339.158 452.399 304.294 283.726 249.75 239.235 215.69 154.676 152.062 161.472 142.511 131.549 122.762 171.031 134.282 290.111 120.699
threshold=48.753499984741218 1.8454999923706057 619.16799926757824 -0.24678564071655271 38.640998840332038 2.2265000343322758 2.4892143011093144 0.49271202087402349 0.24482478946447375 0.43324476480484014 46.750999450683601 0.013089440762996675 0.058397106826305396 0.11188798025250436 1.7544999718666079 0.090700361877679839 49.84849929809571 0.36619257926940924 -0.12399989366531371 0.32158403098583227 1.9104999899864199 1.0784999728202822 0.84150001406669628 2.2775000333786015 -0.13999962806701657 1.8849285840988161 2.9105000495910649 48.014215469360359 48.101213455200202 -0.99690786004066456
decision_type=2 2 2 2 2 2 2 2 2 2 2 2 2 2 2 2 2 2 2 2 2 2 2 2 2 2 2 2 2 2
left_child=1 8 3 29 7 16 12 13 9 21 11 -8 25 18 -15 -12 -5 -13 24 -20 -21 -1 -23 -14 -2 -7 -27 -28 -29 -3
right_child=4 2 -4 5 -6 6 10 -9 -10 -11 15 17 23 14 -16 -17 -18 -19 19 20 -22 22 -24 -25 -26 26 27 28 -30 -31
leaf_value=-0.0039453028067135132 -0.0013209022962736407 -0.018242076889724523 0.14959742807026438 0.0033604475110370125 0.033772200194004308 -0.006761746211219233 0.03509244751727375 0.020437574109941181 -0.012330665649027451 -0.0070268394670271461 0.0065020625042480525 -0.004983686448885194 0.019149880901670358 0.0041883119179282119 -0.044007504961753423 -0.015734248784517624 7.754076778310193e-06 0.010888248089888398 -0.022279126928487637 -0.041701223542839796 0.0027898197619793176 -9.6362125367921444e-05 0.0012805281352671117 -0.0019878775185351084 0.0002584196207810363 0.00044712379351306012 -0.0016366646588440227 0.00079275152501798738 -0.00033919604705764386 0.021358977769605804
leaf_weight=96 303 83 7935 2186 661 248 2280 291 1678 746 1509 484 95 323 334 790 512 213 18169 128 211 580 1043 1160 309 1132 737 329 518 5630
leaf_count=96 303 83 7935 2186 661 248 2280 291 1678 746 1509 484 95 323 334 790 512 213 18169 128 211 580 1043 1160 309 1132 737 329 518 5630
internal_value=-0.00400982 0.0209011 0.0276092 0.0189936 -0.0400429 0.0080333 0.000573986 -0.04264 -0.0209389 -0.0037931 0.0143669 0.0261841 -0.0166746 -0.0439222 -0.0085997 -0.000935189 0.0342847 -0.00638451 -0.045136 -0.046153 -0.00663717 0.0121873 0.0158041 -0.0394024 -0.0143791 -0.00705128 -0.00397644 -0.0145833 -0.00100354 0.0423858
internal_weight=50713 29984 25841 17906 20729 12193 9495 20068 4143 2465 5276 2977 4219 19777 657 2299 2698 697 19120 18508 339 1719 1623 1255 612 2964 2716 1584 847 5713
internal_count=50713 29984 25841 17906 20729 12193 9495 20068 4143 2465 5276 2977 4219 19777 657 2299 2698 697 19120 18508 339 1719 1623 1255 612 2964 2716 1584 847 5713
is_linear=0
shrinkage=0.05


Tree=17
num_leaves=31
num_cat=0
split_feature=17 9 97 9 27 15 95 60 15 111 58 58 113 8 92 27 44 93 58 17 9 76 111 58 93 13 108 58 92 28
split_gain=17621.5 2728.96 2658.69 1888.79 795.303 829.123 631.587 467.242 502.903 404.743 402.423 369.133 309.992 290.889 275.474 248.916 347.746 248.03 234.66 229.792 229.303 195.022 190.116 178.408 153.188 147.959 143.918 142.82 194.264 140.723
threshold=2.0705000162124638 4.739499807357789 -0.24999988079071042 2.6614999771118169 49.81050109863282 2.3964999914169316 2.5047143697738652 0.21941868215799334 1.8215000033378603 0.26471519470214849 0.096130952239036574 0.088703550398349776 38.640998840332038 470.05949401855474 1.4685000181198122 38.230501174926765 61.406499862670906 1.803714454174042 0.12077582627534868 1.875500023365021 3.5065000057220463 -0.084981925785541521 0.18735504150390628 0.089133609086275115 1.6118572354316714 2.9105000495910649 2.2531028985977177 0.073326937854290022 2.089499950408936 45.090499877929695
decision_type=2 2 2 2 2 2 2 2 2 2 2 2 2 2 2 2 2 2 2 2 2 2 2 2 2 2 2 2 2 2
left_child=3 2 29 7 5 10 11 9 -9 12 24 17 19 21 -12 -3 -17 -7 -18 -1 -5 -8 -6 -15 -4 -19 -23 28 -26 -2
right_child=1 15 4 20 22 6 13 8 -10 -11 14 -13 -14 23 -16 16 18 25 -20 -21 -22 26 -24 -25 27 -27 -28 -29 -30 -31
leaf_value=-0.022251766827823177 0.013666114776591676 0.18686757955493474 -0.00020568630172779212 0.0011069556659942248 -0.0086331557747086392 -0.0087785944133154329 0.024422953799704952 0.0056992257031982631 -0.042504157344310761 -0.00018821544969942485 -4.5169112572973628e-05 -0.0018884836426083631 0.013127118855634612 0.006475687112529771 0.0055924299992241803 0.067526658954108545 0.025517567729373216 0.00048653694442247765 -0.0071592564294774121 -0.0080651723463607394 0.041037020737974043 -0.0029195258024687035 0.00024104670267999229 -0.0072909818852433085 -0.0005128498937999826 -0.00033830833965972087 0.0077553433240388995 0.0028784735327967771 0.0012958181572170658 0.020083450406267734
leaf_weight=17276 990 6039 297 866 1156 334 1266 430 339 679 305 1929 164 911 1565 2302 619 1160 618 1525 489 387 154 1305 819 1176 166 856 673 3971
leaf_count=17276 990 6039 297 866 1156 334 1266 430 339 679 305 1929 164 911 1565 2302 619 1160 618 1525 489 387 154 1305 819 1176 166 856 673 3971
internal_value=-0.0040145 0.0215084 0.0107364 -0.0380145 -0.000100284 0.00360103 -0.00547834 -0.0418091 -0.00357607 -0.0433058 0.0209635 -0.0181452 -0.0446639 0.00895911 0.0387166 0.0433493 0.03282 -0.00610487 0.011439 -0.0452609 0.0191513 0.0237768 -0.0372519 -0.00320397 0.0084121 -0.000342466 -0.000994575 0.0126917 0.00335121 0.0423201
internal_weight=50766 28998 19420 21768 14459 13149 8634 20413 769 19644 4515 4599 18965 4035 1870 9578 3539 2670 1237 18801 1355 1819 1310 2216 2645 2336 553 2348 1492 4961
internal_count=50766 28998 19420 21768 14459 13149 8634 20413 769 19644 4515 4599 18965 4035 1870 9578 3539 2670 1237 18801 1355 1819 1310 2216 2645 2336 553 2348 1492 4961
is_linear=0
shrinkage=0.05


Tree=18
num_leaves=31
num_cat=0
split_feature=35 27 92 97 27 13 109 62 64 58 14 56 44 56 97 76 106 113 33 64 27 106 62 76 35 13 97 110 15 93
split_gain=16792.1 2869.32 1701.02 1697.02 1669.15 796.592 897.699 686.227 508.228 480.57 646.361 426.977 397.544 376.244 369.248 367.75 281.042 221.883 188.42 185.867 177.853 162.365 160.053 159.098 161.193 153.795 160.892 202.751 152.942 133.821
threshold=48.719501495361335 49.044498443603523 5.9084999561309823 -0.25321435928344721 47.207500457763679 2.2265000343322758 47.212928771972663 0.25247140228748327 0.44090075790882116 0.11017767339944841 1.7985000014305117 0.059213362634181983 51.005998611450202 0.10044290870428087 -0.11500006914138793 -0.0065448414534330359 49.829500198364265 37.086500167846687 47.730499267578132 0.32502043247222906 45.367500305175788 48.456501007080085 0.3187836110591889 0.99894830584526073 48.970500946044929 3.6955000162124638 -0.12685698270797727 1.9939767122268679 1.5254999995231631 1.7372856736183169
decision_type=2 2 2 2 2 2 2 2 2 2 2 2 2 2 2 2 2 2 2 2 2 2 2 2 2 2 2 2 2 2
left_child=1 2 3 -1 20 16 12 8 21 14 -11 25 15 -14 -6 -7 -5 22 -13 -17 -2 -3 23 24 -16 26 27 29 -24 -8
right_child=4 7 -4 5 9 6 11 -9 -10 10 -12 18 13 -15 17 19 -18 -19 -20 -21 -22 -23 28 -25 -26 -27 -28 -29 -30 -31
leaf_value=0.019760451472596353 0.038807160748690062 0.00088428634094670508 0.14337417234842822 0.0037488484170062788 -0.00031701441194045279 0.042992253763175392 -0.0019270446307759872 -0.011264340328763235 -0.0067066306727998626 0.0037264947599445655 -0.042126495704941973 -0.0018532228755942183 0.0079865536078855826 -0.018666837403734138 -0.007098905474677359 -0.0068445517763400243 2.1198757249929479e-05 0.0039607207072985262 0.027126281811757635 0.0098999900436208335 0.0016267127092827627 6.2661423164911417e-06 0.0029957102750982623 -0.011303091720957859 -0.021528632004572081 -0.0047599314782019514 -0.0085667174515387193 -9.9300084308784348e-05 -0.038242896548427087 0.0027561457110330204
leaf_weight=5242 410 639 7523 2062 705 2378 114 1529 695 461 487 1256 1595 637 1016 319 628 192 80 305 756 1139 181 343 16295 330 640 1919 141 803
leaf_count=5242 410 639 7523 2062 705 2378 114 1529 695 461 487 1256 1595 637 1016 319 628 192 80 305 756 1139 181 343 16295 330 640 1919 141 803
internal_value=-0.00380165 0.0203047 0.0264082 0.0181833 -0.0380688 0.00854125 0.0022552 -0.0190905 -0.00281035 -0.0414888 -0.00675105 -0.0125827 0.0168323 0.000851254 -0.0432337 0.0287142 0.0327881 -0.0446114 -0.0369012 -0.00544872 0.0200686 0.0113611 -0.0451825 -0.0458196 -0.0464878 -0.00404624 -0.000949367 0.00416079 -0.0102484 0.0235005
internal_weight=50820 29833 25831 18308 20987 13066 10376 4002 2473 19821 948 5142 5234 2232 18873 3002 2690 18168 1336 624 1166 1778 17976 17654 17311 3806 3476 2836 322 917
internal_count=50820 29833 25831 18308 20987 13066 10376 4002 2473 19821 948 5142 5234 2232 18873 3002 2690 18168 1336 624 1166 1778 17976 17654 17311 3806 3476 2836 322 917
is_linear=0
shrinkage=0.05


Tree=19
num_leaves=31
num_cat=0
split_feature=27 97 18 97 116 95 110 44 111 29 58 36 96 94 35 34 76 16 58 44 27 111 27 95 35 30 86 76 111 27
split_gain=15528 3826.05 1630.01 1803.72 1140.74 961 577.552 572.841 450.348 359.366 355.235 307.648 304.054 340.565 292.419 479.775 390.061 217.964 206.339 201.434 201.078 191.952 166.015 261.312 148.798 146.265 137.89 195.252 184.981 135.639
threshold=47.455501556396491 -0.081999957561492906 33.868499755859382 -0.25321435928344721 32.088716506958015 2.2762857675552373 1.1760618686676028 51.005998611450202 -0.50685691833496083 49.215499877929695 0.17243734747171405 44.90050125122071 0.56293964385986339 1.0369332432746889 49.584499359130866 49.939498901367195 0.38267996907234197 1.6234999895095827 0.10216692090034486 33.65950012207032 46.128499984741218 0.45813751220703131 45.093500137329109 2.4397858381271367 47.628499984741218 45.02550125122071 198.96942901611331 -0.77713853120803822 -0.20785808563232419 47.58549880981446
decision_type=2 2 2 2 2 2 2 2 2 2 2 2 2 2 2 2 2 2 2 2 2 2 2 2 2 2 2 2 2 2
left_child=2 6 3 22 12 14 9 11 -7 17 -9 -6 -5 20 15 26 18 -2 -17 -10 25 -15 23 -1 -11 -14 -3 -28 -29 -8
right_child=1 5 -4 4 7 8 29 10 19 24 -12 -13 13 21 -16 16 -18 -19 -20 -21 -22 -23 -24 -25 -26 -27 27 28 -30 -31
leaf_value=-0.0049367440411531632 7.0138151196985635e-05 -0.015176151880220102 0.15490549119682712 0.0064072264599402302 0.011886116935578162 -0.018995392080363983 -0.00017106456449034191 0.010682044418549497 0.00327572677083845 -9.4117343436006529e-05 -0.015596455018355083 0.061317577936638661 -0.0047357769213514983 -0.00060029802638572605 -0.036026154645875622 -0.0014261530723129968 -0.00072615016360633167 0.0031253560648323297 0.0010038146522420245 -0.0045039843109119793 -0.0018014029897023944 0.0018542934348063423 0.01865641331108181 0.02823886658291426 0.00051738691554770731 -9.0009298948823268e-05 -0.015520994712508829 -0.017624247839902685 0.00073769478231236474 -0.0015671066913953925
leaf_weight=177 500 4457 6675 435 1492 1371 1185 1820 1121 1118 766 2005 421 905 10908 391 1408 1388 624 636 1327 513 4023 1413 452 1234 822 278 550 405
leaf_count=177 500 4457 6675 435 1492 1371 1185 1820 1121 1118 766 2005 421 905 10908 391 1408 1388 624 636 1327 513 4023 1413 452 1234 822 278 550 405
internal_value=-0.00347501 -0.0288115 0.0266741 0.0182536 0.00641143 -0.0376141 0.0105388 0.0208203 -0.0118926 0.0220069 0.00297757 0.0340149 -0.0117166 -0.0156591 -0.0417533 -0.0348183 -0.0159926 0.0367055 0.00763547 0.00486625 -0.0252515 0.0045134 0.0412881 0.0276101 0.00433121 -0.0136254 -0.0422875 -0.0299394 -0.0128019 -0.0144025
internal_weight=50820 27614 23206 16531 10918 22566 5048 6083 3128 3458 2586 3497 4835 4400 19438 8530 2423 1888 1015 1757 2982 1418 5613 1590 1570 1655 6107 1650 828 1590
internal_count=50820 27614 23206 16531 10918 22566 5048 6083 3128 3458 2586 3497 4835 4400 19438 8530 2423 1888 1015 1757 2982 1418 5613 1590 1570 1655 6107 1650 828 1590
is_linear=0
shrinkage=0.05


Tree=20
num_leaves=31
num_cat=0
split_feature=27 111 106 97 109 109 110 8 36 111 15 58 63 58 29 110 111 105 92 76 110 8 36 17 17 62 64 12 27 27
split_gain=14764.5 3583.82 1582.45 1810.83 1077.41 924.695 578.92 435.399 438.691 414.248 341.709 672.073 469.374 336.784 335.98 324.438 271.69 252.165 244.418 226.32 180.395 156.544 146.87 146.361 145.198 186.738 189.462 200.753 143.86 141.982
threshold=47.432498931884773 0.17392921447753909 39.070499420166023 -0.25657141208648676 47.326642990112312 48.094213485717781 1.1760618686676028 613.10601806640636 44.90050125122071 -0.50685691833496083 1.1675000190734866 0.098671779036521925 1.1359166502952578 0.16804178059101108 49.215499877929695 1.2117761969566347 0.43814277648925787 48.322500228881843 1.4785000085830691 0.4886165857315064 2.0012185573577885 379.56350708007818 36.962501525878913 2.498499989509583 1.9135000109672549 0.27503125369548803 0.38198910653591162 2.1644999980926518 47.58549880981446 45.093500137329109
decision_type=2 2 2 2 2 2 2 2 2 2 2 2 2 2 2 2 2 2 2 2 2 2 2 2 2 2 2 2 2 2
left_child=2 5 -1 29 7 9 14 8 17 -2 11 -7 19 -9 18 -6 -17 22 -3 -13 -18 -11 -5 -16 -12 26 27 -26 -8 -4
right_child=1 6 3 4 15 10 28 13 -10 21 24 12 -14 -15 23 16 20 -19 -20 -21 -22 -23 -24 -25 25 -27 -28 -29 -30 -31
leaf_value=0.14816021568331142 -0.016979419244944793 1.5050084003820352e-05 0.021108601789567805 -0.0031699969476450263 0.0059895694865771953 -0.0075748472950515683 -0.00015865572079445944 0.0097891385495643586 0.05763929627222486 0.0030631114732356693 -0.034416852409308883 6.7278335906145742e-05 0.0017776047473274104 -0.016099364387671546 0.0004776234358532916 -0.0015613317911755244 0.0027524544368602746 0.018386745405788364 0.0028690955095155069 -0.00048984523034667493 -0.00021454248889147821 -0.0037360581930506731 0.013235952757358671 -0.00010934392585891795 0.0033617296376174388 -0.011581694701242123 -0.0081874624186369701 -0.012557626792659416 -0.0015432714478428979 0.018196886449153283
leaf_weight=6620 1381 461 1546 708 582 3717 1334 1465 2218 1082 11113 522 645 699 461 2074 185 462 1439 971 1703 655 878 1106 375 1272 641 205 432 3864
leaf_count=6620 1381 461 1546 708 582 3717 1334 1465 2218 1082 11113 522 645 699 461 2074 185 462 1439 971 1703 655 878 1106 375 1272 641 205 432 3864
internal_value=-0.00351267 -0.0280239 0.0261215 0.0177856 0.00611445 -0.0366646 0.00925855 0.0192846 0.0285513 -0.0113855 -0.0407148 -0.0306149 -0.00827877 0.00101664 0.0211278 -0.012522 -0.0176426 0.0118652 0.0352632 -0.0236772 -0.00391949 0.00486471 0.00239596 0.00398851 -0.045061 -0.0341556 -0.0201884 0.000517241 -0.014043 0.0414603
internal_weight=50816 27812 23004 16384 10974 22579 5233 6430 4266 3118 19461 5855 2138 2164 3467 4544 3962 2048 1900 1493 1888 1737 1586 1567 13606 2493 1221 580 1766 5410
internal_count=50816 27812 23004 16384 10974 22579 5233 6430 4266 3118 19461 5855 2138 2164 3467 4544 3962 2048 1900 1493 1888 1737 1586 1567 13606 2493 1221 580 1766 5410
is_linear=0
shrinkage=0.05


Tree=21
num_leaves=31
num_cat=0
split_feature=95 97 9 97 110 9 14 95 44 56 15 58 63 109 97 13 30 76 92 36 88 111 76 76 13 97 56 91 102 14
split_gain=14206.1 3621.94 1941.28 1376 902.479 819.755 600.802 506.703 526.489 531.334 365.407 672.727 476.86 345.618 339.663 439.806 312.214 223.12 222.202 198.015 169.664 254.047 266.097 180.226 165.255 166.517 193.11 165.19 160.862 156.437
threshold=2.2829284667968754 -0.07899987697601317 3.1024999618530278 -0.23457133769989011 1.1760618686676028 7.1944999694824228 3.310500025749207 2.785928606987 59.158500671386726 0.062874656170606627 1.1675000190734866 0.097542606294155135 1.1359166502952578 48.014215469360359 0.2425717115402222 3.2074999809265141 49.324501037597663 0.4886165857315064 1.4785000085830691 49.966499328613288 185.85321044921878 -0.20785808563232419 -0.78530952334403981 0.039259560406208045 2.6605000495910649 -0.051857173442840569 0.044142445549368865 2.2714999914169316 19.052356719970707 2.3485000133514409
decision_type=2 2 2 2 2 2 2 2 2 2 2 2 2 2 2 2 2 2 2 2 2 2 2 2 2 2 2 2 2 2
left_child=1 4 3 -2 16 6 -4 13 19 -10 11 -3 17 -8 15 24 18 -13 -1 27 -12 -22 -23 -24 25 -5 -27 -9 -16 -28
right_child=2 10 5 14 -6 -7 7 8 9 -11 20 12 -14 -15 28 -17 -18 -19 -20 -21 21 22 23 -25 -26 26 29 -29 -30 -31
leaf_value=1.5582322805274276e-05 0.012198585842043475 -0.0077461008294994254 0.020570115089476128 0.022339901506853069 -0.00058325890736625756 0.16810217762406043 -0.0029650256034150281 0.029582289215425963 0.019378000269596952 -0.011016761783725038 -0.031354004197748968 2.1792269064380145e-05 0.0016947967330158244 0.00083767622101569303 -0.022462863761195075 -0.001483265201616746 7.5642069183778923e-05 -0.00046535296882934676 0.0026756443580021384 0.059560438373602836 -0.031215980199640184 -0.011296246183523047 0.0034269891399386966 -0.0064697680850451696 -0.00037611352432473936 -0.0022191815053398292 0.0054682244811081089 0.010187744410081856 -0.0072994490597960045 -0.017068402600255328
leaf_weight=464 1996 3589 3433 378 2551 5445 953 586 995 1301 9886 536 707 315 719 855 1570 1012 1456 2368 2179 650 473 435 1697 715 918 1517 797 161
leaf_count=464 1996 3589 3433 378 2551 5445 953 586 995 1301 9886 536 707 315 719 855 1570 1012 1456 2368 2179 650 473 435 1697 715 918 1517 797 161
internal_value=-0.00356614 -0.0298573 0.0231003 0.0031933 0.00396458 0.0327943 0.0252093 0.0177287 0.0231639 0.00370209 -0.0403529 -0.0298939 -0.00849224 -0.0112776 -0.00836538 -0.00175699 0.0204871 -0.024031 0.0340104 0.0331581 -0.0448396 -0.035764 -0.0203466 -0.00286344 0.00541484 0.0145488 0.00819398 0.0219924 -0.0289578 0.0215477
internal_weight=50657 25508 25149 8236 6041 16913 11468 8035 6767 2296 19467 5844 2255 1268 6240 4724 3490 1548 1920 4471 13623 3737 1558 908 3869 2172 1794 2103 1516 1079
internal_count=50657 25508 25149 8236 6041 16913 11468 8035 6767 2296 19467 5844 2255 1268 6240 4724 3490 1548 1920 4471 13623 3737 1558 908 3869 2172 1794 2103 1516 1079
is_linear=0
shrinkage=0.05


Tree=22
num_leaves=31
num_cat=0
split_feature=9 111 85 97 102 110 95 111 8 32 56 76 36 44 61 56 96 111 109 105 61 29 75 76 109 9 8 56 56 95
split_gain=13888.4 3187.22 1509.22 1812.97 972.961 789.298 659.482 514.961 503.073 352.693 507.517 421.975 343.465 312.885 311.565 298.174 289.802 252.053 247.237 240.769 209.303 196.317 196.15 193.253 174.684 167.645 223.365 227.931 158.345 163.03
threshold=2.6045000553131108 0.16149902343750003 640.52099609375011 -0.25971424579620356 16.383856773376468 1.1760618686676028 2.6421430110931401 -0.45857048034667963 544.39700317382824 50.546501159667976 0.055546777322888381 0.4771543443202973 42.232000350952156 33.65950012207032 1.5963333249092104 0.094401035457849516 0.56548151373863231 0.43814277648925787 47.269643783569343 48.366500854492195 3.5829666852951054 45.157501220703132 -0.59831899404525746 -0.94692113995552052 47.504285812377937 7.432500123977662 700.45599365234386 0.065735157579183592 0.059213362634181983 1.903714179992676
decision_type=2 2 2 2 2 2 2 2 2 2 2 2 2 2 2 2 2 2 2 2 2 2 2 2 2 2 2 2 2 2
left_child=1 4 3 21 9 14 16 18 12 -1 -11 23 19 -9 -3 -10 -5 -18 -6 -8 -19 24 -13 -12 -2 26 -4 -28 29 -16
right_child=2 5 25 6 7 -7 8 13 15 10 11 22 -14 -15 28 -17 17 20 -20 -21 -22 -23 -24 -25 -26 -27 27 -29 -30 -31
leaf_value=-0.02834320299431603 0.027378545661423906 -9.7403670426232666e-05 0.063689121606412644 0.0047777773096775895 -0.003389885100734469 -0.00064782038380921674 -0.0009036913102953404 0.0015095776802041773 0.0057477311972841784 -0.0068587962648616113 -0.00034130467474685622 0.00071395677183913044 0.04962006144187852 -0.0081142992376014196 0.0001768866454595619 -0.015950261423754775 -0.0014091019415359174 9.2921653964350703e-05 -0.022063628437188128 0.015994313049807897 -0.0038161043881611793 0.017288660650740861 -0.00054208403292754781 0.0013588254445257076 -0.00064447081498332232 0.17059708934222262 0.024647081903562951 -0.0065932537595490004 0.0010918599466511081 0.0090793615815930821
leaf_weight=11790 1261 717 1461 623 707 2057 1058 1864 1397 2955 319 169 1827 987 1472 779 1977 1514 1806 395 355 3702 1134 552 348 5009 547 442 913 532
leaf_count=11790 1261 717 1461 623 707 2057 1058 1864 1397 2955 319 169 1827 987 1472 779 1977 1514 1806 395 355 3702 1134 552 348 5009 547 442 913 532
internal_value=-0.00371134 -0.0272896 0.0253514 0.0163297 -0.0358188 0.00610613 0.00371285 -0.0172632 0.0153776 -0.0417016 -0.0307565 -0.0124195 0.0277439 -0.00271834 0.0201156 -0.00326287 -0.0105281 -0.0156526 -0.0337644 0.00960083 -0.00248796 0.0399077 -0.0304298 0.0145235 0.0253263 0.0437793 0.0330612 0.0147118 0.027374 0.019511
internal_weight=50669 27974 22695 15236 22283 5691 9925 5364 5456 16919 5129 2174 3280 2851 3634 2176 4469 3846 2513 1453 1869 5311 1303 871 1609 7459 2450 989 2917 2004
internal_count=50669 27974 22695 15236 22283 5691 9925 5364 5456 16919 5129 2174 3280 2851 3634 2176 4469 3846 2513 1453 1869 5311 1303 871 1609 7459 2450 989 2917 2004
is_linear=0
shrinkage=0.05


Tree=23
num_leaves=31
num_cat=0
split_feature=35 95 97 9 75 75 76 33 58 63 62 111 113 62 97 27 113 28 97 97 110 58 17 76 110 12 17 28 34 17
split_gain=13633.4 2278.07 2115.39 1599.68 769.214 669.357 1156.19 479.231 876.519 548.877 448.028 425.182 344.357 280.848 233.878 231.113 218.677 205.72 203.623 202.358 195.099 184.085 217.169 180.617 178.023 170.191 158.61 147.808 169.157 143.388
threshold=48.51049995422364 5.6057856082916269 -0.26300013065338129 2.4175000190734868 0.90257668495178234 -0.18223366141319272 -0.20790973305702207 50.329500198364265 0.10151354596018793 1.1293333172798159 0.30252635478973394 0.15543174743652347 38.640998840332038 0.31116448342800146 -0.19307160377502439 36.468500137329109 43.636501312255866 45.156499862670906 -0.19307160377502439 -0.26935744285583491 1.1423652768135073 0.10974388197064401 3.6495000123977666 0.46561013162136083 1.0742316842079165 1.716499984264374 5.4125001430511483 48.984500885009773 49.425498962402351 3.1714999675750737
decision_type=2 2 2 2 2 2 2 2 2 2 2 2 2 2 2 2 2 2 2 2 2 2 2 2 2 2 2 2 2 2
left_child=1 2 17 7 5 6 14 12 13 23 16 26 -2 -9 29 -3 19 -1 -6 -5 27 22 24 -10 25 -8 -7 28 -13 -4
right_child=3 15 4 10 18 11 21 8 9 -11 -12 20 -14 -15 -16 -17 -18 -19 -20 -21 -22 -23 -24 -25 -26 -27 -28 -29 -30 -31
leaf_value=0.010610429100741937 -0.028669139975764736 0.16719223296776287 -0.00011507094978790988 0.016561976948267332 0.0005543596360787495 -0.013139127916659599 -0.00016707721098652151 -0.0066987655211758375 8.8503480811641399e-05 0.0022860426858282157 0.0095360132663555378 0.0007872612272726621 0.01737521291215487 0.0021083650292633704 0.016499858976420478 0.036800934578024469 0.026510223145307169 0.016574228667245561 0.016705072596565985 -0.0015096795421430721 -0.00039453278264063308 -0.0088563958196833381 0.0057413728301589423 -0.00026498006969974955 -0.00097746114491558127 0.0023575164605388779 -0.0057544849236293334 -5.8030256574215235e-05 -5.2628445273761315e-05 0.0082024802137372291
leaf_weight=1546 11785 4776 598 109 690 1569 387 4558 420 751 853 491 135 167 1863 2999 190 3289 1306 2101 2563 1106 1005 837 1986 329 568 992 212 384
leaf_count=1546 11785 4776 598 109 690 1569 387 4558 420 751 853 491 135 167 1863 2999 190 3289 1306 2101 2563 1106 1005 837 1986 329 568 992 212 384
internal_value=-0.00359636 0.0191022 0.0105009 -0.0332922 0.00176647 -0.00235893 0.00761295 -0.0389348 -0.0282712 -0.00059761 -0.000937596 -0.0143002 -0.0449581 -0.0400317 0.0328822 0.0422058 -0.012 0.0394933 0.0308116 -0.0164253 -0.00516674 -0.00732391 -0.00198274 -0.0208035 -0.00936343 0.0120112 -0.0324988 0.0079941 0.0255334 0.0131365
internal_weight=50565 28659 20884 21906 16049 14053 7658 18653 6733 2008 3253 6395 11920 4725 2845 7775 2400 4835 1996 2210 4258 4813 3707 1257 2702 716 2137 1695 703 982
internal_count=50565 28659 20884 21906 16049 14053 7658 18653 6733 2008 3253 6395 11920 4725 2845 7775 2400 4835 1996 2210 4258 4813 3707 1257 2702 716 2137 1695 703 982
is_linear=0
shrinkage=0.05


Tree=24
num_leaves=31
num_cat=0
split_feature=27 35 85 97 62 109 27 8 31 9 15 60 9 27 36 35 35 92 66 96 111 63 31 105 32 106 113 10 96 92
split_gain=13247 2912.98 1410.76 1571.55 802.638 733.715 607.098 585.061 555.754 479.537 484.518 461.498 397.807 378.995 366.147 326.35 292.017 273.255 266.77 256.232 270.743 247.488 242.834 221.76 201.003 215.721 194.526 179.055 155.05 136.558
threshold=47.378499984741218 49.01049995422364 680.23400878906261 -0.26628553867340082 0.27799865603446966 47.212928771972663 50.538499832153327 571.95550537109386 48.076499938964851 2.3355000019073491 1.0065000057220461 0.21660752594470981 1.9725000262260439 48.813499450683601 44.90050125122071 49.67250061035157 47.628499984741218 1.4875000119209292 0.27200469374656683 0.56496664881706249 0.43421554565429693 1.8845499753952029 45.030498504638679 48.366500854492195 51.347499847412116 51.226501464843757 37.628999710083015 3.6464999914169316 0.94478026032447826 2.7664999961853032
decision_type=2 2 2 2 2 2 2 2 2 2 2 2 2 2 2 2 2 2 2 2 2 2 2 2 2 2 2 2 2 2
left_child=2 4 3 27 6 7 8 14 29 10 11 15 -6 17 23 24 -15 -10 -9 -7 -21 -11 -22 -5 25 -3 -12 -1 -24 -2
right_child=1 9 -4 5 12 19 -8 18 13 21 26 -13 -14 16 -16 -17 -18 -19 -20 20 22 -23 28 -25 -26 -27 -28 -29 -30 -31
leaf_value=0.016345521430050282 -0.016945413288945554 0.0003482671694877482 0.12377256440775662 0.0017321677275471182 -0.0085477978539256431 0.0048558497963729907 -0.0063987247638164716 0.0089355498898524566 -4.5260792209589341e-05 0.0010288173328075524 -0.026896891294438202 0.0029992344029779352 -0.00023308428108888003 -0.00022011170778893919 0.051249674449197972 -0.0064567013199982705 0.00086767440163635365 0.0049913621498944632 -0.011299014059233193 -0.0013509655559667433 -0.0047275834439046488 -0.0014387358590588041 0.0034162889534202767 0.018573201101264616 -0.0005517331642982626 -0.00028673150967331031 0.006031499016723796 0.016527794928644514 -1.3917896409365583e-06 -0.00022158737313695556
leaf_weight=3364 452 651 6253 1404 1669 598 772 1343 341 298 12090 257 1638 1518 2089 1916 1903 1380 1220 1885 346 1217 283 403 686 605 119 1793 1556 721
leaf_count=3364 452 651 6253 1404 1669 598 772 1343 341 298 12090 257 1638 1518 2089 1916 1903 1380 1220 1885 346 1217 283 403 686 605 119 1793 1556 721
internal_value=-0.00381131 -0.0266302 0.0247748 0.0170228 -0.00558976 0.00644828 0.00390151 0.0173634 0.00901821 -0.0388895 -0.0413869 -0.0265492 -0.0259298 0.0161027 0.0295688 -0.0308709 0.00647471 0.0352411 -0.00119001 -0.00865467 -0.013145 -0.0119802 -0.00116705 0.013088 -0.0164264 -0.00453822 -0.0463879 0.0398391 0.00606308 -0.0220375
internal_weight=50770 28233 22537 16284 10394 11127 7087 6459 6315 17839 16324 4115 3307 5142 3896 3858 3421 1721 2563 4668 4070 1515 2185 1807 1942 1256 12209 5157 1839 1173
internal_count=50770 28233 22537 16284 10394 11127 7087 6459 6315 17839 16324 4115 3307 5142 3896 3858 3421 1721 2563 4668 4070 1515 2185 1807 1942 1256 12209 5157 1839 1173
is_linear=0
shrinkage=0.05


Tree=25
num_leaves=31
num_cat=0
split_feature=9 35 18 97 62 0 27 8 27 15 58 13 56 9 15 27 96 111 92 63 113 64 107 56 109 95 60 92 109 8
split_gain=12618.2 2805.07 1372.15 1479.04 770.966 728.984 581.945 566.482 507.055 563.442 541.43 463.414 442.64 365.367 331.736 319.254 311.601 565.197 289.031 285.252 271.455 260.358 270.441 216.619 310.111 200.726 190.807 176.63 164.827 147.558
threshold=2.6295000314712529 49.01049995422364 36.158000946044929 -0.27257120609283442 0.27799865603446966 365.60249328613287 50.538499832153327 571.95550537109386 48.228500366210945 1.0065000057220461 0.10525207966566087 2.3565000295639043 0.098392635583877577 1.9725000262260439 1.6545000076293948 48.741500854492195 0.96740016341209423 0.27099895477294927 1.497500002384186 1.1110500097274782 47.054498672485359 0.43144474923610693 49.466928482055671 0.060836756601929672 48.014215469360359 2.2864285707473759 0.21555899828672412 2.807500004768372 49.444002151489265 456.54350280761724
decision_type=2 2 2 2 2 2 2 2 2 2 2 2 2 2 2 2 2 2 2 2 2 2 2 2 2 2 2 2 2 2
left_child=1 4 3 -2 6 16 11 20 14 10 26 15 -9 -6 -3 18 17 -5 -1 -12 29 22 -17 24 -18 -26 -10 -13 -16 -7
right_child=2 8 -4 5 13 7 -8 12 9 -11 19 27 -14 -15 28 21 23 -19 -20 -21 -22 -23 -24 -25 25 -27 -28 -29 -30 -31
leaf_value=-4.34743514926117e-05 0.015965142293963775 0.001702377562892643 0.1313189770772584 -0.0061066540351956472 -0.0082233668724318917 0.019232982206775207 -0.0061719626411197437 0.0091404854571003561 -0.0027580872580430962 -0.026290839222877751 -7.2397509110300187e-05 -0.016112451213342618 -0.015207797029705606 -0.00024275360558466687 -0.0016564914356715144 0.0010615213758040642 -0.0016929571837513979 0.0056012106710998655 0.005746596851811215 0.0012470222446361535 0.053322804523145376 -0.0022791494503839661 -0.00010445729585115693 -0.0011463711931995137 -7.0591774689154896e-05 0.0009025527726792327 0.0012408331103979321 -0.00012328974270390259 -0.0025908403672869288 -0.0027466528781123658
leaf_weight=379 4725 368 5697 504 1659 1239 778 2300 2673 11788 826 423 953 1700 1129 2164 1365 917 1298 475 1888 701 718 821 883 466 115 764 529 502
leaf_count=379 4725 368 5697 504 1659 1239 778 2300 2673 11788 826 423 953 1700 1129 2164 1365 917 1298 475 1888 701 718 821 883 466 115 764 529 502
internal_value=-0.00386525 -0.0259048 0.0243396 0.0170591 -0.00549887 0.00761953 0.00370242 0.0181488 -0.0379685 -0.0409744 -0.0249817 0.00863192 0.00299723 -0.0252903 -0.0144126 0.015 -0.00700161 0.0127727 0.0330054 0.00165257 0.0317305 0.0065727 0.01322 -0.0149505 -0.00814296 0.00885841 -0.0374103 -0.0195872 -0.0239445 0.0174899
internal_weight=50747 28487 22260 16563 10584 11838 7225 6882 17903 15877 4089 6447 3253 3359 2026 5260 4956 1421 1677 1301 3629 3583 2882 3535 2714 1349 2788 1187 1658 1741
internal_count=50747 28487 22260 16563 10584 11838 7225 6882 17903 15877 4089 6447 3253 3359 2026 5260 4956 1421 1677 1301 3629 3583 2882 3535 2714 1349 2788 1187 1658 1741
is_linear=0
shrinkage=0.05


Tree=26
num_leaves=31
num_cat=0
split_feature=9 17 99 111 109 62 27 9 15 58 8 56 31 9 113 62 63 31 111 64 109 56 109 9 105 62 27 95 92 13
split_gain=12140.8 2690.47 1361.22 1362.43 750.133 682.836 548.88 543.611 569.474 577.946 492.363 455.674 444.817 433.296 416.775 372.971 297.92 292.112 295.061 288.917 310.063 240.289 259.685 224.847 220.229 215.304 213.443 202.512 182.104 162.404
threshold=2.6475000381469731 1.8504999876022341 38.059499740600593 0.58728694915771495 47.153715133666999 0.28705319762229925 50.538499832153327 2.1454999446868901 1.0594999790191653 0.10413318499922754 648.26049804687511 0.106963649392128 48.076499938964851 1.9725000262260439 47.054498672485359 0.17938512563705447 1.1169666647911074 46.567501068115241 0.25828361511230474 0.40004281699657446 49.198783874511726 0.060836756601929672 48.014215469360359 2.5505000352859502 48.366500854492195 0.31116448342800146 48.987499237060554 2.2864285707473759 2.7664999961853032 3.3865000009536748
decision_type=2 2 2 2 2 2 2 2 2 2 2 2 2 2 2 2 2 2 2 2 2 2 2 2 2 2 2 2 2 2
left_child=1 7 3 4 10 6 12 8 9 25 14 -12 28 -7 24 -9 -11 21 -19 20 -14 22 -6 -17 -2 -1 -21 -24 -3 -5
right_child=2 5 -4 29 17 13 -8 15 -10 16 11 -13 19 -15 -16 23 -18 18 -20 26 -22 -23 27 -25 -26 -27 -28 -29 -30 -31
leaf_value=-0.0037201806540063001 0.0028356158720195482 -0.012770060514313087 0.14330304271924507 0.015829980042250471 -0.0017006722920647423 -0.0079704417878161404 -0.0048782026680279202 -0.0030304777330627366 -0.026526298167724463 -8.3773566233835697e-05 0.0082842265478092706 -0.017662942464382114 0.0041836861110715389 -0.00021286559680877559 0.048083415721944682 0.00065129804008403627 0.0013074523131362259 -0.0058318516574690895 0.0039176634792343458 0.0034340658488318135 4.4480311415906469e-06 -0.0011405168490134844 -9.0897875475581821e-05 -0.0062712901333639272 0.019947513823272034 0.0023038337673935818 -0.00032781099763605774 0.00085076778089294709 -0.00013724282038936054 0.012649997213535647
leaf_weight=2886 1932 521 4937 2930 1268 1533 928 1272 10895 968 1908 737 2340 1550 2712 744 503 330 778 369 1199 817 963 312 418 130 1530 489 985 1878
leaf_count=2886 1932 521 4937 2930 1268 1533 928 1272 10895 968 1908 737 2340 1550 2712 744 503 330 778 369 1199 817 963 312 418 130 1530 489 985 1878
internal_value=-0.00386313 -0.0253323 0.0239874 0.017331 0.00854113 -0.00585577 0.0019563 -0.03738 -0.0407879 -0.0257967 0.0181069 0.000623819 0.00678283 -0.0258028 0.0272422 -0.0148625 -0.000101971 -0.00733046 0.0150722 0.0134424 0.0218847 -0.0143483 -0.00720588 0.00710227 0.0118298 -0.0383289 -0.00229068 0.0072314 -0.0172643 0.0399126
internal_weight=50762 28665 22097 17160 12352 10955 7872 17710 15382 4487 7707 2645 6944 3083 5062 2328 1471 4645 1108 5438 3539 3537 2720 1056 2350 3016 1899 1452 1506 4808
internal_count=50762 28665 22097 17160 12352 10955 7872 17710 15382 4487 7707 2645 6944 3083 5062 2328 1471 4645 1108 5438 3539 3537 2720 1056 2350 3016 1899 1452 1506 4808
is_linear=0
shrinkage=0.05


Tree=27
num_leaves=31
num_cat=0
split_feature=109 97 27 97 36 44 35 16 96 56 76 97 109 75 62 75 75 76 75 96 32 56 12 113 44 9 11 64 56 64
split_gain=11700 2648.9 1595.26 1625.09 918.209 754.422 578.077 667.847 547.013 486.752 423.77 365.401 355.452 295.101 265.913 245.102 242.993 421.27 220.93 217.3 205.754 195.515 234.593 163.574 210.595 156.158 153.224 148.565 146.851 137.519
threshold=48.078643798828132 -0.067285716533660875 36.468500137329109 -0.26628553867340082 38.128499984741218 54.313001632690437 49.694499969482429 1.4474999904632571 0.54534724354743969 0.106963649392128 0.67879429459571849 0.26814281940460211 49.147642135620124 0.9896419644355775 0.31116448342800146 -0.27143804728984827 -0.51128831505775441 0.3705540150403977 0.93818241357803356 0.99963280558586132 45.902500152587898 0.036411227658391006 3.6984999179840092 48.376998901367195 39.579500198364265 2.5074999332427983 1.7095000147819521 0.34236711263656622 0.063285946846008315 0.42980161309242254
decision_type=2 2 2 2 2 2 2 2 2 2 2 2 2 2 2 2 2 2 2 2 2 2 2 2 2 2 2 2 2 2
left_child=2 8 -1 19 11 23 7 10 12 -7 15 20 26 16 -8 -3 17 -9 -17 -4 21 22 -5 24 -6 -10 29 -27 -14 -2
right_child=1 6 3 4 5 9 14 13 25 -11 -12 -13 28 -15 -16 18 -18 -19 -20 -21 -22 -23 -24 -25 -26 27 -28 -29 -30 -31
leaf_value=0.13853790736795077 0.0018025372021708954 0.0020789905464696722 0.015338483138221438 0.0041790850842328923 0.026514165598774998 0.0073854532839336632 -0.026599983116287085 0.0023994384500415134 -0.0012606782867215839 -0.017333993051155017 -0.00027958827346596937 -0.016993505871468872 -3.1617207015155471e-05 0.0010014460943098215 0.0017831099620639224 -0.0002295859369638942 -0.0080107929861154056 -0.0078433167337668471 0.0018204783822047821 0.0078509300673979873 0.0004666833257155889 -0.00093792205205430748 -0.0036471731048564717 0.047776538484727384 -0.0032895308760997558 -0.0011740550685349961 0.0059899442007947503 -0.00014101991381969549 0.00021077781426666055 -0.0016545555352924569
leaf_weight=4845 225 471 3399 384 1264 2508 9738 466 559 894 1206 946 2290 324 233 827 4288 1164 281 1750 3486 2186 334 2266 529 454 894 2140 208 143
leaf_count=4845 225 471 3399 384 1264 2508 9738 466 559 894 1206 946 2290 324 233 827 4288 1164 281 1750 3486 2186 334 2266 529 454 894 2140 208 143
internal_value=-0.00384009 -0.027334 0.0207152 0.0144641 0.00604514 0.0183957 -0.0369776 -0.027811 -0.000831766 0.00102881 -0.00745063 -0.00651581 0.0120479 -0.0368952 -0.0452763 0.00959468 -0.039439 -0.0230061 -0.0032491 0.038658 -0.00222222 -0.0120523 0.010585 0.0329515 0.0216676 -0.0161909 0.0336767 -0.0110254 0.0011209 0.00652174
internal_weight=50702 25911 24791 19946 14797 7461 18998 9027 6913 3402 2785 7336 3760 6242 9971 1579 5918 1630 1108 5149 6390 2904 718 4059 1793 3153 1262 2594 2498 368
internal_count=50702 25911 24791 19946 14797 7461 18998 9027 6913 3402 2785 7336 3760 6242 9971 1579 5918 1630 1108 5149 6390 2904 718 4059 1793 3153 1262 2594 2498 368
is_linear=0
shrinkage=0.05


Tree=28
num_leaves=31
num_cat=0
split_feature=27 35 9 32 106 97 76 76 106 56 60 56 64 9 9 60 14 56 113 76 76 44 17 109 17 60 94 9 95 54
split_gain=10882.7 2333.38 1739.22 1317.78 1310.52 1382.08 699.494 1076.56 565.536 471.948 322.282 310.556 297.87 264.947 234.273 246.494 207.623 203.527 174.042 173.654 182.65 182.466 156.161 191.252 179.743 157.981 154.681 151.899 204.799 139.6
threshold=47.312500000000007 49.850500106811531 1.1865000128746035 48.497501373291023 36.123500823974616 -0.27564322948455805 0.052335681393742568 -0.58777976036071766 47.37049865722657 0.063691094517707839 0.19638270139694217 0.060432698577642448 0.40225404500961309 2.5505000352859502 2.0245000123977666 0.13682017475366595 0.75949999690055858 0.060836756601929672 40.385999679565437 -0.93818244338035572 0.3338038176298142 32.698499679565437 3.5404999256134038 48.014215469360359 2.528500080108643 0.10841598361730577 0.4345222562551499 3.6525000333786015 2.5598570108413701 27.958173751831058
decision_type=2 2 2 2 2 2 2 2 2 2 2 2 2 2 2 2 2 2 2 2 2 2 2 2 2 2 2 2 2 2
left_child=4 2 -2 8 -1 27 7 17 10 16 13 22 -10 -4 -3 -16 -5 -7 -9 -18 21 26 23 -8 -25 -26 -21 -6 -29 -20
right_child=1 14 3 9 5 6 11 18 12 -11 -12 -13 -14 -15 15 -17 19 -19 29 20 -22 -23 -24 24 25 -27 -28 28 -30 -31
leaf_value=0.13571100093693117 -0.0085703518017198384 -0.027919982625328688 0.0054272275678781574 -0.00018875381363268052 0.01367156460798884 0.00031237202808985791 -0.0017032499990748519 0.0038558715792543332 -0.0066155612440670364 0.0045611225027700547 -0.0066297379630014591 -0.001539948840468064 -0.0013149747316995642 -0.00022566170695179633 -0.003129774448148204 0.0040325052136856556 -0.00033453509051243339 -0.0058326788901224454 0.02164101819435147 -0.00094653637930317567 1.0054200913289792e-05 -0.0020656858952179391 0.0051862808608613255 -0.0032616958708608481 -3.050049753630102e-05 0.00043475349222401596 0.0029640683146564652 -0.0018785159111750272 0.028086306810207129 0.045326830862229509
leaf_weight=4581 4268 8579 759 321 3055 2156 702 947 2527 1083 657 1491 1328 1051 615 206 1088 1096 1481 173 4125 417 965 207 640 403 1468 286 1358 2800
leaf_count=4581 4268 8579 759 321 3055 2156 702 947 2527 1083 657 1491 1328 1051 615 206 1088 1096 1481 173 4125 417 965 207 640 403 1468 286 1358 2800
internal_value=-0.0034456 -0.0237903 -0.0138256 -0.00581116 0.0228618 0.0166572 0.00819367 0.016592 -0.023173 0.0068415 -0.00447912 -0.00796279 -0.0351362 0.00640884 -0.0442128 -0.0186967 0.00243678 -0.00599631 0.0306427 0.00417412 0.00741549 0.0195821 0.00152554 -0.00660861 0.00512 0.0135666 0.0270871 0.0398702 0.0276156 0.0349334
internal_weight=50833 28665 19265 14997 22168 17587 12888 8480 6322 8675 2467 4408 3855 1810 9400 821 7592 3252 5228 7271 6183 2058 2917 1952 1250 1043 1641 4699 1644 4281
internal_count=50833 28665 19265 14997 22168 17587 12888 8480 6322 8675 2467 4408 3855 1810 9400 821 7592 3252 5228 7271 6183 2058 2917 1952 1250 1043 1641 4699 1644 4281
is_linear=0
shrinkage=0.05


Tree=29
num_leaves=31
num_cat=0
split_feature=27 97 27 105 95 109 95 8 32 33 97 58 63 113 91 96 59 35 93 14 8 95 60 28 95 60 36 8 105 63
split_gain=10321 2239.21 1275.22 1300.99 1243.81 929.319 892.057 619.895 600.959 476.108 460.306 409.294 361.328 306.044 256.941 252.036 450.899 240.055 232.265 236.173 228.538 223.864 213.726 213.609 205.255 202.872 181.329 236.074 178.9 167.143
threshold=47.312500000000007 0.061285793781280525 35.363500595092781 50.084499359130866 1.7367857098579409 48.39892768859864 2.7537857294082646 655.51501464843761 48.497501373291023 51.330501556396491 0.23985707759857181 0.15514303743839267 1.7865499854087832 49.704500198364265 2.2515000104904179 0.51515355706214916 1.7064500451087954 49.584499359130866 2.0770000219345097 2.8715000152587895 346.50500488281256 2.6692144870758061 0.21092616021633151 47.555500030517585 1.6580000519752505 0.11208927258849145 37.561500549316413 476.87850952148443 49.362499237060554 3.0471166372299199
decision_type=2 2 2 2 2 2 2 2 2 2 2 2 2 2 2 2 2 2 2 2 2 2 2 2 2 2 2 2 2 2
left_child=2 4 -1 6 8 10 18 13 23 -7 20 -9 -6 14 -8 16 -14 -11 25 -20 -3 -12 24 -2 -10 29 -16 -28 -24 -4
right_child=1 5 3 -5 12 9 7 11 22 17 21 -13 15 -15 26 -17 -18 -19 19 -21 -22 -23 28 -25 -26 -27 27 -29 -30 -31
leaf_value=0.14147547110798012 -0.00039336542303327617 0.00094300126503080737 -0.0040038251339389102 0.012904641983931264 0.0055095489879151806 -0.021022503742670607 0.023173800001758948 0.0097015308878505291 -0.00045817486010409916 -0.00071610875649911207 -0.017490183079075183 -0.013824550063589715 -4.7832840316486275e-05 0.047491236104504168 -0.0030694164124415281 -0.00032854885296229597 0.0036163416947910922 0.00065769504602519735 0.013160610184343047 -0.0010131339807919915 -0.0052026465963610942 -0.002218906120329578 0.0010155518009438481 -0.0050392058029019478 -5.2214302462938456e-05 0.0012922217579956154 0.027529363616904501 -0.0023737593038422491 -4.3716324996700978e-05 6.1733870782321182e-05
leaf_weight=4181 447 1583 318 3069 691 11353 895 2013 1033 136 1519 1107 1747 3026 658 2526 1438 291 328 2853 777 601 292 2287 1454 929 1161 747 368 754
leaf_count=4181 447 1583 318 3069 691 11353 895 2013 1033 136 1519 1107 1747 3026 658 2526 1438 291 328 2853 777 601 292 2287 1454 929 1161 747 368 754
internal_value=-0.00319086 -0.0230372 0.0225124 0.0166928 -0.0069242 -0.0352091 0.010545 0.0195639 -0.0235249 -0.0425806 -0.0158259 0.00125 0.00832552 0.0283721 0.0182173 0.00419366 0.0135479 0.00925059 -0.00617522 -0.0145709 -0.000635593 -0.0327358 -0.00862726 -0.040673 -0.0153398 0.00717141 0.0101715 0.0179769 0.0166667 -0.00764925
internal_weight=50582 28543 22039 17858 12283 16260 14789 9607 5881 11780 4480 3120 6402 6487 3461 5711 3185 427 5182 3181 2360 2120 3147 2734 2487 2001 2566 1908 660 1072
internal_count=50582 28543 22039 17858 12283 16260 14789 9607 5881 11780 4480 3120 6402 6487 3461 5711 3185 427 5182 3181 2360 2120 3147 2734 2487 2001 2566 1908 660 1072
is_linear=0
shrinkage=0.05


Tree=30
num_leaves=31
num_cat=0
split_feature=9 17 9 14 99 91 109 106 8 56 60 64 95 111 9 97 27 110 94 113 108 94 105 9 62 8 56 62 30 9
split_gain=9212.65 2592.75 1778.81 1272.02 1176.54 1183.17 859.369 795.391 593.678 490.642 435.161 386.553 480.62 429.237 359.49 294.314 277.476 266.989 261.207 227.167 205.96 198.615 192.87 186.88 161.749 159.568 159.505 158.237 155.017 226.127
threshold=2.7304999828338627 1.3525000214576723 0.97550001740455639 2.0744999647140507 39.663499832153327 1.5174999833106997 46.696928024291999 47.339500427246101 648.26049804687511 0.106963649392128 0.20798694342374804 0.44090075790882116 1.7747144103050234 -0.44428443908691401 2.0625000000000004 -0.093857109546661363 49.40050125122071 2.1848366260528569 0.56596276164054882 49.045499801635749 2.2317332029342656 0.43697218596935278 47.855499267578132 2.5505000352859502 0.30698961019515997 456.54350280761724 0.038855856284499175 0.2536469846963883 45.02550125122071 3.154500007629395
decision_type=2 2 2 2 2 2 2 2 2 2 2 2 2 2 2 2 2 2 2 2 2 2 2 2 2 2 2 2 2 2
left_child=1 14 -3 11 5 -2 8 10 19 26 20 12 18 17 24 23 -13 -14 -4 22 -5 -15 25 -9 -1 -7 -10 28 -8 -30
right_child=4 2 3 7 -6 6 27 15 9 -11 -12 16 13 21 -16 -17 -18 -19 -20 -21 -22 -23 -24 -25 -26 -27 -28 -29 29 -31
leaf_value=-0.027422860023542495 0.012219336906735601 -0.013886523977856514 -9.6022035377929532e-05 0.0026427539922905478 0.1299016899231866 0.017424795211071164 -0.0055184387354797922 0.00037630213286264928 0.015511103286122641 -0.016296852213435221 -0.006893651207149693 0.00080776753019671252 -0.012116982686919249 -0.0019251215765295983 0.00037397947785841601 -0.0053853987787038319 -0.0049748515488783679 0.00084277987343963083 0.00031817988608078278 0.044618730989836888 -0.0001058605622187625 0.001552945519812843 0.024928502969544089 -0.0056149610959378322 0.00078834078757374364 -0.0030221414444618457 0.001349617612310028 0.00037286933179122574 -0.00098610772117239129 3.3283043050225114e-05
leaf_weight=7479 3383 3212 3197 1153 4339 1187 553 432 1035 824 666 404 512 259 382 3845 686 670 1280 2967 1300 3749 620 304 94 832 1326 1376 932 1708
leaf_count=7479 3383 3212 3197 1153 4339 1187 553 432 1035 824 666 404 512 259 382 3845 686 670 1280 2967 1300 3749 620 304 94 832 1326 1376 932 1708
internal_value=-0.00231531 -0.0202944 -0.0113319 -0.00535569 0.0229485 0.0169354 0.010247 -0.0208701 0.0193891 0.00215071 -0.00139468 0.00574974 0.00893245 0.0192871 -0.0447077 -0.0341301 -0.0224771 -0.0071912 -0.00307125 0.029183 0.00833673 0.0270958 0.0185108 -0.00516304 -0.0470949 0.0110203 0.0137442 -0.00734296 -0.0134513 -0.00840909
internal_weight=50706 29624 21669 18457 21082 16743 13360 7700 8791 3185 3119 10757 9667 5190 7955 4581 1090 1182 4477 5606 2453 4008 2639 736 7573 2019 2361 4569 3193 2640
internal_count=50706 29624 21669 18457 21082 16743 13360 7700 8791 3185 3119 10757 9667 5190 7955 4581 1090 1182 4477 5606 2453 4008 2639 736 7573 2019 2361 4569 3193 2640
is_linear=0
shrinkage=0.05


Tree=31
num_leaves=31
num_cat=0
