tree
version=v4
num_class=1
num_tree_per_iteration=1
label_index=0
max_feature_idx=118
objective=regression_l1
feature_names=inflow_vehicles_per_hour_lag_0 inflow_vehicles_per_hour_lag_1 inflow_vehicles_per_hour_lag_2 inflow_vehicles_per_hour_lag_3 inflow_vehicles_per_hour_lag_5 inflow_vehicles_per_hour_lag_10 inflow_vehicles_per_hour_lag_15 inflow_vehicles_per_hour_lag_20 inflow_vehicles_per_hour_lag_29 queue_length_vehicles_lag_0 queue_length_vehicles_lag_1 queue_length_vehicles_lag_2 queue_length_vehicles_lag_3 queue_length_vehicles_lag_5 queue_length_vehicles_lag_10 queue_length_vehicles_lag_15 queue_length_vehicles_lag_20 queue_length_vehicles_lag_29 average_wait_seconds_lag_0 average_wait_seconds_lag_1 average_wait_seconds_lag_2 average_wait_seconds_lag_3 average_wait_seconds_lag_5 average_wait_seconds_lag_10 average_wait_seconds_lag_15 average_wait_seconds_lag_20 average_wait_seconds_lag_29 average_speed_kmh_lag_0 average_speed_kmh_lag_1 average_speed_kmh_lag_2 average_speed_kmh_lag_3 average_speed_kmh_lag_5 average_speed_kmh_lag_10 average_speed_kmh_lag_15 average_speed_kmh_lag_20 average_speed_kmh_lag_29 saturation_percent_lag_0 saturation_percent_lag_1 saturation_percent_lag_2 saturation_percent_lag_3 saturation_percent_lag_5 saturation_percent_lag_10 saturation_percent_lag_15 saturation_percent_lag_20 saturation_percent_lag_29 inflow_vehicles_per_hour_mean_3 inflow_vehicles_per_hour_std_3 inflow_vehicles_per_hour_mean_5 inflow_vehicles_per_hour_std_5 inflow_vehicles_per_hour_mean_10 inflow_vehicles_per_hour_std_10 inflow_vehicles_per_hour_mean_15 inflow_vehicles_per_hour_std_15 inflow_vehicles_per_hour_mean_30 inflow_vehicles_per_hour_std_30 queue_length_vehicles_mean_3 queue_length_vehicles_std_3 queue_length_vehicles_mean_5 queue_length_vehicles_std_5 queue_length_vehicles_mean_10 queue_length_vehicles_std_10 queue_length_vehicles_mean_15 queue_length_vehicles_std_15 queue_length_vehicles_mean_30 queue_length_vehicles_std_30 average_wait_seconds_mean_3 average_wait_seconds_std_3 average_wait_seconds_mean_5 average_wait_seconds_std_5 average_wait_seconds_mean_10 average_wait_seconds_std_10 average_wait_seconds_mean_15 average_wait_seconds_std_15 average_wait_seconds_mean_30 average_wait_seconds_std_30 minute_sin minute_cos weekday_sin weekday_cos is_weekend intersection_code phase_code strategy_code device_status_code inflow_vehicles_per_hour_same_time_day_7 inflow_vehicles_per_hour_same_time_day_14 inflow_vehicles_per_hour_recent_week_mean inflow_vehicles_per_hour_recent_week_std inflow_vehicles_per_hour_previous_week_mean inflow_vehicles_per_hour_previous_week_std inflow_vehicles_per_hour_week_over_week_delta queue_length_vehicles_same_time_day_7 queue_length_vehicles_same_time_day_14 queue_length_vehicles_recent_week_mean queue_length_vehicles_recent_week_std queue_length_vehicles_previous_week_mean queue_length_vehicles_previous_week_std queue_length_vehicles_week_over_week_delta average_wait_seconds_same_time_day_7 average_wait_seconds_same_time_day_14 average_wait_seconds_recent_week_mean average_wait_seconds_recent_week_std average_wait_seconds_previous_week_mean average_wait_seconds_previous_week_std average_wait_seconds_week_over_week_delta average_speed_kmh_same_time_day_7 average_speed_kmh_same_time_day_14 average_speed_kmh_recent_week_mean average_speed_kmh_recent_week_std average_speed_kmh_previous_week_mean average_speed_kmh_previous_week_std average_speed_kmh_week_over_week_delta saturation_percent_same_time_day_7 saturation_percent_same_time_day_14 saturation_percent_recent_week_mean saturation_percent_recent_week_std saturation_percent_previous_week_mean saturation_percent_previous_week_std saturation_percent_week_over_week_delta
feature_infos=[35:1144.373046875] [35:1143.51904296875] [35:1144.4320068359375] [35:1144.373046875] [35:1144.4320068359375] [35:1143.51904296875] [35:1144.373046875] [35:1144.4320068359375] [35:1144.4320068359375] [0.75:17.011999130249023] [0.75:17.027000427246094] [0.75:17.025999069213867] [0.75:17.011999130249023] [0.75:17.025999069213867] [0.75:17.027000427246094] [0.75:17.011999130249023] [0.75:17.025999069213867] [0.75:17.025999069213867] [8.8839998245239258:73.344001770019531] [8.8909997940063477:73.400001525878906] [8.8839998245239258:73.376998901367188] [8.8839998245239258:73.344001770019531] [8.8839998245239258:73.376998901367188] [8.8909997940063477:73.400001525878906] [8.8839998245239258:73.344001770019531] [8.8839998245239258:73.376998901367188] [8.8839998245239258:73.376998901367188] [10.423999786376953:51.387001037597656] [10.414999961853027:51.387001037597656] [10.446999549865723:51.387001037597656] [10.423999786376953:51.387001037597656] [10.446999549865723:51.387001037597656] [10.414999961853027:51.387001037597656] [10.423999786376953:51.387001037597656] [10.446999549865723:51.387001037597656] [10.446999549865723:51.387001037597656] [3.434999942779541:100] [3.434999942779541:100] [3.4360001087188721:100] [3.434999942779541:100] [3.4360001087188721:100] [3.434999942779541:100] [3.434999942779541:100] [3.4360001087188721:100] [3.4360001087188721:100] [35:1143.18505859375] [0:10.657426834106445] [35:1143.465576171875] [0:84.149345397949219] [35:1140.290771484375] [0:86.634246826171875] [35:1136.739990234375] [0:92.146446228027344] [35:1127.52197265625] [0:97.102348327636719] [0.75366663932800293:17.02166748046875] [0:0.24086649715900421] [0.76099997758865356:17.011199951171875] [0.00040000019362196326:0.97860175371170044] [0.79500001668930054:16.965099334716797] [0.0012688577407971025:1.0715705156326294] [0.84886664152145386:16.880399703979492] [0.0016519349301233888:1.187225341796875] [1.0839333534240723:16.588333129882812] [0.012067818082869053:1.9474644660949707] [8.9173336029052734:73.373664855957031] [0:0.99613296985626221] [8.94219970703125:73.303802490234375] [0.00074832624522969127:3.3725080490112305] [9.1282997131347656:73.090202331542969] [0.0054046283476054668:3.8981418609619141] [9.4459333419799805:72.706466674804688] [0.016141043975949287:4.9151420593261719] [10.78773307800293:71.233436584472656] [0.10528100281953812:8.2019529342651367] [-0.99999046325683594:0.99999046325683594] [-0.99999046325683594:0.99999046325683594] [-0.97492802143096924:0.97492790222167969] [-0.90096884965896606:1] [0:1] [0:11] [0:3] [0:2] [0:3] [35:1153.3740234375] [35:1144.676025390625] [43.862712860107422:1023.4545288085938] [6.6567287445068359:158.13336181640625] [44.792289733886719:1023.0302734375] [6.6567287445068359:163.64022827148438] [-13.927570343017578:14.085281372070312] [0.75:17.221000671386719] [0.75:17.191999435424805] [1.5411428213119507:13.933857917785645] [0.22044433653354645:2.9986586570739746] [1.5412856340408325:13.916000366210938] [0.20490722358226776:3.3295767307281494] [-0.53328585624694824:0.55785703659057617] [8.9139995574951172:73.817001342773438] [8.939000129699707:75.260002136230469] [13.175143241882324:61.779426574707031] [0.87105578184127808:11.335524559020996] [13.175143241882324:61.968433380126953] [0.87189322710037231:12.936964988708496] [-1.9184303283691406:2.0849990844726562] [9.880000114440918:51.387001037597656] [9.9770002365112305:51.387001037597656] [18.520715713500977:49.686428070068359] [0.47360092401504517:8.2404270172119141] [18.558145523071289:49.686431884765625] [0.4406965970993042:9.1543693542480469] [-1.1994285583496094:1.1625709533691406] [3.437000036239624:100] [3.434999942779541:100] [5.0032858848571777:97.464576721191406] [0.43157610297203064:15.818800926208496] [5.0709996223449707:96.072998046875] [0.45697438716888428:15.629770278930664] [-2.086578369140625:2.6900100708007812]
tree_sizes=2758 2903 2938 2923 2949 2942 2925 2951 2942 2931 2941 2937 2947 2943 2956 2938 2962 2957 2959 2971 2964 2959 2971 2973 2968 2987 2982 2976 2987 2981 2973 2994 2973 2976 2984 2971 2984 2970 2993 2994 3004 2980 2987 2982 3007 2991 2988 2978 2994 2971 2997 2995 2985 3003 2985 2987 2995 2982 2999 2991 3007 2974 2980 2989 2993 2992 3007 2994 2990 3003 2988 2997 2988 2998 2987 3000 3002 2980 3001 3000 3007 2988 3002 3004 3000 2994 3004 2993 2966 3000 3005 3019 3010 2990 2981 2991 2999 3019 2982 3000 2990 2989 3022 3002 3013 2991 3006 2996 3019 2983 2989 2994 2993 2991 2982 3025 2986 3008 3011 3004

Tree=0
num_leaves=31
num_cat=0
split_feature=9 85 104 109 104 66 104 76 86 0 51 18 104 25 68 104 68 95 93 102 101 18 24 68 37 104 68 103 24 75
split_gain=28847.9 2434.63 2410.46 1784.54 1254.64 471.883 406.398 307.227 260.76 234.895 229.513 228.009 483.061 201.506 192.759 184.822 175.142 156.669 128.889 120.495 111.125 108.807 105.6 154.484 95.8144 86.8144 204.046 83.2727 79.4308 76.5642
threshold=2.5505000352859502 298.52799987792974 -0.5177173614501952 47.974643707275398 -0.59992933273315419 0.2223298326134682 0.066573143005371108 -0.74313774704933155 350.74632263183599 210.41600036621097 198.01396942138675 20.255499839782718 -0.62807226181030262 19.284500122070316 0.2519806325435639 0.010140419006347658 0.34147737920284277 2.4750715494155888 1.8537856936454775 15.517500400543215 2.1641814708709721 20.16149997711182 16.438499450683597 0.30341859161853796 13.554500102996828 -0.35942697525024409 0.27273871004581457 2.2124308347702031 11.935500144958498 -0.74313780665397633
decision_type=2 2 2 2 2 2 2 2 2 2 2 2 2 2 2 2 2 2 2 2 2 2 2 2 2 2 2 2 2 2
left_child=1 2 5 11 13 19 -3 -8 22 25 -6 12 -2 -5 -15 18 -14 -18 -11 27 24 -12 23 29 -7 26 -4 -1 -17 -9
right_child=3 6 9 4 10 20 7 8 -10 15 21 -13 16 14 -16 28 17 -19 -20 -21 -22 -23 -24 -25 -26 -27 -28 -29 -30 -31
leaf_value=17.430449295043946 17.54484930038452 17.513149261474609 17.340849304199217 17.499399280548097 17.354999351501466 17.40147433280945 17.322349309921265 17.434599304199217 17.494399261474609 17.365299320220949 17.389749336242676 18.117849302291869 17.474574327468872 17.460849285125732 17.38584933280945 17.406149291992186 17.38459930419922 17.45092430114746 17.440699291229247 17.466749286651613 17.477724313735962 17.465649318695068 17.340349292755128 17.498349285125734 17.450524282455444 17.224599313735961 17.423824310302734 17.379299259185792 17.273274302482605 17.362249279022215
leaf_weight=85 3118 857 1092 1963 1073 116 697 103 911 629 416 15470 578 209 200 179 349 370 295 101 856 227 357 139 96 16911 214 381 2634 181
leaf_count=85 3118 857 1092 1963 1073 116 697 103 911 629 416 15470 578 209 200 179 349 370 295 101 856 227 357 139 96 16911 214 381 2634 181
internal_value=17.4182 17.3826 17.377 17.458 17.428 17.4356 17.4232 17.4126 17.4241 17.3726 17.3954 17.4642 17.4542 17.4515 17.4196 17.384 17.4286 17.4121 17.4034 17.3987 17.4551 17.419 17.4029 17.4198 17.4227 17.3703 17.3827 17.388 17.3777 17.3986
internal_weight=50807 26834 23589 23973 4088 1635 3245 2388 1691 21954 1716 19885 4415 2372 409 3737 1297 719 924 567 1068 643 780 423 212 18217 1306 466 2813 284
internal_count=50807 26834 23589 23973 4088 1635 3245 2388 1691 21954 1716 19885 4415 2372 409 3737 1297 719 924 567 1068 643 780 423 212 18217 1306 466 2813 284
is_linear=0
shrinkage=1


Tree=1
num_leaves=31
num_cat=0
split_feature=9 85 109 98 98 18 18 18 18 36 66 98 18 24 66 66 102 23 66 92 22 18 101 18 24 68 17 25 66 92
split_gain=28148.5 2244.91 1692.05 1604.76 994.088 607.6 478.571 407.694 347.819 337.636 318.329 317.832 232.872 263.229 361.016 180.369 192.949 154.4 166.194 149.79 142.975 168.818 128.457 126.97 117.552 221.228 126.552 101.729 97.8355 103.391
threshold=2.5505000352859502 298.52799987792974 47.945856094360359 11.847499847412111 14.652500152587892 13.57350015640259 20.863500595092777 16.998499870300297 16.600500106811527 18.643499374389652 0.2311995327472687 13.484499931335451 22.124500274658207 20.722499847412113 0.22765275835990909 0.20632121711969378 16.238857269287113 15.035500049591066 0.1759709566831589 3.7395000457763676 17.166500091552738 18.553999900817875 3.0552911758422856 17.168499946594242 13.070499897003176 0.48224699497222906 2.0334999561309819 15.295499801635744 0.14854105561971667 2.3884999752044682
decision_type=2 2 2 2 2 2 2 2 2 2 2 2 2 2 2 2 2 2 2 2 2 2 2 2 2 2 2 2 2 2
left_child=1 3 12 5 7 -1 15 22 17 -5 -7 -11 13 -2 23 16 -6 18 -3 -16 -10 28 -4 -15 25 -13 -26 -28 29 -22
right_child=2 8 4 9 6 10 -8 -9 20 11 -12 24 -14 14 19 -17 -18 -19 -20 -21 21 -23 -24 -25 26 -27 27 -29 -30 -31
leaf_value=-0.058772457838058491 0.14655752658844001 -0.038762469291686946 -0.042269997596740799 -0.17897994279861448 -0.06251873016357426 -0.010514931678772044 0.044505019187927181 0.083405013084411561 0.10924253463745118 0.013021314144134523 0.051963794231414798 -0.072113698720932012 0.79718256235122686 -0.0028355872631072644 -0.034436215162277239 -0.065771201848983815 0.017135016918182356 -0.077587479352951058 0.066532528400421148 0.030903749465942456 -0.036267459392547607 0.086680068969726604 0.038407540321350103 0.11310749530792244 -0.1554637372493744 0.021070029735565224 0.031236273050308228 -0.069729969501495334 -0.092137449979782113 0.071361274719238296
leaf_weight=456 3921 165 235 17332 358 451 492 2182 485 440 835 431 13280 164 408 802 422 890 224 298 176 774 89 1203 2455 251 96 854 314 188
leaf_count=456 3921 165 235 17332 358 451 492 2182 485 440 835 431 13280 164 408 802 422 890 224 298 176 774 89 1203 2455 251 96 854 314 188
internal_value=-0.000186497 -0.0353339 0.0393267 -0.0406741 0.0120087 0.00551091 -0.0135969 0.0332003 0.00385572 -0.0443547 0.0230949 -0.0321957 0.0458182 0.0376376 0.0232272 -0.0269912 -0.00987179 -0.01638 0.00989717 -0.00580737 0.0172173 0.00936639 -0.0191358 0.0382224 -0.0365427 -0.0175953 -0.0403377 -0.0248421 -0.00884956 0.00879121
internal_weight=50671 26817 23854 23601 4580 1742 2074 2506 3216 21859 1286 4527 19274 5994 2073 1582 780 1279 389 706 1937 1452 324 1367 4087 682 3405 950 678 364
internal_count=50671 26817 23854 23601 4580 1742 2074 2506 3216 21859 1286 4527 19274 5994 2073 1582 780 1279 389 706 1937 1452 324 1367 4087 682 3405 950 678 364
is_linear=0
shrinkage=0.05


Tree=2
num_leaves=31
num_cat=0
split_feature=9 104 88 109 104 76 101 18 104 114 104 103 18 104 102 84 116 24 66 66 102 110 111 101 110 113 66 104 66 23
split_gain=27234.3 2633.37 2407.61 1587.98 1312.94 357.838 292.729 282.557 246.339 243.571 243.063 329.25 204.718 365.005 190.92 179.03 147.106 154.351 145.198 141.452 135.792 131.544 124.549 123.541 119.742 114.873 114.451 110.68 102.616 169.514
threshold=2.5625000000000004 -0.54385805130004872 279.23709106445318 47.945856094360359 -0.67200279235839833 -0.74313774704933155 2.1928601264953618 20.070499420166019 0.19571352005004886 33.089286804199226 -0.34257030487060541 1.752031743526459 22.88749980926514 -0.63685512542724598 17.258358001708988 129.02649688720706 19.656071662902836 12.600500106811525 0.21504832059144977 0.1910616531968117 15.517500400543215 1.2018630504608157 0.25149917602539068 3.5761735439300542 2.1425402164459233 17.091499328613285 0.30469201505184179 0.048357963562011726 0.292333334684372 21.137000083923343
decision_type=2 2 2 2 2 2 2 2 2 2 2 2 2 2 2 2 2 2 2 2 2 2 2 2 2 2 2 2 2 2
left_child=1 6 10 12 -5 27 25 21 -7 24 11 15 13 -2 19 -3 -12 26 -9 -15 -13 -6 -8 -23 -10 -1 -18 -4 -16 -30
right_child=3 2 5 4 7 8 22 18 9 -11 16 20 -14 14 28 -17 17 -19 -20 -21 -22 23 -24 -25 -26 -27 -28 -29 29 -31
leaf_value=-0.022538862764835434 0.14222962355613725 -0.022629466593265504 0.011870765388012039 0.077123532533645553 0.020005742669105511 0.086501525521278391 0.0025736469626426841 0.031775943756103507 -0.062983109056949621 0.077211956024170025 -0.17473098647594443 -0.074043480277061313 0.79872338998317716 0.020093395471572961 0.10089843499660489 0.02143392860889435 -0.034921970486640939 -0.12173096549510945 -0.017011437237262683 -0.033320663511753071 -0.0043026324212550376 -0.058911404430866204 0.062115562558174103 0.017799754381179689 0.022911942899227003 0.03281853497028351 0.031880421638488698 -0.088304069638252269 0.37727963185310359 -0.012187618255615186
leaf_weight=314 4037 252 245 2372 189 717 209 405 635 768 17254 1195 12574 170 1427 335 194 2349 253 235 226 1177 1129 81 257 136 127 787 203 393
leaf_count=314 4037 252 245 2372 189 717 209 405 635 768 17254 1195 12574 170 1427 335 194 2349 253 235 226 1177 1129 81 257 136 127 787 203 393
internal_value=-6.81212e-05 -0.0342051 -0.038343 0.0393137 0.0125195 0.00074802 0.0244407 -0.0162233 0.011422 0.000843373 -0.0444191 -0.0278386 0.0456143 0.0383836 0.0230643 0.00366269 -0.0460901 -0.0351685 0.0109422 -0.0082716 -0.0408515 -0.0285764 0.0361734 -0.0344197 -0.0169283 -0.0104444 -0.00264798 -0.0238372 0.0293376 0.0119128
internal_weight=50645 27129 25341 23516 4477 3409 1788 2105 2377 1660 21932 2008 19039 6465 2428 587 19924 2670 658 405 1421 1447 1338 1258 892 450 321 1032 2023 596
internal_count=50645 27129 25341 23516 4477 3409 1788 2105 2377 1660 21932 2008 19039 6465 2428 587 19924 2670 658 405 1421 1447 1338 1258 892 450 321 1032 2023 596
is_linear=0
shrinkage=0.05


Tree=3
num_leaves=31
num_cat=0
split_feature=18 104 95 102 104 104 9 104 85 96 25 17 101 96 105 44 66 66 104 85 98 109 104 23 18 9 107 101 104 84
split_gain=26245.9 3766.5 2441.57 912.749 856.904 492.449 396.301 579.748 403.103 313.763 254.974 229.586 261.101 226.118 215.599 186.506 188.071 184.747 147.784 141.471 138.586 135.933 134.036 115.897 166.031 102.733 101.036 95.8002 94.9039 99.5083
threshold=17.532500267028812 -0.61899757385253895 2.2982858419418339 17.086142539978031 -0.5532846450805663 0.64357137680053722 3.8224999904632573 -0.57178640365600575 342.12300109863287 0.56366717815399181 18.41149997711182 2.3654999732971196 2.3765736818313603 0.51802507042884838 50.00849914550782 40.705499649047859 0.34213042259216314 0.25569665431976324 0.15257167816162112 249.49200439453128 20.592499732971195 49.309499740600593 -0.78978490829467762 17.28549957275391 14.141499996185305 1.5254999995231631 47.80621528625489 2.7433371543884282 -0.71471309661865223 136.14949798583987
decision_type=2 2 2 2 2 2 2 2 2 2 2 2 2 2 2 2 2 2 2 2 2 2 2 2 2 2 2 2 2 2
left_child=1 14 4 11 10 23 7 -4 17 18 -2 -3 -13 25 22 -10 -17 20 21 -11 -9 -6 -1 24 -5 -14 -19 -12 -16 -30
right_child=2 3 6 5 9 -7 -8 8 15 19 27 12 13 -15 28 16 -18 26 -20 -21 -22 -23 -24 -25 -26 -27 -28 -29 29 -31
leaf_value=0.029453636157512619 0.066803623187541919 -0.16364922096729276 0.13116093385219571 -0.025421498411893853 0.03598093415796768 -0.096118850876391007 0.7975622830450535 0.029569764977693504 0.21743034691214566 -0.066093034715950516 -0.018794177901744827 -0.063936913424730249 -0.014235209438204777 -0.11216754060387615 0.072990690481662845 0.076253503328561761 -0.033128319272398968 0.023817935657501368 -0.062621498697996006 -0.012075248280167551 -0.032472998881339969 -0.025953203929960634 -0.02078518534898759 -0.021738965734839511 0.055129238790273677 0.029261338144540794 -0.034265833446383454 0.034323256243765331 -0.0011474877089261426 0.044536929038167021
leaf_weight=117 1175 18640 5038 191 593 1230 11946 495 1524 1048 262 1994 143 208 1143 963 342 147 259 368 198 174 229 393 670 300 400 118 274 283
leaf_count=117 1175 18640 5038 191 593 1230 11946 495 1524 1048 262 1994 143 208 1143 963 342 147 259 368 198 174 229 393 670 300 400 118 274 283
internal_value=-9.73164e-05 -0.0354774 0.0363633 -0.0410808 0.000537903 -0.0123994 0.0431649 0.035308 0.0212706 -0.0179361 0.0295498 -0.044428 -0.0306427 -0.003149 0.0296188 0.0316896 0.0178161 -0.0025 0.00311891 -0.0331921 0.0146465 0.014146 -0.00635838 0.00964912 0.0199187 0.0170429 -0.024223 -0.00605263 0.0369412 0.020018
internal_weight=50865 25815 25050 23769 3997 2484 21053 9107 4069 2442 1555 21285 2645 651 2046 2829 1305 1240 1026 1416 693 767 346 1254 861 443 547 380 1700 557
internal_count=50865 25815 25050 23769 3997 2484 21053 9107 4069 2442 1555 21285 2645 651 2046 2829 1305 1240 1026 1416 693 767 346 1254 861 443 547 380 1700 557
is_linear=0
shrinkage=0.05


Tree=4
num_leaves=31
num_cat=0
split_feature=9 104 102 101 111 102 104 104 103 102 101 96 72 106 104 76 84 76 85 24 68 102 84 18 70 76 84 104 102 99
split_gain=25388.8 2437.6 2305.8 1618.09 883.937 1082.83 573.894 331.078 390.558 267.154 251.275 212.689 249.095 198.053 328.328 243.489 179.49 174.183 171.452 240.17 200.887 170.113 145.811 131.334 114.063 113.384 109.365 106.295 154.035 122.074
threshold=2.5625000000000004 -0.56185865402221669 17.258358001708988 2.758532047271729 0.56671714782714855 17.165071487426761 0.63485717773437511 -0.33457136154174799 1.7054356932640078 19.608572006225589 2.3600083589553837 0.9246443808078767 0.98025426268577587 44.319000244140632 -0.5532846450805663 0.18223387002944949 122.80300140380861 -0.6977839171886443 200.7289962768555 12.300499916076662 0.53388571739196788 15.517500400543215 133.12299346923831 14.491499900817873 0.66572794318199169 0.99894830584526073 337.90451049804693 0.25728368759155279 15.912214279174806 18.365499496459964
decision_type=2 2 2 2 2 2 2 2 2 2 2 2 2 2 2 2 2 2 2 2 2 2 2 2 2 2 2 2 2 2
left_child=1 10 7 4 5 11 23 8 16 -8 22 12 -2 -5 25 17 -3 -16 -9 20 -20 -10 -1 -4 -11 -15 -7 28 -21 -30
right_child=3 2 6 13 -6 26 9 18 21 24 -12 -13 -14 14 15 -17 -18 -19 19 27 -22 -23 -24 -25 -26 -27 -28 -29 29 -31
leaf_value=-0.023533727978840527 -0.054121763911582479 -0.01760533454101525 -0.016870176990628229 0.81603415973752735 0.067171386140585029 0.01722698803812275 -0.082885741542801317 -0.16237520579215137 -0.062632075934410031 0.072630253208875659 0.056367321222424584 -0.044845230591595356 0.020953239697217897 0.12904634560942646 0.0048235305881872753 -0.010258355205804115 0.02509477638721478 0.20483411319822073 -0.033704948036670679 -0.095011950163841175 0.027138041825294581 -0.0015168109498173267 0.017765342179089937 0.063280571919754183 -0.043839077072255345 -0.018960098592341004 0.12377701397806416 -0.15124174427866929 0.0083963618066906776 -0.085271526186466148
leaf_weight=250 448 248 222 10767 1862 675 1092 15878 1337 298 1130 1007 387 5056 386 511 403 1121 315 779 198 268 270 1546 288 96 1155 2150 364 177
leaf_count=250 448 248 222 10767 1862 675 1092 15878 1337 298 1130 1007 387 5056 386 511 403 1121 315 779 198 268 270 1546 288 96 1155 2150 364 177
internal_value=-0.000157841 -0.0330228 -0.0368247 0.0379468 0.0143115 8.16993e-05 0.0012188 -0.0427522 -0.0246011 -0.0197259 0.0258788 -0.0269815 -0.00832335 0.0452389 0.0388006 0.0217047 0.00806452 0.0318182 -0.044814 -0.0355385 -0.00360624 -0.0378505 -0.00288462 0.0210973 0.00750853 0.0454969 0.0273224 -0.0402594 -0.0290909 -0.00859519
internal_weight=50684 27213 25563 23471 5534 3672 3446 22117 2256 1678 1650 1842 835 17937 7170 2018 651 1507 19861 3983 513 1605 520 1768 586 5152 1830 3470 1320 541
internal_count=50684 27213 25563 23471 5534 3672 3446 22117 2256 1678 1650 1842 835 17937 7170 2018 651 1507 19861 3983 513 1605 520 1768 586 5152 1830 3470 1320 541
is_linear=0
shrinkage=0.05


Tree=5
num_leaves=31
num_cat=0
split_feature=18 104 109 85 104 18 104 91 66 24 104 96 110 104 17 24 68 73 18 61 103 116 106 25 104 99 76 36 104 104
split_gain=24480.6 3971.8 1673.26 1063.53 557.019 469.713 651.39 310.357 306.401 513.243 296.546 280.04 244.316 213.086 183.737 231.412 437.288 247.482 192.138 252.542 175.73 214.638 175.334 174.372 148.246 130.766 122.325 120.152 135.319 96.335
threshold=17.921500205993656 -0.57178640365600575 48.07007026672364 258.98651123046881 -0.59992933273315419 24.543499946594242 -0.68885755538940419 1.5374999642372134 0.25204849243164068 20.51149940490723 0.18550109863281253 0.56435930728912365 2.1247667074203496 -0.73885679244995106 2.3654999732971196 11.571499824523928 0.55675175786018383 11.596916675567629 15.841499805450441 2.2315000295639043 2.4904730319976811 13.510357379913332 44.909999847412116 18.527500152587894 0.69449996948242199 19.045499801635746 -0.7603987157344817 21.166500091552738 -0.27857065200805659 -0.30714368820190424
decision_type=2 2 2 2 2 2 2 2 2 2 2 2 2 2 2 2 2 2 2 2 2 2 2 2 2 2 2 2 2 2
left_child=1 7 5 14 23 6 -2 13 25 -10 26 29 -12 -1 15 16 -3 -18 -16 -20 -15 -22 -11 -4 -14 -8 -5 -13 -29 -6
right_child=2 3 4 10 11 -7 8 -9 9 22 12 27 24 20 18 -17 17 -19 19 -21 21 -23 -24 -25 -26 -27 -28 28 -30 -31
leaf_value=0.074179163102805576 0.12830634730696674 -0.063568199601711589 0.061867558934986459 -0.021413029497176342 0.031620729914829053 0.75723242123307299 0.034386846004873385 -0.014012322404526234 0.2941558798139749 0.021198610752985039 -0.088803732055399653 -0.049518938491553047 0.042528289750810799 0.036931198373913877 -0.067157959671260772 -0.16359320971065935 -0.015018237557949378 0.017806755575595547 0.011668155882916498 -0.055203009497806654 -0.018016184265563239 0.020799615999769473 -0.037839585103862032 -0.011146481012880828 -0.041730348979847599 0.099969948642771742 0.044432352343961416 0.030961156633781253 -0.047714700739666688 -0.0094876078833276093
leaf_weight=1299 4760 2020 901 333 358 11185 1208 364 515 428 1527 785 317 452 1609 15879 258 339 462 423 362 330 763 204 444 1736 611 151 275 468
leaf_count=1299 4760 2020 901 333 358 11185 1208 364 515 428 1527 785 317 452 1609 15879 258 339 462 423 362 330 763 204 444 1736 611 151 275 468
internal_value=-0.000198952 -0.0327371 0.0368518 -0.0392618 0.00286442 0.0420369 0.0338045 0.0235661 0.0204946 0.00363423 -0.0125619 -0.0126411 -0.0222902 0.0299836 -0.043373 -0.0450908 -0.0313145 0.00628141 -0.0306335 -0.0119209 0.0142483 -0.0015896 -0.0143997 0.031448 0.000854139 0.0302649 0.0110169 -0.0279521 -0.00657277 0.0098063
internal_weight=50766 27029 23737 24222 3142 20595 9410 2807 4650 1706 3232 2037 2288 2443 20990 18496 2617 597 2494 885 1144 692 1191 1105 761 2944 944 1211 426 826
internal_count=50766 27029 23737 24222 3142 20595 9410 2807 4650 1706 3232 2037 2288 2443 20990 18496 2617 597 2494 885 1144 692 1191 1105 761 2944 944 1211 426 826
is_linear=0
shrinkage=0.05


Tree=6
num_leaves=31
num_cat=0
split_feature=109 18 97 101 98 101 1 86 98 66 24 99 113 98 24 24 68 116 95 97 109 18 24 45 8 70 85 8 18 8
split_gain=23697.4 2339.62 2215.41 1427.22 944.237 546.696 509.818 406.338 327.704 307.604 445.625 486.217 289.648 317.09 180.858 174.789 341.082 195.738 163.14 158.26 155.223 127.373 123.344 119.112 147.935 118.581 111.439 116.124 103.156 159.355
threshold=48.107927322387702 18.244500160217289 -0.11207151412963866 1.930442273616791 13.484499931335451 3.7341519594192509 238.09200286865237 215.99792480468753 16.698499679565433 0.19939018040895465 19.963500022888187 22.653499603271488 20.987500190734867 20.124500274658207 19.152999877929691 11.258500099182131 0.56875422596931469 12.379214763641359 1.6872857213020327 -0.2374998331069946 48.949857711791999 15.841499805450441 13.114500045776369 386.35217285156256 456.54350280761724 0.53897115588188182 342.12300109863287 368.20599365234381 26.916500091552738 544.39700317382824
decision_type=2 2 2 2 2 2 2 2 2 2 2 2 2 2 2 2 2 2 2 2 2 2 2 2 2 2 2 2 2 2
left_child=1 4 3 7 21 9 15 -2 20 -3 -11 -12 19 -14 18 16 -4 -18 -5 -6 -8 25 -21 -15 -25 -1 -10 -28 29 -7
right_child=2 5 6 14 12 28 8 -9 26 10 11 -13 13 23 -16 -17 17 -19 -20 22 -22 -23 -24 24 -26 -27 27 -29 -30 -31
leaf_value=0.043354246459677892 -0.048123234853294505 0.077392516639113229 -0.054389795343671922 -0.0081558059001908493 0.019460760801189726 0.15009254267442229 0.034484174738085384 0.02866733699461195 -0.10458045900072124 0.21524251630532731 -0.024638726171434745 0.097233646015300587 0.040847066511819907 -0.076703268310776451 -0.01946298306020058 -0.15246354846218699 -0.011752614478860935 0.016907715518678579 0.043067698735758601 0.0071864435269487718 -0.034051683346462358 0.081301104806140154 -0.062363211618122971 0.086914237585123288 -0.054649070624265765 -0.016137934465929683 0.017150992746758575 -0.071183730129790138 0.83042083374075526 0.074651716880101845
leaf_weight=84 1810 4049 1592 167 116 4033 484 328 1426 842 1030 882 818 690 176 15950 223 257 1733 159 448 1209 1096 218 241 119 265 257 9252 758
leaf_count=84 1810 4049 1592 167 116 4033 484 328 1426 842 1030 882 818 690 176 15950 223 257 1733 159 448 1209 1096 218 241 119 265 257 9252 758
internal_value=-6.31014e-05 0.0337943 -0.0345676 -0.00149502 0.00212632 0.0410103 -0.0412353 -0.0301684 -0.0217014 0.0293767 0.0164851 0.00313808 -0.0123727 -7.62583e-05 0.0280347 -0.0443569 -0.030695 0.00625 0.0325263 -0.0300146 0.0026824 0.0364023 -0.0351793 -0.0170148 0.00272331 -0.000246305 -0.0333676 -0.0136015 0.046646 0.0406909
internal_weight=50712 25596 25116 4214 4750 20846 20902 2138 2880 6803 2754 1912 3338 1967 2076 18022 2072 480 1900 1371 932 1412 1255 1149 459 203 1948 522 14043 4791
internal_count=50712 25596 25116 4214 4750 20846 20902 2138 2880 6803 2754 1912 3338 1967 2076 18022 2072 480 1900 1371 932 1412 1255 1149 459 203 1948 522 14043 4791
is_linear=0
shrinkage=0.05


Tree=7
num_leaves=31
num_cat=0
split_feature=9 17 101 104 19 97 114 85 65 102 24 68 116 92 104 76 101 24 76 31 98 66 36 98 106 66 36 24 66 104
split_gain=22736.8 2491.38 1715.32 1129.3 906.958 774.778 980.785 583.019 321.342 297.265 279.099 457.832 369.153 275.32 368.676 290.885 246.857 229.858 215.014 200.119 182.135 157.887 153.552 198.685 142.653 140.653 130.141 130.514 130.07 124.423
threshold=2.5625000000000004 1.9135000109672549 2.8058941364288335 -0.49092817306518549 16.455499649047855 -0.27564322948455805 17.446213722229007 321.82798767089849 13.388166427612306 17.258358001708988 11.754499912261965 0.49699518084526068 12.310643196105959 4.5864999294281015 -0.67200279235839833 0.14349137991666797 1.8121308088302615 15.213500022888185 -0.65933948755264271 48.440500259399421 14.345499992370607 0.21323096752166751 33.416500091552741 15.515500068664553 46.714500427246101 0.24827426671981814 36.428501129150398 14.539499759674074 0.29650312662124639 -0.53499841690063465
decision_type=2 2 2 2 2 2 2 2 2 2 2 2 2 2 2 2 2 2 2 2 2 2 2 2 2 2 2 2 2 2
left_child=1 7 5 8 9 -2 20 10 -3 -5 11 -1 -13 14 -4 18 -10 -11 28 24 -7 -17 23 -8 25 -6 27 -9 -16 -12
right_child=2 3 13 4 19 6 22 26 16 17 29 12 -14 -15 15 21 -18 -19 -20 -21 -22 -23 -24 -25 -26 -27 -28 -29 -30 -31
leaf_value=-0.071795289364025017 0.059016581655508382 -0.016624726634344091 0.12031484169132103 -0.067207359635171576 0.074975033455678283 -0.0031646954118215833 0.054979646884231764 0.038305710460571164 -0.012028115311092692 0.046193191551429535 -0.0078040771033910166 -0.020550811932548818 0.013900389763770794 0.76047476611377596 0.034860393635611865 0.021245342895718181 0.046001361590145784 -0.043710778391260613 0.21178273249845728 0.034941888728876873 -0.044845749222641375 -0.021679043139059398 0.11883162238540645 -0.0032365033840763505 -0.041383574185501898 -0.048645534801466363 0.12479354616088384 -0.054000462383775982 -0.034650241515618595 -0.1540403718020171
leaf_weight=1907 1681 230 5020 3653 254 501 386 137 217 270 231 450 624 9710 441 428 1491 700 1555 1095 1106 438 1069 1010 712 131 181 470 239 14484
leaf_count=1907 1681 230 5020 3653 254 501 386 137 217 270 231 450 624 9710 441 428 1491 700 1555 1095 1106 438 1069 1010 712 131 181 470 239 14484
internal_value=7.96915e-05 -0.0310405 0.0360202 -0.00906546 -0.0186427 0.0122805 0.000491159 -0.0414467 0.024613 -0.0312027 -0.0433205 -0.0293693 -0.00325885 0.0436795 0.0368859 0.0233312 0.0320843 -0.00659794 0.0328635 0.00784672 -0.0299004 -0.00127021 0.0203043 0.00938395 -0.00724704 0.0172727 0.000634518 -0.0104613 0.00941176 -0.0461468
internal_weight=50821 27237 23584 8753 6815 5753 4072 18484 1938 4623 17696 2981 1074 17831 8121 3101 1708 970 2235 2192 1607 866 2465 1396 1097 385 788 607 680 14715
internal_count=50821 27237 23584 8753 6815 5753 4072 18484 1938 4623 17696 2981 1074 17831 8121 3101 1708 970 2235 2192 1607 866 2465 1396 1097 385 788 607 680 14715
is_linear=0
shrinkage=0.05


Tree=8
num_leaves=31
num_cat=0
split_feature=18 104 95 116 104 27 104 113 25 104 44 95 66 86 91 66 104 23 104 35 18 24 110 101 116 36 34 22 102 18
split_gain=22567.8 2737.63 2128.55 811.159 724.298 601.982 686.75 390.392 382.655 372.56 325.927 310.307 306.61 255.043 244.555 231.839 219.736 210.066 209.453 185.915 202.597 283.558 185.182 349.277 170.874 133.552 131.307 111.199 110.623 106.235
threshold=17.41250038146973 -0.61899757385253895 2.3027143478393559 19.293001174926761 -0.49092817306518549 43.014499664306648 -0.6975722312927245 29.384999275207523 18.585499763488773 0.66042804718017589 43.929000854492195 2.2337857484817509 0.34213042259216314 174.3257751464844 1.3195000290870669 0.22581063956022265 0.12278652191162111 16.873499870300297 -0.22778224945068357 49.282501220703132 13.345499992370607 12.014500141143801 1.0528723597526553 2.2371664047241215 12.524785518646242 36.428501129150398 45.913499832153327 16.989500045776371 18.613858222961429 15.841499805450441
decision_type=2 2 2 2 2 2 2 2 2 2 2 2 2 2 2 2 2 2 2 2 2 2 2 2 2 2 2 2 2 2
left_child=1 14 4 19 8 -4 -7 15 -2 11 25 16 -12 -6 29 26 17 -5 -15 20 -3 24 23 -23 -22 -9 -8 -20 -11 -1
right_child=2 3 5 9 13 6 7 10 -10 28 12 -13 -14 18 -16 -17 -18 -19 27 -21 21 22 -24 -25 -26 -27 -28 -29 -30 -31
leaf_value=0.01488928944792587 0.043732073473899381 -0.10518001144965297 0.71287594693650513 0.018004207599966283 -0.046346836613414148 0.11542595414567254 0.028494461856793142 0.057631788890325275 -0.012612467333255674 -0.12944500597432729 0.064022418464709394 0.028573001144642785 -0.042884049873826768 0.026029817330677218 -0.0087419219092356396 -0.023222711272815125 -0.072875181451621709 -0.064896468561592258 0.027247936115122686 -0.15288833146814174 -0.0177005730015404 -0.043217362220600644 -0.063306139554200239 0.012894343025820376 0.019050374565883568 0.25307060129824033 -0.00085103970218316507 -0.047175659273422446 -0.043178529671873814 0.06568731443439467
leaf_weight=649 1564 3269 9826 674 926 5142 506 753 445 1244 1259 810 533 500 382 694 1175 366 141 11255 203 732 2443 435 249 1743 573 796 473 904
leaf_count=649 1564 3269 9826 674 926 5142 506 753 445 1244 1259 810 533 500 382 694 1175 366 141 11255 203 732 2443 435 249 1743 573 796 473 904
internal_value=0.000110532 -0.0333511 0.0333904 -0.0380916 0.00164684 0.03999 0.0320673 0.0206649 0.0237183 -0.0196331 0.0288246 -0.00907438 0.0125558 -0.0171181 0.0237984 0.000930626 -0.0187585 -0.00201923 -0.0039318 -0.042801 -0.0366048 -0.0291482 -0.0338227 -0.0174379 0.00818584 0.0405048 0.015431 -0.0178762 -0.0382353 0.0326143
internal_weight=50664 25263 25401 23328 4372 21029 11203 6061 2009 4742 4288 3025 1792 2363 1935 1773 2215 1040 1437 18586 7331 4062 3610 1167 452 2496 1079 937 1717 1553
internal_count=50664 25263 25401 23328 4372 21029 11203 6061 2009 4742 4288 3025 1792 2363 1935 1773 2215 1040 1437 18586 7331 4062 3610 1167 452 2496 1079 937 1717 1553
is_linear=0
shrinkage=0.05


Tree=9
num_leaves=31
num_cat=0
split_feature=109 104 65 104 36 106 104 104 101 113 104 32 114 44 66 66 95 99 24 23 24 68 24 84 102 68 17 85 98 68
split_gain=21164.1 3194.38 1715.15 987.074 722.799 663.136 659.009 515.152 488.701 459.564 423.4 402 328.793 326.158 353.272 323 304.835 292.206 275.931 245.707 204.53 298.465 172.009 162.209 159.894 149.697 144.902 133.464 129.942 126.844
threshold=48.086643218994148 -0.48264265060424799 18.144666671752933 -0.83371400833129872 17.421000480651859 42.432498931884773 -0.7226428985595702 0.23693084716796878 2.2216758728027348 36.525499343872077 0.73742723464965831 46.728500366210945 15.316286563873293 45.26049995422364 0.39682756364345556 0.23679362982511523 1.8849285840988161 13.854499816894533 18.284500122070316 19.286000251770023 11.147500038146974 0.54873743653297435 12.654500007629396 95.000499725341811 16.921214103698734 0.20031045377254489 3.092499971389771 119.5900001525879 12.726500034332277 0.38936008512973791
decision_type=2 2 2 2 2 2 2 2 2 2 2 2 2 2 2 2 2 2 2 2 2 2 2 2 2 2 2 2 2 2
left_child=2 8 3 -1 20 -4 -7 16 12 15 11 24 -2 -11 -15 26 17 -6 -18 -17 21 -3 29 -10 -5 -20 -8 -23 -19 -9
right_child=1 4 5 10 7 6 9 22 23 13 -12 -13 -14 14 -16 19 18 28 25 -21 -22 27 -24 -25 -26 -27 -28 -29 -30 -31
leaf_value=0.084017094569031059 -0.024899227698508143 -0.046596541108008975 0.71418226097883997 -0.028854670507641879 0.0074522586955830588 0.11199408077464357 0.0061576908084043152 -0.046035992908711257 0.0035414160642860183 0.24851017421736793 -0.082319661553148293 0.026639888438899376 0.024595786911072892 0.07149314902611241 -0.056851252447570125 0.15577880020414253 0.034049472469742527 0.017460813105641206 0.015840252894297534 -0.02662214490638988 -0.13071893053499348 -0.010037396471699012 -0.11121013795245674 0.040415170477370671 0.005839433846802234 -0.064036089489620626 0.044833868566847457 0.012140771103217141 -0.065613332649448172 0.014456420690227213
leaf_weight=1124 668 1243 9221 485 512 4916 992 135 570 1890 1149 1416 335 1304 410 122 798 112 187 857 14444 212 2803 1585 302 369 836 299 1301 197
leaf_count=1124 668 1243 9221 485 512 4916 992 135 570 1890 1149 1416 335 1304 410 122 798 112 187 857 14444 212 2803 1585 302 369 836 299 1301 197
internal_value=0.000120093 -0.0316841 0.0328724 0.00482574 -0.0382629 0.0389819 0.0308775 -0.0240568 0.0154212 0.0203166 -0.00877088 0.00406264 -0.0134098 0.032131 0.0163361 0.00514784 -0.0102013 -0.022987 0.00797637 -0.0180286 -0.0438881 -0.0277651 -0.0385486 0.0288399 -0.024587 -0.0190647 0.0175602 0.00440313 -0.0347134 -0.00451807
internal_weight=50794 25770 25024 4476 22612 20548 11327 6414 3158 6411 3352 2203 1003 3604 1714 2807 3279 1925 1354 979 16198 1754 3135 2155 787 556 1828 511 1413 332
internal_count=50794 25770 25024 4476 22612 20548 11327 6414 3158 6411 3352 2203 1003 3604 1714 2807 3279 1925 1354 979 16198 1754 3135 2155 787 556 1828 511 1413 332
is_linear=0
shrinkage=0.05


Tree=10
num_leaves=31
num_cat=0
split_feature=18 95 104 98 116 18 104 102 104 24 68 84 8 66 116 98 18 95 18 102 66 23 98 91 98 104 84 103 106 98
split_gain=20828.3 2232.85 2231.68 932.429 716.157 630.563 625.167 397.126 350.126 335.337 550.051 316.955 435.081 344.37 310.534 288.383 288.199 266.85 262.938 260.178 254.545 278.893 240.98 236.264 159.236 157.296 177.928 157.975 142.882 131.765
threshold=17.227000236511234 2.3157856464385991 -0.56185865402221669 14.345499992370607 19.462857246398929 28.810000419616703 -0.7307143211364745 16.510142326354984 0.64357137680053722 12.095499992370607 0.47869084775447851 394.51550292968756 531.15701293945324 0.24827426671981814 12.310643196105959 12.435500144958498 21.283500671386722 2.0569286346435551 15.216499805450441 14.368714332580568 0.15468210726976397 18.419500350952152 15.373499870300295 1.3195000290870669 19.736499786376957 -0.75528669357299794 116.52050018310548 2.3504368066787724 44.997501373291023 18.438499450683597
decision_type=2 2 2 2 2 2 2 2 2 2 2 2 2 2 2 2 2 2 2 2 2 2 2 2 2 2 2 2 2 2
left_child=2 3 23 19 9 6 -3 16 17 10 -4 20 -13 -14 -12 18 -5 22 -11 -2 24 -22 -6 25 -8 -1 27 -27 -23 -9
right_child=1 5 4 7 8 -7 11 29 -10 15 14 12 13 -15 -16 -17 -18 -19 -20 -21 21 28 -24 -25 -26 26 -28 -29 -30 -31
leaf_value=0.05411931393001837 -0.0097827866077183859 0.11536984582148549 -0.062566722826412222 -0.041010372562262636 0.0040663679543509806 0.70432306248067911 0.038414476262540909 0.026585405551236188 -0.10121911057743112 -0.034153866917212741 -0.014690220667707178 0.22086914559524065 0.082299409310680194 -0.020802648849528982 0.015003364172688816 -0.13549340878297197 0.017642740975041173 0.011593425073245367 0.01345112863460951 0.041615827188415368 0.10354879640636555 0.0080881848375724992 -0.084857755710027946 -0.013982457740804401 -0.0075892222642796273 0.016812934568075377 0.020160628114147008 -0.017284322086313253 -0.024483955354248899 -0.02420386554213998
leaf_weight=754 294 4965 2361 1740 575 8825 973 808 1682 671 550 2307 1002 900 610 13727 172 1222 285 1737 230 387 937 418 323 115 592 244 843 409
leaf_count=754 294 4965 2361 1740 575 8825 973 808 1682 671 550 2307 1002 900 610 13727 172 1222 285 1737 230 387 937 418 323 115 592 244 843 409
internal_value=0.000258597 0.031586 -0.0325526 0.00215116 -0.037153 0.0389039 0.0314082 -0.0149728 -0.0190897 -0.0415348 -0.0276768 0.0217444 0.0303754 0.0126709 0.000517241 -0.044858 -0.0291841 -0.00804682 -0.0183054 0.0285327 0.00856313 -0.00575342 -0.0220899 0.0164626 0.0246914 0.0247214 0.0111987 -0.0165738 -0.0152033 0.00735415
internal_weight=50658 25915 24743 5160 22620 20755 11930 3129 4416 18204 3521 6965 4209 1902 1160 14683 1912 2734 956 2031 2756 1460 1512 2123 1296 1705 951 359 1230 1217
internal_count=50658 25915 24743 5160 22620 20755 11930 3129 4416 18204 3521 6965 4209 1902 1160 14683 1912 2734 956 2031 2756 1460 1512 2123 1296 1705 951 359 1230 1217
is_linear=0
shrinkage=0.05


Tree=11
num_leaves=31
num_cat=0
split_feature=18 104 101 102 109 104 98 114 98 102 105 92 24 68 32 102 101 27 44 66 66 101 102 66 41 109 23 66 18 18
split_gain=20109.8 2878.9 1594.89 943.751 752.35 487.378 443.288 479.933 378.001 363.931 301.987 294.103 243.051 419.44 225.732 379.443 217.914 208.82 220.97 311.246 208.351 207.792 199.741 198.967 196.695 179.445 160.892 185.928 154.69 134.249
threshold=17.728500366210941 -0.53499841690063465 3.4225187301635747 16.921214103698734 48.00428771972657 0.70371484756469738 14.093500137329103 13.135856628417971 14.705500125885012 16.688927650451664 50.00849914550782 2.4995000362396245 12.169499874114992 0.43598480522632604 46.076499938964851 18.171786308288578 2.2679474353790288 40.589000701904304 56.281499862670906 0.36089779436588293 0.2223298326134682 2.0915877819061284 14.449142932891847 0.22390896081924441 12.176499843597414 49.282140731811531 17.714500427246097 0.21504832059144977 20.758500099182132 16.452499389648441
decision_type=2 2 2 2 2 2 2 2 2 2 2 2 2 2 2 2 2 2 2 2 2 2 2 2 2 2 2 2 2 2
left_child=1 10 4 6 14 26 7 -3 22 28 -1 -4 13 -8 15 -2 29 -13 -19 -20 21 -9 -6 -17 -15 -23 27 -5 -10 -12
right_child=2 3 11 5 8 -7 12 20 9 -11 16 17 -14 24 -16 23 -18 18 19 -21 -22 25 -24 -25 -26 -27 -28 -29 -30 -31
leaf_value=-0.012299905025665227 -0.018684909639653302 -0.044623983524355461 0.0092187056609251538 0.0019152153273216399 -0.0093198799940491742 -0.072450456678703909 -0.071902967250939837 -0.029834128870283829 -0.039446420178173548 0.022458924368960888 -0.0050675375261908691 0.75685696276240688 -0.13756874063264171 -0.014924830589226357 0.072186525155563522 0.10635027375932467 0.045168412486174959 0.12481891036463218 0.10494289871350251 -0.03832736787074751 0.016083514419566215 0.021878667327558346 0.03259442868763731 0.016234574857792516 0.013451947152141576 -0.014683284577396006 -0.03321214539666819 0.053827073961202482 0.007052544568429831 0.023044077060994719
leaf_weight=590 492 2701 437 723 285 1266 1818 847 1217 785 539 7699 13257 458 2924 1069 1495 6250 818 407 425 366 961 861 436 245 430 506 193 245
leaf_count=590 492 2701 437 723 285 1266 1818 847 1217 785 539 7699 13257 458 2924 1069 1495 6250 818 407 425 366 961 861 436 245 430 506 193 245
internal_value=0.000314317 -0.0299749 0.0330232 -0.0357526 0.0159838 -0.00917949 -0.0395344 -0.025829 -0.00225225 -0.014738 0.0173057 0.0426142 -0.0434686 -0.0298304 0.0277217 0.0164327 0.0255595 0.0437788 0.0378261 0.0184082 -0.00645247 -0.0154321 0.0197432 0.0264249 -0.00178971 0.00679214 0.00864979 0.01786 -0.0299291 0.00420918
internal_weight=50745 26347 24398 23478 8787 2925 20553 4584 3441 2195 2869 15611 15969 2712 5346 2422 2279 15174 7475 1225 1883 1458 1246 1930 894 611 1659 1229 1410 784
internal_count=50745 26347 24398 23478 8787 2925 20553 4584 3441 2195 2869 15611 15969 2712 5346 2422 2279 15174 7475 1225 1883 1458 1246 1930 894 611 1659 1229 1410 784
is_linear=0
shrinkage=0.05


Tree=12
num_leaves=31
num_cat=0
split_feature=18 109 104 98 18 104 17 18 76 76 23 102 95 64 101 66 36 86 23 66 112 24 98 18 66 66 92 24 70 104
split_gain=19150.2 2719.63 1653.83 1038.87 723.332 637.976 622.336 600.275 499.777 551.077 475.647 447.496 303.94 290.956 265.215 249.609 247.432 235.903 274.29 306.426 200.865 185.431 187.866 174.161 169.701 166.984 165.819 157.638 267.095 136.299
threshold=16.822500228881839 48.00428771972657 -0.5177173614501952 14.444499969482424 30.098000526428226 -0.73885679244995106 1.6744999885559084 13.622499942779543 0.15643314272165301 -0.64944189786911 12.871500015258791 16.280785560607914 1.7034285664558413 0.34495618939399725 2.4526444673538212 0.29005937278270727 11.362500190734865 150.21234893798831 17.164500236511234 0.13355065137147906 14.139500141143801 20.045499801635746 20.220499992370609 20.758500099182132 0.22765275835990909 0.234790213406086 1.7055000066757204 11.367499828338625 1.1354493498802187 -0.70635795593261708
decision_type=2 2 2 2 2 2 2 2 2 2 2 2 2 2 2 2 2 2 2 2 2 2 2 2 2 2 2 2 2 2
left_child=2 4 14 12 5 -2 27 25 9 15 16 -5 -3 -10 20 -7 -9 -12 19 26 29 22 -13 -23 -15 -8 -19 28 -4 -1
right_child=1 3 6 11 -6 8 7 10 13 -11 17 21 -14 24 -16 -17 -18 18 -20 -21 -22 23 -24 -25 -26 -27 -28 -29 -30 -31
leaf_value=0.0043107136780257353 0.10770833625702619 -0.0049522218696838489 -0.051979157739302555 -0.042852061988675416 0.67706407952907177 0.02359449104227709 -0.093990293301327021 -0.01667562796769877 -0.026827247530435375 0.15458153975457967 -0.044417837613611288 0.028776387724329135 0.03641534015519534 0.027628807351164575 0.029192211508801604 -0.032943020829531731 0.022749779884191492 -0.037964212069686809 -0.076350114651389953 0.033070546640732792 0.012440124463296343 -0.040124209390463066 -0.049046705128678619 0.017089711088483561 -0.014463354810528628 -0.021628786358373821 -0.00058412742770777017 -0.14270489294066141 0.0052849078599066963 -0.019685627582264068
leaf_weight=213 4985 516 1035 1956 8239 1128 3580 245 731 3888 1636 971 2108 914 1026 550 596 585 917 536 325 464 206 159 492 962 756 10137 363 472
leaf_count=213 4985 516 1035 1956 8239 1128 3580 245 731 3888 1636 971 2108 914 1026 550 596 585 917 536 325 464 206 159 492 962 756 10137 363 472
internal_value=0.000123296 0.0285623 -0.0330867 -1.5674e-05 0.0372748 0.029784 -0.0371932 -0.0279374 0.0207646 0.0286561 -0.016458 -0.0168797 0.0241235 0.000210576 0.00997053 0.00470799 0.0180143 -0.0230023 -0.0141732 -0.00322323 -0.00821782 0.00111111 0.0127867 -0.020947 0.0135135 -0.0412594 -0.0159955 -0.0450672 -0.0293276 -0.0235766
internal_weight=50691 27307 23384 6380 20927 12688 21348 9813 7703 5566 5271 3756 2624 2137 2036 1678 841 4430 2794 1877 1010 1800 1177 623 1406 4542 1341 11535 1398 685
internal_count=50691 27307 23384 6380 20927 12688 21348 9813 7703 5566 5271 3756 2624 2137 2036 1678 841 4430 2794 1877 1010 1800 1177 623 1406 4542 1341 11535 1398 685
is_linear=0
shrinkage=0.05


Tree=13
num_leaves=31
num_cat=0
split_feature=18 95 104 98 85 104 53 24 76 76 102 35 72 68 101 66 66 102 84 18 18 23 24 68 18 104 91 66 23 16
split_gain=18571.4 2352.13 1746.39 886.587 746.284 659.09 633.401 619.998 397.376 495.136 395.715 378.229 373.452 372.741 328.661 260.194 253.061 243.827 234.056 203.794 168.099 221.712 167.67 248.889 157.735 156.645 144.324 137.899 148.564 131.793
threshold=16.998499870300297 2.3250001668930058 -0.47371578216552729 14.345499992370607 612.01150512695324 -0.79799985885620106 161.51576995849612 12.654500007629396 0.15643314272165301 -0.64944189786911 16.280785560607914 49.01049995422364 1.0597772002220156 0.33843995630741125 2.4526444673538212 0.13208204507827762 0.29650312662124639 14.171999454498293 152.06950378417972 13.907499790191652 20.758500099182132 19.983499526977543 10.893499851226808 0.56875422596931469 21.390500068664554 -0.7636432647705077 1.4265000224113467 0.14414614439010623 16.302499771118168 2.8875000476837163
decision_type=2 2 2 2 2 2 2 2 2 2 2 2 2 2 2 2 2 2 2 2 2 2 2 2 2 2 2 2 2 2
left_child=2 3 14 17 5 -3 22 13 9 16 24 12 19 -8 18 29 -7 -2 25 -9 21 -12 23 -4 -5 -1 -16 -21 -29 -10
right_child=1 4 6 10 -6 8 7 11 15 -11 20 -13 -14 -15 26 -17 -18 -19 -20 27 -22 -23 -24 -25 -26 -27 -28 28 -30 -31
leaf_value=0.014686344238415928 -0.014797817791450464 0.11405631708796218 -0.034439191877119767 -0.04029182520113981 0.64238594726892684 0.022897362005808743 -0.041897080675945643 -0.037374053758601457 -0.0035756868245313102 0.15065837447953889 0.013785612102537925 -0.10550564737791346 -0.083208101635764031 0.015429479850116491 0.03178682694919157 -0.014060763922521159 -0.03430786206226797 0.031002676354376126 0.010294292761856916 -0.0048395626457255151 0.030435978795593146 -0.032644326330679797 -0.11401961281694373 0.0047424939884117556 0.011147291471855603 -0.019691893461587374 -0.01215347232882742 0.044437935682689833 -0.071316544539234306 0.031421396318262754
leaf_weight=113 213 4473 971 1719 8246 1278 381 470 288 3875 929 4243 1177 898 1055 1394 530 2200 479 949 359 489 11583 352 102 709 141 371 80 723
leaf_count=113 213 4473 971 1719 8246 1278 381 470 288 3875 929 4243 1177 898 1055 1394 530 2200 479 949 359 489 11583 352 102 709 141 371 80 723
internal_value=7.08801e-05 0.0286561 -0.0319081 0.00110631 0.0366151 0.0289428 -0.0365099 -0.0259715 0.0204253 0.0276351 -0.0146192 -0.0316049 -0.0181654 0.00613761 0.0076692 0.00338877 0.00602876 0.0245545 -0.00972329 -0.00427807 0.00216657 -0.00557123 -0.0435069 -0.026644 -0.0309995 -0.0259124 0.0265886 0.00528571 0.0280488 0.0227003
internal_weight=50790 26818 23972 6011 20807 12561 21475 8569 8088 5683 3598 7290 3047 1279 2497 2405 1808 2413 1301 1870 1777 1418 12906 1323 1821 822 1196 1400 451 1011
internal_count=50790 26818 23972 6011 20807 12561 21475 8569 8088 5683 3598 7290 3047 1279 2497 2405 1808 2413 1301 1870 1777 1418 12906 1323 1821 822 1196 1400 451 1011
is_linear=0
shrinkage=0.05


Tree=14
num_leaves=31
num_cat=0
split_feature=109 104 99 104 101 51 104 14 104 84 66 84 104 27 44 66 36 107 14 70 85 103 25 64 8 66 14 65 99 73
split_gain=17311.4 3074.16 1449.48 1471.58 685.049 578.054 525.515 497.643 396.948 388.084 383.149 360.255 300.947 270.946 303.58 389.523 269.901 248.01 245.313 464.173 255.028 238.319 209.698 189.716 183.491 160.631 135.86 132.315 130.652 127.338
threshold=48.052213668823249 -0.31671428680419916 23.445499420166019 -0.81678581237792958 2.2216758728027348 195.1050720214844 0.75385618209838878 3.0555000305175786 0.36514377593994146 161.67649841308597 0.13498642295598987 135.17300415039065 -0.67200279235839833 39.352500915527351 54.313001632690437 0.34213042259216314 36.428501129150398 49.148071289062507 1.0584999918937685 0.70576322078704845 117.47000122070314 1.8598428368568423 15.914499759674074 0.43822488188743597 476.87850952148443 0.10700519382953645 1.1294999718666079 16.465999603271488 19.892499923706058 13.389183521270754
decision_type=2 2 2 2 2 2 2 2 2 2 2 2 2 2 2 2 2 2 2 2 2 2 2 2 2 2 2 2 2 2
left_child=2 4 3 -1 9 18 7 27 17 -2 -9 12 28 -4 -15 -16 -8 22 19 -3 -21 -14 25 -12 -18 -7 -19 -5 -6 -10
right_child=1 5 13 6 11 8 16 10 29 -11 23 -13 21 14 15 -17 24 26 -20 20 -22 -23 -24 -25 -26 -27 -28 -29 -30 -31
leaf_value=0.090582923543320523 -0.026181229720462485 -0.079157561351070174 0.72329155224923047 0.0082064081941124918 0.026667942060556095 -0.011651448662623843 -0.068707550947738713 0.028590948702452757 -0.0026158159660455206 0.0060435386330653712 -0.019419803312603179 0.030835907288159083 0.0069693030042923716 0.22807215564331626 0.10263068499064182 -0.018899071579828865 0.1085841120761863 0.0027891410623760216 -0.11637594710019172 -0.017197310265351717 0.0087616038833861157 -0.015056221258730674 -0.020790553473451292 0.019675580828487329 -0.038324822972249886 0.036639735952575768 -0.059088881476216319 0.049393468112917921 -0.012417363439030549 -0.098532005352057972
leaf_weight=4146 1426 2720 6801 780 627 243 1194 1015 242 906 1371 1896 357 3226 1314 679 283 282 11328 543 670 661 927 457 333 491 852 2549 160 2146
leaf_count=4146 1426 2720 6801 780 627 243 1194 1015 242 906 1371 1896 357 3226 1314 679 283 282 11328 543 670 661 927 457 333 491 852 2549 160 2146
internal_value=3.25926e-05 -0.0278902 0.0306485 0.0184532 0.00347257 -0.0371454 0.00590078 0.0128483 -0.0227185 -0.017753 -0.00251495 0.0168468 0.000858726 0.0429534 0.034384 0.0190416 -0.0177901 -0.00992844 -0.0420451 -0.0312865 -0.00556472 -0.0170923 0.00237809 -0.0161926 0.00909091 0.0223433 -0.0279541 0.0259688 0.0240788 -0.0376884
internal_weight=50625 26477 24148 12128 6033 20444 7982 6172 5183 2332 2843 3701 1805 12020 5219 1993 1810 2795 15261 3933 1213 1018 1661 1828 616 734 1134 3329 787 2388
internal_count=50625 26477 24148 12128 6033 20444 7982 6172 5183 2332 2843 3701 1805 12020 5219 1993 1810 2795 15261 3933 1213 1018 1661 1828 616 734 1134 3329 787 2388
is_linear=0
shrinkage=0.05


Tree=15
num_leaves=31
num_cat=0
split_feature=18 35 18 18 98 114 102 91 24 70 102 44 66 98 23 23 66 112 66 24 42 102 66 92 85 18 35 109 26 36
split_gain=16883.7 2648.69 1306.12 1209.32 1102.13 558.651 522.18 420.287 412.349 636.627 389.684 380.42 433.445 376.485 375.652 360.889 356.481 283.801 276.821 258.901 240.797 197.05 194.762 193.436 191.208 171.688 162.325 139.033 136.908 136.741
threshold=18.1855001449585 49.022499084472663 14.345499992370607 31.018499374389652 12.55550003051758 17.812286376953129 16.130142211914066 1.5274999737739565 12.300499916076662 1.0564367771148684 19.315001487731937 47.48649978637696 0.24827426671981814 14.751500129699709 21.043499946594242 16.648500442504886 0.18450624495744708 33.415500640869148 0.073151290416717543 12.76349973678589 12.373499870300295 14.250357151031496 0.20797168463468554 2.6284999847412114 119.5900001525879 18.983499526977543 49.630500793457038 47.874643325805671 15.522500038146974 36.428501129150398
decision_type=2 2 2 2 2 2 2 2 2 2 2 2 2 2 2 2 2 2 2 2 2 2 2 2 2 2 2 2 2 2
left_child=1 2 19 6 21 27 13 -8 9 20 14 29 -13 -2 25 18 23 -10 -7 -1 -3 -4 -16 -17 -11 -9 28 -6 -22 -12
right_child=3 8 4 -5 5 15 7 10 17 24 11 12 -14 -15 22 16 -18 -19 -20 -21 26 -23 -24 -25 -26 -27 -28 -29 -30 -31
leaf_value=-0.00036447933493537481 0.012209306535237552 -0.055978480339250951 -0.0015634903959014679 0.61117711501762839 0.0018249736644221138 -0.014965814956167112 0.086161989171789702 -0.00090680004674048575 -0.11245372956220701 -0.0078162922300295534 0.06471192394974272 0.08417387597647244 -0.015280351357666078 -0.026040671789511728 0.0090592406824011821 -0.013217784924146426 -0.085764296867583231 0.019478967798723712 0.047000045010768959 -0.057679542906220155 0.013746753545579261 0.036386101092243453 -0.021091556903920328 0.035163930228325757 0.016874569274642769 0.042154559417061678 -0.030142738984484208 -0.023730590709350088 -0.0167765757106892 0.22039247887604996
leaf_weight=521 1015 2018 293 7839 319 267 3352 595 12812 242 1044 1470 1174 671 666 494 578 268 918 2827 222 2007 805 496 578 1497 562 2040 200 2755
leaf_count=521 1015 2018 293 7839 319 267 3352 595 12812 242 1044 1470 1174 671 666 494 578 268 918 2827 222 2007 805 496 578 1497 562 2040 200 2755
internal_value=0.000135523 -0.0261478 -0.00675651 0.031908 0.00495143 -0.00798122 0.0236107 0.0269202 -0.0384925 -0.024045 0.0217869 0.0291246 0.0145613 -0.00260973 0.0085181 0.00731929 -0.00841837 -0.0427141 0.0281435 -0.0326762 -0.0347102 0.0336957 -0.010843 0.00979798 0.015 0.0221319 -0.0144309 -0.0258372 0.00900474 0.0392603
internal_weight=50545 27662 10760 22883 7412 5112 15044 13358 16902 3822 10006 6443 2644 1686 3563 2753 1568 13080 1185 3348 3002 2300 1471 990 820 2092 984 2359 422 3799
internal_count=50545 27662 10760 22883 7412 5112 15044 13358 16902 3822 10006 6443 2644 1686 3563 2753 1568 13080 1185 3348 3002 2300 1471 990 820 2092 984 2359 422 3799
is_linear=0
shrinkage=0.05


Tree=16
num_leaves=31
num_cat=0
split_feature=18 101 98 95 116 98 116 18 116 104 98 104 22 36 66 104 18 18 108 18 23 66 36 14 68 101 53 76 104 112
split_gain=16128.2 2205.41 1534.58 768.695 685.303 671.068 628.462 532.386 470.574 417.599 344.039 313.144 284.517 259.71 264.131 258.327 250.367 247.343 229.621 221.76 215.232 278.764 217.861 211.347 609.259 255.046 231.148 203.128 193.778 177.422
threshold=16.822500228881839 3.4225187301635747 13.484499931335451 2.3687857389450078 20.014356613159183 13.258500099182131 12.178142547607424 33.868499755859382 14.731357097625734 0.63485717773437511 11.271500110626222 -0.19600152969360349 16.592499732971195 36.428501129150398 0.39682756364345556 0.69449996948242199 13.622499942779543 14.491499900817873 2.0122649669647221 20.863500595092777 20.737500190734867 0.15468210726976397 38.128499984741218 1.1474999785423281 0.31736584007740026 2.4377220869064335 107.72083663940431 -0.81663373112678517 -0.8855004310607909 12.790500164031984
decision_type=2 2 2 2 2 2 2 2 2 2 2 2 2 2 2 2 2 2 2 2 2 2 2 2 2 2 2 2 2 2
left_child=2 3 6 5 23 -2 10 9 19 28 17 18 -13 -11 -15 27 -8 -1 -10 -7 -5 -22 -23 24 -4 26 -26 -6 -3 -30
right_child=1 7 4 20 15 8 16 -9 11 13 -12 12 -14 14 -16 -17 -18 -19 -20 -21 21 22 -24 -25 25 -27 -28 -29 29 -31
leaf_value=-0.011059989707733031 0.027341010181328687 0.11328485804839988 -0.081588282985381969 0.057055484501456456 -0.046525453840758152 -0.027701628030453663 -0.0095206758208099106 0.66551816161049693 0.022320916901078649 -0.07694324924374546 -0.026220557239883393 0.025007835665626921 -0.039396154342795066 0.08819703655859322 -0.061031845255958221 -0.081783926746110819 0.017249845528009278 0.01988013007997971 -0.017175518910587863 0.0097210474019158617 0.078399289294254271 -0.01673488238940344 0.049622955407293647 -0.11517715711678039 -0.011405443905493806 -0.025369160962113391 0.013400687984651594 0.0059688117414976819 0.00071687977594532277 0.095810588035319458
leaf_weight=288 1151 3222 2907 2570 759 1625 590 6663 1354 321 1889 294 1226 1147 343 1244 1656 390 265 201 1057 761 844 10723 256 495 652 1512 574 3734
leaf_count=288 1151 3222 2907 2570 759 1625 590 6663 1354 321 1889 294 1226 1147 343 1244 1656 390 265 201 1057 761 844 10723 256 495 652 1512 574 3734
internal_value=0.000107468 0.0261663 -0.0304032 0.0093056 -0.0369312 -0.00273054 -0.00524621 0.0381217 -0.0107049 0.0304197 -0.0221465 0.00103536 -0.0152632 0.00886251 0.017651 -0.0170555 0.0140695 0.00840708 0.0163372 -0.0308872 0.0233754 0.013411 0.000280374 -0.0415785 -0.0322274 -0.0051675 0.0105727 -0.00702334 0.0356042 0.0286676
internal_weight=50713 27352 23361 11348 18548 6116 4813 16004 4965 9341 2567 3139 1520 1811 1490 3515 2246 678 1619 1826 5232 2662 1605 15033 4310 1403 908 2271 7530 4308
internal_count=50713 27352 23361 11348 18548 6116 4813 16004 4965 9341 2567 3139 1520 1811 1490 3515 2246 678 1619 1826 5232 2662 1605 15033 4310 1403 908 2271 7530 4308
is_linear=0
shrinkage=0.05


Tree=17
num_leaves=31
num_cat=0
split_feature=18 101 17 18 102 98 18 98 104 116 24 66 66 84 76 76 68 91 84 44 24 18 98 66 66 24 95 51 37 16
split_gain=15299.8 2142.58 1535.31 1319.11 925.531 820.673 641.041 600.05 489.078 418.423 431.976 481.402 325.192 310.187 309.071 463.081 303.824 259.052 312.229 269.336 229.687 322.401 223.97 216.499 209.817 180.335 174.726 172.193 167.612 163.002
threshold=16.766500473022464 3.2303475141525273 1.6205000281333926 13.907499790191652 16.713928222656254 14.751500129699709 33.433000564575202 12.099500179290773 -0.87421417236328114 12.454071044921877 16.751500129699711 0.13355065137147906 0.17117501795291903 123.8769989013672 0.052335681393742568 -0.59831893444061268 0.25970137119293218 1.5274999737739565 348.61950683593756 39.010999679565437 15.300499916076662 12.238500118255617 12.726500034332277 0.13355065137147906 0.34213042259216314 19.152999877929691 1.7208571434020998 96.963066101074233 35.390998840332038 1.6234999895095827
decision_type=2 2 2 2 2 2 2 2 2 2 2 2 2 2 2 2 2 2 2 2 2 2 2 2 2 2 2 2 2 2
left_child=2 4 -1 12 5 13 8 26 -3 -9 11 29 -4 22 15 24 -12 -6 25 -20 21 -14 -2 -16 -10 -19 -5 -23 -17 -11
right_child=1 6 3 7 17 -7 -8 9 14 10 16 -13 20 -15 23 28 -18 18 19 -21 -22 27 -24 -25 -26 -27 -28 -29 -30 -31
leaf_value=-0.10416829830726702 0.011219312345782929 0.10420195156486489 -0.072729807093449228 -0.011763307569773396 0.051032416146208882 -0.0311690418086501 0.61906724284881975 -0.027638801558418358 0.022385765780746872 -0.028244807743429679 0.00080224764683158869 0.027705903491931052 -0.028615468175463833 0.019584887215344973 0.017874442795064029 -0.0031948905650330595 -0.073462240836993861 0.030247468894506115 0.14315491311366416 0.020610007414170364 -0.13961981395877779 -0.010062869260350917 -0.011895309822082912 -0.012875274734942455 -0.061988606011343705 -0.013591419230762637 0.022564997561448766 0.0094826675490091716 0.19844146626942935 0.0040597163231602456
leaf_weight=10746 416 3539 3615 169 1355 2415 6926 1405 1226 460 854 1079 673 1267 920 238 910 774 1429 1305 521 235 708 990 369 1048 1151 709 2719 595
leaf_count=10746 416 3539 3615 169 1355 2415 6926 1405 1226 460 854 1079 673 1267 920 238 910 774 1429 1305 521 235 708 990 369 1048 1151 709 2719 595
internal_value=0.000279715 0.0253834 -0.0297336 -0.0177279 0.00788933 -0.00840616 0.0364595 -0.00251397 0.0283622 -0.0100226 -0.00159056 0.0135426 -0.0352425 0.0123588 0.0201795 0.0272627 -0.019898 0.0211386 0.0154302 0.0261156 -0.0197848 -0.0104824 -0.00676157 0.00329843 0.00554859 -0.000603732 0.0276515 0.00836864 0.0389753 -0.0104739
internal_weight=50766 27644 23122 12376 10717 4806 16927 6623 10001 5303 3898 2134 5753 2391 6462 4552 1764 5911 4556 2734 2138 1617 1124 1910 1595 1822 1320 944 2957 1055
internal_count=50766 27644 23122 12376 10717 4806 16927 6623 10001 5303 3898 2134 5753 2391 6462 4552 1764 5911 4556 2734 2138 1617 1124 1910 1595 1822 1320 944 2957 1055
is_linear=0
shrinkage=0.05


Tree=18
num_leaves=31
num_cat=0
split_feature=95 104 106 104 101 24 68 76 76 85 106 114 95 51 17 91 24 51 104 36 68 68 101 64 65 68 86 65 98 104
split_gain=14476.7 3040.3 1398.06 1069.2 828.905 715.938 892.547 680.641 759.457 507.047 395.407 385.371 370.832 359.802 353.346 296.807 197.349 185.139 176.676 180.745 167.076 150.818 149.622 149.344 145.534 145.352 140.141 139.381 132.089 129.965
threshold=2.3157856464385991 -0.24878501892089841 40.110500335693366 -0.87421417236328114 2.1209236383438115 12.428500175476076 0.43250197172164923 0.16934810578823092 -0.64944189786911 270.13600158691412 45.875999450683601 14.969000339508058 1.7290714383125307 106.07466888427736 3.2975000143051152 1.6334999799728396 15.119500160217287 133.12300109863284 0.9697856903076173 36.428501129150398 0.34147737920284277 0.15147105604410174 4.0265688896179208 0.7847786843776704 13.43483352661133 0.32330444455146795 153.05693054199222 15.012166500091555 14.999499797821047 0.73742723464965831
decision_type=2 2 2 2 2 2 2 2 2 2 2 2 2 2 2 2 2 2 2 2 2 2 2 2 2 2 2 2 2 2
left_child=1 4 -2 -4 11 6 17 8 15 26 22 -1 27 -8 29 -5 21 -3 -10 -20 -16 -11 -6 -17 -14 -19 -7 -12 -28 -9
right_child=2 5 3 7 10 9 13 14 18 16 12 -13 24 -15 20 23 -18 25 19 -21 -22 -23 -24 -25 -26 -27 28 -29 -30 -31
leaf_value=-0.022516540773020035 0.55478887612874195 -0.056405054552558731 0.093441850934863888 0.021226677253002715 -0.020832855000575103 -0.11399960123975653 -0.011524891892605993 -0.011066979712089964 0.12039550764233349 -0.024368524215736587 -0.024118944232916384 0.0033641092537910035 -0.0055270134976401764 0.012778111700530205 0.014963342733302199 -0.019908951526874486 -0.044911890848337958 -0.035529103601706073 -0.050107279070559944 0.075786265460794949 -0.012808674844143476 0.026824447811943486 0.0033264702860758889 0.026050160372290868 0.030782100140723759 0.0016816236522882112 -0.015622182539639696 0.0022982538637577933 -0.081342243867642161 -0.088351240883674728
leaf_weight=1830 7404 1787 4045 799 452 7984 509 1202 4678 144 188 1104 158 1211 1429 1576 1205 566 202 545 802 333 320 538 2573 462 686 922 4787 379
leaf_count=1830 7404 1787 4045 799 452 7984 509 1202 4678 144 188 1104 158 1211 1429 1576 1205 566 202 545 802 333 320 538 2573 462 686 922 4787 379
internal_value=0.000206612 -0.0246409 0.0288677 0.0206391 0.00233868 -0.0349903 -0.0175634 0.0132263 0.0212281 -0.0402107 0.0155539 -0.018439 0.0221166 0.010814 -0.00427597 0.000635084 -0.0143282 -0.0349023 0.0322857 0.00970549 0.00853877 0.0128931 -0.0170984 -0.00917692 0.0320212 -0.0179961 -0.0434458 -0.00225225 -0.037283 -0.0223593
internal_weight=50820 27221 23599 16195 7547 19674 4535 12150 8338 15139 4613 2934 3841 1720 3812 2913 1682 2815 5425 747 2231 477 772 2114 2731 1028 13457 1110 5473 1581
internal_count=50820 27221 23599 16195 7547 19674 4535 12150 8338 15139 4613 2934 3841 1720 3812 2913 1682 2815 5425 747 2231 477 772 2114 2731 1028 13457 1110 5473 1581
is_linear=0
shrinkage=0.05


Tree=19
num_leaves=31
num_cat=0
split_feature=18 18 91 98 18 102 116 104 22 68 104 76 76 66 99 18 98 114 66 66 66 99 93 104 23 101 24 68 66 66
split_gain=14052.6 2376.53 1534.25 1271.95 807.599 647.361 629.214 579.865 544.329 476.841 454.324 515.432 666.621 419.102 316.412 279.322 269.123 384.117 268.479 255.227 207.405 180.506 177.21 176.958 166.843 255.831 166.318 275.973 147.144 143.568
threshold=16.397500038146976 19.518499374389652 1.4474999904632571 13.767499923706056 35.268499374389656 16.023715019226078 10.727357387542726 0.64357137680053722 17.776999473571781 0.35987398028373724 -0.79799985885620106 0.052335681393742568 -0.61908787488937367 0.13646285980939868 15.237500190734865 13.57350015640259 12.675499916076662 10.858856678009035 0.13208204507827762 0.34213042259216314 0.2167320400476456 15.002500057220461 1.6332142353057864 -0.8855004310607909 17.228500366210941 2.6207662820816044 12.300499916076662 0.43598480522632604 0.15313973277807238 0.28017990291118627
decision_type=2 2 2 2 2 2 2 2 2 2 2 2 2 2 2 2 2 2 2 2 2 2 2 2 2 2 2 2 2 2
left_child=3 2 16 6 10 26 23 24 9 14 -3 12 19 21 -4 -8 -2 -18 -13 -12 22 -10 -17 -1 25 28 27 -5 -7 -25
right_child=1 4 8 5 -6 7 15 -9 13 -11 11 18 -14 -15 -16 20 17 -19 -20 -21 -22 -23 -24 29 -26 -27 -28 -29 -30 -31
leaf_value=0.026722451686453399 0.054256851282372592 0.088811147137793617 -0.022022293803107565 -0.051757170346748364 0.62959946207694351 -0.002022458479699285 -0.012127576364719062 -0.070513534265858629 -0.025855276449413014 0.051400478613963865 0.018842249316799897 0.023334870819467037 0.17252669510656882 -0.049152735597871727 0.012744256629980556 -0.0098757457410872732 -0.010371266340871356 0.01653514184785685 -0.010613837266967074 -0.046400560811240159 0.021115743542852172 0.0043572529982164104 0.0091569019987362676 -0.030573108556535722 -0.028271273585573201 -0.014772144320018877 -0.10811307177080175 -0.00061908821011762431 0.024337482510732224 -0.0011674088599816558
leaf_weight=82 1962 3821 1085 1650 6088 400 924 2491 422 711 1622 909 4245 2200 856 382 372 1441 1652 483 686 1201 1041 1539 388 606 10076 585 597 303
leaf_count=82 1962 3821 1085 1650 6088 400 924 2491 422 711 1622 909 4245 2200 856 382 372 1441 1652 483 686 1201 1041 1539 388 606 10076 585 597 303
internal_value=0.000102322 0.0228449 0.00347317 -0.0302943 0.0333953 -0.0368636 -0.00803914 -0.0205935 -0.0112973 0.0061086 0.0262331 0.0200483 0.027685 -0.0233717 -0.00672334 0.00614903 0.0288079 0.01492 0.00111285 0.00467933 0.0161925 -0.00409735 0.00530569 -0.0304054 -0.000477147 0.00664379 -0.0427869 -0.0304474 0.0222166 -0.0336048
internal_weight=50820 29070 10250 21750 18820 16793 4957 4482 6475 2652 12732 8911 6350 3823 1941 3033 3775 1813 2561 2105 2109 1623 1423 1924 1991 1603 12311 2235 997 1842
internal_count=50820 29070 10250 21750 18820 16793 4957 4482 6475 2652 12732 8911 6350 3823 1941 3033 3775 1813 2561 2105 2109 1623 1423 1924 1991 1603 12311 2235 997 1842
is_linear=0
shrinkage=0.05


Tree=20
num_leaves=31
num_cat=0
split_feature=18 104 106 17 18 31 104 110 76 76 84 104 18 22 66 66 105 62 69 66 18 70 66 106 17 66 101 23 23 77
split_gain=13326.8 2734.11 1197.32 1097.7 1016.28 891.89 720.09 527.532 498.022 571.053 419.79 513.487 390.728 392.288 314.9 289.941 285.574 281.352 315.602 218.536 207.453 333.722 207.147 273.847 177.112 147.31 146.284 141.925 141.364 132.75
threshold=18.432499885559086 -0.43485784530639643 39.353500366210945 1.5454999804496767 13.907499790191652 48.930500030517585 -0.91785764694213856 2.1186138391494755 0.1305249631404877 -0.67879429459571827 126.0279998779297 -0.90778636932373036 15.251500129699709 13.479499816894533 0.22581063956022265 0.19597080349922183 49.939498901367195 0.21480099856853488 10.792850017547609 0.292333334684372 15.348499774932863 1.0212851762771609 0.18786638230085376 47.517499923706062 3.3515000343322758 0.25977703928947454 1.7442299723625185 16.547500610351566 17.228500366210941 -0.60785768926143635
decision_type=2 2 2 2 2 2 2 2 2 2 2 2 2 2 2 2 2 2 2 2 2 2 2 2 2 2 2 2 2 2
left_child=1 7 -2 20 15 22 -4 10 9 16 11 -1 13 -7 24 -5 25 18 -17 -13 -3 -22 23 -6 -10 -8 -12 -14 -24 -11
right_child=2 3 6 4 5 12 8 -9 14 29 26 19 27 -15 -16 17 -18 -19 -20 -21 21 -23 28 -25 -26 -27 -28 -29 -30 -31
leaf_value=0.053877399803903187 0.53694442870087955 -0.11144943486235115 0.094862052681143366 -0.063807131553829596 0.01150595428217014 0.013462831520481444 0.0058919725580299344 -0.01721792054190905 -2.5950002837049627e-05 0.055818355643821607 0.00048553277313949654 -0.0088277297568654777 0.02186251314419323 -0.020614558517962414 -0.023662467129132825 -0.024681084764431472 0.034684316866081935 -0.10368317206270357 0.0077839123288974583 0.014454636770353614 -0.053862806154454913 0.0068669511327027703 0.053764284203942928 -0.025735373750421609 0.027509417464805799 -0.027907418633963045 0.027072467803392366 -0.0018659306378955522 -0.081629189140899172 0.14439663452506454
leaf_weight=451 6822 7416 3260 4199 554 624 1421 606 1673 1545 345 1232 1538 1299 1192 407 594 675 681 232 2843 350 80 1353 1168 762 2051 409 1229 3805
leaf_count=451 6822 7416 3260 4199 554 624 1421 606 1673 1545 345 1232 1538 1299 1192 407 594 675 681 232 2843 350 80 1353 1168 762 2051 409 1229 3805
internal_value=3.93577e-06 -0.022587 0.0290262 -0.0296382 -0.0199264 -0.00712673 0.02131 0.0113382 0.0157155 0.0228436 0.0174785 2.61097e-05 0.00904393 -0.00694228 0.00135135 -0.0351392 0.00444725 -0.0181225 -0.00238971 -0.0143443 -0.0415826 -0.030927 -0.0265858 -0.0160724 0.0104013 -0.00391663 0.0314274 0.0248331 -0.0419022 0.0323925
internal_weight=50816 28574 22242 23657 13048 7086 15420 4917 12160 8127 4311 1915 3870 1923 4033 5962 2777 1763 1088 1464 10609 3193 3216 1907 2841 2183 2396 1947 1309 5350
internal_count=50816 28574 22242 23657 13048 7086 15420 4917 12160 8127 4311 1915 3870 1923 4033 5962 2777 1763 1088 1464 10609 3193 3216 1907 2841 2183 2396 1947 1309 5350
is_linear=0
shrinkage=0.05


Tree=21
num_leaves=31
num_cat=0
split_feature=18 95 17 98 18 18 23 66 104 76 76 102 116 66 66 104 26 16 51 66 17 66 23 18 18 24 98 99 23 18
split_gain=12612 2311.57 1187.43 1057.52 999.52 958.326 659.036 727.576 549.1 523.179 604.847 417.028 357.738 327.388 297.285 281.81 238.165 234.521 229.871 220.624 214.18 211.011 229.569 234.78 202.362 186.941 160.618 200.681 148.116 169.769
threshold=16.300499916076664 2.3609285354614262 1.5254999995231631 14.751500129699709 13.622499942779543 36.158000946044929 16.933500289916996 0.16310051083564761 -0.8855004310607909 -0.026176805607974526 -0.6293143332004546 16.466786384582523 10.490142822265627 0.30669927597045904 0.26786583662033087 -0.97585630416870106 14.325500011444094 1.6234999895095827 96.963066101074233 0.13355065137147906 3.2975000143051152 0.16310051083564761 13.482500076293947 12.496500015258791 14.834499835968019 10.756999969482424 18.438499450683597 19.171999931335453 14.496500015258791 19.666500091552738
decision_type=2 2 2 2 2 2 2 2 2 2 2 2 2 2 2 2 2 2 2 2 2 2 2 2 2 2 2 2 2 2
left_child=2 3 25 12 21 8 7 17 -3 10 14 28 15 20 -10 -2 -12 -6 -9 -8 -11 -4 23 -23 -19 -1 27 -13 -5 -30
right_child=1 5 4 11 6 -7 19 18 9 13 16 26 -14 -15 -16 -17 -18 24 -20 -21 -22 22 -24 -25 -26 -27 -28 -29 29 -31
leaf_value=-0.0086943895829066694 0.052910467056538485 0.097690381840176782 -0.063210149641198754 0.00024929999807401517 -0.029060220340574407 0.61067227287862846 -0.00353663437028553 -0.0035853041311817435 0.021043168487230802 -0.014631809849237865 -0.011872027008076814 0.033969510643676593 0.019473672995722602 -0.043039208132092902 -0.029436335333537934 -0.0081426318091930138 0.15723383414090383 -0.015349776888000478 0.01901089389296038 -0.078372776360685764 0.020983641304009915 -0.021046313751540115 -0.12900818088404983 0.0042488487358634868 0.0050764366629985963 -0.10450388741153649 -0.027164261479441176 -0.0067372732672831507 -0.044952588499906999 -0.0019137948266032545
leaf_weight=607 227 3372 3540 393 1060 5699 466 416 1653 628 277 681 3309 826 822 928 4791 899 1722 1107 2149 884 610 692 1123 8131 666 520 1987 472
leaf_count=607 227 3372 3540 393 1060 5699 466 416 1653 628 277 681 3309 826 822 928 4791 899 1722 1107 2149 884 610 692 1123 8131 666 520 1987 472
internal_value=-2.96109e-06 0.0212109 -0.0293433 0.000408363 -0.0194704 0.0306598 -0.00649934 0.00204981 0.0238394 0.0184909 0.0259777 -0.0160945 0.0178539 0.0028171 0.00571717 -0.0061039 0.0358721 -0.0134977 0.0244621 -0.0348697 0.0110371 -0.0348585 -0.0226441 -0.0125635 -0.00351137 -0.0434882 0.00227638 0.0131973 -0.0281206 -0.0326759
internal_weight=50657 29400 21257 9183 12519 20217 6793 5220 14518 11146 7543 4719 4464 3603 2475 1155 5068 3082 2138 1573 2777 5726 2186 1576 2022 8738 1867 1201 2852 2459
internal_count=50657 29400 21257 9183 12519 20217 6793 5220 14518 11146 7543 4719 4464 3603 2475 1155 5068 3082 2138 1573 2777 5726 2186 1576 2022 8738 1867 1201 2852 2459
is_linear=0
shrinkage=0.05


Tree=22
num_leaves=31
num_cat=0
split_feature=109 104 85 104 101 14 101 116 76 76 84 66 84 102 104 98 111 105 104 64 110 75 65 70 75 9 8 66 43 75
split_gain=11820.5 2694.58 1406.2 1038.98 785.457 744.113 1154.12 691.475 583.479 515.849 497.272 466.259 384.982 303.401 290.616 285.006 242.566 242.502 192.454 188.711 173.623 161.89 160.203 154.589 151.436 144.687 196.982 213.343 134.882 132.929
threshold=48.014215469360359 -0.19600152969360349 646.57849121093761 -0.91785764694213856 2.2679474353790288 1.3525000214576723 2.486311793327332 11.897428512573244 0.14349137991666797 -0.66912424564361561 146.07999420166018 0.10700519382953645 135.17300415039065 16.921214103698734 0.73742723464965831 19.66149997711182 0.49843025207519537 50.12049865722657 0.99571561813354503 0.34972815215587622 2.0855650901794438 0.66912427544593822 11.261833190917971 1.0489189028739931 0.96922168135643016 7.5609998703002939 678.53549194335949 0.44295170903205877 27.690999984741214 -0.51128831505775441
decision_type=2 2 2 2 2 2 2 2 2 2 2 2 2 2 2 2 2 2 2 2 2 2 2 2 2 2 2 2 2 2
left_child=2 4 3 -1 10 6 7 23 9 15 -2 -9 16 -7 19 20 17 -6 -11 21 -5 -10 -13 -3 29 26 -4 -28 -20 -12
right_child=1 5 25 8 12 13 -8 11 14 18 24 22 -14 -15 -16 -17 -18 -19 28 -21 -22 -23 -24 -25 -26 -27 27 -29 -30 -31
leaf_value=0.085816135506712771 -0.021689944605880029 -0.028639033546214023 0.2741801219169876 0.027359159081978748 -0.0085250054567523222 -0.088830673954704856 -0.062859566390426252 -0.023988143069899825 -0.013772104078930881 0.097023699940688601 0.018226037498304492 -0.013973991389989494 0.022029692498478328 -0.023455424478835064 -0.06390659523677443 -0.031799553197993637 0.036875707436066121 0.0071728146318585928 -0.06005275688690262 0.0095132649758730824 -0.00062749445401930623 0.0094655203137429932 0.015972132003368424 0.0020750016684242035 0.034413464387230697 0.66838862871711879 0.083022750994319605 -0.070911336187666416 0.040091057166067492 -0.0056144434761242314
leaf_weight=3686 1908 1234 1328 798 1142 10268 3712 564 1153 4755 421 136 2259 987 658 1184 382 667 140 2178 830 274 1780 266 257 4812 949 173 494 1274
leaf_count=3686 1908 1234 1328 798 1142 10268 3712 564 1153 4755 421 136 2259 987 658 1184 382 667 140 2178 830 274 1780 266 257 4812 949 173 494 1274
internal_value=-3.25643e-05 -0.0224144 0.0260251 0.017808 0.00132371 -0.0328258 -0.0208398 -0.00213568 0.0109114 0.0187111 -0.0151813 0.0140726 0.0156404 -0.0410173 -0.00409336 0.00135135 0.00070744 -0.00693753 0.0277695 0.00148405 0.0149263 -0.0126489 0.0258351 -0.0289333 0.00256148 0.0442991 0.0344082 0.018984 0.00189274 -0.00286136
internal_weight=50669 27257 23412 16150 8310 18947 7692 3980 12464 8201 3860 2480 4450 11255 4263 2812 2191 1809 5389 3605 1628 1427 1916 1500 1952 7262 2450 1122 634 1695
internal_count=50669 27257 23412 16150 8310 18947 7692 3980 12464 8201 3860 2480 4450 11255 4263 2812 2191 1809 5389 3605 1628 1427 1916 1500 1952 7262 2450 1122 634 1695
is_linear=0
shrinkage=0.05


Tree=23
num_leaves=31
num_cat=0
split_feature=18 18 105 106 31 113 104 17 76 76 98 25 42 98 23 98 113 68 104 116 102 105 114 68 68 114 24 35 23 36
split_gain=11417.6 2678.82 1632.43 1100.33 794.168 600.343 561.517 472.319 459.784 655.266 429.704 383.719 421.877 334.858 327.527 321.105 305.832 292.411 273.987 256.412 227.086 225.674 212.939 191.797 169.135 166.214 157.762 148.235 144.316 143.766
threshold=18.801500320434574 14.834499835968019 50.313499450683601 37.701499938964851 49.57350158691407 18.329500198364261 -0.9513573646545409 1.5454999804496767 -0.013089472427964209 -0.58777976036071766 15.515500068664553 13.570499897003176 10.675499916076662 12.306499958038332 15.306499958038332 14.345499992370607 13.185500144958498 0.43598480522632604 -0.44271421432495112 11.821000099182131 20.295285224914554 49.424499511718757 17.20471286773682 0.19538719952106479 0.40174545347690588 12.460999488830568 15.529500007629396 45.806499481201179 16.253499984741214 37.561500549316413
decision_type=2 2 2 2 2 2 2 2 2 2 2 2 2 2 2 2 2 2 2 2 2 2 2 2 2 2 2 2 2 2
left_child=1 7 4 -2 5 15 -5 -1 9 21 -7 12 -9 -4 -12 25 -15 27 -13 -6 -16 24 -20 -21 -8 -3 -24 -10 -25 -11
right_child=3 2 13 6 19 10 8 11 17 29 14 18 -14 16 20 -17 -18 -19 22 23 -22 -23 26 28 -26 -27 -28 -29 -30 -31
leaf_value=-0.10049044282192768 0.55896917439307925 -0.011764133867611638 0.032068399401770802 0.091188206582446973 -0.012865345479681968 0.017032968416283812 0.013684288453767303 -0.022104785188355305 0.033020643073056459 0.03206825248549592 0.019103178768974428 -0.0018717937297735078 0.0071363493803818573 -0.0062557459885299151 -0.040450359400341633 -0.050319091221736258 0.011519812082456582 -0.02359454870802509 -0.063796941945714378 -0.0057849819335969339 0.020718796357306779 0.031996781694063968 -0.0074249398302726815 0.024550396509071072 -0.021030355958798985 0.0022006073744250012 -0.05281826634905578 0.0012530047275182811 -0.035678834406456431 0.18028716451543669
leaf_weight=6520 5585 1096 1976 2771 347 800 1556 1042 1575 665 455 729 966 690 2217 3496 1137 1210 3850 450 435 875 792 1059 1009 623 957 1742 89 3851
leaf_count=6520 5585 1096 1976 2771 347 800 1556 1042 1575 665 455 729 966 690 2217 3496 1137 1210 3850 450 435 875 792 1059 1009 623 957 1742 89 3851
internal_value=-8.60279e-05 -0.0199791 -0.00497646 0.0282907 -0.0146878 -0.0208726 0.0213387 -0.034996 0.0168189 0.0240573 -0.00605324 -0.0271113 -0.00806773 0.0232842 -0.0144673 -0.0319751 0.00785441 0.00409764 -0.0331542 0.0143188 -0.0211916 0.00761628 -0.0369084 0.0227785 0.000136452 -0.0142816 -0.0224414 0.0117727 0.0336237 0.036581
internal_weight=50565 29726 14870 20839 11067 9122 15254 14856 12483 7956 3907 8336 2008 3803 3107 5215 1827 4527 6328 1945 2652 3440 5599 1598 2565 1719 1749 3317 1148 4516
internal_count=50565 29726 14870 20839 11067 9122 15254 14856 12483 7956 3907 8336 2008 3803 3107 5215 1827 4527 6328 1945 2652 3440 5599 1598 2565 1719 1749 3317 1148 4516
is_linear=0
shrinkage=0.05


Tree=24
num_leaves=31
num_cat=0
split_feature=18 109 18 98 17 18 104 113 23 66 75 98 51 24 104 116 68 110 23 18 16 93 104 18 26 88 84 23 66 84
split_gain=11011.2 2161.21 1039.76 960.512 959.891 817.054 610.482 570.222 565.327 749.823 345.395 333.372 297.542 295.976 256.889 253.432 229.745 208.85 195.811 189.42 182.691 180.291 176.52 167.698 165.343 161.793 160.407 188.325 244.452 180.007
threshold=16.063499450683597 47.936496734619148 36.158000946044929 13.955500125885012 1.6205000281333926 13.028500080108644 -0.94092845916748036 16.010499954223636 16.492500305175785 0.13355065137147906 0.86601710319519054 16.505499839782718 99.331832885742202 10.618500232696535 0.72857046127319347 10.490142822265627 0.16030471026897433 2.1542211771011357 15.349500179290773 21.064999580383304 1.7465000152587893 1.6762856841087344 -1.0177145004272459 15.166500091552736 14.229499816894533 150.95243072509768 129.97800445556643 19.64949989318848 0.14263005554676059 453.11900329589849
decision_type=2 2 2 2 2 2 2 2 2 2 2 2 2 2 2 2 2 2 2 2 2 2 2 2 2 2 2 2 2 2
left_child=4 2 6 15 13 -6 -2 19 9 20 14 21 -11 -1 26 22 -10 -16 -13 -5 -7 -9 -3 -22 -12 -15 -8 -28 -29 -30
right_child=1 3 -4 7 5 8 10 11 16 12 24 18 -14 25 17 -17 -18 -19 -20 -21 23 -23 -24 -25 -26 -27 27 28 29 -31
leaf_value=-0.0025678750214923607 0.089673622134615272 0.049573258681973445 0.52467077060506606 -0.024930053418200163 -0.049214394869995327 -0.030509662825074592 -0.0027810090700894465 -0.0083304282518802172 0.0034135794298551848 -0.0048479239851497271 -0.027546851245701644 0.013514152616356068 0.014842324084396808 -0.097140531794281948 -0.055652914035138328 0.020998518969602389 -0.052177873133154321 0.014662515371343866 -0.029449790227218921 0.0061394659260194835 -0.010978993099745527 0.020721902535261273 -0.003893604239665116 0.0077915340346463857 0.11937769678747374 -0.062900449365610456 0.044231370082027155 0.048772717178842309 -0.010162280694919978 0.043302115088612148
leaf_weight=644 2943 172 5673 2428 3910 1062 719 416 284 555 152 334 1940 5645 613 2465 1359 1204 1601 235 1209 1379 767 466 2344 3307 1354 2253 1059 2278
leaf_count=644 2943 172 5673 2428 3910 1062 719 416 284 555 152 334 1940 5645 613 2465 1359 1204 1601 235 1209 1379 767 466 2344 3307 1354 2253 1059 2278
internal_value=-0.000100453 0.018969 0.0281663 -0.000362356 -0.0285339 -0.0182986 0.021238 -0.0117863 -0.00792 0.000114679 0.0162241 0.000831099 0.0199399 -0.0400375 0.0118671 0.0210928 -0.0335058 -0.00503577 -0.0135659 -0.0294593 -0.0179576 0.016351 -0.00101171 -0.00767164 0.0327724 -0.0423928 0.015875 0.0182028 0.0141503 0.00555889
internal_weight=50770 30389 20592 9797 20381 10785 14919 6393 6875 5232 11976 3730 2495 9596 9480 3404 1643 1817 1935 2663 2737 1795 939 1675 2496 8952 7663 6944 5590 3337
internal_count=50770 30389 20592 9797 20381 10785 14919 6393 6875 5232 11976 3730 2495 9596 9480 3404 1643 1817 1935 2663 2737 1795 939 1675 2496 8952 7663 6944 5590 3337
is_linear=0
shrinkage=0.05


Tree=25
num_leaves=31
num_cat=0
split_feature=18 18 98 85 116 98 22 104 23 66 76 76 66 104 102 51 66 110 86 104 70 95 34 113 104 43 113 98 98 17
split_gain=10215.6 2449.69 1404.23 1124.78 863.304 676.391 749.913 606.028 506.376 601.867 416.377 595.516 417.614 399.27 398.62 327.589 269.829 267.782 236.579 232.746 219.274 218.883 206.425 194.484 189.82 162.398 158.616 179.162 155.368 141.199
threshold=18.801500320434574 14.934500217437746 12.306499958038332 701.67599487304699 12.379214763641359 15.416500091552736 15.709499835968019 -0.97585630416870106 12.292500019073488 0.19939018040895465 -0.01963366940617561 -0.57713967561721791 0.22581063956022265 -0.39350080490112299 16.921214103698734 102.48736572265626 0.095816954970359816 2.1800616979599003 154.89878845214847 -0.27857065200805659 0.58686718344688427 1.7119285464286806 49.057498931884773 19.024000167846683 0.93264245986938488 12.238500118255617 38.640998840332038 19.973500251770023 13.815499782562258 3.403500080108643
decision_type=2 2 2 2 2 2 2 2 2 2 2 2 2 2 2 2 2 2 2 2 2 2 2 2 2 2 2 2 2 2
left_child=1 8 21 7 28 23 16 -2 9 -1 11 17 29 25 -8 -11 -7 19 -15 -9 22 -3 -20 -6 -16 -10 27 -13 -4 -12
right_child=3 2 4 -5 5 6 14 10 13 15 12 26 -14 18 24 -17 -18 -19 20 -21 -22 -23 -24 -25 -26 -27 -28 -29 -30 -31
leaf_value=-0.046814680632567329 0.090964105482705018 -0.0044873016766329597 -0.0062922172429331624 0.48278724580772309 0.0025651321742532042 -0.010039631803870332 -0.05250673164972311 0.038245235707594555 -0.014140091139462064 -0.010728077766684763 0.0021729524010982715 0.068419405406598521 -0.022302262685364661 -0.089860064511731175 0.0011159149933765988 0.0072378289350297116 0.026340790745242117 -0.0066462454999527409 -0.0015723518016362626 -0.0090197684406895465 -0.10824452525075268 0.027917036702518862 -0.040612140411817779 0.021951772224583801 -0.071086097127045986 0.0041565164178111406 0.16974621313389698 -0.02084610050620448 -0.038695209185427973 0.032082585261785826
leaf_weight=1950 2748 247 1183 5699 1840 448 2413 1148 324 774 1747 462 1503 6278 1633 1300 886 1770 844 627 1824 2056 1532 1181 451 495 3511 316 2110 1447
leaf_count=1950 2748 247 1183 5699 1840 448 2413 1148 324 774 1747 462 1503 6278 1633 1300 886 1770 844 627 1824 2056 1532 1181 451 495 3511 316 2110 1447
internal_value=-1.47792e-05 -0.0188468 -0.00407669 0.0267089 -0.0108646 -0.00273385 -0.0126822 0.0196381 -0.0327753 -0.0175447 0.0149749 0.0220322 0.00320417 -0.0382004 -0.0224483 0.0012054 0.0202399 0.00686883 -0.0408284 0.0205915 -0.0316429 0.0317195 -0.021633 0.0164681 -0.00642994 -0.00457875 0.0345652 0.0141388 -0.0327209 0.0134314
internal_weight=50747 29769 14448 20978 12145 8852 5831 15279 15321 4024 12531 7834 4697 11297 4497 2074 1334 3545 10478 1775 4200 2303 2376 3021 2084 819 4289 778 3293 3194
internal_count=50747 29769 14448 20978 12145 8852 5831 15279 15321 4024 12531 7834 4697 11297 4497 2074 1334 3545 10478 1775 4200 2303 2376 3021 2084 819 4289 778 3293 3194
is_linear=0
shrinkage=0.05


Tree=26
num_leaves=31
num_cat=0
split_feature=102 98 27 104 102 104 102 68 76 76 24 68 104 101 112 64 8 91 86 101 33 24 112 66 75 54 86 99 104 85
split_gain=9816.49 2384.23 1713.85 1478.46 709.004 644.939 518.334 499.262 436.95 572.013 416.875 491.456 323.358 316.208 297.372 244.376 234.038 213.586 210.674 209.018 197.202 173.615 172.484 158.398 156.884 152.525 150.775 135.881 134.374 132.154
threshold=16.343786239624027 14.191500186920168 37.093999862670906 0.72028827667236339 14.269285202026369 -0.97585630416870106 20.709642410278324 0.45580214262008673 0.10452751815319063 -0.7071000039577483 12.300499916076662 0.34430493414402014 -0.23778676986694333 2.6350251436233525 13.214499950408937 0.34972815215587622 655.51501464843761 1.4884999990463259 176.58736419677737 2.820831418037415 45.617500305175788 14.929500102996828 15.569499969482424 0.31116591393947607 -0.4771543145179748 28.366213798522953 83.623859405517592 14.283500194549562 0.88857126235961925 123.8769989013672
decision_type=2 2 2 2 2 2 2 2 2 2 2 2 2 2 2 2 2 2 2 2 2 2 2 2 2 2 2 2 2 2
left_child=1 4 -2 5 26 -4 28 13 9 17 11 -3 22 14 27 24 -8 -7 -14 29 -15 -20 -12 -17 -10 -11 -1 -6 -5 -13
right_child=2 10 3 6 7 8 16 -9 15 25 12 19 18 20 -16 23 -18 -19 21 -21 -22 -23 -24 -25 -26 -27 -28 -29 -30 -31
leaf_value=-0.023578095660598167 0.52429786978442683 -0.03357859986230443 0.08065964457830202 -0.016935678798341413 0.0021837514442048177 0.018396545779266128 0.069841524785480322 0.021912607675571308 -0.017917027519007079 0.045698842507157791 -0.014609587929060863 -0.00093294463386581769 -0.082632313860834306 -0.0054618016645692439 0.0025549763372014313 0.013774968356967232 -0.036086746038434293 -0.0020980022479075268 -0.015324516536095524 -0.021438690731579738 0.01135106111585067 -0.071018998917636064 0.0057335491582258596 -0.026072781355875742 0.0028062660335044678 0.12024623034035145 -0.0027476653820086129 -0.014855650384902663 -0.079182030118539262 0.011751038692086891
leaf_weight=1248 5220 1473 3112 872 304 1024 1174 1217 1061 2570 982 396 8939 280 1520 2428 695 2518 1081 226 1426 1596 432 401 776 4020 637 1269 1271 594
leaf_count=1248 5220 1473 3112 872 304 1024 1174 1217 1061 2570 982 396 8939 280 1520 2428 695 2518 1081 226 1426 1596 432 401 776 4020 637 1269 1271 594
internal_value=4.33395e-05 -0.0235267 0.0205549 0.0144239 -0.00112011 0.0205695 -0.013011 0.00726396 0.0162184 0.022049 -0.0347891 -0.016865 -0.0384881 1.04188e-05 -0.0095215 0.00355765 0.00623328 0.00584416 -0.0412362 0.00666118 0.0172919 -0.0289316 -0.0159123 0.0127784 -0.0106424 0.0307587 -0.027878 -0.0247616 -0.0297947 0.0165657
internal_weight=50762 23620 27142 21922 7901 17910 4012 6016 14798 10132 15719 2689 13030 4799 3093 4666 1869 3542 11616 1216 1706 2677 1414 2829 1837 6590 1885 1573 2143 990
internal_count=50762 23620 27142 21922 7901 17910 4012 6016 14798 10132 15719 2689 13030 4799 3093 4666 1869 3542 11616 1216 1706 2677 1414 2829 1837 6590 1885 1573 2143 990
is_linear=0
shrinkage=0.05


Tree=27
num_leaves=31
num_cat=0
split_feature=18 27 104 43 35 18 23 66 98 104 96 101 23 66 51 75 105 75 76 113 116 44 68 24 42 18 66 95 66 66
split_gain=9355.83 2063.6 1350.37 1089.67 882.137 706.035 671.874 680.37 487.928 440.258 548.936 377.364 410.71 301.262 297.55 261.047 217.679 222.601 579.983 205.32 204.763 192.915 187.282 185.323 233.095 177.714 166.128 165.559 160.777 158.381
threshold=15.841499805450441 36.468500137329109 -0.9513573646545409 14.117499828338625 49.850500106811531 13.028500080108644 16.201499938964847 0.13208204507827762 13.437500000000002 0.56549930572509777 0.95131838321685802 2.1362447738647465 16.933500289916996 0.13355065137147906 96.963066101074233 0.87880873680114757 49.687500000000007 -0.60875576734542836 -0.01963366940617561 11.054500102996828 33.603427886962898 56.95000076293946 0.18001166731119159 13.571499824523928 11.629499912261965 20.863500595092777 0.25774449110031133 1.7679285407066347 0.22930087149143222 0.31116591393947607
decision_type=2 2 2 2 2 2 2 2 2 2 2 2 2 2 2 2 2 2 2 2 2 2 2 2 2 2 2 2 2 2
left_child=4 -2 -3 8 5 23 7 19 -4 11 -11 12 27 -14 -9 16 17 18 -13 -7 -15 -12 -8 24 -1 -10 -19 -5 -23 -20
right_child=1 2 3 9 -6 6 22 14 25 10 21 15 13 20 -16 -17 -18 26 29 -21 -22 28 -24 -25 -26 -27 -28 -29 -30 -31
leaf_value=-0.035492948898517042 0.53168302054569383 0.068965616939582211 0.0024661408213380478 0.0017460825093653654 -0.081384589516997521 -0.024958891278690221 -0.001479807620075313 -0.0047826292843495821 -0.018797029761313588 -0.049461283246867362 0.048246446931332093 0.13158139469087224 0.006605736321904399 -0.035259400198758506 0.011961394236021938 0.097390847367281985 0.026847928896977003 0.009626948771687972 0.014307970678741899 -0.0062694950670630694 0.045807496983381227 0.037469088697126465 -0.057163120933208057 -0.072882187331380396 -0.0026265292535816442 0.0034258133935479054 -0.025320969692135622 0.037863814797618647 -0.053260607397582677 -0.037922429675786698
leaf_weight=1260 4845 3804 1676 585 7205 921 373 576 2760 1382 1630 2029 1342 1112 2057 2179 1450 1742 1334 1981 264 352 1492 2556 862 351 723 818 558 483
leaf_count=1260 4845 3804 1676 585 7205 921 373 576 2760 1382 1630 2029 1342 1112 2057 2179 1450 1742 1334 1981 264 352 1492 2556 862 351 723 818 558 483
internal_value=-7.692e-05 0.0167494 0.0112779 0.00667106 -0.0274931 -0.0192333 -0.00962162 -0.000876242 -0.0145289 0.0123144 -0.00249873 0.0164462 0.00372482 -0.00761589 0.0175275 0.0217203 0.0174269 0.0134131 0.0209308 -0.0175741 -0.0240552 0.0112992 -0.0355764 -0.0344378 -0.0235156 -0.0262456 0.00168357 0.0256949 -0.00714286 0.000412768
internal_weight=50702 31419 26574 22770 19283 12078 7400 5535 4787 17983 3922 14061 4121 2718 2633 9940 7761 6311 3846 2902 1376 2540 1865 4678 2122 3111 2465 1403 910 1817
internal_count=50702 31419 26574 22770 19283 12078 7400 5535 4787 17983 3922 14061 4121 2718 2633 9940 7761 6311 3846 2902 1376 2540 1865 4678 2122 3111 2465 1403 910 1817
is_linear=0
shrinkage=0.05


Tree=28
num_leaves=31
num_cat=0
split_feature=102 98 106 104 36 104 0 24 68 76 76 68 104 101 64 101 91 66 76 76 75 112 97 60 101 84 88 24 6 42
split_gain=8610.76 2303.34 1713.58 1280.88 660.195 649.375 517.516 463.158 568.349 426.996 585.372 359.035 349.294 301.08 246.518 218.867 209.917 185.188 185.111 198.743 183.838 178.298 176.482 172.189 171.322 172.476 170.596 182.776 170.531 164.295
threshold=16.343786239624027 14.191500186920168 36.123500823974616 0.72028827667236339 10.474500179290773 -1.0015001296997068 394.05450439453131 12.600500106811525 0.31144648790359503 0.026176773943006996 -0.7071000039577483 0.41215294599533087 -0.16399860382080075 2.8369417190551762 0.35221630334854132 3.0358647108078007 1.4265000224113467 0.46950317919254309 -0.59831893444061268 -0.084981925785541521 -0.4771543145179748 15.569499969482424 -0.23157131671905515 0.19842839986085894 2.9406131505966191 126.0279998779297 177.8774108886719 14.929500102996828 99.92099761962892 14.234499931335451
decision_type=2 2 2 2 2 2 2 2 2 2 2 2 2 2 2 2 2 2 2 2 2 2 2 2 2 2 2 2 2 2
left_child=1 4 -2 5 13 -4 -5 8 29 10 16 24 21 -1 20 28 -7 -16 -8 -20 -11 -9 -15 -12 25 -6 -14 -28 -10 -3
right_child=2 7 3 6 11 9 18 12 15 14 23 -13 26 22 17 -17 -18 -19 19 -21 -22 -23 -24 -25 -26 -27 27 -29 -30 -31
leaf_value=-0.015821443965904569 0.51934886188901463 -0.038942314397406724 0.079706016179325268 -0.046043584094079076 -0.0092460300238550903 0.019871157943245343 -0.048361530140749225 -0.014940713872588773 -0.0051430218079799861 -0.018571551718524138 0.054366998034016678 0.017732316201624878 -0.081470202490076915 0.033407220286639297 0.012805884999774086 -0.022814946522694869 -0.0015514779763183386 -0.064023360458162593 0.089447187571952122 -0.026778148410541561 0.0035982342201381634 0.0028719269938821236 -0.0025483261566630945 0.15146948877107924 0.0097698438443841532 0.0026040762342462997 -0.012024079401768662 -0.068863241205031317 0.0099641958743884387 -0.00020699862289088602
leaf_weight=2238 4581 1574 2872 1984 956 997 474 1185 374 1180 3838 1331 8279 277 3026 208 2687 206 1120 536 948 580 501 2740 814 1824 938 1413 857 295
leaf_count=2238 4581 1574 2872 1984 956 997 474 1185 374 1180 3838 1331 8279 277 3026 208 2687 206 1120 536 948 580 501 2740 814 1824 938 1413 857 295
internal_value=-2.26231e-05 -0.0220902 0.0191677 0.0135173 -0.000144818 0.0191305 -0.0117161 -0.0331879 -0.0165659 0.0151133 0.0210875 0.0111371 -0.037624 -0.0185676 0.00367537 0.00705351 0.00513029 0.0123762 0.00539906 0.013285 -0.00953947 -0.0170255 0.00822622 0.0300243 0.00292154 -0.00298561 -0.0410442 -0.0291578 0.015069 -0.0347512
internal_weight=50833 23644 27189 22608 7941 18494 4114 15703 3308 15622 10262 4925 12395 3016 5360 1439 3684 3232 2130 1656 2128 1765 778 6578 3594 2780 10630 2351 1231 1869
internal_count=50833 23644 27189 22608 7941 18494 4114 15703 3308 15622 10262 4925 12395 3016 5360 1439 3684 3232 2130 1656 2128 1765 778 6578 3594 2780 10630 2351 1231 1869
is_linear=0
shrinkage=0.05


Tree=29
num_leaves=31
num_cat=0
split_feature=18 18 98 27 85 23 104 104 101 96 68 76 76 96 68 86 98 96 96 102 97 36 95 23 104 85 23 68 98 105
split_gain=8319.83 2239.34 1363.86 1071.53 869.97 775.298 754.357 462.675 445.484 596.465 436.812 407.798 716.981 382.587 320.363 315.53 277.976 275.305 259.348 205.653 203.547 195.87 183.96 172.404 166.486 158.198 142.224 141.866 134.527 130.861
threshold=18.983499526977543 14.491499900817873 12.306499958038332 34.929500579833991 123.8769989013672 14.982500076293947 -0.14500141143798825 -1.0015001296997068 2.3923476934432988 1.0048628449440005 0.19538719952106479 -0.032719015143811696 -0.54463377594947804 0.97356602549552929 0.43910786509513861 129.91036224365237 14.797500133514406 1.0185588002204897 0.5365484654903413 17.258358001708988 -0.051857173442840569 40.957500457763679 1.7290714383125307 14.29949998855591 -0.17535734176635739 326.44900512695318 11.843500137329103 0.40174545347690588 14.652500152587892 50.15950012207032
decision_type=2 2 2 2 2 2 2 2 2 2 2 2 2 2 2 2 2 2 2 2 2 2 2 2 2 2 2 2 2 2
left_child=1 8 22 -2 26 10 18 -5 9 15 -6 12 17 25 29 -1 23 24 -7 -20 -10 -14 -3 -17 -9 -8 -4 -19 -28 -13
right_child=3 2 4 7 5 6 13 11 20 -11 -12 14 21 -15 -16 16 -18 27 19 -21 -22 -23 -24 -25 -26 -27 28 -29 -30 -31
leaf_value=-0.040886107901120551 0.55788333920266919 -0.00076241990868783924 0.0031255750844969565 0.081178881719484064 -0.0073263702692412114 0.020653423326553091 -0.052800594817179025 0.034158821314061429 0.00097098914642881342 0.0090968448505154061 0.018221897261771727 0.0054011088993833672 0.028823855797434385 0.01151078857838801 -0.023202437543273648 0.0050435563131289388 -0.037057808723221265 0.0062476802806016533 -0.0037532906787709043 0.023044568566556303 -0.076521181644569405 0.16113117802246446 0.022860566512189619 -0.016607102318827494 -0.0054662170559288022 -0.020788454790900347 -0.0090435700939426773 -0.029980976468467802 -0.045625106276044394 0.024901715351682976
leaf_weight=2788 3981 418 182 2426 828 869 2747 1322 253 776 1992 2875 794 592 1334 954 1521 1288 1866 570 6699 4159 2164 442 559 1019 1778 896 1843 647
leaf_count=2788 3981 418 182 2426 828 869 2747 1322 253 776 1992 2875 794 592 1334 954 1521 1288 1866 570 6699 4159 2164 442 559 1019 1778 896 1843 647
internal_value=-5.14017e-05 -0.0166414 -0.0045115 0.024735 -0.0105558 -0.00312411 -0.0113728 0.0190552 -0.031873 -0.0224425 0.0192908 0.0155327 0.021823 -0.0250344 0.00385091 -0.0280368 -0.016541 0.00626076 0.00664145 -0.00172414 -0.0406646 0.0345952 0.0289311 -0.000429799 0.0202818 -0.0309081 -0.0310413 -0.00581502 -0.0332091 0.0117547
internal_weight=50582 30301 16868 20281 14286 10483 7663 16300 13433 6481 2820 13874 9018 4358 4856 5705 2917 4065 3305 2436 6952 4953 2582 1396 1881 3766 3803 2184 3621 3522
internal_count=50582 30301 16868 20281 14286 10483 7663 16300 13433 6481 2820 13874 9018 4358 4856 5705 2917 4065 3305 2436 6952 4953 2582 1396 1881 3766 3803 2184 3621 3522
is_linear=0
shrinkage=0.05


Tree=30
num_leaves=31
num_cat=0
split_feature=18 113 104 35 43 18 23 105 113 8 23 104 96 66 98 70 113 72 113 51 101 110 9 8 66 24 16 25 109 76
split_gain=7900.42 1921.13 1268.8 866.482 847.218 674.581 694.479 503.096 663.378 673.224 466.687 490.939 465.364 406.795 395.36 350.328 370.166 242.946 248.882 221.235 198.162 187.625 181.836 270.922 218.368 171.909 171.81 149.436 153.753 147.178
threshold=15.800499916076662 65.649501800537124 -0.98807239532470692 50.131500244140632 13.365499973297121 13.028500080108644 12.816500186920168 49.939498901367195 38.640998840332038 537.27450561523449 15.17449998855591 -0.16399860382080075 1.0048628449440005 0.43194855749607092 13.484499931335451 0.64806091785430919 17.201499938964847 0.95497339963912975 11.721499919891359 84.457534790039077 2.3285639286041264 2.1750258207321171 8.5745000839233416 752.99700927734386 0.30906705558300024 15.035500049591066 1.8815000057220461 20.225500106811527 47.965497970581062 -0.85263213515281666
decision_type=2 2 2 2 2 2 2 2 2 2 2 2 2 2 2 2 2 2 2 2 2 2 2 2 2 2 2 2 2 2
left_child=3 2 -2 5 14 17 19 8 10 -10 -6 12 -12 -11 -4 16 26 18 -1 -7 -20 -13 23 -3 -25 -17 -8 28 -14 -18
right_child=1 22 4 -5 7 6 15 -9 9 13 11 21 27 -15 -16 25 29 -19 20 -21 -22 -23 -24 24 -26 -27 -28 -29 -30 -31
leaf_value=-0.03522740269241327 0.065076789698976442 0.24005550319235863 0.0014639936229108308 -0.080790095614221707 0.017673146502417136 -0.0083412437580118858 -0.022434542712374574 0.020386186080770766 0.14048758153458252 0.027429644812689169 0.016472199659356868 -0.033979765771636437 -0.020301010550946241 -0.067423424887736158 -0.015494763841268001 0.0089323100675388293 -0.0083518722016410873 -0.080834973636147431 0.0062659288246586179 0.010192572415453861 -0.019508742530678448 0.015348561593554067 0.5882371526523017 0.077751032900016531 -0.055504512620513861 -0.057257781028726654 -0.0032625081614199303 -0.015244306364431283 0.006534296881001822 0.013693145301914501
leaf_weight=1586 3330 1190 1658 5955 1225 403 1471 2849 2980 3065 2153 2900 380 710 2651 147 497 2180 682 1566 727 411 3513 561 334 1583 1353 977 695 974
leaf_count=1586 3330 1190 1658 5955 1225 403 1471 2849 2980 3065 2153 2900 380 710 2651 147 497 2180 682 1566 727 411 3513 561 334 1583 1353 977 695 974
internal_value=0.000106496 0.0154645 0.00974061 -0.0252562 0.00550455 -0.0180993 -0.00899425 0.0101908 0.00664042 0.0184086 -0.00245395 -0.00711815 0.00422117 0.00438411 -0.0144465 -0.0174191 -0.00976717 -0.0321643 -0.0229215 0.0167852 -0.00762952 -0.0215192 0.0420329 0.0303357 0.00955307 -0.0364162 -0.0203612 -0.0128168 4.65116e-05 0.010571
internal_weight=50706 31582 25984 19124 22654 13169 7994 18345 15496 6755 8741 7516 4205 3775 4309 6025 4295 5175 2995 1969 1409 3311 5598 2085 895 1730 2824 2052 1075 1471
internal_count=50706 31582 25984 19124 22654 13169 7994 18345 15496 6755 8741 7516 4205 3775 4309 6025 4295 5175 2995 1969 1409 3311 5598 2085 895 1730 2824 2052 1075 1471
is_linear=0
shrinkage=0.05


Tree=31
num_leaves=31
num_cat=0
split_feature=18 18 98 106 85 23 66 68 23 66 104 92 76 76 70 34 53 66 34 113 66 113 102 104 23 98 110 96 56 84
