tree
version=v4
num_class=1
num_tree_per_iteration=1
label_index=0
max_feature_idx=118
objective=regression_l1
feature_names=inflow_vehicles_per_hour_lag_0 inflow_vehicles_per_hour_lag_1 inflow_vehicles_per_hour_lag_2 inflow_vehicles_per_hour_lag_3 inflow_vehicles_per_hour_lag_5 inflow_vehicles_per_hour_lag_10 inflow_vehicles_per_hour_lag_15 inflow_vehicles_per_hour_lag_20 inflow_vehicles_per_hour_lag_29 queue_length_vehicles_lag_0 queue_length_vehicles_lag_1 queue_length_vehicles_lag_2 queue_length_vehicles_lag_3 queue_length_vehicles_lag_5 queue_length_vehicles_lag_10 queue_length_vehicles_lag_15 queue_length_vehicles_lag_20 queue_length_vehicles_lag_29 average_wait_seconds_lag_0 average_wait_seconds_lag_1 average_wait_seconds_lag_2 average_wait_seconds_lag_3 average_wait_seconds_lag_5 average_wait_seconds_lag_10 average_wait_seconds_lag_15 average_wait_seconds_lag_20 average_wait_seconds_lag_29 average_speed_kmh_lag_0 average_speed_kmh_lag_1 average_speed_kmh_lag_2 average_speed_kmh_lag_3 average_speed_kmh_lag_5 average_speed_kmh_lag_10 average_speed_kmh_lag_15 average_speed_kmh_lag_20 average_speed_kmh_lag_29 saturation_percent_lag_0 saturation_percent_lag_1 saturation_percent_lag_2 saturation_percent_lag_3 saturation_percent_lag_5 saturation_percent_lag_10 saturation_percent_lag_15 saturation_percent_lag_20 saturation_percent_lag_29 inflow_vehicles_per_hour_mean_3 inflow_vehicles_per_hour_std_3 inflow_vehicles_per_hour_mean_5 inflow_vehicles_per_hour_std_5 inflow_vehicles_per_hour_mean_10 inflow_vehicles_per_hour_std_10 inflow_vehicles_per_hour_mean_15 inflow_vehicles_per_hour_std_15 inflow_vehicles_per_hour_mean_30 inflow_vehicles_per_hour_std_30 queue_length_vehicles_mean_3 queue_length_vehicles_std_3 queue_length_vehicles_mean_5 queue_length_vehicles_std_5 queue_length_vehicles_mean_10 queue_length_vehicles_std_10 queue_length_vehicles_mean_15 queue_length_vehicles_std_15 queue_length_vehicles_mean_30 queue_length_vehicles_std_30 average_wait_seconds_mean_3 average_wait_seconds_std_3 average_wait_seconds_mean_5 average_wait_seconds_std_5 average_wait_seconds_mean_10 average_wait_seconds_std_10 average_wait_seconds_mean_15 average_wait_seconds_std_15 average_wait_seconds_mean_30 average_wait_seconds_std_30 minute_sin minute_cos weekday_sin weekday_cos is_weekend intersection_code phase_code strategy_code device_status_code inflow_vehicles_per_hour_same_time_day_7 inflow_vehicles_per_hour_same_time_day_14 inflow_vehicles_per_hour_recent_week_mean inflow_vehicles_per_hour_recent_week_std inflow_vehicles_per_hour_previous_week_mean inflow_vehicles_per_hour_previous_week_std inflow_vehicles_per_hour_week_over_week_delta queue_length_vehicles_same_time_day_7 queue_length_vehicles_same_time_day_14 queue_length_vehicles_recent_week_mean queue_length_vehicles_recent_week_std queue_length_vehicles_previous_week_mean queue_length_vehicles_previous_week_std queue_length_vehicles_week_over_week_delta average_wait_seconds_same_time_day_7 average_wait_seconds_same_time_day_14 average_wait_seconds_recent_week_mean average_wait_seconds_recent_week_std average_wait_seconds_previous_week_mean average_wait_seconds_previous_week_std average_wait_seconds_week_over_week_delta average_speed_kmh_same_time_day_7 average_speed_kmh_same_time_day_14 average_speed_kmh_recent_week_mean average_speed_kmh_recent_week_std average_speed_kmh_previous_week_mean average_speed_kmh_previous_week_std average_speed_kmh_week_over_week_delta saturation_percent_same_time_day_7 saturation_percent_same_time_day_14 saturation_percent_recent_week_mean saturation_percent_recent_week_std saturation_percent_previous_week_mean saturation_percent_previous_week_std saturation_percent_week_over_week_delta
feature_infos=[35:1144.373046875] [35:1143.51904296875] [35:1144.4320068359375] [35:1144.373046875] [35:1144.4320068359375] [35:1143.51904296875] [35:1144.373046875] [35:1144.4320068359375] [35:1144.4320068359375] [0.75:17.011999130249023] [0.75:17.027000427246094] [0.75:17.025999069213867] [0.75:17.011999130249023] [0.75:17.025999069213867] [0.75:17.027000427246094] [0.75:17.011999130249023] [0.75:17.025999069213867] [0.75:17.025999069213867] [8.8839998245239258:73.344001770019531] [8.8909997940063477:73.400001525878906] [8.8839998245239258:73.376998901367188] [8.8839998245239258:73.344001770019531] [8.8839998245239258:73.376998901367188] [8.8909997940063477:73.400001525878906] [8.8839998245239258:73.344001770019531] [8.8839998245239258:73.376998901367188] [8.8839998245239258:73.376998901367188] [10.423999786376953:51.387001037597656] [10.414999961853027:51.387001037597656] [10.446999549865723:51.387001037597656] [10.423999786376953:51.387001037597656] [10.446999549865723:51.387001037597656] [10.414999961853027:51.387001037597656] [10.423999786376953:51.387001037597656] [10.446999549865723:51.387001037597656] [10.446999549865723:51.387001037597656] [3.434999942779541:100] [3.434999942779541:100] [3.4360001087188721:100] [3.434999942779541:100] [3.4360001087188721:100] [3.434999942779541:100] [3.434999942779541:100] [3.4360001087188721:100] [3.4360001087188721:100] [35:1143.18505859375] [0:10.657426834106445] [35:1143.465576171875] [0:84.149345397949219] [35:1140.290771484375] [0:86.634246826171875] [35:1136.739990234375] [0:92.146446228027344] [35:1127.52197265625] [0:97.102348327636719] [0.75366663932800293:17.02166748046875] [0:0.24086649715900421] [0.76099997758865356:17.011199951171875] [0.00040000019362196326:0.97860175371170044] [0.79500001668930054:16.965099334716797] [0.0012688577407971025:1.0715705156326294] [0.84886664152145386:16.880399703979492] [0.0016519349301233888:1.187225341796875] [1.0839333534240723:16.588333129882812] [0.012067818082869053:1.9474644660949707] [8.9173336029052734:73.373664855957031] [0:0.99613296985626221] [8.94219970703125:73.303802490234375] [0.00074832624522969127:3.3725080490112305] [9.1282997131347656:73.090202331542969] [0.0054046283476054668:3.8981418609619141] [9.4459333419799805:72.706466674804688] [0.016141043975949287:4.9151420593261719] [10.78773307800293:71.233436584472656] [0.10528100281953812:8.2019529342651367] [-0.99999046325683594:0.99999046325683594] [-0.99999046325683594:0.99999046325683594] [-0.97492802143096924:0.97492790222167969] [-0.90096884965896606:1] [0:1] [0:11] [0:3] [0:2] [0:3] [35:1153.3740234375] [35:1144.676025390625] [43.862712860107422:1023.4545288085938] [6.6567287445068359:158.13336181640625] [44.792289733886719:1023.0302734375] [6.6567287445068359:163.64022827148438] [-13.927570343017578:14.085281372070312] [0.75:17.221000671386719] [0.75:17.191999435424805] [1.5411428213119507:13.933857917785645] [0.22044433653354645:2.9986586570739746] [1.5412856340408325:13.916000366210938] [0.20490722358226776:3.3295767307281494] [-0.53328585624694824:0.55785703659057617] [8.9139995574951172:73.817001342773438] [8.939000129699707:75.260002136230469] [13.175143241882324:61.779426574707031] [0.87105578184127808:11.335524559020996] [13.175143241882324:61.968433380126953] [0.87189322710037231:12.936964988708496] [-1.9184303283691406:2.0849990844726562] [9.880000114440918:51.387001037597656] [9.9770002365112305:51.387001037597656] [18.520715713500977:49.686428070068359] [0.47360092401504517:8.2404270172119141] [18.558145523071289:49.686431884765625] [0.4406965970993042:9.1543693542480469] [-1.1994285583496094:1.1625709533691406] [3.437000036239624:100] [3.434999942779541:100] [5.0032858848571777:97.464576721191406] [0.43157610297203064:15.818800926208496] [5.0709996223449707:96.072998046875] [0.45697438716888428:15.629770278930664] [-2.086578369140625:2.6900100708007812]
tree_sizes=2710 2888 2892 2886 2918 2905 2908 2890 2906 2927 2907 2936 2936 2928 2942 2939 2953 2947 2951 2958 2966 2980 2955 2959 2944 2966 2963 2969 2979 2978 2979 2973 2985 2961 2989 2977 2973 2986 2960 2979 2976 2981 2993 2992 2991 2982 2986 2990 2997 2980 3005 2987 2985 2989 2997 2986 2984 2994 2987 3003 2989 2995 2997 3017 3000 2988 3004 3001 2995 2999 3007 2994 3003 3006 2980 2999 3007 3004 3013 3002 3020 2997 3021 3006 3004 2996 3008 3005 3009 3015 2997 3012 3023 2969 2995 3005 3021 2995 3007 3007 3002 3002 3002 3015 3018 3008 3013 3001 3010 2978 2997 3016 3000 3004 3005 3005 3012 3023 3012 3012

Tree=0
num_leaves=31
num_cat=0
split_feature=18 18 18 21 21 66 66 98 18 21 68 99 18 20 18 21 66 66 104 76 20 17 0 95 76 103 76 95 76 68
split_gain=45159.2 725.265 668.501 614.767 568.415 236.595 173.812 141.661 43.6438 152.19 42.6683 81.374 36.7304 154.201 34.8365 32.9229 74.2041 30.9931 24.6109 23.5426 16.3987 11.2401 9.28998 9.08192 8.93965 7.7281 7.14432 9.95429 7.20057 4.6093
threshold=17.41250038146973 17.921500205993656 16.881500244140629 17.791500091552738 16.600500106811527 0.11485546454787256 0.1910616531968117 12.931499958038332 18.1855001449585 18.864500045776371 0.099158458411693587 16.403499603271488 16.657500267028812 16.166500091552738 17.227000236511234 17.055000305175785 0.085421830415725722 0.073151290416717543 -0.50850200653076161 0.99964779615402233 16.354499816894535 1.9424999952316286 365.60249328613287 2.5047143697738652 -0.99921953678131092 1.3808724880218508 -0.99980485439300526 1.6661429405212405 0.99990481138229381 0.16030471026897433
decision_type=2 2 2 2 2 2 2 2 2 2 2 2 2 2 2 2 2 2 2 2 2 2 2 2 2 2 2 2 2 2
left_child=2 3 12 10 6 17 -4 14 9 25 11 -2 26 -14 -6 16 -9 -5 -7 24 -15 -8 -20 -17 -10 -3 27 -1 -28 -12
right_child=1 8 4 5 7 18 21 15 19 -11 29 -13 13 20 -16 23 -18 -19 22 -21 -22 -23 -24 -25 -26 -27 28 -29 -30 -31
leaf_value=17.274350643157959 17.408675622940063 17.422550582885741 17.405450630187989 17.425500631332397 17.40645065307617 17.406875658035279 17.421950626373292 17.392200660705566 17.513000583648683 17.409450626373292 17.427925634384156 17.427400636672974 17.417300605773924 17.403700637817384 17.421550655364989 17.377575635910034 17.414575624465943 17.415400600433351 17.391900634765626 17.496650600433348 17.369925594329835 17.433050632476807 17.398175621032713 17.385900592803956 17.759300613403319 17.451800632476807 17.241300630569459 17.24050064086914 17.204450607299805 17.448875617980956
leaf_weight=83 80 81 141 98 81 110 93 171 127 125 118 140 94 83 89 746 92 104 319 81 638 279 80 116 22809 601 22382 111 157 578
leaf_count=83 80 81 141 98 81 110 93 171 127 125 118 140 94 83 89 746 92 104 319 81 638 279 80 116 22809 601 22382 111 157 578
internal_value=17.4121 17.4591 17.3649 17.4268 17.3942 17.392 17.4387 17.3765 17.4613 17.4499 17.4539 17.4347 17.3626 17.373 17.4191 17.3701 17.3856 17.4377 17.3738 17.4617 17.3652 17.4566 17.368 17.3654 17.4618 17.4592 17.3622 17.3718 17.3622 17.46
internal_weight=50807 25451 25356 1627 1808 711 513 1295 23824 807 916 220 23548 815 170 1125 263 202 509 23017 721 372 399 862 22936 682 22733 194 22539 696
internal_count=50807 25451 25356 1627 1808 711 513 1295 23824 807 916 220 23548 815 170 1125 263 202 509 23017 721 372 399 862 22936 682 22733 194 22539 696
is_linear=0
shrinkage=1


Tree=1
num_leaves=31
num_cat=0
split_feature=18 18 18 21 21 66 66 98 18 21 18 21 66 21 16 18 66 68 24 98 21 66 66 18 76 76 18 66 66 76
split_gain=44353.2 644.808 641.139 580.588 562.633 260.488 164.748 100.783 94.0687 309.589 70.616 216.752 99.3393 69.5807 60.4972 51.9371 71.7217 36.9817 44.6556 35.9074 32.1133 47.5792 25.6952 24.3955 19.4387 11.9277 10.32 10.2 10.1505 7.01841
threshold=17.41250038146973 16.942500114440922 17.990499496459964 16.712499618530277 17.791500091552738 0.10426515340805055 0.14107366651296618 12.931499958038332 18.553999900817875 19.299499511718754 16.452499389648441 15.841499805450441 0.30906705558300024 18.675499916076664 2.4724999666213994 17.791500091552738 0.21149494498968127 0.099158458411693587 16.533500671386722 11.377500057220461 17.055000305175785 0.07106726244091989 0.19433190673589709 17.791500091552738 0.99946221709251415 -0.99921953678131092 17.354499816894535 0.19939018040895465 0.16648056358098987 -0.99980485439300526
decision_type=2 2 2 2 2 2 2 2 2 2 2 2 2 2 2 2 2 2 2 2 2 2 2 2 2 2 2 2 2 2
left_child=1 10 4 6 17 23 -3 -5 9 13 29 12 -12 -4 -15 28 -17 18 -2 -13 21 -9 -8 -6 25 -10 -22 -16 -7 -1
right_child=2 3 8 7 5 15 22 20 24 -11 11 19 -14 14 27 16 -18 -19 -20 -21 26 -23 -24 -25 -26 -27 -28 -29 -30 -31
leaf_value=-0.15922504425048825 -0.00032690763473510744 -0.010466289520263673 0.040309939384460418 0.0024474668502808329 0.0048249363899230957 -0.0064938092231750849 0.0063025093078612933 -0.017310056686401332 0.10774993419647211 -0.0072900009155272734 -0.0057650589942932484 -0.0035650277137756706 0.0089349722862243301 6.7460536956787107e-05 0.020534973144531322 0.0050049972534178984 -0.0098225641250611062 0.0348311805725098 0.016079995632171596 -0.039765074253082316 -0.031978738307952885 0.0014212584495544079 0.021197485923767093 0.018259987831115689 0.085935001373291089 0.3795849609375001 -0.018928754329681399 0.003709964752197337 -0.021095066070556712 -0.16806502580642704
leaf_weight=199 96 80 1281 126 99 112 92 100 119 156 151 81 105 146 136 85 109 778 137 1445 677 81 330 118 89 21522 123 80 268 21750
leaf_count=199 96 80 1281 126 99 112 92 100 119 156 151 81 105 146 136 85 109 778 137 1445 677 81 330 118 89 21522 123 80 268 21750
internal_value=-0.000174656 -0.0469455 0.0466128 -0.0163145 0.017869 -0.0137168 0.0282869 -0.0365402 0.0488142 0.0378266 -0.0490224 -0.0394501 0.003125 0.0442179 0.0248619 -0.0313589 -0.0103093 0.0425816 0.0251073 -0.0465924 -0.041947 -0.0229282 0.0407583 0.0329493 0.0497239 0.0498198 -0.04625 0.0416667 -0.0421053 -0.0497995
internal_weight=50671 25340 25331 1609 1802 791 502 1107 23529 1799 23731 1782 256 1643 362 574 194 1011 233 1526 981 181 422 217 21730 21641 800 216 380 21949
internal_count=50671 25340 25331 1609 1802 791 502 1107 23529 1799 23731 1782 256 1643 362 574 194 1011 233 1526 981 181 422 217 21730 21641 800 216 380 21949
is_linear=0
shrinkage=0.05


Tree=2
num_leaves=31
num_cat=0
split_feature=18 18 18 98 22 66 22 18 22 66 66 22 66 18 66 22 106 66 16 104 18 22 66 104 18 66 16 76 0 76
split_gain=43367.8 729.543 655.718 541.197 538.863 257.075 198.691 162.918 509.326 127.207 64.2126 59.4367 113.247 58.4988 53.0951 50.2527 88.9169 43.4991 46.0917 42.8748 41.5599 178.572 107.914 34.826 28.9428 21.6368 20.4681 17.4013 12.6973 10.5388
threshold=17.41250038146973 16.822500228881839 17.990499496459964 12.55550003051758 17.845499992370609 0.11485546454787256 15.752500057220461 18.864500045776371 19.813499450683597 0.292333334684372 0.25204849243164068 17.348000526428226 0.12941578030586245 17.289500236511234 0.1826630234718323 18.917499542236332 47.855499267578132 0.091834995895624175 1.528500020503998 -0.45714282989501948 16.2504997253418 14.886499881744387 0.31347869336605078 -1.0015001296997068 17.791500091552738 0.063090763986110701 2.245499968528748 0.99946221709251415 365.60249328613287 -0.99921953678131092
decision_type=2 2 2 2 2 2 2 2 2 2 2 2 2 2 2 2 2 2 2 2 2 2 2 2 2 2 2 2 2 2
left_child=1 20 4 14 17 24 10 8 15 -10 -5 12 13 26 -3 -4 -17 18 -2 -7 -1 22 -22 -23 -6 -13 -8 29 -21 -9
right_child=2 3 7 6 5 19 11 27 9 -11 -12 25 -14 -15 -16 16 -18 -19 -20 28 21 23 -24 -25 -26 -27 -28 -29 -30 -31
leaf_value=-0.16466179358959199 0.00051206529140470638 0.0023501274585724374 0.038394482851028401 -0.0038377027511597109 0.0041887086629866848 -0.0023026630878447917 -0.019769539356231648 0.10521249318122852 0.0038025698661805054 -0.010075534820556521 0.019788246273994583 -0.0058798605203628897 0.0056623239517211493 0.00075014364719390165 0.01791259407997128 0.017533217430114691 2.4088025092972033e-05 0.036439640998840339 0.013387170314788754 -0.017315283775329603 -0.008161787867546089 -0.003461782813072212 0.004438254952430754 -0.039326732039451612 0.019289474010467524 -0.036496065258979908 -0.0073030279874800822 0.082670722961425913 -0.010809017181396464 0.40285567855834969
leaf_weight=21101 116 145 1871 83 129 145 354 107 154 216 93 90 121 87 264 375 159 618 254 326 109 86 117 1867 114 683 94 81 83 20603
leaf_count=21101 116 145 1871 83 129 145 354 107 154 216 93 90 121 87 264 375 159 618 254 326 109 86 117 1867 114 683 94 81 83 20603
internal_value=-0.000275447 -0.046596 0.045941 -0.0177259 0.0167227 -0.0138645 -0.03081 0.0481541 0.0367748 -0.0178378 0.0193182 -0.0369839 -0.0259146 -0.0357944 0.0336186 0.0451767 0.0316479 0.0413968 0.0278378 -0.0326715 -0.0490936 -0.0425195 -0.000442478 -0.0473886 0.0290123 -0.0463777 -0.0430804 0.0496729 -0.0409535 0.0497634
internal_weight=50645 25294 25351 2014 1785 797 1605 23566 2775 370 176 1429 656 535 409 2405 534 988 370 554 23280 2179 226 1953 243 773 448 20791 409 20710
internal_count=50645 25294 25351 2014 1785 797 1605 23566 2775 370 176 1429 656 535 409 2405 534 988 370 554 23280 2179 226 1953 243 773 448 20791 409 20710
is_linear=0
shrinkage=0.05


Tree=3
num_leaves=31
num_cat=0
split_feature=18 18 22 18 21 66 18 21 66 66 98 99 109 104 22 66 18 22 66 98 66 66 18 19 16 66 15 18 17 0
split_gain=42626 730.615 728.786 647.63 499.706 449.864 316.257 437.008 260.279 94.2808 87.6504 62.3913 61.9756 59.0647 110.202 100.383 56.9681 192.449 160.822 58.1855 44.3946 40.5416 36.4451 86.7223 34.9106 22.7633 20.1925 16.6676 14.025 13.5833
threshold=17.41250038146973 19.229499816894535 19.433500289916996 16.822500228881839 16.712499618530277 0.2463200241327286 17.791500091552738 17.664500236511234 0.20116356015205386 0.072182636708021178 12.931499958038332 15.82249975204468 48.11328315734864 -0.2069292068481445 18.540500640869144 0.16648056358098987 16.063499450683597 14.694499969482424 0.31116591393947607 10.759500026702883 0.29650312662124639 0.048584405332803733 17.289500236511234 17.354499816894535 2.6295000314712529 0.11195733025670053 3.4114999771118169 16.998499870300297 1.9424999952316286 382.64300537109381
decision_type=2 2 2 2 2 2 2 2 2 2 2 2 2 2 2 2 2 2 2 2 2 2 2 2 2 2 2 2 2 2
left_child=3 2 6 16 8 12 7 21 11 -9 -6 27 -4 -8 -15 25 -1 18 -18 -19 26 -2 29 -24 -11 -16 -7 -5 -10 -12
right_child=1 -3 5 4 10 20 13 9 28 24 22 -13 -14 14 15 -17 17 19 -20 -21 -22 -23 23 -25 -26 -27 -28 -29 -30 -31
leaf_value=-0.16132868254780774 0.0040316289424895402 0.43061290378570566 0.012306541919708281 -0.012732337808609096 0.00048258103132248209 -0.0056370676040648606 0.034049703204631854 0.0067242983877658707 0.0077847544491291389 -0.016204545807838502 -0.030741345787048326 0.0032374121040104954 -0.0011808122277258805 0.03513374468684196 0.015939451235532864 -0.0030045626461506106 -0.010003695136308721 -0.0018786760628223933 0.0041163327634336612 -0.037745477205514889 -0.014641909408569199 0.02641768107414251 0.0023992346614599039 -0.020457535475492429 -0.0034940474748610842 0.0027804186046124003 -0.00028709774017325883 -0.0038407247662544108 0.018091946065425902 -0.018971303194761369
leaf_weight=20371 140 19623 360 113 136 98 2667 103 92 209 833 94 90 580 144 140 136 105 149 2639 418 516 84 185 154 103 109 92 299 83
leaf_count=20371 140 19623 360 113 136 98 2667 103 92 209 833 94 90 580 144 140 136 105 149 2639 418 516 84 185 154 103 109 92 299 83
internal_value=-0.000687113 0.045046 0.0295061 -0.0464976 -0.019269 -0.00767442 0.03791 0.0147059 0.0152174 -0.0223176 -0.0372824 -0.0198997 0.0304444 0.0450743 0.0344881 0.0138243 -0.0488376 -0.0424397 -0.00333333 -0.0465015 -0.03512 0.0410061 -0.0416456 -0.0254647 -0.0342975 0.032996 -0.0161836 -0.0353659 0.0420716 -0.0463974
internal_weight=50865 25454 5831 25411 2011 1075 4756 1122 690 466 1321 299 450 3634 967 387 23400 3029 285 2744 625 656 1185 269 363 247 207 205 391 916
internal_count=50865 25454 5831 25411 2011 1075 4756 1122 690 466 1321 299 450 3634 967 387 23400 3029 285 2744 625 656 1185 269 363 247 207 205 391 916
is_linear=0
shrinkage=0.05


Tree=4
num_leaves=31
num_cat=0
split_feature=18 18 21 18 23 66 66 104 102 66 104 68 18 104 23 66 104 66 110 68 102 35 26 66 66 66 104 66 18 21
split_gain=41459.9 987.933 662.475 598.591 844.85 403.995 262.88 258.386 227.989 132.513 107.15 114.826 176.188 95.1117 72.2855 118.086 57.7319 45.1289 41.0931 111.42 40.6608 40.0394 38.5784 32.6803 31.6225 29.9704 27.2986 23.6265 21.5128 67.6404
threshold=17.532500267028812 16.942500114440922 16.998499870300297 19.743499755859379 21.043499946594242 0.25774449110031133 0.12941578030586245 -0.22778224945068357 16.000214576721195 0.1192089654505253 -0.65514087677001942 0.53753188252449047 15.88849973678589 -0.81678581237792958 18.725500106811527 0.19939018040895465 -1.0491418838500974 0.089257430285215392 2.2421156167984013 0.29777669906616216 17.778571128845218 49.520500183105476 13.66249990463257 0.29650312662124639 0.2223298326134682 0.21149494498968127 0.92221164703369152 0.12640323489904406 15.969500064849855 15.397500038146974
decision_type=2 2 2 2 2 2 2 2 2 2 2 2 2 2 2 2 2 2 2 2 2 2 2 2 2 2 2 2 2 2
left_child=1 10 6 4 7 24 21 18 9 -9 11 16 -13 -4 26 27 -1 20 -2 -20 -15 -3 -8 -7 -6 -11 -10 -16 -12 -30
right_child=3 2 13 -5 5 23 22 8 14 25 28 12 -14 17 15 -17 -18 -19 19 -21 -22 -23 -24 -25 -26 -27 -28 -29 29 -31
leaf_value=-0.0020647520658373607 0.032176556940675026 -0.00043270934492340986 0.0033498033726216295 0.46728233183860796 0.013972348960042069 -0.0035470021224020877 0.0023970840270816753 0.0062823184871675158 0.032856212736666279 -0.0016845139667390542 -0.15846225299805408 -0.032512250327765994 0.0044104965749383494 -0.0091244830712676091 0.020882927249968122 -0.0050177208042143208 -0.033312287711799192 -0.030258199229985475 0.016510459061264981 -0.0029997686386108672 0.00049126232385638964 -0.013418998150825347 0.017442815070748453 -0.013904939708709563 0.0013617467427255116 -0.011637759295701856 0.0088546956643462248 0.0037051422014833693 -0.0059847239491343631 -0.039123214655816523
leaf_weight=106 3717 116 92 18116 237 146 81 194 731 193 19298 118 127 342 170 137 924 664 321 95 83 111 515 434 102 135 100 125 225 2929
leaf_count=106 3717 116 92 18116 237 146 81 194 731 193 19298 118 127 342 170 137 924 664 321 95 83 111 515 434 102 135 100 125 225 2929
internal_value=-0.000954936 -0.0454879 -0.0117764 0.0449665 0.0323607 -0.0122416 0.022661 0.0392869 0.0233894 -0.00440613 -0.0483352 -0.0342353 -0.00346939 -0.0357748 0.0348773 0.018287 -0.0415534 -0.039899 0.0461529 0.03125 -0.0271765 -0.0231278 0.0401007 -0.0375862 0.0311209 -0.0237805 0.0435018 0.0361017 -0.0491359 -0.0453075
internal_weight=50684 25731 2004 24953 6837 919 823 5918 1785 522 23727 1275 245 1181 1263 432 1030 1089 4133 416 425 227 596 580 339 328 831 295 22452 3154
internal_count=50684 25731 2004 24953 6837 919 823 5918 1785 522 23727 1275 245 1181 1263 432 1030 1089 4133 416 425 227 596 580 339 328 831 295 22452 3154
is_linear=0
shrinkage=0.05


Tree=5
num_leaves=31
num_cat=0
split_feature=18 18 98 66 22 18 21 18 66 21 18 20 66 100 67 104 68 18 104 66 25 17 85 16 17 66 70 92 66 21
split_gain=40289.6 1061.27 975.285 800.215 795.106 464.213 518.563 252.859 190.008 121.549 90.8204 166.654 86.1517 82.8071 80.866 72.7611 106.994 167.777 59.8031 57.8708 50.4067 49.6479 42.9355 42.539 36.8734 28.0562 59.7365 48.3652 27.1591 20.7901
threshold=17.289500236511234 20.255499839782718 14.751500129699709 0.20632121711969378 18.540500640869144 16.766500473022464 16.547500610351566 17.728500366210941 0.1910616531968117 17.532500267028812 17.664500236511234 17.595499992370609 0.29650312662124639 15.499429225921633 18.554800033569339 -0.62807226181030262 0.53753188252449047 15.841499805450441 -0.84257221221923817 0.10826305299997331 21.570499420166019 2.3224999904632573 262.25799560546881 1.7735000252723696 1.9424999952316286 0.11336861923336984 0.41645815968513494 2.1725000143051152 0.061815135180950172 17.168499946594242
decision_type=2 2 2 2 2 2 2 2 2 2 2 2 2 2 2 2 2 2 2 2 2 2 2 2 2 2 2 2 2 2
left_child=5 2 10 7 -5 15 8 9 23 22 11 28 14 19 -6 16 -1 -18 -8 -9 -16 -11 -4 -7 -10 -15 27 -27 -2 -20
right_child=1 -3 3 4 12 6 18 13 24 21 -12 -13 -14 25 20 -17 17 -19 29 -21 -22 -23 -24 -25 -26 26 -28 -29 -30 -31
leaf_value=-0.033639125470832101 0.0029163760638981628 0.50854314467477824 -0.00070109348528095698 0.053918158026218604 -0.015536306233845566 -0.010802492285534804 -0.00095254238212110214 0.0092016151925026438 0.003832932913184095 -0.012551503564789802 0.031413453330605988 -0.0052663080410583875 -0.014922468478202689 0.020670268156140995 -0.0034619013899563457 -0.13573916399927449 -0.031786620263770264 0.0032633904173820839 -0.013748081811286374 -0.0001567043656854672 0.0021135723747611303 0.0016520739742368563 0.0095632656643612549 0.0003147328999935084 0.012521981390275183 -0.0008273962353915643 0.021533665562480844 0.012418161840915865 0.021934700115479624 -0.033048227895341675
leaf_weight=1077 89 16940 93 415 207 109 94 173 108 168 3849 117 689 1013 353 21851 128 127 418 206 176 80 132 83 280 112 435 185 321 738
leaf_count=1077 89 16940 93 415 207 109 94 173 108 168 3849 117 689 1013 353 21851 128 127 418 206 176 80 132 83 280 112 435 185 321 738
internal_value=-0.0013966 0.0425018 0.0284296 0.0119112 -0.0133152 -0.0465938 -0.0223497 0.0297844 0.0167241 -0.00327696 0.0451782 0.0257116 -0.0310526 0.0371469 -0.0191576 -0.0485075 -0.0371622 -0.00803922 -0.04048 0.0159631 -0.00879017 -0.0274194 0.0233333 -0.0239583 0.0368557 0.0417479 0.0342896 0.0170034 0.0407317 -0.0435986
internal_weight=50766 25753 8813 4437 1840 25013 1830 2597 580 473 4376 527 1425 2124 736 23183 1332 255 1250 379 529 248 225 192 388 1745 732 297 410 1156
internal_count=50766 25753 8813 4437 1840 25013 1830 2597 580 473 4376 527 1425 2124 736 23183 1332 255 1250 379 529 248 225 192 388 1745 732 297 410 1156
is_linear=0
shrinkage=0.05


Tree=6
num_leaves=31
num_cat=0
split_feature=18 18 98 66 22 18 98 22 66 18 66 93 66 20 97 18 21 66 100 18 20 26 66 18 65 18 21 66 17 21
split_gain=38845.2 1012.23 1004.47 871.287 797.292 616.325 675.663 254.707 228.175 198.794 147.661 112.331 102.688 96.1117 79.7291 79.0133 300.237 133.562 74.9712 72.7741 137.672 72.349 46.5701 42.1016 89.2979 37.6311 39.1718 36.1193 33.7732 28.9363
threshold=17.354499816894535 20.645999908447269 14.751500129699709 0.18786638230085376 18.3105001449585 16.397500038146976 11.939499855041506 15.664499759674074 0.24250246584415439 17.664500236511234 0.28017990291118627 2.1129286289215092 0.17274130135774615 17.41049957275391 -0.064571321010589586 15.800499916076662 15.216499805450441 0.28237956762313848 15.570571422576906 17.055000305175785 17.234499931335453 15.291500091552736 0.11064457520842554 17.532500267028812 17.372500419616703 17.990499496459964 19.666500091552738 0.10128287971019746 2.1744999885559086 15.533500194549562
decision_type=2 2 2 2 2 2 2 2 2 2 2 2 2 2 2 2 2 2 2 2 2 2 2 2 2 2 2 2 2 2
left_child=5 2 14 9 -5 15 12 8 -8 13 11 -6 -7 -4 23 -1 17 -17 22 -9 21 -21 -11 24 -2 -13 -27 -23 -15 -18
right_child=1 -3 3 4 10 6 7 19 -10 18 -12 25 -14 28 -16 16 29 -19 -20 20 -22 27 -24 -25 -26 26 -28 -29 -30 -31
leaf_value=-0.14475220503637126 0.019952948726944267 0.52694099392602467 0.0062564941076521663 0.05055148403496821 -0.0064773190493395919 -0.0017500655678800215 -0.006688270452409207 -0.029461280587106134 0.0097466986017533241 0.0088056987721518709 -0.013499782959604013 -0.010110212910809225 0.0088891249608320077 -0.0096459570860898403 -0.001946690626661507 -0.0061771756632023056 -0.0096938155216866675 0.0032147789702422717 0.019586382824024719 -0.0071666453194211503 -0.022602628557473636 -0.00048242480676670142 0.00079728808114545304 0.03075274511288555 -0.0026253491310929359 0.0088281172618181365 -0.00020896945288164661 0.0081278761246387898 0.0011766474576329956 -0.036202181003778477
leaf_weight=19125 145 16203 89 442 357 131 219 1715 199 215 890 83 373 144 83 146 285 202 1803 151 447 101 203 4319 84 167 241 80 86 1984
leaf_count=19125 145 16203 89 442 357 131 219 1715 199 215 890 83 373 144 83 146 285 202 1803 151 447 101 203 4319 84 167 241 80 86 1984
internal_value=-0.0013133 0.0421069 0.0290076 0.0127754 -0.0104128 -0.045417 -0.0256733 -0.0349245 0.00119617 0.0326772 -0.0256617 -0.0107311 0.0277778 -0.00423197 0.0455517 -0.048519 -0.0403707 0.00287356 0.0379784 -0.0409783 -0.0283055 -0.00391566 0.0188995 0.046438 0.0255459 0.00478615 0.0110294 0.0174033 -0.0213043 -0.0470031
internal_weight=50712 25554 9351 4720 2180 25158 3416 2912 418 2540 1738 848 504 319 4631 21742 2617 348 2221 2494 779 332 418 4548 229 491 408 181 230 2269
internal_count=50712 25554 9351 4720 2180 25158 3416 2912 418 2540 1738 848 504 319 4631 21742 2617 348 2221 2494 779 332 418 4548 229 491 408 181 230 2269
is_linear=0
shrinkage=0.05


Tree=7
num_leaves=31
num_cat=0
split_feature=65 19 23 65 66 98 104 102 22 66 66 65 22 66 66 65 20 66 19 22 98 66 66 23 66 65 19 24 66 92
split_gain=35525.8 1195.13 1289.22 972.439 954.257 745.399 508.663 461.3 239.653 220.066 194.202 174.202 418.93 426.04 142.639 127.051 235.61 97.4613 85.7616 157.933 80.6734 96.3163 79.1091 77.6002 108.269 66.8424 65.8511 60.2961 57.2839 55.8519
threshold=17.4355001449585 21.643499374389652 20.940500259399418 16.519000053405765 0.22765275835990909 12.55550003051758 -0.25856971740722651 16.921214103698734 16.0605001449585 0.19939018040895465 0.12941578030586245 15.325500011444094 14.886499881744387 0.27200469374656683 0.10826305299997331 17.131666183471683 17.295499801635746 0.1597094610333443 17.730500221252445 17.91049957275391 11.584499835968019 0.18090175092220309 0.10267748683691026 18.791500091552738 0.1454376503825188 18.144666671752933 17.730500221252445 15.922500133514406 0.29650312662124639 2.4075000286102299
decision_type=2 2 2 2 2 2 2 2 2 2 2 2 2 2 2 2 2 2 2 2 2 2 2 2 2 2 2 2 2 2
left_child=3 2 6 11 17 14 18 10 9 -7 26 -1 13 -13 -5 -10 22 -4 19 -2 21 -14 -17 -9 -25 -26 -8 -12 -6 -27
right_child=1 -3 4 5 28 8 7 23 15 -11 27 12 20 -15 -16 16 -18 -19 -20 -21 -22 -23 -24 24 25 29 -28 -29 -30 -31
leaf_value=-0.14911456464844425 0.02763891280706119 0.610493941940905 0.021248648542703211 -0.0066382142689324301 -0.0050560515741096884 -0.0096442378173962964 -0.00602100793667475 0.034877058133942374 -0.031952535716841445 0.017060860286209057 0.019655061774594175 -0.011314538708502832 -0.010880039246554141 0.0038640887360810619 0.015909913728530612 -0.0017771495445471964 -0.026379541639934702 0.003653383373261221 0.030716378025664782 -0.0054745068820245997 -0.038954320958430433 0.002795038370614478 0.012243737303880842 0.018761719798251166 -0.019016641073531029 -0.0041443351224804918 0.0056964137269159389 -0.010743604065069069 -0.014436417048756846 0.013109603922812596
leaf_weight=17020 366 14424 566 113 528 169 99 946 1425 213 82 477 133 416 535 176 469 405 5535 134 4072 105 125 363 83 81 356 486 799 120
leaf_count=17020 366 14424 566 113 528 169 99 946 1425 213 82 477 133 416 535 176 469 405 5535 134 4072 105 125 363 83 81 356 486 799 120
internal_value=-0.00160465 0.0402613 0.0278062 -0.0433472 -0.00548303 -0.0176899 0.0366489 0.0182339 -0.0297439 0.00680628 -0.00796676 -0.0470706 -0.039064 -0.00789474 0.0302469 -0.0361048 -0.0197403 0.0321833 0.0446313 0.0248 -0.045522 -0.0172269 0.0147841 0.0350596 0.0217156 -0.00140845 0.0163736 -0.0274648 -0.0330445 0.0141791
internal_weight=50821 25373 10949 25448 2298 3225 8651 2616 2577 382 1023 22223 5203 893 648 2195 770 971 6035 500 4310 238 301 1593 647 284 455 568 1327 201
internal_count=50821 25373 10949 25448 2298 3225 8651 2616 2577 382 1023 22223 5203 893 648 2195 770 971 6035 500 4310 238 301 1593 647 284 455 568 1327 201
is_linear=0
shrinkage=0.05


Tree=8
num_leaves=31
num_cat=0
split_feature=18 18 23 66 18 21 18 22 66 104 66 103 111 66 66 18 20 23 66 24 88 18 66 71 109 92 102 95 66 62
split_gain=36478.3 1289.05 1414.15 900.772 577.115 592.977 457.928 553.172 603.03 265.111 210.968 169.605 134.452 118.842 113.391 86.8204 159.99 67.778 170.298 61.2681 59.1866 58.7468 58.7314 64.2579 55.8919 59.861 52.5132 48.0176 45.4544 42.1405
threshold=17.227000236511234 21.743499755859379 21.043499946594242 0.22765275835990909 17.791500091552738 17.473500251770023 15.580500125885012 15.21050024032593 0.25774449110031133 -1.0177145004272459 0.057296497747302062 1.3895778656005862 0.25149917602539068 0.1597094610333443 0.056313605979084976 17.055000305175785 16.877500534057621 19.426500320434574 0.13646285980939868 21.695499420166019 229.09893035888675 16.766500473022464 0.29005937278270727 14.069700241088869 47.965497970581062 2.7664999961853032 16.301428794860843 2.3759284019470219 0.29650312662124639 0.20200209319591525
decision_type=2 2 2 2 2 2 2 2 2 2 2 2 2 2 2 2 2 2 2 2 2 2 2 2 2 2 2 2 2 2
left_child=6 2 4 13 5 14 -1 8 20 21 -7 12 26 -4 -2 -11 -17 -13 -19 -15 -8 -9 23 -10 25 -20 -6 -12 29 -5
right_child=1 -3 3 28 11 10 7 9 22 15 27 17 -14 19 -16 16 -18 18 24 -21 -22 -23 -24 -25 -26 -27 -28 -29 -30 -31
leaf_value=-0.13605886083008462 -0.00028886132727272694 0.5925942715467406 0.020118541705306116 -0.0085282531915712671 -0.0020450922374937622 0.0040228234405351058 -0.012421734339610691 -0.0014973465825777411 -0.0021550756879216595 -0.030461335670069901 -0.014229320813082503 0.034008190941232995 0.021497997369985103 -0.0023154577187138869 0.018508987825187975 0.0044588801621977762 -0.017003533780513537 0.018562414481074898 -0.0018003341767149905 0.0062188083252204159 -0.00032516883970901134 0.0087870962405085969 0.0067278688011343851 0.0050438560391168792 -0.0010675254532674927 0.039208195518869719 0.019794288839728936 -0.0033468657237898827 -0.014262160215403163 -0.0021325088501074952
leaf_weight=18041 155 14228 566 260 291 195 630 89 90 4537 430 5249 257 186 718 138 393 1389 84 231 102 95 481 86 225 167 91 141 827 292
leaf_count=18041 155 14228 566 260 291 195 630 89 90 4537 430 5249 257 186 718 138 393 1389 84 231 102 95 481 86 225 167 91 141 827 292
internal_value=-0.00183957 0.039512 0.0272588 -0.0073243 0.0359561 0.00899939 -0.0453691 -0.034144 -0.00608351 -0.0415651 -0.023107 0.0416548 0.0169797 0.0292472 0.0371707 -0.0437056 -0.0245763 0.0438712 0.0356836 0.00899281 -0.0372951 0.0173913 0.028691 0.00397727 0.00987395 0.0260956 -0.00183246 -0.0384413 -0.0333938 -0.0222826
internal_weight=50664 25982 11754 2362 9392 1639 24682 6641 1389 5252 766 7753 639 983 873 5068 531 7114 1865 417 732 184 657 176 476 251 382 571 1379 552
internal_count=50664 25982 11754 2362 9392 1639 24682 6641 1389 5252 766 7753 639 983 873 5068 531 7114 1865 417 732 184 657 176 476 251 382 571 1379 552
is_linear=0
shrinkage=0.05


Tree=9
num_leaves=31
num_cat=0
split_feature=65 65 23 66 65 98 104 102 85 22 66 19 66 22 66 66 23 102 26 66 98 88 66 19 22 94 19 91 34 19
split_gain=32841.9 1348.13 1360.86 1113.72 1031.3 837.8 462.279 385.393 247.549 321.606 233.729 217.907 453.119 749.646 181.079 158.096 157.024 156.376 126.308 84.3333 78.5616 133.436 112.406 69.1937 127.384 61.4683 61.1623 60.4309 55.2846 53.35
threshold=17.501500129699711 22.767167091369632 20.940500259399418 0.21149494498968127 16.416167259216312 12.614500045776369 -0.28892898559570307 17.258358001708988 246.42099761962893 17.051500320434574 0.11195733025670053 14.990499973297121 0.23281633108854297 15.833499908447267 0.095816954970359816 0.094335097819566741 16.981500625610355 17.258358001708988 12.962500095367433 0.29650312662124639 13.9064998626709 124.43429183959962 0.085421830415725722 17.995500564575199 17.654500007629398 0.47734089195728308 18.126500129699711 0.88350000977516185 45.327499389648445 17.995500564575199
decision_type=2 2 2 2 2 2 2 2 2 2 2 2 2 2 2 2 2 2 2 2 2 2 2 2 2 2 2 2 2 2
left_child=4 2 6 17 11 15 20 10 27 14 -8 -1 -13 18 -10 -6 -12 -4 -14 28 -2 22 -22 24 -9 -20 -18 -7 -5 -23
right_child=1 -3 3 19 5 8 7 23 9 -11 16 12 13 -15 -16 -17 26 -19 25 -21 21 29 -24 -25 -26 -27 -28 -29 -30 -31
leaf_value=-0.14385590863330702 0.032993896077335272 0.64818947252018477 0.00042646609275873718 -0.00013209132525826561 -0.0061325944980814562 -0.0006745500435421548 0.0045558828491479636 0.032198599891084714 -0.008264415320430275 -0.025451909575548284 0.026747240435646802 -0.030843805468142273 -0.0030436695995046392 -0.080663893351987259 0.011544036155046823 0.013826241988224731 -0.018179557458449836 0.019203316059569708 -0.0016075231972758177 -0.014841096785688812 0.010614465000509554 0.0048307391757457909 -0.0019093118327257132 0.028968056055918991 -0.0069836500161667208 0.0051943874328822309 -0.003024922719670098 -0.025478819880571459 -0.0070545425180194247 0.025920518918356717
leaf_weight=15568 4197 12761 380 313 126 111 515 122 135 504 81 4657 153 826 346 651 256 1102 103 937 184 155 215 1358 120 583 340 1924 449 1622
leaf_count=15568 4197 12761 380 313 126 111 515 122 135 504 81 4657 153 826 346 651 256 1102 103 937 184 155 215 1358 120 583 340 1924 449 1622
internal_value=-0.00236052 0.0383061 0.0265268 -0.00165042 -0.0421088 -0.0180537 0.0363066 0.019341 -0.0299669 -0.00939086 -0.00218121 -0.0462814 -0.038453 -0.0160661 0.0198545 0.0282497 -0.0214919 0.030027 0.0172229 -0.0292819 0.0437392 0.0360294 0.00989975 0.035375 0.0107438 0.0263848 -0.0303691 -0.0399263 -0.0169291 0.0418965
internal_weight=50794 25107 12346 3181 25687 3797 9165 2792 3020 985 1192 21890 6322 1665 481 777 677 1482 839 1699 6373 2176 399 1600 242 686 596 2035 762 1777
internal_count=50794 25107 12346 3181 25687 3797 9165 2792 3020 985 1192 21890 6322 1665 481 777 677 1482 839 1699 6373 2176 399 1600 242 686 596 2035 762 1777
is_linear=0
shrinkage=0.05


Tree=10
num_leaves=31
num_cat=0
split_feature=18 18 23 66 18 21 18 98 21 66 102 66 66 66 98 102 66 69 66 99 66 35 18 104 84 108 99 18 17 66
split_gain=33672.5 1491.29 1396.62 1175.03 574.436 664.187 550.82 597.433 266.949 226.845 186.965 174.331 170.998 165.213 164.921 181.216 164.91 160.06 146.25 107.278 106.834 101.995 73.1582 64.822 76.691 54.3604 45.7875 43.858 42.0016 41.1658
threshold=17.227000236511234 23.069499969482425 21.043499946594242 0.22765275835990909 17.921500205993656 17.791500091552738 15.44749975204468 11.847499847412111 14.989500045776369 0.1826630234718323 17.258358001708988 0.10000055283308031 0.11485546454787256 0.27802558243274694 14.240499973297121 16.343786239624027 0.10568874701857568 15.823649883270265 0.15313973277807238 20.898500442504886 0.10826305299997331 48.327499389648445 17.598500251770023 0.93264245986938488 388.18299865722662 0.98353478312492382 15.326499938964846 16.998499870300297 1.7154999971389773 0.20983988791704181
decision_type=2 2 2 2 2 2 2 2 2 2 2 2 2 2 2 2 2 2 2 2 2 2 2 2 2 2 2 2 2 2
left_child=6 2 4 12 5 16 -1 9 13 -8 -10 -7 -4 28 -6 20 21 18 -12 -14 -16 -2 26 -17 -25 -11 -23 -19 -9 -22
right_child=1 -3 3 -5 14 11 7 8 10 25 17 -13 19 -15 15 23 -18 27 -20 -21 29 22 -24 24 -26 -27 -28 -29 -30 -31
leaf_value=-0.12471309717991313 0.0071763847539218165 0.63438008129163659 0.023153093875309862 -0.011016353778636124 0.031797910567208376 0.0026102441630573739 -0.0065302599883425572 -0.0082355363085689255 -0.026707678180423324 -0.0020000282338711985 -0.012405011163895098 -0.011872544428301435 -0.00049429824582549744 0.0061843979349902158 0.0074679229051882075 0.026601409715430971 0.021949129377406965 -0.02401746782361185 0.0086449259086160534 0.010131634835496596 0.00061613632884149894 -0.0068391401425554228 0.0045751551907382117 -0.0024693294437845739 0.02758009731336504 0.0045108172898626897 0.00043119850464519162 -0.0036682766520723222 -6.17457804193311e-05 -0.0046971309710837524
leaf_weight=17545 299 12377 756 1619 4387 166 283 121 4937 91 80 530 538 177 472 2697 759 638 182 384 290 130 88 97 131 458 80 151 80 115
leaf_count=17545 299 12377 756 1619 4387 166 283 121 4937 91 80 530 538 177 472 2697 759 638 182 384 290 130 88 97 131 458 80 151 80 115
internal_value=-0.00256228 0.0372699 0.0258014 -0.00250227 0.0349136 0.0112573 -0.0442812 -0.0326341 -0.0378417 0.00721154 -0.0404142 -0.0284483 0.0268176 0.00291005 0.0408414 0.0332194 0.0316372 -0.0212655 0.0125954 0.0123644 0.0132839 0.0119765 -0.00872483 0.0391966 0.0135965 0.0259563 -0.0247619 -0.0325095 -0.0281095 -0.00555556
internal_weight=50658 25915 13538 3297 10241 2052 24743 7198 6366 832 5988 696 1678 378 8189 3802 1356 1051 262 922 877 597 298 2925 228 549 210 789 201 405
internal_count=50658 25915 13538 3297 10241 2052 24743 7198 6366 832 5988 696 1678 378 8189 3802 1356 1051 262 922 877 597 298 2925 228 549 210 789 201 405
is_linear=0
shrinkage=0.05


Tree=11
num_leaves=31
num_cat=0
split_feature=18 18 104 32 18 66 22 66 18 21 23 66 36 26 18 20 96 18 104 104 8 100 66 66 102 66 66 22 18 112
split_gain=32358 1520.21 1372.78 1039.43 678.726 686.501 1455.31 517.972 342.043 449.173 234.366 286.894 279.382 185.645 119.125 120.018 115.549 149.348 112.774 95.5093 81.1914 81.1483 76.8356 73.9603 71.929 65.4503 59.5127 110.186 87.0752 58.5763
threshold=17.227000236511234 23.770500183105472 -0.67200279235839833 45.841499328613288 15.082499980926515 0.21504832059144977 16.159500122070316 0.19264589995145801 17.728500366210941 17.289500236511234 17.654500007629398 0.11195733025670053 38.128499984741218 12.655499935150148 17.055000305175785 17.059499740600589 1.0096973776817324 17.856500625610355 -0.19600152969360349 -0.82485675811767567 517.55999755859386 17.652215003967289 0.25977703928947454 0.11064457520842554 16.840000152587894 0.21504832059144977 0.090431064367294325 16.643499374389652 15.93050003051758 17.914500236511234
decision_type=2 2 2 2 2 2 2 2 2 2 2 2 2 2 2 2 2 2 2 2 2 2 2 2 2 2 2 2 2 2
left_child=4 2 16 7 -1 14 13 21 9 -5 -10 -12 18 -7 24 -16 -2 -18 29 -19 -14 -4 -9 -11 -6 -20 -26 28 -28 -13
right_child=1 -3 3 8 5 6 -8 22 10 23 11 12 20 -15 15 -17 17 19 25 -21 -22 -23 -24 -25 26 -27 27 -29 -30 -31
leaf_value=-0.12857747321996529 0.03472178324902675 0.63248609706348058 -0.00085262842269262507 0.0092955327129887518 -0.024513821635300293 -0.0024419288829474087 -0.053963335218954002 -0.0033775738264543165 0.024086540991859629 -0.0016189754619068354 0.014092032372899778 -0.00028490878871529902 0.06015007382958313 0.0050600551995291457 0.0022740086994241793 -0.011257824359019165 -0.0045796852090477461 0.018770481027073061 -0.00088373571860440598 0.0064222268741175982 0.00036426093673380677 0.014596727935916399 -0.013018765826571688 -0.01581061674003479 -0.016592963376559935 -0.0071517866506001226 -0.012828055871509659 -0.029424795911512369 0.0018599755271493379 0.025199409414066311
leaf_weight=15930 4021 11824 202 441 4558 197 1307 525 1748 298 1216 177 409 1249 169 212 83 1334 439 662 124 408 1203 349 508 350 161 241 223 177
leaf_count=15930 4021 11824 202 441 4558 197 1307 525 1748 298 1216 177 409 1249 169 212 83 1334 439 662 124 408 1203 349 508 350 161 241 223 177
internal_value=-0.0024564 0.0365102 0.0254624 0.0119266 -0.043367 -0.0322436 -0.0115329 -0.0161677 0.0233939 -0.00183824 0.0293103 0.020574 0.0071599 0.023029 -0.0416337 -0.0145669 0.0433607 0.0337903 -0.0067804 0.036523 0.0370544 0.0234426 -0.0301505 -0.0283617 -0.0434458 -0.0173004 -0.0321712 -0.02184 -0.00520833 0.0166667
internal_weight=50745 25990 14166 8066 24755 8825 2753 2338 5728 1088 4640 2892 1676 1446 6072 381 6100 2079 1143 1996 533 610 1728 647 5691 789 1133 625 384 354
internal_count=50745 25990 14166 8066 24755 8825 2753 2338 5728 1088 4640 2892 1676 1446 6072 381 6100 2079 1143 1996 533 610 1728 647 5691 789 1133 625 384 354
is_linear=0
shrinkage=0.05


Tree=12
num_leaves=31
num_cat=0
split_feature=18 18 104 32 18 66 23 66 18 21 23 109 26 66 107 66 32 18 18 98 68 93 104 68 91 66 115 104 104 1
split_gain=31229 1682.73 1485.95 892.627 632.386 657.702 1265.49 582.018 452.79 460.423 228.407 296.946 208.665 185.183 122.764 121.993 121.264 137.304 116.576 157.882 94.5197 90.573 88.832 85.3281 75.3244 74.4727 69.0914 65.8046 59.933 56.3728
threshold=17.168499946594242 24.543499946594242 -0.68064498901367176 45.666500091552741 14.934500217437746 0.21149494498968127 15.971499919891359 0.22059137374162677 17.728500366210941 17.41250038146973 17.654500007629398 47.90092849731446 13.155499935150148 0.1094232350587845 47.656072616577156 0.095816954970359816 45.841499328613288 17.664500236511234 16.202499389648441 12.306499958038332 0.13409727811813357 1.5670713782310488 0.9439988136291505 0.53049388527870189 1.0805000066757204 0.07106726244091989 5.2237682342529306 -0.80692768096923817 -0.085142135620117174 220.06849670410159
decision_type=2 2 2 2 2 2 2 2 2 2 2 2 2 2 2 2 2 2 2 2 2 2 2 2 2 2 2 2 2 2
left_child=4 2 16 7 -1 18 12 14 9 15 20 22 23 -13 -4 29 17 -2 -6 24 -10 -14 -12 -7 -20 -11 -24 -19 -15 -5
right_child=1 -3 3 8 5 6 -8 -9 10 25 11 13 21 28 -16 -17 -18 27 19 -21 -22 -23 26 -25 -26 -27 -28 -29 -30 -31
leaf_value=-0.12514857285608622 -0.0045685966520279562 0.63736176932212296 0.014459041315814948 -0.0025887935911299564 -0.027509689656397288 -0.0035175705080867205 -0.052377060512043987 -0.011196344784477931 0.0034090629951473161 -0.00065639428740524872 0.020988437274282748 0.0081446441910973284 -0.0020701106072233523 -0.00017982414793138446 -0.0010847282886429 0.01209520531697157 0.033093246909499642 0.016673147689876266 0.0016927160603311009 -0.014882547439381711 0.028075005970600132 0.0054681706350545589 -0.0040785644034351696 0.0017710489401336017 -0.0055645554137527149 -0.014489895878552518 0.012961773209419292 0.0075823827011801022 -0.0052681125445623424 0.0023887298437520244
leaf_weight=15322 93 11178 510 125 3867 244 1413 1590 367 170 1577 468 128 491 331 372 4119 1423 195 2138 1397 1082 114 98 105 509 218 597 347 103
leaf_count=15322 93 11178 510 125 3867 244 1413 1590 367 170 1577 468 128 491 331 372 4119 1423 195 2138 1397 1082 114 98 105 509 218 597 347 103
internal_value=-0.00294234 0.0351527 0.0241639 0.010801 -0.0433718 -0.0330636 -0.0136425 -0.0149116 0.0207894 -0.00574668 0.0276059 0.0196734 0.0175258 0.00130168 0.0187277 0.0261667 0.0427953 0.0330573 -0.0421967 -0.0336341 0.0420635 0.0272727 0.032242 -0.0169591 0.000333333 -0.033947 0.00873494 0.0357921 -0.0127685 -0.00263158
internal_weight=50691 26099 14921 8689 24592 9270 2965 2431 6258 1279 4979 3215 1552 1306 841 600 6232 2113 6305 2438 1764 1210 1909 342 300 679 332 2020 838 228
internal_count=50691 26099 14921 8689 24592 9270 2965 2431 6258 1279 4979 3215 1552 1306 841 600 6232 2113 6305 2438 1764 1210 1909 342 300 679 332 2020 838 228
is_linear=0
shrinkage=0.05


Tree=13
num_leaves=31
num_cat=0
split_feature=18 18 104 14 18 66 98 22 18 20 116 22 66 22 18 66 66 66 96 104 66 100 23 92 66 111 34 66 18 66
split_gain=30682.6 1644.74 1380.96 802.989 688.282 687.941 652.721 406.485 327.876 357.491 268.436 374.872 422.957 213.443 247.675 260.078 175.104 147.223 127.538 121.768 112.717 110.212 90.6769 99.9416 122.982 85.3982 82.5785 82.5133 73.3219 72.1765
threshold=17.227000236511234 25.192500114440922 -0.68064498901367176 3.2825000286102299 15.038499832153322 0.1826630234718323 11.584499835968019 13.762499809265138 17.728500366210941 17.41049957275391 18.805786132812504 15.752500057220461 0.16310051083564761 18.038499832153324 19.518499374389652 0.10700519382953645 0.15628001838922503 0.27620926499366766 1.0246494412422182 -0.82485675811767567 0.29650312662124639 17.652215003967289 19.809000015258793 3.1104999780654912 0.10000055283308031 0.61371421813964855 45.737499237060554 0.11485546454787256 18.371500015258793 0.13071639835834506
decision_type=2 2 2 2 2 2 2 2 2 2 2 2 2 2 2 2 2 2 2 2 2 2 2 2 2 2 2 2 2 2
left_child=4 2 18 8 -1 21 16 17 9 27 25 12 -12 -10 15 -15 -6 -8 -2 -20 26 -5 -16 24 -24 -9 -7 -4 -21 -11
right_child=1 -3 3 5 6 20 7 10 13 29 11 -13 -14 14 22 -17 -18 -19 19 28 -22 -23 23 -25 -26 -27 -28 -29 -30 -31
leaf_value=-0.11709113162478096 0.031204807145003954 0.62651876630523562 0.00019165613961913408 -0.00057132684450369455 -0.0077532032896832533 -3.5372156104251927e-05 -0.0042714060810900905 -0.025494509523461419 0.024842367623285178 -0.001978160134053475 -0.012926875347818268 -0.02686547445314931 0.0055804380735914099 0.0071258175731101049 0.036101650246253225 -0.001721767079409009 0.003291057499067307 0.007215733325715146 0.015629388972824999 -0.0029651415940683992 -0.014277458992077907 0.017343812644226554 0.016158636504152567 0.041737323807285703 -0.0017534589188955786 0.0010320148966323829 -0.0067624959361191729 0.013849343312759822 0.0068068633401786377 -0.016475177350362458
leaf_weight=15797 4537 10850 173 237 178 557 80 5261 1173 319 351 1670 485 812 944 878 661 224 1253 80 1056 620 249 351 354 82 473 299 495 291
leaf_count=15797 4537 10850 173 237 178 557 80 5261 1173 319 351 1670 485 812 944 878 661 224 1253 80 1056 620 249 351 354 82 473 299 495 291
internal_value=-0.00292577 0.0350198 0.0243779 0.0115297 -0.0427266 -0.00976894 -0.0316837 -0.0360052 0.0222574 -0.0025878 -0.0382023 -0.0247007 0.00263158 0.0279038 0.0218506 0.00792899 0.0103099 0.0207237 0.0421131 0.0309628 -0.0252637 0.0279463 0.0342466 0.0233753 0.0110282 -0.0445349 -0.0134951 0.0300847 0.011913 -0.0278689
internal_weight=50790 26001 15151 8786 24789 2943 8992 8153 5843 1082 7849 2506 836 4761 3588 1690 839 304 6365 1828 2086 857 1898 954 603 5343 1030 472 575 610
internal_count=50790 26001 15151 8786 24789 2943 8992 8153 5843 1082 7849 2506 836 4761 3588 1690 839 304 6365 1828 2086 857 1898 954 603 5343 1030 472 575 610
is_linear=0
shrinkage=0.05


Tree=14
num_leaves=31
num_cat=0
split_feature=65 19 104 104 66 32 65 22 85 8 102 19 92 66 102 70 104 14 101 91 110 19 66 14 66 65 72 84 66 72
split_gain=27689.1 1739.39 1402.66 1071.07 667.971 909.373 370.477 528.549 332.478 413.599 302.997 291.324 465.328 282.424 225.699 250.908 204.863 171.325 160.987 151.003 137.225 157.444 132.274 126.929 321.424 168.996 116.804 112.721 108.174 102.723
threshold=17.313166618347172 26.253499984741214 -0.68064498901367176 -0.54385805130004872 0.1862021014094353 48.041500091552741 14.374666690826418 13.762499809265138 453.77850341796881 503.75450134277349 17.351071357727054 14.349500179290773 3.211499929428101 0.27620926499366766 17.705573081970218 0.4924477636814118 0.73742723464965831 1.9175000190734866 2.3600083589553837 1.3195000290870669 2.1699855327606206 17.995500564575199 0.16790606081485751 1.5885000228881838 0.17117501795291903 16.033499717712406 0.58991321921348583 169.74199676513675 0.29650312662124639 0.63843259215354931
decision_type=2 2 2 2 2 2 2 2 2 2 2 2 2 2 2 2 2 2 2 2 2 2 2 2 2 2 2 2 2 2
left_child=3 2 20 11 14 8 -5 13 -6 -10 23 -1 18 -8 15 19 17 22 27 -4 -2 -22 -12 24 -9 -26 -7 -13 -11 -14
right_child=1 -3 4 6 5 26 7 10 9 28 16 12 29 -15 -16 -17 -18 -19 -20 -21 21 -23 -24 -25 25 -27 -28 -29 -30 -31
leaf_value=-0.047431724107606058 0.03236958629990383 0.62679282646409495 0.008755016319950926 -0.12943659106527045 -0.0080989565523100996 -0.005413031586988382 -0.0052365807655878173 -0.019036757326705001 0.072960106413426123 0.003841727590423805 -0.0065685199664657469 -0.003781520672793626 0.0022009420915216184 0.0078134032126836676 0.016699205519696482 0.0090366796836342193 -0.031502524628252537 -0.014954194794865039 0.0055172227784794359 -0.0011048687957722514 -0.0049663460318338792 0.014022837623901019 0.010188533440001368 -0.038068091485448367 -0.0037069741543048098 0.0029219009786480401 0.038429579802247815 0.0034748714873932499 -0.019739517600865855 -0.020657583782246469
leaf_weight=379 4035 10243 247 12590 2461 114 213 1969 489 202 123 359 106 315 2174 894 555 429 795 1258 92 2243 288 5304 459 269 826 190 367 637
leaf_count=379 4035 10243 247 12590 2461 114 213 1969 489 202 123 359 106 315 2174 894 555 429 795 1258 92 2243 288 5304 459 269 826 190 367 637
internal_value=-0.00269728 0.033798 0.0231788 -0.0401641 0.0105071 -0.00326306 -0.0435907 -0.0363664 -0.0149332 0.00850662 -0.0391017 -0.00888078 -0.00155726 0.0123106 0.023934 0.0133597 -0.0175986 -0.00202381 0.015997 0.00089701 0.041146 0.0314989 0.0210462 -0.0428509 -0.0340193 -0.00563187 0.0404255 -0.00482696 -0.0204745 -0.0333109
internal_weight=50625 25645 15402 24980 9032 4459 22514 9924 3519 1058 9396 2466 2087 528 4573 2399 1395 840 1344 1505 6370 2335 411 8001 2697 728 940 549 569 743
internal_count=50625 25645 15402 24980 9032 4459 22514 9924 3519 1058 9396 2466 2087 528 4573 2399 1395 840 1344 1505 6370 2335 411 8001 2697 728 940 549 569 743
is_linear=0
shrinkage=0.05


Tree=15
num_leaves=31
num_cat=0
split_feature=18 18 98 102 18 22 66 24 66 98 66 66 66 23 18 21 66 18 70 37 98 23 18 18 111 70 15 34 18 116
split_gain=28516.1 1765.42 1098.32 759.364 738.023 702.688 526.19 811.492 469.487 457.583 294.032 281.412 254.686 239.117 206.487 440.808 216.144 186.786 144.732 111.145 122.452 109.325 148.57 97.8652 83.895 79.9995 79.478 79.0968 79.0897 77.7939
threshold=17.111499786376957 26.244999885559086 13.955500125885012 16.952999114990238 14.645500183105471 14.145500183105471 0.15313973277807238 21.352499961853031 0.28421217203140264 12.099500179290773 0.16145725548267367 0.12941578030586245 0.26168896257877355 17.107500076293949 16.202499389648441 16.300499916076664 0.1454376503825188 17.728500366210941 0.75209081172943126 37.497501373291023 18.612999916076664 23.461499214172367 21.994999885559086 17.921500205993656 0.19378471374511722 0.51816198229789745 3.3355000019073491 49.581501007080085 16.158500671386722 15.256358146667482
decision_type=2 2 2 2 2 2 2 2 2 2 2 2 2 2 2 2 2 2 2 2 2 2 2 2 2 2 2 2 2 2
left_child=4 2 24 10 -1 8 -5 18 27 11 17 -7 -9 -12 -11 16 -16 -4 19 20 -8 22 -14 -15 -2 -19 -26 -6 -13 -18
right_child=1 -3 3 6 5 9 7 12 -10 14 13 28 21 23 15 -17 29 25 -20 -21 -22 -23 -24 -25 26 -27 -28 -29 -30 -31
leaf_value=-0.11411475922318859 -0.00022948104129767445 0.59950305849294094 -0.0040034226967364363 0.015761709072745413 0.00056526320426302239 -0.010586559192902457 0.031467730193378965 0.0033876304481294641 0.0052724907311403786 -0.031111043110628334 0.015653063473462226 -0.0012836199167768571 -0.0067584013857221242 -0.015612550344186005 -0.0066852376966092921 -0.020954671287211735 -0.00066202444067133828 0.0021132395151438389 0.052680368421235718 0.04750349494886015 -0.0051198816612145316 -0.015958649099121657 0.080952460688584083 -0.0042619541344516071 0.026134722026201908 0.011763177738930165 0.0091581035754101595 -0.0058557377324975242 0.0033764702983368981 0.0049049920485300554
leaf_weight=13991 107 10171 402 3577 149 357 171 953 626 5188 126 179 275 397 338 2058 137 1165 1158 250 248 884 101 1013 3944 332 988 491 433 336
leaf_count=13991 107 10171 402 3577 149 357 171 953 626 5188 126 179 275 397 338 2058 137 1165 1158 250 248 884 101 1013 3944 332 988 491 433 336
internal_value=-0.00275299 0.03336 0.0230533 0.0142327 -0.0418091 -0.0316459 0.023034 0.0106683 0.00323855 -0.0365389 -0.00528384 -0.00407637 -0.00969272 -0.0215495 -0.0404431 -0.0296793 0.00154131 0.00787256 0.0353311 0.0168161 0.00107399 -0.0244444 -0.0018617 -0.0274468 0.0423993 0.0159987 0.0433496 -0.026875 0.0165033 0.0233615
internal_weight=50545 26262 16091 11052 24283 10292 7617 4040 1266 9026 3435 969 2213 1536 8057 2869 811 1899 1827 669 419 1260 376 1410 5039 1497 4932 640 612 473
internal_count=50545 26262 16091 11052 24283 10292 7617 4040 1266 9026 3435 969 2213 1536 8057 2869 811 1899 1827 669 419 1260 376 1410 5039 1497 4932 640 612 473
is_linear=0
shrinkage=0.05


Tree=16
num_leaves=31
num_cat=0
split_feature=18 18 18 104 22 66 32 66 18 22 66 70 93 35 17 68 17 18 23 9 110 66 37 86 22 66 66 62 104 72
split_gain=27701.9 1414.96 1371.81 986.145 926.589 806.496 692.907 714.456 336.809 990.367 409.334 250.972 239.348 235.094 206.838 145.199 141.772 131.168 126.998 128.291 119.643 112.856 118.416 103.004 102.008 187.402 93.5711 88.9534 85.1509 81.8746
threshold=17.598500251770023 26.916500091552738 16.158500671386722 -0.71471309661865223 16.592499732971195 0.098441746085882201 46.076499938964851 0.22390896081924441 14.491499900817873 13.953500270843508 0.25977703928947454 0.74650633335113536 2.4912141561508183 49.32350158691407 1.9944999814033511 0.19769420474767688 2.1295000314712529 16.881500244140629 20.144499778747562 2.8905000686645512 2.2214840650558476 0.085421830415725722 38.149999618530281 165.35100555419925 14.597499847412111 0.17117501795291903 0.31564502418041235 0.23408003896474841 -0.92914295196533192 1.1602059006690981
decision_type=2 2 2 2 2 2 2 2 2 2 2 2 2 2 2 2 2 2 2 2 2 2 2 2 2 2 2 2 2 2
left_child=2 3 8 20 5 -4 7 12 -1 10 -10 14 -5 -7 21 16 -6 -18 -13 -20 -2 -8 -23 -15 25 -11 29 -27 -22 -9
right_child=1 -3 4 6 15 13 11 26 9 24 -12 18 -14 23 -16 -17 17 -19 19 -21 28 22 -24 -25 -26 27 -28 -29 -30 -31
leaf_value=-0.11165904796491005 0.02929600940220798 0.5895279818622392 -0.009800940335094311 -0.00043955077407158431 -0.011827650328892859 0.0060708670079240084 0.0040153379074035376 -0.0057044872950186235 -0.0064080912085260344 -0.017427433652519309 0.0045158422354885097 0.030954942321861981 0.016827527720358938 -0.0022757168812887587 0.012176112475893853 -0.026401800403163912 -0.0090812838505252465 0.0019471771088308998 -0.0024370955212138059 0.063176891300157134 0.018975249551692566 -0.0027523671452873268 0.032500142811260173 0.0019038654001109379 -0.031908856024765342 0.0022773932863696003 -0.013913487351375587 -0.0035070064172609606 0.0062261137605069024 0.0023365046649905354
leaf_weight=13481 4442 9806 746 683 664 1203 718 667 419 571 744 1418 1100 262 1851 1493 183 391 235 170 674 656 127 260 5111 208 1013 229 862 326
leaf_count=13481 4442 9806 746 683 664 1203 718 667 419 571 744 1418 1100 262 1851 1493 183 391 235 170 674 656 127 260 5111 208 1013 229 862 326
internal_value=-0.00289571 0.0349564 -0.0389736 0.025271 -0.0160131 0.00617159 0.0147813 -0.00146477 -0.0447262 -0.0360615 0.00623388 0.0266763 0.0215648 0.0249565 0.0185561 -0.0360857 -0.0234249 -0.00522648 0.0416072 0.0169136 0.0410003 0.00476349 -0.00836526 -0.00306513 -0.0441003 -0.0295635 -0.0219342 -0.00491991 0.0289714 -0.0110272
internal_weight=50713 24748 25965 14942 5202 2471 8964 3789 20763 7282 1163 5175 1783 1725 3352 2731 1238 574 1823 405 5978 1501 783 522 6119 1008 2006 437 1536 993
internal_count=50713 24748 25965 14942 5202 2471 8964 3789 20763 7282 1163 5175 1783 1725 3352 2731 1238 574 1823 405 5978 1501 783 522 6119 1008 2006 437 1536 993
is_linear=0
shrinkage=0.05


Tree=17
num_leaves=31
num_cat=0
split_feature=18 18 104 18 22 32 66 98 18 21 66 66 102 109 72 104 26 24 14 66 18 22 61 66 95 109 88 66 66 99
split_gain=26906.8 1870.16 1227.12 817.272 700.504 537.223 714.151 516.443 449.564 571.429 320.585 297.513 286.701 270.718 219.297 194.145 169.397 162.656 140.488 139.522 138.115 133.312 121.624 265.84 116.218 115.459 102.216 98.2783 93.8143 113.501
threshold=17.111499786376957 27.298999786376957 -0.7307143211364745 14.395500183105471 13.57350015640259 45.962501525878913 0.22390896081924441 12.372499942779543 17.856500625610355 17.289500236511234 0.27620926499366766 0.11336861923336984 17.258358001708988 47.269643783569343 1.248779356479645 0.70371484756469738 14.928500175476076 18.164500236511234 3.4384999275207524 0.16310051083564761 17.856500625610355 19.101499557495121 1.4704999923706057 0.1826630234718323 1.7329999804496767 47.893924713134773 137.29663848876956 0.086938034743070616 0.36750645935535436 25.503999710083011
decision_type=2 2 2 2 2 2 2 2 2 2 2 2 2 2 2 2 2 2 2 2 2 2 2 2 2 2 2 2 2 2
left_child=3 2 18 -1 10 6 13 11 9 -7 -5 -6 22 -4 16 17 -10 19 -2 -14 -20 -18 23 -9 -13 -23 -25 -11 29 -8
right_child=1 -3 5 4 7 8 28 12 14 27 -12 24 15 -15 -16 -17 21 -19 20 -21 -22 25 -24 26 -26 -27 -28 -29 -30 -31
leaf_value=-0.10867609785548292 0.026917303677805472 0.57080159039852174 0.016028504421170098 -0.0052073609025053095 -0.011072285454905285 0.0062748776827215025 -0.0065218211990907271 -0.01568194405560739 0.00052416086525983727 -0.00095571304799637604 0.0064208142102670784 -0.0038004661644650997 -0.0041776602922819709 -0.0014062021692828885 0.025163903880224138 -0.026773623746073394 0.019053373479934077 -0.014207273247778974 -0.0031123787625162436 0.0078366502488190111 0.012859698305298829 0.014497788494978448 -0.028356045300639912 -0.0028595430503129296 0.0022345612815731996 -0.00012323980585975393 0.001646065001258279 -0.011054168784312779 -0.023637373510097249 0.008461087201499318
leaf_weight=13035 4122 9733 1151 280 465 712 1298 949 907 420 552 187 182 674 1582 584 904 370 89 296 1892 1042 6223 169 721 512 321 569 598 227
leaf_count=13035 4122 9733 1151 280 465 712 1298 949 907 420 552 187 182 674 1582 584 904 370 89 296 1892 1042 6223 169 721 512 321 569 598 227
internal_value=-0.00284048 0.0320861 0.0219325 -0.0407783 -0.0309364 0.0116459 -0.00296353 -0.0344464 0.0203219 -0.00185185 0.0132212 -0.00586307 -0.0387618 0.0199726 0.0279462 -0.0182263 0.0207281 -0.00294811 0.0397919 0.016318 0.0288491 0.0275427 -0.0425998 -0.0294997 0.010793 0.0186615 0.000408163 -0.0264408 -0.0226802 -0.0160984
internal_weight=50766 26432 16699 24334 11299 10596 3948 10467 6648 1701 832 1373 9094 1825 4947 1432 3365 848 6103 478 1981 2458 7662 1439 908 1554 490 989 2123 1525
internal_count=50766 26432 16699 24334 11299 10596 3948 10467 6648 1701 832 1373 9094 1825 4947 1432 3365 848 6103 478 1981 2458 7662 1439 908 1554 490 989 2123 1525
is_linear=0
shrinkage=0.05


Tree=18
num_leaves=31
num_cat=0
split_feature=65 19 65 104 22 68 76 76 65 23 68 91 23 68 17 23 68 68 105 25 26 104 85 110 44 23 102 68 65 14
split_gain=24137.7 1728.15 1398.27 1067.94 940.758 719.052 437.523 612.93 405.709 795.153 558.027 340.494 281.785 303.776 243.922 267.567 260.34 219.532 193.169 183.952 155.677 120.04 115.938 114.148 108.639 107.533 104.897 107.323 99.7083 96.3038
threshold=17.565833091735843 28.465499877929691 16.122833251953129 -0.75528669357299794 16.592499732971195 0.21053731441497806 0.1305249631404877 -0.64944189786911 13.887833118438722 12.654500007629396 0.50065901875495922 1.5374999642372134 16.933500289916996 0.41215294599533087 1.8644999861717226 14.648499965667726 0.2701257467269898 0.37451060116291052 50.239500045776374 15.96050024032593 11.654500007629396 -0.92914295196533192 286.38699340820318 2.1369546651840214 26.082999229431156 18.171500205993656 17.933214187622074 0.2519806325435639 16.905166625976566 2.8285000324249272
decision_type=2 2 2 2 2 2 2 2 2 2 2 2 2 2 2 2 2 2 2 2 2 2 2 2 2 2 2 2 2 2
left_child=2 3 8 21 5 19 7 12 -1 10 -10 29 -5 -14 -11 16 -16 22 26 -4 -7 -2 -13 -23 25 -9 -6 -28 -20 -8
right_child=1 -3 4 6 18 20 11 24 9 14 -12 17 13 -15 15 -17 -18 -19 28 -21 -22 23 -24 -25 -26 -27 27 -29 -30 -31
leaf_value=-0.11704224642340214 0.034329088173357294 0.58316155055144725 -0.012370143570021242 0.016378083710206683 -0.02378486575276071 -0.0024519137461344268 0.010002802805598777 0.020449298344088887 -0.0060539831577734573 -0.040964372103058637 0.0041255350895566421 -0.0015870958387609769 0.0027583213099399376 -0.011866806687399124 -0.012492290101685823 -0.021401666288326206 0.0017724880867561856 -0.009614010303718069 -0.011484674839717003 0.0012462180870032925 0.0067211532494620314 0.016287233597931383 0.0084228451204355192 0.00629976734161728 0.039709412251540503 0.0025444287033835169 0.0022009830476325655 -0.026588720743497076 0.0017833944946017866 0.0015495562043015276
leaf_weight=11013 3104 9061 643 424 1949 140 578 426 668 4837 767 1054 1535 840 380 2377 612 1213 163 257 1372 1199 631 1184 2583 678 186 204 322 420
leaf_count=11013 3104 9061 643 424 1949 140 578 426 668 4837 767 1054 1535 840 380 2377 612 1213 163 257 1372 1199 631 1184 2583 678 186 204 322 420
internal_value=-0.00303424 0.0320818 -0.0368482 0.0221343 -0.0137701 0.00916252 0.0127047 0.0206599 -0.0426988 -0.035209 -0.00087108 -0.000539014 0.00301894 -0.00368421 -0.0412137 -0.0308845 -0.00907258 -0.00921325 -0.0333569 -0.0262222 0.0302249 0.0399763 0.00246291 0.0315359 0.0340521 0.0209239 -0.0393117 -0.015641 -0.00463918 0.0246493
internal_weight=50820 24930 25890 15869 5236 2412 10382 6486 20654 9641 1435 3896 2799 2375 8206 3369 992 2898 2824 900 1512 5487 1685 2383 3687 1104 2339 390 485 998
internal_count=50820 24930 25890 15869 5236 2412 10382 6486 20654 9641 1435 3896 2799 2375 8206 3369 992 2898 2824 900 1512 5487 1685 2383 3687 1104 2339 390 485 998
is_linear=0
shrinkage=0.05


Tree=19
num_leaves=31
num_cat=0
split_feature=18 18 104 18 23 66 76 76 17 62 66 66 66 104 110 23 18 22 18 21 22 18 66 70 68 76 104 66 17 23
split_gain=25160.7 2051.43 1197.23 796.003 774.277 840.79 536.762 658.667 362.709 351.519 437.792 341.304 310.971 228.181 223.231 188.477 166.086 156.142 153.591 196.458 164.568 134.953 130.233 115.229 113.564 110.646 104.005 97.9456 89.4131 84.0205
threshold=16.998499870300297 28.810000419616703 -0.68064498901367176 14.193500041961672 13.574500083923342 0.25977703928947454 0.11753643304109575 -0.65933948755264271 1.8334999680519106 0.20636102557182315 0.086938034743070616 0.26168896257877355 0.27620926499366766 -0.94092845916748036 2.1369546651840214 18.546500205993656 17.921500205993656 16.701499938964847 17.856500625610355 17.289500236511234 18.038499832153324 15.93050003051758 0.076794818043708815 0.5029856562614442 0.32021398842334753 -0.065402328968048082 -0.64571428298950184 0.14996110647916797 1.4434999823570254 12.600500106811525
decision_type=2 2 2 2 2 2 2 2 2 2 2 2 2 2 2 2 2 2 2 2 2 2 2 2 2 2 2 2 2 2
left_child=3 2 13 -1 5 24 7 11 -6 10 -10 23 18 -2 -15 -13 -16 21 19 -8 -20 27 -22 28 -5 -9 -7 -12 -4 -26
right_child=1 -3 6 4 8 26 12 25 9 -11 17 15 -14 14 16 -17 -18 -19 20 -21 22 -23 -24 -25 29 -27 -28 -29 -30 -31
leaf_value=-0.10294013600958066 0.031639807448027572 0.56992840359638464 -0.0083110863882705395 -0.014547048288459586 -0.032744358559698129 0.00014712896029251966 0.0021422314572305369 0.029186522871085786 -0.011839054610195455 -0.018133428920507424 -0.0061991435928544728 0.021285030245286052 -0.011687565325198081 0.01348923916605731 -0.0041226426552739785 -0.013807094283793743 0.0059691291639523136 -0.029616166449708992 0.012694368328708362 -0.0068628477085169951 0.0068172385663968884 0.0045356863616618174 -0.00066396890078639363 0.0064482285349424908 -0.0044519623028246086 0.0054419742142766125 0.0051742470648997955 0.0032540213636671925 0.0014196431731450688 -0.00067644263830572986
leaf_weight=12295 3275 8852 117 704 4690 386 320 3217 711 2624 171 80 1038 2045 117 790 1684 99 358 491 483 493 1343 952 390 684 842 194 985 390
leaf_count=12295 3275 8852 117 704 4690 386 320 3217 711 2624 171 80 1038 2045 117 790 1684 99 358 491 483 493 1343 952 390 684 842 194 985 390
internal_value=-0.00310508 0.030161 0.02046 -0.0403122 -0.0309731 -0.007559 0.0100111 0.0185568 -0.0380428 -0.0275396 -0.00959233 0.000615595 -0.00445078 0.0363924 0.0281331 -0.0256322 0.0152971 0.0124869 0.00372287 -0.0148582 0.0106227 0.0193473 0.00454545 0.0117332 -0.0328841 0.0320046 0.0230456 -0.00369863 0.000725953 -0.0197436
internal_weight=50820 26831 17979 23989 11694 2712 10858 6825 8982 4292 1668 2924 4033 7121 3846 870 1801 957 2995 811 2184 858 1826 2054 1484 3901 1228 365 1102 780
internal_count=50820 26831 17979 23989 11694 2712 10858 6825 8982 4292 1668 2924 4033 7121 3846 870 1801 957 2995 811 2184 858 1826 2054 1484 3901 1228 365 1102 780
is_linear=0
shrinkage=0.05


Tree=20
num_leaves=31
num_cat=0
split_feature=18 18 18 22 104 66 14 66 66 23 18 70 26 109 26 105 24 75 66 36 92 66 102 110 18 22 16 104 23 66
split_gain=24283.4 1671.42 1357.27 932.491 876.898 705.748 512.547 705.025 362.249 661.617 926.006 308.859 277.706 269.067 250.089 234.771 171.244 148.105 139.018 122.288 108.83 107.155 103.677 101.468 96.6768 193.05 162.062 96.3859 95.5922 92.6983
threshold=17.532500267028812 29.278499603271488 15.88849973678589 16.254499435424808 -0.82485675811767567 0.081799890846014037 3.2065000534057622 0.19433190673589709 0.28237956762313848 14.392499923706056 13.907499790191652 0.74650633335113536 15.291500091552736 47.269643783569343 12.294499874114992 50.580501556396491 20.601499557495121 0.85939821600914013 0.34213042259216314 42.861000061035163 3.594500064849854 0.12941578030586245 16.644143104553226 2.2101149559021001 14.792500019073488 14.740499973297121 1.6344999670982363 -0.65514087677001942 17.783500671386722 0.10267748683691026
decision_type=2 2 2 2 2 2 2 2 2 2 2 2 2 2 2 2 2 2 2 2 2 2 2 2 2 2 2 2 2 2
left_child=2 4 8 5 23 -4 11 13 24 10 -10 12 29 -8 -7 21 -13 18 20 -19 -9 22 -5 -2 -1 26 -26 -12 -17 -6
right_child=1 -3 3 15 6 14 7 17 9 -11 27 16 -14 -15 -16 28 -18 19 -20 -21 -22 -23 -24 -25 25 -27 -28 -29 -30 -31
leaf_value=-0.084893158200800845 0.029448729154527523 0.55200699180889934 -0.0083969354722396982 -0.010267060907118887 0.0016822268952267018 -0.0019146842849124823 0.019078012576289539 -0.0062274900294140073 -0.049443128827631889 -0.096425198651646407 1.1151039733370283e-05 0.028199237720222748 0.0092148619096260372 0.00061476084984048998 0.0037375007580235931 0.0024534556310485734 0.0020686124481841262 -0.003286593283668893 -0.017177311366854475 0.070228219318893545 0.00099249119829787342 -0.026534030043341872 -0.0028605502557020658 0.011239377806826135 -0.0057219093574051531 -0.024717901349492612 0.0010888031047826985 0.0071205517475659624 -0.0039166260479360565 -0.002740578907236202
leaf_weight=12204 3255 8673 627 926 790 331 1612 703 711 1801 210 1781 2683 944 1693 230 294 190 982 194 882 1642 535 1427 753 2947 291 658 227 620
leaf_count=12204 3255 8673 627 926 790 331 1612 703 711 1801 210 1781 2683 944 1693 230 294 190 982 194 882 1642 535 1427 753 2947 291 658 227 620
internal_value=-0.00316042 0.0319217 -0.037214 -0.0168491 0.0225133 0.00560166 0.015182 0.00409479 -0.0436756 -0.028787 -0.00516149 0.0250811 0.0171146 0.0233177 0.0199605 -0.0335674 0.0407952 -0.0125551 -0.0168874 0.0164063 -0.00772871 -0.038495 -0.0286448 0.0407945 -0.046783 -0.0400276 -0.0215517 0.0294931 -0.000109409 -0.000851064
internal_weight=50816 25030 25786 6211 16357 2651 11675 5507 19575 3380 1579 6168 4093 2556 2024 3560 2075 2951 2567 384 1585 3103 1461 4682 16195 3991 1044 868 457 1410
internal_count=50816 25030 25786 6211 16357 2651 11675 5507 19575 3380 1579 6168 4093 2556 2024 3560 2075 2951 2567 384 1585 3103 1461 4682 16195 3991 1044 868 457 1410
is_linear=0
shrinkage=0.05


Tree=21
num_leaves=31
num_cat=0
split_feature=18 18 18 104 22 18 22 66 66 76 76 91 105 66 66 26 105 17 22 66 51 26 72 72 70 66 104 70 18 43
split_gain=23153.5 1991.06 1056.11 971.245 830.209 590.823 793.366 494.614 416.457 400.285 603.185 422.859 389.083 314.828 308.547 220.077 161.759 147.386 143.98 341.357 134.008 122.358 122.212 103.51 96.9228 96.3598 91.9828 83.7248 97.6851 81.9535
threshold=17.168499946594242 30.098000526428226 14.047500133514406 -0.87421417236328114 13.57350015640259 15.88849973678589 16.159500122070316 0.079379539936780943 0.22765275835990909 0.091500688344240202 -0.6293143332004546 1.5374999642372134 49.531499862670906 0.26168896257877355 0.22390896081924441 12.294499874114992 50.613498687744148 3.1955000162124638 14.648499965667726 0.14854105561971667 185.16583251953128 14.276000022888185 1.248779356479645 1.1085817217826845 0.43974822759628301 0.085421830415725722 -0.65514087677001942 0.75209081172943126 17.921500205993656 13.950500011444094
decision_type=2 2 2 2 2 2 2 2 2 2 2 2 2 2 2 2 2 2 2 2 2 2 2 2 2 2 2 2 2 2
left_child=2 3 -1 25 8 18 7 -7 -4 10 12 -11 13 23 17 -9 -8 27 19 -6 -21 22 -12 -5 -18 -2 -10 28 -13 -17
right_child=1 -3 4 9 5 6 16 15 26 11 21 14 -14 -15 -16 29 24 -19 -20 20 -22 -23 -24 -25 -26 -27 -28 -29 -30 -31
leaf_value=-0.097498494950184617 0.0088218984946220932 0.55680658270917704 -0.0065695609478940049 5.3289312261739501e-05 -0.017171460909302994 -0.0081490281164580125 -0.018976565964397809 -0.0020152740660020819 -0.00033478792289844963 0.0058007498622295378 -0.0020921274597753836 -0.0044335687977937969 0.010120320434547381 -0.012612690243015125 -0.0087790453188125294 0.00070732953274657009 0.0021975716661909671 0.0086246860979522395 -0.031705464506585825 -0.0025032781646784131 0.0027619487263296884 0.030716576070759061 0.014403090389648023 0.0077179442263646258 -0.0081242943324848944 0.031499995586283268 0.0057818584718127399 0.0053105492608235497 -0.00010972304683409817 0.0040724389996883662
leaf_weight=11629 1096 8280 315 1301 1188 495 2480 306 195 1759 289 313 1171 888 1423 483 189 800 4696 447 278 3768 172 558 126 3066 715 155 1139 937
leaf_count=11629 1096 8280 315 1301 1188 495 2480 306 195 1759 289 313 1171 888 1423 483 189 800 4696 447 278 3768 172 558 126 3066 715 155 1139 937
internal_value=-0.00309434 0.0295936 -0.038051 0.0202145 -0.0281712 -0.0322968 -0.0193581 0.00294912 0.0109796 0.0138031 0.0208727 0.00349794 0.00673813 -0.00354933 -0.00582245 0.0155852 -0.0370841 0.00508932 -0.0421168 -0.0305541 -0.00351724 0.0339678 0.00965293 0.00814954 -0.00333333 0.0413743 0.0281319 -0.00364032 -0.00736915 0.0238732
internal_weight=50657 26178 24479 17898 12850 11625 5016 2221 1225 13736 8147 5589 3918 2747 3830 1726 2795 2407 6609 1913 725 4229 461 1859 315 4162 910 1607 1452 1420
internal_count=50657 26178 24479 17898 12850 11625 5016 2221 1225 13736 8147 5589 3918 2747 3830 1726 2795 2407 6609 1913 725 4229 461 1859 315 4162 910 1607 1452 1420
is_linear=0
shrinkage=0.05


Tree=22
num_leaves=31
num_cat=0
split_feature=19 19 104 104 85 66 23 85 8 25 70 86 104 109 99 23 66 66 35 65 61 70 19 66 65 66 23 36 25 104
split_gain=20914.2 1847.92 1373.52 891.923 712.794 468.674 905.411 493.268 632.401 409.292 713.672 337.922 318.544 300.863 280.922 242.128 319.027 213.176 200.082 258.206 216.705 184.42 176.667 215.023 153.986 140.146 131.454 128.855 117.465 110.54
threshold=17.612500190734867 30.541500091552738 -0.48264265060424799 -0.87421417236328114 290.53599548339849 0.13646285980939868 18.044500350952152 486.57000732421881 550.87100219726574 11.931499958038332 0.98565343022346508 163.2390060424805 -0.97585630416870106 47.955429077148445 14.594500064849855 15.575500011444094 0.12351743131875993 0.36750645935535436 48.970500946044929 15.597833156585695 1.8774999976158144 0.60786858201026928 13.260499954223635 0.30469201505184179 18.213500022888187 0.068615678697824492 22.097000122070316 38.128499984741218 13.477499961853029 0.20578575134277347
decision_type=2 2 2 2 2 2 2 2 2 2 2 2 2 2 2 2 2 2 2 2 2 2 2 2 2 2 2 2 2 2
left_child=2 3 11 -2 9 13 -7 24 -9 10 -4 12 -1 -5 -14 16 -6 -10 19 28 25 29 -12 -24 -8 -21 27 -26 -11 -17
right_child=1 -3 4 5 15 6 7 8 17 18 22 -13 14 -15 -16 21 -18 -19 -20 20 -22 -23 23 -25 26 -27 -28 -29 -30 -31
leaf_value=0.0040290915111683033 0.025515745065672668 0.54876634436351301 -0.016711499208877711 0.011476902292650949 -0.015738586203543913 0.025119470601951122 -0.0092127418534269975 0.061569462145950563 0.0023424568765033627 -0.00323826747604441 -0.023196082352486248 0.003890602067095239 0.0017337054027976252 0.0021175335778945482 -0.0079238124061494549 0.0045183296232632845 0.0069087727149362626 -0.027239541870642193 -0.069073584317055306 -0.0043139969798250636 -0.015633680610276101 -0.03473691736284952 -0.00047354960331018607 0.006784030956415066 -0.0012138630427795507 0.0027497721861401204 -0.0073524923264317371 0.039411430605467146 -0.04963319316830566 -0.0074931595664219589
leaf_weight=390 3953 8060 2273 3541 234 1181 462 1105 673 231 127 900 453 2102 1611 188 518 415 12515 223 694 591 517 405 1379 390 1615 203 3189 531
leaf_count=390 3953 8060 2273 3541 234 1181 462 1105 673 231 127 900 453 2102 1611 188 518 415 12515 223 694 591 517 405 1379 390 1615 203 3189 531
internal_value=-0.00319623 0.0297562 -0.0345112 0.0202327 -0.0389375 0.0137662 0.00515427 -0.00290499 0.0158459 -0.0417477 -0.0256773 -0.00465116 -0.0142624 0.0244994 -0.022093 -0.0109117 0.0117021 -0.0112132 -0.044844 -0.03608 -0.0171767 -0.0238931 0.00843661 0.0160521 -0.0141432 0.00448613 -0.010244 0 -0.0433041 -0.00688456
internal_weight=50669 24689 25980 16629 22626 12676 7033 5852 2193 20564 3322 3354 2454 5643 2064 2062 752 1088 17242 4727 1307 1310 1049 922 3659 613 3197 1582 3420 719
internal_count=50669 24689 25980 16629 22626 12676 7033 5852 2193 20564 3322 3354 2454 5643 2064 2062 752 1088 17242 4727 1307 1310 1049 922 3659 613 3197 1582 3420 719
is_linear=0
shrinkage=0.05


Tree=23
num_leaves=31
num_cat=0
split_feature=18 18 18 104 23 68 35 76 76 23 68 105 105 68 35 68 23 68 70 26 70 86 18 68 9 76 68 32 68 18
split_gain=21417.8 2147.99 1090.3 964.619 920.785 532.904 492.788 467.489 561.626 400.7 741.929 397.815 365.332 219.303 180.79 168.41 155.576 148.693 142.768 125.843 121.364 119.752 115.025 109.974 106.306 91.4539 87.2769 86.1009 86.0012 85.5088
threshold=16.998499870300297 31.018499374389652 13.907499790191652 -0.90778636932373036 13.111500263214113 0.42172527313232427 49.186500549316413 0.06540259532630445 -0.66912424564361561 16.76149940490723 0.18424256145954135 49.599498748779304 49.382499694824226 0.4053021520376206 45.53450012207032 0.65770551562309276 18.419500350952152 0.57332083582878124 0.40158809721469885 14.637499809265138 0.53897115588188182 197.15592956542972 15.706500053405763 0.10262514278292657 1.4254999756813052 -0.80900928378105152 0.33225893974304205 46.772499084472663 0.17343090474605563 17.990499496459964
decision_type=2 2 2 2 2 2 2 2 2 2 2 2 2 2 2 2 2 2 2 2 2 2 2 2 2 2 2 2 2 2
left_child=2 3 -1 28 5 26 9 8 12 10 22 13 15 14 -9 25 -15 24 -11 20 -10 -12 -6 -24 -7 -5 -4 -13 -2 -16
right_child=1 -3 4 7 6 17 -8 11 19 18 21 27 -14 16 29 -17 -18 -19 -20 -21 -22 -23 23 -25 -26 -27 -28 -29 -30 -31
leaf_value=-0.093419892894171325 0.0077467655081434831 0.5357280324859135 -0.010104398121916791 -0.0020335964759544468 -0.011222892577248357 0.0057598275400888802 -0.02626130117587451 0.0083182538910365981 -0.0021048782928268397 -0.0031593616112465029 0.00050201060187768929 0.0013284280048381448 0.0077035238724226579 0.016912180006334411 -0.00355931608716924 -0.023714419301744984 -0.0098717305505030776 0.0070178989407098328 -0.023858397384836572 0.028635138823587883 0.012347821980012963 0.0057431303668890269 -0.0053518946761101031 0.0015402110618865095 -6.7977156659448926e-05 0.0037817431795474478 -0.0020950397238451049 0.0066995576110430834 0.029360750338595309 6.5307112342694043e-05
leaf_weight=11018 928 7825 524 1263 1188 170 5366 828 327 396 769 762 1425 84 594 329 1262 558 1691 4132 312 535 294 225 761 963 427 1342 2878 1389
leaf_count=11018 928 7825 524 1263 1188 170 5366 828 327 396 769 762 1425 84 594 329 1262 558 1691 4132 312 535 294 225 761 963 427 1342 2878 1389
internal_value=-0.00301691 0.0278178 -0.0373589 0.018663 -0.0274954 0.000163934 -0.033945 0.012963 0.0204262 -0.0228129 -0.0111425 0.00253154 0.00655779 -0.00643493 0.00151192 -0.00475538 -0.0230312 0.0188381 -0.0396502 0.0319954 0.0113459 0.0172546 -0.0328354 -0.0131985 0.0066058 0.000179695 -0.0290747 0.0202471 0.0411456 -0.0066818
internal_weight=50565 26643 23922 18818 12904 2440 10464 15012 8751 5098 3011 6261 3980 4157 2811 2555 1346 1489 2087 4771 639 1304 1707 519 931 2226 951 2104 3806 1983
internal_count=50565 26643 23922 18818 12904 2440 10464 15012 8751 5098 3011 6261 3980 4157 2811 2555 1346 1489 2087 4771 639 1304 1707 519 931 2226 951 2104 3806 1983
is_linear=0
shrinkage=0.05


Tree=24
num_leaves=31
num_cat=0
split_feature=18 18 18 23 104 66 104 18 21 22 66 8 36 96 95 66 23 102 23 68 31 66 18 23 68 98 66 99 26 92
split_gain=20619.8 2194.39 1120.9 969.623 945.482 727.027 495.875 467.363 887.07 450.188 541.521 411.747 853.439 334.657 316.541 248.1 227.553 222.556 194.331 204.322 189.624 146.454 135.771 234.995 102.672 102.421 102.105 99.8116 93.8126 93.3356
threshold=16.942500114440922 31.454500198364261 13.765500068664553 13.308499813079836 -0.94092845916748036 0.22390896081924441 -0.36828374862670893 17.856500625610355 17.41250038146973 18.245500564575199 0.1597094610333443 537.27450561523449 38.714500427246101 0.48984785377979284 2.3429286479949956 0.3004820197820664 18.791500091552738 17.258358001708988 15.971499919891359 0.186438724398613 50.046501159667976 0.12351743131875993 16.016500473022464 17.847000122070316 0.2922984659671784 17.776499748229984 0.097165953367948546 24.228500366210941 18.025499343872074 1.5374999642372134
decision_type=2 2 2 2 2 2 2 2 2 2 2 2 2 2 2 2 2 2 2 2 2 2 2 2 2 2 2 2 2 2
left_child=2 4 -1 5 -2 24 13 8 21 -9 14 12 16 -5 -11 -13 -12 -8 19 -19 -7 29 -15 -24 -4 28 -10 -16 -18 -6
right_child=1 -3 3 6 7 20 17 9 26 10 11 15 -14 22 27 -17 25 18 -20 -21 -22 -23 23 -25 -26 -27 -28 -29 -30 -31
leaf_value=-0.093820906744278079 0.024598947110651539 0.52611663772807293 -0.012969677231054045 0.003014064788942106 -0.0016182043758176336 0.00038911254780922279 -0.024546741753874723 0.016330912029629108 -0.0016117832901536566 0.001498776377828648 0.021415064326328271 0.0016678784955137971 0.057026309618116146 -0.010430627292813455 0.0078475329357861057 -0.018692667105916352 -0.0033871064097297679 -0.006489674457812367 -0.021117762543587573 0.0050935487893760019 0.0062068582494853256 0.0081888773053369942 0.0010563637312337448 -0.012688948492893105 -0.0024950979965914222 -0.0077155179349345463 -0.0094062719247816964 0.026571629521876351 0.001938914109015677 0.0024292855187189491
leaf_weight=10511 3407 7630 596 558 243 945 6727 1512 430 1930 283 713 1408 906 3091 1031 786 245 778 239 785 693 499 379 612 657 968 1232 612 364
leaf_count=10511 3407 7630 596 558 243 945 6727 1512 430 1930 283 713 1408 906 3091 1031 786 245 778 239 785 693 499 379 612 657 968 1232 612 364
internal_value=-0.0029998 0.02691 -0.036947 -0.0272854 0.0179597 -0.0019401 -0.0344933 0.0128534 -0.00611564 0.0167144 0.013408 0.001949 0.011292 -0.0142613 0.0234687 -0.0181193 -0.0072284 -0.0404243 -0.0211569 0.00371901 0.0188439 0.0236154 -0.0248318 -0.01082 -0.0317053 -0.013017 -0.0337625 0.0309854 -0.00536481 0.00568369
internal_weight=50770 26990 23780 13269 19360 2938 10331 15953 2698 13255 11743 5490 3746 2342 6253 1744 2338 7989 1262 484 1730 1300 1784 878 1208 2055 1398 4323 1398 607
internal_count=50770 26990 23780 13269 19360 2938 10331 15953 2698 13255 11743 5490 3746 2342 6253 1744 2338 7989 1262 484 1730 1300 1784 878 1208 2055 1398 4323 1398 607
is_linear=0
shrinkage=0.05


Tree=25
num_leaves=31
num_cat=0
split_feature=18 18 18 23 66 104 18 22 22 66 8 36 95 43 66 66 66 91 17 23 66 66 68 23 18 70 113 95 92 113
split_gain=19943.9 1825.67 1603.8 867.833 1327.94 721.192 569.328 743.067 397.623 539.258 353.295 915.248 325.349 281.575 251.704 240.924 240.203 222.597 182.208 189.067 422.601 168.057 164.472 127.197 102.391 92.9644 90.096 89.2866 89.1611 83.8679
threshold=17.598500251770023 31.934499740600589 13.907499790191652 14.392499923706056 0.13804548233747485 -0.98807239532470692 16.345499992370609 16.701499938964847 18.245500564575199 0.1597094610333443 537.27450561523449 38.714500427246101 2.3429286479949956 11.236500263214113 0.065310370177030577 0.36750645935535436 0.084200158715248122 1.591499984264374 2.0515000820159917 16.152500152587894 0.075579244643449797 0.11336861923336984 0.55675175786018383 17.597499847412113 24.020500183105472 0.4924477636814118 18.189499855041507 1.6912143230438235 1.6125000119209292 17.558500289916996
decision_type=2 2 2 2 2 2 2 2 2 2 2 2 2 2 2 2 2 2 2 2 2 2 2 2 2 2 2 2 2 2
left_child=2 5 -1 4 -4 -2 18 14 21 12 11 17 25 22 28 -12 29 -11 -5 20 -20 27 -6 -19 -14 -10 -15 -7 -8 -9
right_child=1 -3 3 6 13 8 7 16 9 10 15 -13 24 26 -16 -17 -18 23 19 -21 -22 -23 -24 -25 -26 -27 -28 -29 -30 -31
leaf_value=-0.084557864356340592 0.028333455683471166 0.51048575930236262 -0.012055039454747752 -0.030369569343427473 -0.0022539598913621007 -0.0019454138997597071 -0.0046812036760585764 -0.0033789389264077489 0.00014594655044710691 0.0075956298738489641 -0.0009505877757696624 0.054469533731485512 0.0072677318831381402 0.0016576010476289761 0.0039209504622911952 -0.024780172642703848 -0.014952141680998388 0.02319925666380751 -0.0078142987367136214 -0.018404408362561055 0.002814354817987974 0.019484996595463502 0.0036113043876135897 -0.0038380046198970065 0.024562047582728754 0.0077525323311124165 0.0053771264764458154 0.0045276227620602684 0.0018281644063410597 0.00068983562696800504
leaf_weight=11067 2662 7491 1774 3973 789 157 218 354 1690 447 1078 1436 3157 1237 859 773 1551 99 604 1405 420 1237 255 2079 1397 436 924 609 140 429
leaf_count=11067 2662 7491 1774 3973 789 157 218 354 1690 447 1078 1436 3157 1237 859 773 1551 99 604 1405 420 1237 255 2079 1397 436 924 609 140 429
internal_value=-0.00308688 0.0290407 -0.0336686 -0.0229775 -0.00593493 0.0200933 -0.0315031 -0.0154464 0.015728 0.0124365 0.00143775 0.00968973 0.0221707 0.0132761 0.0162284 -0.0166667 -0.0319623 -0.00786667 -0.0404092 -0.0296212 -0.0132813 0.0364204 -0.00804598 -0.0144628 0.0297101 0.0060207 0.023577 0.0180157 -0.0189944 -0.00938697
internal_weight=50747 24748 25999 14932 4979 17257 9953 3551 14595 12592 5912 4061 6680 3205 1217 1851 2334 2625 6402 2429 1024 2003 1044 2178 4554 2126 2161 766 358 783
internal_count=50747 24748 25999 14932 4979 17257 9953 3551 14595 12592 5912 4061 6680 3205 1217 1851 2334 2625 6402 2429 1024 2003 1044 2178 4554 2126 2161 766 358 783
is_linear=0
shrinkage=0.05


Tree=26
num_leaves=31
num_cat=0
split_feature=18 18 18 22 104 18 22 76 76 66 66 43 66 66 110 18 23 18 37 23 105 23 66 31 22 66 66 18 26 112
split_gain=19012.4 2307.08 1192.74 1037.52 862.607 575.359 1036.24 501.354 611.247 487.578 320.982 320.387 290.372 266.006 231.914 234.426 196.376 258.924 187.644 200.998 147.079 146.858 183.073 139.35 122.939 354.779 122.476 121.962 113.787 111.931
threshold=16.881500244140629 32.453001022338874 13.622499942779543 13.16249990463257 -0.75528669357299794 15.251500129699709 15.709499835968019 0.10452751815319063 -0.61908787488937367 0.064299646764993681 0.34457139670848852 12.238500118255617 0.22390896081924441 0.35483485460281378 2.1369546651840214 19.443500518798832 15.796499729156496 17.990499496459964 36.914501190185554 17.978500366210941 50.541500091552741 16.599500656127933 0.13498642295598987 49.932498931884773 14.435500144958498 0.16310051083564761 0.14854105561971667 17.791500091552738 12.363500118255617 14.33550024032593
decision_type=2 2 2 2 2 2 2 2 2 2 2 2 2 2 2 2 2 2 2 2 2 2 2 2 2 2 2 2 2 2
left_child=2 4 -1 12 14 24 9 8 10 -7 21 -11 -4 16 -2 -16 -9 -18 19 -10 -8 28 -23 -14 25 -5 -21 -24 -6 -27
right_child=1 -3 3 5 7 6 20 13 18 11 -12 -13 23 -15 15 -17 17 -19 -20 26 -22 22 27 -25 -26 29 -28 -29 -30 -31
leaf_value=-0.088729934517429776 0.019194295255638497 0.50211139656917803 -0.0040852898896786899 -0.0152097226522522 -0.0013450135912014716 -0.0071428835504103285 -0.017828579667392708 0.0042519056046501193 0.011766148790443777 -0.0013500212772423305 -0.01760085795007189 0.0030870079631455383 0.00040071524027629479 -0.017134753853832053 -0.0011414973862305723 0.013182469649038709 -0.0047280973112931342 0.00094495435867116841 0.03356466368385487 0.0045512473501192474 -0.0024488646936942082 0.0049382826280059966 -0.01043992101645639 0.0083424435322108966 -0.035164984653109868 -0.0025172678160126694 -0.0060952779623321797 -0.0010113888814644589 0.0075452588656076186 0.0027906451481307659
leaf_weight=9868 3555 7305 274 1724 161 576 3428 647 620 845 535 1459 315 503 620 2166 944 2897 3231 407 534 1238 227 609 3431 249 354 1168 590 282
leaf_count=9868 3555 7305 274 1724 161 576 3428 647 620 845 535 1459 315 503 620 2166 944 2897 3231 407 534 1238 227 609 3431 249 354 1168 590 282
internal_value=-0.002953 0.0255632 -0.0357888 -0.0262567 0.0167271 -0.0305077 -0.0207395 0.00959178 0.0169558 0.00208333 0.00243685 0.0123698 0.018197 -0.00299539 0.0319429 0.0211414 0.000868984 -0.00342359 0.0292931 0.0138668 -0.0373296 0.00812648 0.00256362 0.0316017 -0.0422617 -0.0331929 -0.00335085 -0.00985663 0.0276298 0.00254237
internal_weight=50762 27168 23594 13726 19863 12528 6842 13522 8531 2880 3919 2304 1198 4991 6341 2786 4488 3841 4612 1381 3962 3384 2633 924 5686 2255 761 1395 751 531
internal_count=50762 27168 23594 13726 19863 12528 6842 13522 8531 2880 3919 2304 1198 4991 6341 2786 4488 3841 4612 1381 3962 3384 2633 924 5686 2255 761 1395 751 531
is_linear=0
shrinkage=0.05


Tree=27
num_leaves=31
num_cat=0
split_feature=18 18 18 35 23 66 104 72 76 76 66 66 70 18 84 66 95 105 22 66 58 33 72 64 71 69 99 72 32 22
split_gain=18226.9 1869.88 1691.46 997.176 973.439 1305.16 666.893 472.273 378.818 468.799 404.264 396.863 299.76 273.191 232.587 203.574 169.172 159.915 152.108 157.997 129.878 184.902 122.032 125.609 106.557 147.093 104.766 100.343 95.7281 95.604
threshold=17.664500236511234 32.918498992919929 13.622499942779543 49.520500183105476 16.441499710083011 0.11762274801731111 -0.96314334869384755 1.3592214584350588 0.06540259532630445 -0.59831893444061268 0.34213042259216314 0.31809398531913763 0.51816198229789745 15.303500175476076 156.20349884033206 0.051866279914975173 1.8515713810920718 50.15950012207032 18.245500564575199 0.13208204507827762 0.097542606294155135 41.978500366210945 0.92393404245376598 0.46541908383369451 12.25203323364258 14.988349914550783 24.503499984741214 1.2657481431961062 50.50849914550782 12.657499790191652
decision_type=2 2 2 2 2 2 2 2 2 2 2 2 2 2 2 2 2 2 2 2 2 2 2 2 2 2 2 2 2 2
left_child=2 6 -1 4 5 13 -2 29 9 10 18 17 16 -4 24 -15 -6 22 -8 -20 26 -22 23 -10 -7 -26 -11 -21 -9 -5
right_child=1 -3 3 7 12 14 8 28 11 20 -12 -13 -14 15 -16 -17 -18 -19 19 27 21 -23 -24 -25 25 -27 -28 -29 -30 -31
leaf_value=-0.084779471412134919 0.024516741378147345 0.49215589693114875 -0.011138161288325545 0.00065239228286047008 -0.0093682774779500384 0.0071566929674141029 0.011653429633739344 -0.0022520738618711177 -0.0013808059110727911 0.0074072406523725933 -0.015334676054442298 -0.011515898035926675 -0.020492229542229536 -0.0042050415825196199 0.0053903689060512683 0.0015669652678394375 -0.00040245224399395598 0.0062720418744174116 0.0064771512369912188 -0.002010827021198125 -0.0012741230772864043 0.048504666499755003 0.004194022529296149 0.011402149052565137 -0.00113345286362172 0.0024835389553674149 0.026916137683181421 0.0048836425140384781 0.00079820814618423172 -0.021951694733519836
leaf_weight=9864 2965 7106 1320 84 387 163 565 611 2081 1371 589 774 2219 451 1840 522 1061 1200 1668 1009 209 1732 1347 405 926 468 1166 383 474 5742
leaf_count=9864 2965 7106 1320 84 387 163 565 611 2081 1371 589 774 2219 451 1840 522 1061 1200 1668 1009 209 1732 1347 405 926 468 1166 383 474 5742
internal_value=-0.00303341 0.0278836 -0.0321024 -0.022197 -0.0115582 0.0013884 0.019085 -0.0366011 0.0146665 0.0212724 0.00930233 0.00477872 -0.0316471 -0.0277584 0.0210627 -0.00765673 -0.0139503 0.00990463 0.0155448 0.0111438 0.0325368 0.042272 0.00491782 -0.00164924 0.00684008 0.00236729 0.0250887 -0.0012931 -0.00631336 -0.0422417
internal_weight=50702 24570 26132 16268 9357 5690 17464 6911 14499 8692 4214 5807 3667 2293 3397 973 1448 5033 3625 3060 4478 1941 3833 2486 1557 1394 2537 1392 1085 5826
internal_count=50702 24570 26132 16268 9357 5690 17464 6911 14499 8692 4214 5807 3667 2293 3397 973 1448 5033 3625 3060 4478 1941 3833 2486 1557 1394 2537 1392 1085 5826
is_linear=0
shrinkage=0.05


Tree=28
num_leaves=31
num_cat=0
split_feature=65 65 65 23 17 104 66 23 19 76 76 66 66 68 68 23 102 65 35 66 23 104 113 56 35 70 70 113 23 110
split_gain=16233.3 1982.73 1592.41 813.985 876.391 678.783 572.179 1184.3 1114.52 419.723 599.62 431.456 401.358 394.296 345.041 238.08 207.363 193.986 209.749 203.695 256.725 185.431 180.301 176.193 151.017 146.083 142.039 138.898 138.416 131.317
threshold=17.747333526611332 33.734001159667976 15.597833156585695 16.76149940490723 1.2804999947547915 -0.90778636932373036 0.23855979740619662 14.155499935150148 12.816500186920168 -0.01963366940617561 -0.59831893444061268 0.26546207070350653 0.25977703928947454 0.10086882486939432 0.22067314386367801 18.850500106811527 17.047785758972172 14.086500167846681 49.497501373291023 0.079379539936780943 16.017499923706058 -0.65514087677001942 13.7814998626709 0.056764621287584312 45.866500854492195 0.61337095499038707 0.64806091785430919 16.863500595092777 19.034500122070316 2.1800616979599003
decision_type=2 2 2 2 2 2 2 2 2 2 2 2 2 2 2 2 2 2 2 2 2 2 2 2 2 2 2 2 2 2
left_child=2 5 6 4 25 29 17 8 -8 10 12 24 -7 -6 16 -14 -5 -1 19 -19 27 -10 -15 -12 -11 -4 -26 -21 -13 -2
right_child=1 -3 3 14 13 9 7 -9 21 11 23 28 15 22 -16 -17 -18 18 -20 20 -22 -23 -24 -25 26 -27 -28 -29 -30 -31
leaf_value=-0.066312870835776624 0.024730428968478792 0.48649808758874152 -0.014481825707726204 -0.0033090407002271506 -0.002647438611566777 0.0045858550704029003 -0.050701992392490874 -0.069566163400415257 -0.001356027569828111 0.0061078272689128361 0.014860025606064919 0.024416169686859491 0.027872725101309295 0.00083335773521469041 -0.019558887407600256 -0.010273108843662372 0.001934615363166259 -0.0094667827613736932 -0.020531320351084095 -0.0015879180804092563 -0.026926188660151774 0.0053996304645580031 0.0049268756040637745 0.04934178933564351 -0.00077072766902128729 -0.00075275639084981805 0.0064324200802023061 0.0029217037172530437 -0.0093370556479934318 0.011414243065781361
leaf_weight=8858 2208 6750 952 825 702 2859 796 2404 327 1773 2326 80 117 1049 2104 1022 517 1026 2182 531 419 1338 1663 1874 2072 449 541 376 1279 1414
leaf_count=8858 2208 6750 952 825 702 2859 796 2404 327 1773 2326 80 117 1049 2104 1022 517 1026 2182 531 419 1338 1663 1874 2072 449 541 376 1279 1414
internal_value=-0.00322133 0.0262862 -0.0302775 -0.0120627 0.00121495 0.0174352 -0.0385195 -0.0238335 0.000548557 0.0124256 0.0196877 0.00206266 0.00582791 0.0148799 -0.0306152 -0.0192713 -0.0108048 -0.0438545 -0.0354433 -0.025085 -0.0121418 0.0238138 0.0235251 0.032881 0.00968992 -0.0320842 0.00204746 0.00281147 -0.0225533 0.03672
internal_weight=50833 24315 26518 8261 4815 17565 18257 4865 2461 13943 8198 5745 3998 3414 3446 1139 1342 13392 4534 2352 1326 1665 2712 4200 4386 1401 2613 907 1359 3622
internal_count=50833 24315 26518 8261 4815 17565 18257 4865 2461 13943 8198 5745 3998 3414 3446 1139 1342 13392 4534 2352 1326 1665 2712 4200 4386 1401 2613 907 1359 3622
is_linear=0
shrinkage=0.05


Tree=29
num_leaves=31
num_cat=0
split_feature=18 18 18 22 104 18 22 76 76 105 113 91 68 35 68 58 18 22 35 23 68 68 22 18 76 18 17 104 68 23
split_gain=16912.8 2347.98 1256.68 1208.07 795.015 627.971 979.13 445.005 606.667 355.698 332.081 330.774 226.128 223.067 221.038 185.774 180.119 242.499 172.775 181.847 230.983 168.095 160.888 228.432 151.48 142.025 127.361 123.583 155.424 116.675
threshold=16.881500244140629 33.868499755859382 13.484499931335451 13.16249990463257 -1.0177145004272459 15.303500175476076 15.709499835968019 -0.0065448414534330359 -0.59831893444061268 50.15950012207032 13.703500270843508 1.5374999642372134 0.54504519701004039 50.398498535156257 0.70458185672760021 0.099565256386995329 17.990499496459964 17.28750038146973 49.386501312255866 15.130499839782717 0.14934483915567401 0.09204998612403871 16.494500160217289 16.345499992370609 -0.80124616622924794 27.651999473571781 1.3165000081062319 -0.62807226181030262 0.28950855135917669 32.344501495361335
decision_type=2 2 2 2 2 2 2 2 2 2 2 2 2 2 2 2 2 2 2 2 2 2 2 2 2 2 2 2 2 2
left_child=2 4 -1 13 -2 18 10 8 11 12 -7 -6 16 27 24 25 17 -9 19 20 -5 -12 23 -8 -13 -10 -25 -4 -29 -17
right_child=1 -3 3 5 7 6 22 9 15 -11 21 14 -14 -15 -16 29 -18 -19 -20 -21 -22 -23 -24 26 -26 -27 -28 28 -30 -31
leaf_value=-0.08176085663979836 0.023504672605367816 0.46967316413581806 -0.001066906064324158 -0.0088884604447311954 0.0072911133247649754 -0.0015340323365610866 -0.0097264844194766553 0.0015180952724427321 0.007836920043154727 0.0048633670087945731 -0.0042452260454230563 -0.0014036601695728735 -0.011576549668953008 -0.0060069245531018112 -0.0223761259115304 0.044721098259984784 0.0014638200173857641 -0.0050303455194944391 -0.027452009598484574 -0.021863926799972424 -0.00014663061498025877 0.0031876833248182025 -0.017973303858025248 -0.0039541822555155372 0.004129771454670461 0.031886011625086932 0.0027432416887020142 -0.0018872996676645216 0.0064064876321123345 -0.0074369900311259231
leaf_weight=9233 2603 6673 179 655 1450 1316 1135 394 1942 1746 189 1775 951 133 366 1894 3927 726 3525 1297 782 1258 2249 146 1779 774 342 149 910 84
leaf_count=9233 2603 6673 179 655 1450 1316 1135 394 1942 1746 189 1775 951 133 366 1894 3927 726 3525 1297 782 1258 2249 146 1779 774 342 149 910 84
internal_value=-0.00308212 0.023848 -0.0341221 -0.0248195 0.0154304 -0.0295641 -0.018847 0.0116577 0.018591 0.00264721 0.0038907 0.00711359 -0.00313438 0.0198031 -0.000433673 0.0317213 0.00107985 -0.0166071 -0.0409251 -0.0314923 -0.0192415 0.0204216 -0.0350723 -0.0230746 0.00337648 0.0232327 0.00553279 0.0264136 0.0329084 0.0433771
internal_weight=50582 27084 23498 14265 20411 12894 6635 17808 10064 7744 2763 5370 5998 1371 3920 4694 5047 1120 6259 2734 1437 1447 3872 1623 3554 2716 488 1238 1059 1978
internal_count=50582 27084 23498 14265 20411 12894 6635 17808 10064 7744 2763 5370 5998 1371 3920 4694 5047 1120 6259 2734 1437 1447 3872 1623 3554 2716 488 1238 1059 1978
is_linear=0
shrinkage=0.05


Tree=30
num_leaves=31
num_cat=0
split_feature=18 18 18 17 23 66 104 72 18 44 66 112 22 66 104 107 110 18 23 18 66 66 8 18 99 113 32 62 66 100
split_gain=16154.7 1906.85 1758.64 1031.73 989.35 1454.37 606.08 435.044 429.502 373.053 686.955 471.544 400.401 308.874 307.301 220.754 217.647 173.636 137.626 244.627 178 136.792 135.344 118.396 118.247 113.625 109.98 105.369 96.0813 91.3562
threshold=17.728500366210941 34.326999664306648 13.438499927520754 1.5354999899864199 16.648500442504886 0.12496132403612138 -1.0177145004272459 1.177948594093323 15.706500053405763 59.158500671386726 0.22581063956022265 44.322500228881843 18.038499832153324 0.15628001838922503 -0.63685512542724598 49.466928482055671 2.0376747846603398 16.345499992370609 19.568500518798832 19.443500518798832 0.094335097819566741 0.12496132403612138 550.87100219726574 20.973000526428226 10.312500000000002 53.917999267578132 50.399499893188484 0.20774789899587634 0.17929429560899737 15.667357444763185
decision_type=2 2 2 2 2 2 2 2 2 2 2 2 2 2 2 2 2 2 2 2 2 2 2 2 2 2 2 2 2 2
left_child=2 6 -1 7 5 8 -2 -4 -5 11 -11 12 21 17 16 24 -14 -6 19 -16 -20 -8 -13 -18 -7 28 -9 -22 -24 -19
right_child=1 -3 3 4 13 15 9 26 -10 10 -12 22 14 -15 18 -17 23 29 20 -21 27 -23 25 -25 -26 -27 -28 -29 -30 -31
leaf_value=-0.079856155775142629 0.023973275032536812 0.46513958680060913 -0.020983620770837333 -0.0081825595725993246 -0.0093841346558411597 -0.00043347923713739079 0.0023891019969791041 -0.0032581694447669563 0.00035946645853943696 0.015660821684148906 -0.015151063949378952 0.041072306038654284 0.010391199110361527 -0.02257323189500271 -0.00070452240546075022 0.00013231949435823508 -0.00010698024618118752 -0.0027470470916003188 0.0060777371211688802 0.01330724407647086 -0.0057389255344790337 0.016878105805718135 0.013168244724538525 0.0075999520064582889 0.00489176974116341 0.033474666895491369 0.00042305136118683253 -0.00036649993720248023 -0.010884420923136951 0.00071756630965538195
leaf_weight=9058 2454 6486 5163 2178 788 273 528 869 895 774 1119 2094 1427 1938 1011 1041 1414 376 501 667 1380 961 182 1369 2488 430 546 1298 240 758
leaf_count=9058 2454 6486 5163 2178 788 273 528 869 895 774 1119 2094 1427 1938 1011 1041 1414 376 501 667 1380 961 182 1369 2488 430 546 1298 240 758
internal_value=-0.00310614 0.0262729 -0.0302169 -0.0208774 -0.0113228 5.09091e-05 0.0178357 -0.0364701 -0.0255288 0.0141572 -0.00662969 0.0170715 0.0121353 -0.0315803 0.00818904 0.0207259 0.018076 -0.0173777 -0.000380894 0.0112038 -0.00649575 0.0361652 0.034759 0.00993532 0.0281239 0.0179577 -0.0119081 -0.0116131 -0.000473934 -0.00485009
internal_weight=50706 24335 26371 17313 10735 6875 17849 6578 3073 15395 1893 13502 10556 3860 9067 3802 4210 1922 4857 1678 3179 1489 2946 2783 2761 852 1415 2678 422 1134
internal_count=50706 24335 26371 17313 10735 6875 17849 6578 3073 15395 1893 13502 10556 3860 9067 3802 4210 1922 4857 1678 3179 1489 2946 2783 2761 852 1415 2678 422 1134
is_linear=0
shrinkage=0.05


Tree=31
num_leaves=31
num_cat=0
split_feature=18 18 18 23 104 104 18 69 44 66 112 102 66 105 23 110 23 13 26 18 31 66 66 99 66 66 62 85 96 44
split_gain=15625.3 2498.26 1092.56 1264.13 772.448 561.639 509.942 862.903 401.507 811.275 506.641 356.12 352.58 337.802 334.13 317.142 234.228 203.613 201.137 189.608 327.92 178.501 157.897 152.52 146.497 146.117 142.379 120.525 114.825 113.345
