tree
version=v4
num_class=1
num_tree_per_iteration=1
label_index=0
max_feature_idx=118
objective=regression_l1
feature_names=inflow_vehicles_per_hour_lag_0 inflow_vehicles_per_hour_lag_1 inflow_vehicles_per_hour_lag_2 inflow_vehicles_per_hour_lag_3 inflow_vehicles_per_hour_lag_5 inflow_vehicles_per_hour_lag_10 inflow_vehicles_per_hour_lag_15 inflow_vehicles_per_hour_lag_20 inflow_vehicles_per_hour_lag_29 queue_length_vehicles_lag_0 queue_length_vehicles_lag_1 queue_length_vehicles_lag_2 queue_length_vehicles_lag_3 queue_length_vehicles_lag_5 queue_length_vehicles_lag_10 queue_length_vehicles_lag_15 queue_length_vehicles_lag_20 queue_length_vehicles_lag_29 average_wait_seconds_lag_0 average_wait_seconds_lag_1 average_wait_seconds_lag_2 average_wait_seconds_lag_3 average_wait_seconds_lag_5 average_wait_seconds_lag_10 average_wait_seconds_lag_15 average_wait_seconds_lag_20 average_wait_seconds_lag_29 average_speed_kmh_lag_0 average_speed_kmh_lag_1 average_speed_kmh_lag_2 average_speed_kmh_lag_3 average_speed_kmh_lag_5 average_speed_kmh_lag_10 average_speed_kmh_lag_15 average_speed_kmh_lag_20 average_speed_kmh_lag_29 saturation_percent_lag_0 saturation_percent_lag_1 saturation_percent_lag_2 saturation_percent_lag_3 saturation_percent_lag_5 saturation_percent_lag_10 saturation_percent_lag_15 saturation_percent_lag_20 saturation_percent_lag_29 inflow_vehicles_per_hour_mean_3 inflow_vehicles_per_hour_std_3 inflow_vehicles_per_hour_mean_5 inflow_vehicles_per_hour_std_5 inflow_vehicles_per_hour_mean_10 inflow_vehicles_per_hour_std_10 inflow_vehicles_per_hour_mean_15 inflow_vehicles_per_hour_std_15 inflow_vehicles_per_hour_mean_30 inflow_vehicles_per_hour_std_30 queue_length_vehicles_mean_3 queue_length_vehicles_std_3 queue_length_vehicles_mean_5 queue_length_vehicles_std_5 queue_length_vehicles_mean_10 queue_length_vehicles_std_10 queue_length_vehicles_mean_15 queue_length_vehicles_std_15 queue_length_vehicles_mean_30 queue_length_vehicles_std_30 average_wait_seconds_mean_3 average_wait_seconds_std_3 average_wait_seconds_mean_5 average_wait_seconds_std_5 average_wait_seconds_mean_10 average_wait_seconds_std_10 average_wait_seconds_mean_15 average_wait_seconds_std_15 average_wait_seconds_mean_30 average_wait_seconds_std_30 minute_sin minute_cos weekday_sin weekday_cos is_weekend intersection_code phase_code strategy_code device_status_code inflow_vehicles_per_hour_same_time_day_7 inflow_vehicles_per_hour_same_time_day_14 inflow_vehicles_per_hour_recent_week_mean inflow_vehicles_per_hour_recent_week_std inflow_vehicles_per_hour_previous_week_mean inflow_vehicles_per_hour_previous_week_std inflow_vehicles_per_hour_week_over_week_delta queue_length_vehicles_same_time_day_7 queue_length_vehicles_same_time_day_14 queue_length_vehicles_recent_week_mean queue_length_vehicles_recent_week_std queue_length_vehicles_previous_week_mean queue_length_vehicles_previous_week_std queue_length_vehicles_week_over_week_delta average_wait_seconds_same_time_day_7 average_wait_seconds_same_time_day_14 average_wait_seconds_recent_week_mean average_wait_seconds_recent_week_std average_wait_seconds_previous_week_mean average_wait_seconds_previous_week_std average_wait_seconds_week_over_week_delta average_speed_kmh_same_time_day_7 average_speed_kmh_same_time_day_14 average_speed_kmh_recent_week_mean average_speed_kmh_recent_week_std average_speed_kmh_previous_week_mean average_speed_kmh_previous_week_std average_speed_kmh_week_over_week_delta saturation_percent_same_time_day_7 saturation_percent_same_time_day_14 saturation_percent_recent_week_mean saturation_percent_recent_week_std saturation_percent_previous_week_mean saturation_percent_previous_week_std saturation_percent_week_over_week_delta
feature_infos=[35:1144.373046875] [35:1143.51904296875] [35:1144.4320068359375] [35:1144.373046875] [35:1144.4320068359375] [35:1143.51904296875] [35:1144.373046875] [35:1144.4320068359375] [35:1144.4320068359375] [0.75:17.011999130249023] [0.75:17.027000427246094] [0.75:17.025999069213867] [0.75:17.011999130249023] [0.75:17.025999069213867] [0.75:17.027000427246094] [0.75:17.011999130249023] [0.75:17.025999069213867] [0.75:17.025999069213867] [8.8839998245239258:73.344001770019531] [8.8909997940063477:73.400001525878906] [8.8839998245239258:73.376998901367188] [8.8839998245239258:73.344001770019531] [8.8839998245239258:73.376998901367188] [8.8909997940063477:73.400001525878906] [8.8839998245239258:73.344001770019531] [8.8839998245239258:73.376998901367188] [8.8839998245239258:73.376998901367188] [10.423999786376953:51.387001037597656] [10.414999961853027:51.387001037597656] [10.446999549865723:51.387001037597656] [10.423999786376953:51.387001037597656] [10.446999549865723:51.387001037597656] [10.414999961853027:51.387001037597656] [10.423999786376953:51.387001037597656] [10.446999549865723:51.387001037597656] [10.446999549865723:51.387001037597656] [3.434999942779541:100] [3.434999942779541:100] [3.4360001087188721:100] [3.434999942779541:100] [3.4360001087188721:100] [3.434999942779541:100] [3.434999942779541:100] [3.4360001087188721:100] [3.4360001087188721:100] [35:1143.18505859375] [0:10.657426834106445] [35:1143.465576171875] [0:84.149345397949219] [35:1140.290771484375] [0:86.634246826171875] [35:1136.739990234375] [0:92.146446228027344] [35:1127.52197265625] [0:97.102348327636719] [0.75366663932800293:17.02166748046875] [0:0.24086649715900421] [0.76099997758865356:17.011199951171875] [0.00040000019362196326:0.97860175371170044] [0.79500001668930054:16.965099334716797] [0.0012688577407971025:1.0715705156326294] [0.84886664152145386:16.880399703979492] [0.0016519349301233888:1.187225341796875] [1.0839333534240723:16.588333129882812] [0.012067818082869053:1.9474644660949707] [8.9173336029052734:73.373664855957031] [0:0.99613296985626221] [8.94219970703125:73.303802490234375] [0.00074832624522969127:3.3725080490112305] [9.1282997131347656:73.090202331542969] [0.0054046283476054668:3.8981418609619141] [9.4459333419799805:72.706466674804688] [0.016141043975949287:4.9151420593261719] [10.78773307800293:71.233436584472656] [0.10528100281953812:8.2019529342651367] [-0.99999046325683594:0.99999046325683594] [-0.99999046325683594:0.99999046325683594] [-0.97492802143096924:0.97492790222167969] [-0.90096884965896606:1] [0:1] [0:11] [0:3] [0:2] [0:3] [35:1153.3740234375] [35:1144.676025390625] [43.862712860107422:1023.4545288085938] [6.6567287445068359:158.13336181640625] [44.792289733886719:1023.0302734375] [6.6567287445068359:163.64022827148438] [-13.927570343017578:14.085281372070312] [0.75:17.221000671386719] [0.75:17.191999435424805] [1.5411428213119507:13.933857917785645] [0.22044433653354645:2.9986586570739746] [1.5412856340408325:13.916000366210938] [0.20490722358226776:3.3295767307281494] [-0.53328585624694824:0.55785703659057617] [8.9139995574951172:73.817001342773438] [8.939000129699707:75.260002136230469] [13.175143241882324:61.779426574707031] [0.87105578184127808:11.335524559020996] [13.175143241882324:61.968433380126953] [0.87189322710037231:12.936964988708496] [-1.9184303283691406:2.0849990844726562] [9.880000114440918:51.387001037597656] [9.9770002365112305:51.387001037597656] [18.520715713500977:49.686428070068359] [0.47360092401504517:8.2404270172119141] [18.558145523071289:49.686431884765625] [0.4406965970993042:9.1543693542480469] [-1.1994285583496094:1.1625709533691406] [3.437000036239624:100] [3.434999942779541:100] [5.0032858848571777:97.464576721191406] [0.43157610297203064:15.818800926208496] [5.0709996223449707:96.072998046875] [0.45697438716888428:15.629770278930664] [-2.086578369140625:2.6900100708007812]
tree_sizes=2724 2884 2905 2892 2909 2908 2907 2916 2925 2927 2927 2921 2936 2938 2936 2939 2943 2952 2963 2963 2957 2952 2959 2960 2968 2968 2978 2983 2989 2973 2981 2983 2986 2975 2968 2975 2984 2990 2984 2979 2985 2988 2993 2981 2980 2994 2974 2990 3000 3000 3015 2992 2991 2994 3005 2994 3010 2979 2998 3003 2995 2988 3007 3018 3000 2986 2987 2999 2988 3001 2998 3000 3002 2982 2997 2987 2988 3015 3004 3014 2994 3010 2996 3007 3007 2980 3025 3000 2993 3022 2993 2998 3003 2978 2998 2984 2994 2994 2978 2999 2974 3001 2998 2993 3023 3015 3014 2992 3006 2964 3006 3010 2990 2989 2999 2992 3017 2996 3004 3014

Tree=0
num_leaves=31
num_cat=0
split_feature=18 18 18 98 21 66 102 21 66 17 70 111 76 99 66 18 21 66 69 66 91 66 18 104 18 66 101 99 69 17
split_gain=40103.2 1261.61 1063.63 989.502 722.34 524.14 234.829 200.589 130.884 125.191 94.7502 83.3329 70.9826 67.6747 67.157 65.927 181.4 83.7897 65.2852 157.827 65.9785 60.8324 58.3852 57.6468 63.5691 137.443 53.4349 35.8694 35.6682 61.1637
threshold=17.41250038146973 18.432499885559086 16.397500038146976 12.306499958038332 18.115499496459964 0.1094232350587845 17.258358001708988 17.055000305175785 0.13208204507827762 1.5895000100135805 0.53897115588188182 0.47442817687988287 0.99946221709251415 14.897500038146974 0.086938034743070616 19.108499526977543 19.666500091552738 0.29650312662124639 16.039750099182132 0.20983988791704181 0.84150001406669628 0.090431064367294325 16.712499618530277 -0.70635795593261708 15.800499916076662 0.17117501795291903 1.3712654113769533 14.738500118255617 17.712100028991703 2.8174999952316289
decision_type=2 2 2 2 2 2 2 2 2 2 2 2 2 2 2 2 2 2 2 2 2 2 2 2 2 2 2 2 2 2
left_child=2 4 23 21 9 13 18 8 22 10 27 -7 15 -6 -9 16 -3 -18 19 -5 -20 -4 -8 24 -1 -26 -11 -2 -28 -30
right_child=1 12 3 6 5 11 7 14 -10 26 -12 -13 -14 -15 -16 -17 17 -19 20 -21 -22 -23 -24 -25 25 -27 28 -29 29 -31
leaf_value=17.358374834060669 17.385249805450439 17.483774852752685 17.412774848937989 17.382199859619142 17.412899827957155 17.379924869537355 17.38644986152649 17.415374851226808 17.455849838256835 17.419349813461302 17.438999843597411 17.419274806976318 17.44437484741211 17.450649833679201 17.351224803924559 17.882874870300292 17.433499860763551 17.406324863433838 17.412724876403807 17.425824832916259 17.352649831771849 17.450774860382079 17.419424867630006 17.232474851608277 17.380924797058107 17.422174835205077 17.481424808502197 17.415874862670897 17.409374809265138 17.45722484588623
leaf_weight=374 86 1929 81 320 88 837 86 87 218 126 174 88 94 304 239 19933 92 163 89 149 1708 553 100 21045 185 122 1091 83 102 261
leaf_count=374 86 1929 81 320 88 837 86 87 218 126 174 88 94 304 239 19933 92 163 89 149 1708 553 100 21045 185 122 1091 83 102 261
internal_value=17.4136 17.4579 17.3691 17.3941 17.4288 17.4003 17.3821 17.4068 17.4303 17.4483 17.4209 17.3797 17.4622 17.4487 17.3776 17.4624 17.4541 17.4145 17.3742 17.3908 17.3698 17.4509 17.3995 17.3649 17.3792 17.3961 17.4543 17.3943 17.457 17.4434
internal_weight=50807 25451 25356 3630 3240 1317 2996 730 404 1923 343 925 22211 392 326 22117 2184 255 2266 469 1797 634 186 21726 681 307 1580 169 1454 363
internal_count=50807 25451 25356 3630 3240 1317 2996 730 404 1923 343 925 22211 392 326 22117 2184 255 2266 469 1797 634 186 21726 681 307 1580 169 1454 363
is_linear=0
shrinkage=1


Tree=1
num_leaves=31
num_cat=0
split_feature=18 18 98 18 21 22 66 98 85 66 102 105 18 20 66 18 22 66 16 16 22 22 66 18 105 18 1 66 66 18
split_gain=39288 1277.92 1026.57 934.414 686.586 259.83 219.932 190.403 193.774 171.186 133.542 110.828 108.59 295.09 162.786 102.293 248.025 150.374 92.0763 90.5602 87.7836 69.5339 102.767 59.9974 56.6118 55.4832 52.3769 49.0323 47.6152 51.3282
threshold=17.532500267028812 16.452499389648441 12.726500034332277 18.432499885559086 18.552499771118168 15.752500057220461 0.20797168463468554 14.001500129699709 196.12799835205081 0.17929429560899737 17.705573081970218 49.830501556396491 15.969500064849855 15.798500061035158 0.3004820197820664 19.666500091552738 20.455499649047855 0.30669927597045904 1.5185000300407412 2.6295000314712529 17.519499778747562 17.91049957275391 0.091834995895624175 16.881500244140629 50.865501403808601 17.111499786376957 233.69499969482425 0.13071639835834506 0.14107366651296618 16.766500473022464
decision_type=2 2 2 2 2 2 2 2 2 2 2 2 2 2 2 2 2 2 2 2 2 2 2 2 2 2 2 2 2 2
left_child=1 12 11 4 7 6 -4 -2 -9 19 24 -3 -1 14 18 16 -5 -18 -14 -6 23 -10 -23 -12 -7 -26 -8 -22 29 -13
right_child=3 2 5 15 9 10 26 8 21 -11 20 28 13 -15 -16 -17 17 -19 -20 -21 27 22 -24 -25 25 -27 -28 -29 -30 -31
leaf_value=-0.17907374143600469 0.056528735160827639 -0.010588726997375453 -0.023359994888305737 0.071556215286254957 -0.0079462575912476307 -0.054412446022033656 0.00089942693710325376 -0.012644984722137487 0.05153880119323731 -0.032196240425109934 -0.015821859836578422 -0.0063862514495848901 -0.025158710479736258 -0.069948747158050578 0.019241218566894605 0.51785624504089367 0.022375032901763882 -0.0081049895286559714 0.0023262238502502089 0.024286293983459474 -0.0016362404823302868 0.028017492294311455 -0.016761255264282227 0.018728804588317872 -0.017332465648651051 0.0050925183296204324 0.040007534027099646 -0.065836234092712331 0.041811289787292517 0.020411214828491175
leaf_weight=19908 1099 81 144 3349 80 1903 80 262 475 507 86 81 169 1596 135 18329 223 236 141 107 80 145 127 153 85 80 177 168 553 112
leaf_count=19908 1099 81 144 3349 80 1903 80 262 475 507 86 81 169 1596 135 18329 223 236 141 107 80 145 127 153 85 80 177 168 553 112
internal_value=-3.05895e-05 -0.043374 -0.0165345 0.044691 0.0174875 -0.0303112 0.00710723 0.0316888 0.0160059 -0.0256484 -0.036184 0.0327086 -0.0479999 -0.0370162 -0.00101124 0.0481343 0.0406775 0.00620915 -0.0209677 0.0152406 -0.0126283 0.0289826 0.00882353 0.00899582 -0.0417311 -0.0136364 0.0348249 -0.0334677 0.0387399 0.0173575
internal_weight=50671 25732 3783 24939 2802 2956 401 2108 1009 694 2555 827 21949 2041 445 22137 3808 459 310 187 487 747 272 239 2068 165 257 248 746 193
internal_count=50671 25732 3783 24939 2802 2956 401 2108 1009 694 2555 827 21949 2041 445 22137 3808 459 310 187 487 747 272 239 2068 165 257 248 746 193
is_linear=0
shrinkage=0.05


Tree=2
num_leaves=31
num_cat=0
split_feature=18 18 104 98 18 22 66 18 22 23 66 66 18 22 66 97 99 113 99 18 66 111 18 22 0 66 66 66 71 15
split_gain=38267 1152.59 1102.04 715.769 483.542 395.427 390.495 376.184 356.625 317.873 201.926 144.254 116.555 292.352 237.504 113.596 94.8572 84.2219 79.4882 74.3477 73.2595 67.765 65.6154 174.006 210.417 51.6474 49.8489 45.674 105.568 44.5917
threshold=17.41250038146973 18.621500015258793 -0.64571428298950184 14.191500186920168 16.114500045776371 17.91049957275391 0.090431064367294325 16.766500473022464 16.592499732971195 17.847000122070316 0.11064457520842554 0.091834995895624175 20.255499839782718 20.647000312805179 0.30258406698703771 -0.22292864322662351 11.764500141143801 20.103500366210941 22.994999885559086 16.942500114440922 0.33976283669471746 0.18735504150390628 15.666500091552736 14.886499881744387 233.4674987792969 0.10267748683691026 0.27620926499366766 0.17117501795291903 18.504632949829105 3.6505000591278081
decision_type=2 2 2 2 2 2 2 2 2 2 2 2 2 2 2 2 2 2 2 2 2 2 2 2 2 2 2 2 2 2
left_child=2 3 4 21 20 11 -7 22 10 25 -9 17 13 -3 -15 -8 -12 -5 27 -11 -1 -2 -4 24 26 -6 -24 28 -17 -16
right_child=1 12 7 5 9 6 15 8 -10 19 16 -13 -14 14 29 18 -18 -19 -20 -21 -22 -23 23 -25 -26 -27 -28 -29 -30 -31
leaf_value=-0.04211505997180947 -0.00022646784782409668 0.074558456897735687 -0.18097005474567426 -0.013139441013336218 0.00088305807113648889 0.027133425235748378 0.011953228712081911 -0.019611862421035655 -0.048811844110488778 -0.031198788762092634 -0.0028891012072563174 0.062351853847503594 0.56241345262527476 0.024375477969646564 -0.010436583995818972 -0.019498913049697999 0.025410651445388767 0.010929358005523682 0.0034918475151060947 0.0029630481004714326 0.0014599407911299878 0.053902283906936611 -0.031715809345245385 -0.070226286530494703 0.013129943728446848 0.032755698561668378 -0.0017201005220414346 -0.036111397504806679 0.0046504207253454943 0.0012624804377557198
leaf_weight=650 85 3830 17990 109 87 281 81 179 1069 191 124 423 17010 390 200 173 297 187 95 139 108 1543 285 3339 155 576 105 686 110 148
leaf_count=650 85 3830 17990 109 87 281 81 179 1069 191 124 423 17010 390 200 173 297 187 95 139 108 1543 285 3339 155 576 105 686 110 148
internal_value=-4.04778e-05 0.043373 -0.0435518 0.017877 -0.0052827 -0.00109557 -0.0163394 -0.0463981 -0.0235171 0.0176737 0.00733333 0.0291377 0.0478311 0.0407399 0.0119241 -0.0293013 0.026247 0.00236486 -0.0336466 -0.0224242 -0.0353562 0.0428747 -0.0481439 -0.0422503 -0.016055 0.037632 -0.035641 -0.0379257 -0.0210247 -0.0181034
internal_weight=50645 25351 25294 3773 1751 2145 1426 23543 1669 993 600 719 21578 4568 738 1145 421 296 1064 330 758 1628 21874 3884 545 663 390 969 283 348
internal_count=50645 25351 25294 3773 1751 2145 1426 23543 1669 993 600 719 21578 4568 738 1145 421 296 1064 330 758 1628 21874 3884 545 663 390 969 283 348
is_linear=0
shrinkage=0.05


Tree=3
num_leaves=31
num_cat=0
split_feature=18 18 21 104 18 66 23 18 23 66 66 18 22 66 99 99 99 104 102 66 66 18 114 22 76 105 63 76 66 69
split_gain=37747.1 1563.63 902.083 821.722 377.426 351.225 327.933 253.084 386.114 407.584 237.715 233.673 287.563 275.285 181.486 115.913 110.864 107.935 208.767 74.5419 70.8743 59.6646 55.1677 81.633 46.3345 45.9095 45.5909 41.1533 40.2534 100.299
threshold=17.227000236511234 18.1855001449585 17.791500091552738 -0.63685512542724598 16.202499389648441 0.10267748683691026 17.847000122070316 20.758500099182132 21.486499786376957 0.29650312662124639 0.10128287971019746 16.2504997253418 15.752500057220461 0.197643056511879 16.813499450683597 11.678500175476076 15.995500087738039 -0.22778224945068357 16.066857337951664 0.12790708988904956 0.33976283669471746 17.664500236511234 31.074072837829593 17.051500320434574 -0.99921953678131092 50.276000976562507 3.325549960136414 0.99921953678131115 0.20290446281433108 18.762049674987797
decision_type=2 2 2 2 2 2 2 2 2 2 2 2 2 2 2 2 2 2 2 2 2 2 2 2 2 2 2 2 2 2
left_child=3 2 10 4 20 16 25 8 17 -10 14 -5 13 -13 21 -15 -4 24 19 -19 -1 -2 -14 -24 -3 -6 -11 -26 29 -7
right_child=1 7 5 11 6 28 -8 -9 9 26 -12 12 22 15 -16 -17 -18 18 -20 -21 -22 -23 23 -25 27 -27 -28 -29 -30 -31
leaf_value=-0.039064277714490996 -0.014678250312805119 0.041735494685173083 -0.010145194739103403 -0.15897156078219421 0.0027896303236484067 -0.025086309325695045 -0.025390970355272203 0.59819277389049541 0.029594680252671424 -0.011316640424728241 0.05569153145253658 -0.024230636185407661 -0.056046277844905748 -0.0057773659884929 0.019944997256994237 0.024637811696529434 0.022713593369722319 0.010455558848381053 0.062800515246391339 -0.01183081242442139 0.0023344597160815717 0.0065717115402222255 0.010417577540874669 -0.055321909204125323 0.071355484080314655 0.025287844568490939 -0.0030572070360182836 0.039311630320549011 -0.045830838692188361 0.0045473525404929665
leaf_weight=736 237 93 104 20293 92 314 242 15997 583 259 1034 281 1970 116 305 239 268 107 1215 152 114 93 89 180 4289 450 273 80 563 97
leaf_count=736 237 93 104 20293 92 314 242 15997 583 259 1034 281 1970 116 305 239 268 107 1215 152 114 93 89 180 4289 450 273 80 563 97
internal_value=-0.00021331 0.0418045 0.00794362 -0.0443674 -0.0100979 -0.0225111 0.0149235 0.0462339 0.0383421 0.0113453 0.0325045 -0.0467844 -0.0334435 -0.00377358 0.0084252 0.025493 0.0188172 0.0434131 0.0316825 -0.00907336 -0.0331765 -0.0172727 -0.0418714 -0.020632 0.0472882 0.0365314 -0.0203008 0.0480316 -0.0382957 -0.026399
internal_weight=50865 26063 3015 24802 1634 1346 784 23048 7051 1115 1669 23168 2875 636 635 355 372 5936 1474 259 850 330 2239 269 4462 542 532 4369 974 411
internal_count=50865 26063 3015 24802 1634 1346 784 23048 7051 1115 1669 23168 2875 636 635 355 372 5936 1474 259 850 330 2239 269 4462 542 532 4369 974 411
is_linear=0
shrinkage=0.05


Tree=4
num_leaves=31
num_cat=0
split_feature=18 18 18 21 98 86 104 35 21 18 110 104 18 23 66 66 104 66 18 21 66 116 18 20 66 104 66 92 99 91
split_gain=36481.6 1317.64 883.852 850.699 677.868 365.252 361.706 299.059 214.786 194.2 367.784 255.78 168.311 406.888 390.085 159.367 146.379 105.33 99.0959 204.681 232.911 101.248 96.1902 138.656 90.3698 88.8603 77.2763 72.0313 71.6762 64.7478
threshold=17.532500267028812 16.766500473022464 18.736499786376957 16.998499870300297 14.093500137329103 178.9988708496094 -0.59042978286743153 49.584499359130866 18.621500015258793 15.44749975204468 1.1423652768135073 -1.0177145004272459 21.283500671386722 21.486499786376957 0.27620926499366766 0.17929429560899737 -0.81678581237792958 0.078150849789381041 15.44749975204468 15.348499774932863 0.29448014497756964 23.930784225463871 17.921500205993656 17.723500251770023 0.16951761394739154 -0.68064498901367176 0.089257430285215392 3.6254999637603764 16.985500335693363 1.4794999957084658
decision_type=2 2 2 2 2 2 2 2 2 2 2 2 2 2 2 2 2 2 2 2 2 2 2 2 2 2 2 2 2 2
left_child=1 6 4 7 -2 25 9 17 22 -1 -11 -12 13 -4 -15 -10 -5 -3 -8 20 21 -20 23 -7 -9 -6 28 -16 -18 -27
right_child=2 3 12 16 5 8 18 24 15 10 11 -13 -14 14 27 -17 26 -19 19 -21 -22 -23 -24 -25 -26 29 -28 -29 -30 -31
leaf_value=-0.055072951462566883 0.051804001783877673 -0.0067689349609612037 0.072982721968889316 0.013470294996797883 0.0067716840440036567 0.034149631939679286 -0.16972296252518895 -0.018232512930780587 0.019972136422395703 0.01559586987286803 0.013745208833515666 -0.027956109872162394 0.61705814053654684 0.032514913433641372 -0.0083395106142758035 -0.022339307438731207 -0.025219004388451441 0.034593530593812365 -0.025685640462934957 -0.06496642163068049 0.013627542946040717 0.0055495356056093573 0.045470556083694103 -0.010984701078534265 0.01110600198328502 -0.0016237780911474431 -0.056618921990990501 0.0049787571305037305 0.0012356594946979272 -0.023348617473840785
leaf_weight=533 1644 101 4963 102 85 239 16954 210 172 262 120 605 14914 667 403 333 287 782 503 3871 176 96 572 193 81 124 873 183 175 461
leaf_count=533 1644 101 4963 102 85 239 16954 210 172 262 120 605 14914 667 403 333 287 782 503 3871 176 96 572 193 81 124 873 183 175 461
internal_value=-0.00030187 -0.0420757 0.0427744 -0.00840674 0.0206513 0.00236347 -0.045878 0.0231687 0.016004 -0.0223026 -0.0091692 -0.0275172 0.0467771 0.0398649 0.0144054 -0.0105941 -0.0342032 0.0376557 -0.047537 -0.0410676 -0.0176129 -0.0324708 0.0293825 0.0115741 -0.0207904 -0.0283582 -0.0386142 -0.0153584 -0.0220779 -0.0352991
internal_weight=50684 25731 24953 2611 3823 2179 23120 1174 1509 1520 987 725 21130 6216 1253 505 1437 883 21600 4646 775 599 1004 432 291 670 1335 586 462 585
internal_count=50684 25731 24953 2611 3823 2179 23120 1174 1509 1520 987 725 21130 6216 1253 505 1437 883 21600 4646 775 599 1004 432 291 670 1335 586 462 585
is_linear=0
shrinkage=0.05


Tree=5
num_leaves=31
num_cat=0
split_feature=18 18 98 18 22 66 116 22 18 22 66 95 70 22 18 66 18 21 66 66 97 104 66 66 22 109 66 70 99 66
split_gain=35392.5 1472.11 1243.72 788.977 658.992 390.455 337.818 408.666 235.736 462.95 229.836 218.046 129.031 123.049 194.246 121.688 114.779 318.844 181.334 101.358 96.6579 95.6849 95.302 94.9726 250.696 163.001 114.092 92.9949 108.04 83.9825
threshold=17.598500251770023 16.114500045776371 12.372499942779543 18.736499786376957 18.917499542236332 0.17929429560899737 18.219643592834476 15.752500057220461 21.864500045776371 21.844499588012699 0.23281633108854297 1.6796427965164187 0.4924477636814118 17.225500106811527 16.822500228881839 0.18946386873722079 15.251500129699709 14.834499835968019 0.31347869336605078 0.091834995895624175 -0.27564322948455805 -0.32628536224365229 0.042905580252408988 0.17274130135774615 19.895500183105472 48.094213485717781 0.31564502418041235 0.52875959873199474 14.952499866485597 0.075579244643449797
decision_type=2 2 2 2 2 2 2 2 2 2 2 2 2 2 2 2 2 2 2 2 2 2 2 2 2 2 2 2 2 2
left_child=1 16 19 4 11 -6 20 15 9 23 -11 12 -2 14 -9 -8 -1 18 -18 -3 -4 -13 -15 -5 -25 26 -26 28 -23 -16
right_child=3 2 6 8 5 -7 7 13 -10 10 -12 21 -14 22 29 -17 17 -19 -20 -21 -22 27 -24 24 25 -27 -28 -29 -30 -31
leaf_value=-0.16273684873120492 -0.017959764704525674 -0.002909569599196438 0.0061231352014242905 0.05858024495381127 0.019218346856933091 -0.021503877720266653 -0.0094091708992868565 -0.03162488718079022 0.65180524724262967 0.024357355954952632 -0.0063697443650363901 0.053682467817835547 0.01408260714259555 0.003502540598191395 -0.00677644410154219 0.026629957387253624 -0.014538724752530464 -0.062519510337874354 0.0094193167076706899 0.025463774694576814 -0.043449876499637878 -0.0077636991533581506 -0.052866175766475544 0.12504633511322752 0.019089164710201525 -0.0066285021308510224 -0.005191234526008337 0.047143450767796406 0.031542167890302689 0.017900708158090774
leaf_weight=16740 164 125 83 3851 306 681 84 368 13966 315 531 1517 112 94 143 320 351 3263 216 831 2393 190 780 1565 573 222 122 336 301 223
leaf_count=16740 164 125 83 3851 306 681 84 368 13966 315 531 1517 112 94 143 320 351 3263 216 831 2393 190 780 1565 573 222 122 336 301 223
internal_value=-0.000600796 -0.0413239 -0.0182035 0.0421986 0.020585 -0.0142351 -0.0292335 -0.0140159 0.0458856 0.0385221 0.00378251 0.0337023 -0.00833333 -0.0253109 -0.010218 0.0309406 -0.0474429 -0.0396345 -0.00502646 0.0335774 -0.0415994 0.0386519 -0.0379863 0.0431628 0.0355359 0.0147764 0.0266906 0.0249698 0.0110998 0.0155738
internal_weight=50766 26014 5444 24752 3607 987 4488 2012 21145 7179 846 2620 276 1608 734 404 20570 3830 567 956 2476 2344 874 6333 2482 917 695 827 491 366
internal_count=50766 26014 5444 24752 3607 987 4488 2012 21145 7179 846 2620 276 1608 734 404 20570 3830 567 956 2476 2344 874 6333 2482 917 695 827 491 366
is_linear=0
shrinkage=0.05


Tree=6
num_leaves=31
num_cat=0
split_feature=18 18 21 18 98 95 24 22 66 66 66 99 103 66 18 22 66 18 20 26 66 66 17 86 18 21 66 16 35 16
split_gain=34550.4 1496.21 935.504 812.1 1063.26 393.053 502.913 294.459 350.678 269.844 251.984 176.422 173.765 156.769 133.769 322.4 199.614 119.375 216.596 149.043 110.221 103.241 92.2737 86.1935 82.0056 271.183 189.841 78.3877 74.7813 64.7978
threshold=17.227000236511234 18.1855001449585 17.791500091552738 15.800499916076662 11.847499847412111 2.3157856464385991 20.231500625610355 15.255499839782717 0.24437357485294345 0.067615743726491942 0.11623013392090799 16.985500335693363 1.3808724880218508 0.24047499895095828 22.88749980926514 22.666500091552738 0.28799381852149969 16.822500228881839 16.995500564575199 15.481500148773195 0.091834995895624175 0.12351743131875993 3.2975000143051152 178.9988708496094 14.934500217437746 14.696499824523928 0.30469201505184179 1.8705000281333926 48.859500885009773 1.5385000109672549
decision_type=2 2 2 2 2 2 2 2 2 2 2 2 2 2 2 2 2 2 2 2 2 2 2 2 2 2 2 2 2 2
left_child=3 2 10 24 21 6 12 8 28 -4 11 29 20 -8 15 -7 -17 -9 19 -19 -3 -5 -11 -10 -1 26 27 -26 -6 -2
right_child=1 5 9 4 7 14 13 17 23 22 -12 -13 -14 -15 -16 16 -18 18 -20 -21 -22 -23 -24 -25 25 -27 -28 -29 -30 -31
leaf_value=-0.16269999141732541 -0.013842765980762195 0.022081022843675326 0.016007240987761583 -0.0042097765058942476 0.0027917258994891725 0.073077911938241161 0.010397317716352461 -0.053777430358371882 -0.0011399392930186991 -0.03136039418037271 0.050923290258242562 0.017247750053517221 0.0428224755654842 -0.0093313738263040239 0.70354001234631847 0.034712326039120354 -0.012355628503748762 -0.0090103589235129185 -0.041687080552465616 0.012692996753753683 -0.0054648001497755953 0.0182388169972711 -0.0030063763727930849 0.023238351913357394 -0.022880871846302678 -0.069450002861417212 0.0047000349040857261 0.00020513738713479057 -0.022403521488464584 0.0016669211443010924
leaf_weight=15310 183 128 235 107 80 6240 240 3021 95 891 968 326 2468 415 12575 347 320 206 713 232 228 590 213 241 398 3022 261 134 342 183
leaf_count=15310 183 128 235 107 80 6240 240 3021 95 891 968 326 2468 415 12575 347 320 206 713 232 228 590 213 241 398 3022 261 134 342 183
internal_value=-0.000599464 0.0396995 0.0064855 -0.0428652 -0.0261685 0.0440377 0.0285571 -0.0343408 -0.00567282 -0.0246079 0.0315663 0.00852601 0.0377125 -0.010916 0.0468022 0.0412118 0.00817091 -0.0395494 -0.0258471 0.00182648 0.00505618 0.0316356 -0.0349638 0.0324405 -0.0477778 -0.0412189 -0.0151955 -0.0323308 -0.036019 -0.0153005
internal_weight=50712 25960 2999 24752 5627 22961 3479 4930 758 1339 1660 692 2824 655 19482 6907 667 4172 1151 438 356 697 1104 336 19125 3815 793 532 422 366
internal_count=50712 25960 2999 24752 5627 22961 3479 4930 758 1339 1660 692 2824 655 19482 6907 667 4172 1151 438 356 697 1104 336 19125 3815 793 532 422 366
is_linear=0
shrinkage=0.05


Tree=7
num_leaves=31
num_cat=0
split_feature=65 104 9 104 66 23 65 19 22 66 19 110 65 22 85 66 23 65 99 68 66 104 103 110 106 67 23 17 85 23
split_gain=31796.8 1604.04 1103.36 931.686 678.305 597.061 509.559 446.022 436.834 395.823 378.264 319.323 263.298 244.459 172.572 169.18 272.413 172.159 157.048 129.225 126.237 119.253 108.74 126.863 104.012 103.023 88.4155 85.1992 83.4894 71.5967
threshold=17.501500129699711 -0.62807226181030262 3.5694999694824223 -0.60842943191528309 0.24047499895095828 18.480500221252445 16.519000053405765 18.318500518798832 16.643499374389652 0.14263005554676059 16.159500122070316 2.0229816436767583 19.193833351135257 17.519499778747562 258.98651123046881 0.24437357485294345 15.709499835968019 14.229833126068117 16.867500305175785 0.53049388527870189 0.060623608529567725 -0.98807239532470692 1.4183340072631838 1.2174820899963381 45.195499420166023 14.764199733734133 20.940500259399418 1.7885000109672549 342.12300109863287 18.301500320434574
decision_type=2 2 2 2 2 2 2 2 2 2 2 2 2 2 2 2 2 2 2 2 2 2 2 2 2 2 2 2 2 2
left_child=1 10 3 -2 7 -6 14 13 9 27 19 29 -7 20 -3 -16 17 -17 -15 21 -5 -1 23 -9 -14 -21 -26 -8 -10 -12
right_child=2 6 -4 4 5 12 8 22 28 -11 11 -13 24 18 15 16 -18 -19 -20 25 -22 -23 -24 -25 26 -27 -28 -29 -30 -31
leaf_value=0.0059269706676603924 0.065851098119378546 -0.13111499871291415 0.57703801478076022 -0.0045322644247940856 0.12331016479861781 -0.033385961695495237 -0.022360444524561277 0.038720923364730458 -0.056410376399468734 0.023152153974090164 0.034036489543477447 -0.023164371269344921 0.0091105386395140542 -0.0233303961216377 -0.063514986887352617 -0.030714980020897543 -0.13348998154677646 0.021952397967410688 0.003313292158836845 -0.0069167651919295643 0.031436258162233256 -0.028259847029136687 0.043363482200265403 -0.0026870599873062063 0.14320277568233061 0.013976151435332618 -0.0084104246277568965 0.00081872176481789793 -0.014296138798268654 0.00010684258840996109
leaf_weight=80 4435 18948 14114 97 427 686 323 254 1365 455 746 231 386 413 1487 81 242 228 339 106 352 673 2637 265 82 124 691 158 280 116
leaf_count=80 4435 18948 14114 97 427 686 323 254 1365 455 746 231 386 413 1487 81 242 228 339 106 352 673 2637 265 82 124 691 158 280 116
internal_value=-0.000632613 -0.0398218 0.0392803 0.0274584 0.0155906 -0.0065581 -0.0435333 0.0271402 -0.0225688 0.00470085 0.00231214 0.0225526 -0.0188889 0.00120733 -0.0461117 -0.0322866 -0.00862069 0.0224919 -0.0162234 -0.0201933 0.0304009 -0.0302125 0.0370089 0.0160886 -0.0043572 0.0126087 -0.0149418 -0.0269231 -0.0380851 0.0365429
internal_weight=50821 25643 25178 11064 6629 2272 23567 4357 2581 936 2076 1093 1845 1201 20986 2038 551 309 752 983 449 753 3156 519 1159 230 773 481 1645 862
internal_count=50821 25643 25178 11064 6629 2272 23567 4357 2581 936 2076 1093 1845 1201 20986 2038 551 309 752 983 449 753 3156 519 1159 230 773 481 1645 862
is_linear=0
shrinkage=0.05


Tree=8
num_leaves=31
num_cat=0
split_feature=18 109 18 22 66 24 104 104 18 23 66 102 66 16 18 22 66 101 104 24 101 36 104 18 17 23 66 72 96 35
split_gain=31365 1600.37 864.319 805.398 589.41 572.082 761.246 443.579 419.922 465.351 711.91 291.066 203.969 187.372 132.173 349.294 224.853 128.503 124.788 122.288 120.664 126.992 119.822 109.808 104.867 114.588 224.738 95.8931 90.1565 87.0346
threshold=17.168499946594242 47.985214233398445 15.800499916076662 15.489500045776369 0.23281633108854297 19.721500396728519 -0.26814222335815424 -0.92914295196533192 23.527500152587894 20.840499877929691 0.22765275835990909 16.088429450988773 0.16310051083564761 1.6134999990463259 14.834499835968019 14.051499843597414 0.3004820197820664 3.6417322158813481 0.75385618209838878 18.845499992370609 4.1036205291748056 15.065499782562258 0.3899292945861817 18.801500320434574 2.0134999752044682 17.342499732971195 0.094335097819566741 0.81801879405975353 0.93794098496437084 49.735500335693366
decision_type=2 2 2 2 2 2 2 2 2 2 2 2 2 2 2 2 2 2 2 2 2 2 2 2 2 2 2 2 2 2
left_child=2 8 14 4 13 6 19 -5 9 18 -11 27 -7 -4 -1 16 -16 -14 -2 29 21 -21 -13 28 -9 26 -26 -8 -20 -3
right_child=1 5 3 7 -6 12 11 24 -10 10 -12 22 17 -15 15 -17 -18 -19 23 20 -22 -23 -24 -25 25 -27 -28 -29 -30 -31
leaf_value=-0.15070923695170696 0.071408545502228013 0.0399486442089299 -0.017089030441212395 0.011424177525419667 0.017505446463248475 0.014204611281530433 -0.025131984755474512 -0.055978484600197123 0.67036113998166358 0.042054839374284114 -0.0075890224899987759 0.028586949870859437 -0.015285917572146791 0.0081248579535976983 -0.012673204461360933 -0.059579022937564299 0.0063964105328448541 0.005720288507632976 -0.022964424665160091 -0.008457535741261157 0.031464266049006186 0.011921930656945624 -0.0058547418405634488 0.053860269905132444 -0.018041291630293801 -0.037959117102977571 0.0092909040134384387 -0.00073088398888652159 0.016550061793910765 0.0083761004711700345
leaf_weight=14880 4961 2342 516 244 705 293 579 2214 12019 1700 1143 354 824 153 450 3414 315 114 115 190 191 152 243 299 381 970 234 288 115 266
leaf_count=14880 4961 2342 516 244 705 293 579 2214 12019 1700 1143 354 824 153 450 3414 315 114 115 190 191 152 243 299 381 970 234 288 115 266
internal_value=-0.00112309 0.03691 -0.0418165 -0.0241924 0.00887918 0.013828 0.0219218 -0.0354316 0.0435289 0.0349034 0.018484 -0.00785519 -0.01645 -0.0247384 -0.0468256 -0.0389687 -0.00843137 -0.0278252 0.0434062 0.0358007 0.0139775 -0.00380117 0.0190117 0.0203214 -0.0396288 -0.0298107 -0.0129268 -0.0263552 -0.00565217 0.0402607
internal_weight=50664 26188 24476 5417 1374 5836 4605 4043 20352 8333 2843 1464 1231 669 19059 4179 765 938 5490 3141 533 342 597 529 3799 1585 615 867 230 2608
internal_count=50664 26188 24476 5417 1374 5836 4605 4043 20352 8333 2843 1464 1231 669 19059 4179 765 938 5490 3141 533 342 597 529 3799 1585 615 867 230 2608
is_linear=0
shrinkage=0.05


Tree=9
num_leaves=31
num_cat=0
split_feature=65 104 101 85 102 98 65 24 66 24 66 23 65 102 65 23 66 66 92 17 24 68 0 19 72 23 72 88 101 104
split_gain=28584.3 1788.46 1360.64 612.557 568.923 1133.88 471.253 550.364 392.16 232.748 219.824 268.471 249.482 199.804 194.813 311.245 400.109 182.455 176.636 156.837 156.494 186.696 153.198 146.26 143.73 130.12 126.957 158.771 125.163 123.849
threshold=17.686666488647464 -0.54385805130004872 3.3421368598937993 290.53599548339849 17.047785758972172 14.797500133514406 14.761833190917971 19.152999877929691 0.095816954970359816 14.587500095367433 0.21149494498968127 19.733499526977543 24.703666687011722 17.258358001708988 14.181166648864748 12.654500007629396 0.26168896257877355 0.15800351649522784 2.5494999885559086 2.2775000333786015 15.163499832153322 0.25439520180225378 116.49950027465822 16.715499877929691 0.65731713175773632 17.039500236511234 0.87653914093971264 369.12771606445318 2.4075436592102055 0.23693084716796878
decision_type=2 2 2 2 2 2 2 2 2 2 2 2 2 2 2 2 2 2 2 2 2 2 2 2 2 2 2 2 2 2
left_child=1 6 4 14 5 -2 -1 17 -7 24 -6 -12 -13 -9 -3 16 -16 23 -4 -17 21 -21 -18 -8 -5 -10 27 29 -19 -11
right_child=2 3 18 9 10 8 7 13 25 26 11 12 -14 -15 15 19 22 28 -20 20 -22 -23 -24 -25 -26 -27 -28 -29 -30 -31
leaf_value=-0.036099283181862417 0.036152831431429888 -0.16027377548559132 0.0334760058231411 -0.031353780654506204 0.051059482637966273 0.0095814603087438499 -0.0082893265179453841 -0.029681983764447931 0.036044954046120917 0.0050880932402534995 0.11369269454183471 -0.0044762188567286643 0.18989302881387912 0.010830443324044836 -0.022628259995808621 -0.067228664937487012 -0.0057627447760286721 0.0045070803688809667 0.42861802347330297 -0.020323786166743664 -0.037500908353524223 0.010084182441672907 0.0082342720907493394 0.011972607866830565 0.021538417011786316 -0.016312458902344763 -0.076983606388528178 0.01997445665304598 0.03095242773951732 -0.039674673539887274
leaf_weight=503 1919 11599 504 111 2782 503 265 588 90 195 596 952 379 184 459 6969 118 342 15376 159 1346 206 394 175 272 1412 756 280 833 527
leaf_count=503 1919 11599 504 111 2782 503 265 588 90 195 596 952 379 184 459 6969 118 342 15376 159 1346 206 394 175 272 1412 756 280 833 527
internal_value=-0.00133283 -0.0375576 0.0375046 -0.0421423 0.0215279 0.00746687 -0.000449827 0.0088186 -0.0188279 -0.0166511 0.0332449 0.0202647 0.00777611 -0.0259067 -0.0447106 -0.0394622 -0.0126159 0.025418 0.0461902 -0.0424654 -0.0289012 0.000136986 0.0177734 -0.00204545 0.0186684 -0.0316245 -0.0243458 -0.0126747 0.0357021 -0.0250693
internal_weight=50794 26281 24513 23391 8633 3924 2890 2387 2005 2141 4709 1927 1331 772 21250 9651 971 1615 15880 8680 1711 365 512 440 383 1502 1758 1002 1175 722
internal_count=50794 26281 24513 23391 8633 3924 2890 2387 2005 2141 4709 1927 1331 772 21250 9651 971 1615 15880 8680 1711 365 512 440 383 1502 1758 1002 1175 722
is_linear=0
shrinkage=0.05


Tree=10
num_leaves=31
num_cat=0
split_feature=18 95 98 18 98 18 104 36 66 23 21 66 66 18 69 66 23 111 18 21 66 36 8 66 102 91 18 94 68 18
split_gain=28024 2121.95 1058.96 788.025 841.653 699.766 646.501 525.96 412.305 626.288 391.105 286.806 231.713 166.011 277.608 194.521 166.542 163.443 160.35 323.342 353.405 156.141 270.313 137.901 134.433 129.568 129.482 123.89 108.029 96.6241
threshold=17.055000305175785 2.3429286479949956 14.295499801635744 15.755499839782717 12.099500179290773 24.543499946594242 -0.6975722312927245 19.676500320434574 0.1597094610333443 19.219499588012699 15.623499870300295 0.23855979740619662 0.074392352253198638 18.308500289916996 17.403149604797367 0.13804548233747485 18.171500205993656 0.17392921447753909 14.491499900817873 14.545499801635744 0.3004820197820664 36.962501525878913 503.75450134277349 0.37151208519935613 17.123571395874027 1.2624999880790713 17.990499496459964 0.96268293261528026 0.14709847420454028 18.117500305175785
decision_type=2 2 2 2 2 2 2 2 2 2 2 2 2 2 2 2 2 2 2 2 2 2 2 2 2 2 2 2 2 2
left_child=3 2 17 18 25 6 -3 12 26 -10 11 -6 29 14 -9 -15 -17 -2 -1 20 -20 -11 -23 -24 -12 -5 -8 -19 -29 -4
right_child=1 5 7 4 10 -7 8 13 9 21 24 -13 -14 15 -16 16 -18 27 19 -21 -22 22 23 -25 -26 -27 -28 28 -30 -31
leaf_value=-0.14376008289661454 -0.0066702659326519868 0.056420417131469863 -0.011688302901917247 0.011053064709822725 -0.010475339722686883 0.65556206126448169 0.0016591573143157846 0.011013894151444426 0.098514759084360914 -0.011835699411475709 -0.042231532250136275 0.01144500112346556 -0.017128726918910875 0.025365675989578576 -0.020578064528991469 0.074405149962627967 -0.0071923161577184484 0.032388554301368888 -0.018907578166389882 -0.062605518184077849 0.0067814048332493831 0.11276067225330913 0.0052341156812914852 -0.042720111710087494 -0.020635484807789341 -0.010327240533674687 0.040450565529118521 0.0093159687764585719 -0.0069105810963463023 0.0073754239449799648
leaf_weight=13490 133 4140 122 632 347 11205 289 354 724 1097 3092 302 1460 604 468 132 376 1996 939 4076 435 314 356 278 745 86 1673 338 162 293
leaf_count=13490 133 4140 122 632 347 11205 289 354 724 1097 3092 302 1460 604 468 132 376 1996 939 4076 435 314 356 278 745 86 1673 338 162 293
internal_value=-0.00233922 0.0331485 0.00817024 -0.0413105 -0.0240776 0.0411586 0.0306673 -0.00867682 0.0180406 0.00561575 -0.0321222 0.00377504 -0.0275467 0.00961737 -0.00742092 0.0222122 -0.000590551 0.0325789 -0.0460454 -0.0388073 -0.0178311 -0.00853301 0.00632911 -0.0124606 -0.0381939 0.0261838 0.0355759 0.0354567 0.0132 0.00542169
internal_weight=50658 26514 6438 24144 5204 20076 8871 3809 4731 2769 4486 649 1875 1934 822 1112 508 2629 18940 5450 1374 2045 948 634 3837 718 1962 2496 500 415
internal_count=50658 26514 6438 24144 5204 20076 8871 3809 4731 2769 4486 649 1875 1934 822 1112 508 2629 18940 5450 1374 2045 948 634 3837 718 1962 2496 500 415
is_linear=0
shrinkage=0.05


Tree=11
num_leaves=31
num_cat=0
split_feature=18 18 104 18 98 85 98 22 66 23 110 18 86 18 22 110 66 102 66 23 114 99 18 104 66 114 66 23 72 104
split_gain=27288.1 2023.28 1253.35 849.022 859.88 846.819 837.315 535.094 518.127 321.712 255.729 263.264 217.583 214.585 354.017 188.357 179.806 178.946 155.456 287.312 141.394 135.604 129.842 123.646 119.635 119.255 114.957 114.334 107.664 107.327
threshold=17.055000305175785 25.192500114440922 -0.7307143211364745 15.082499980926515 11.584499835968019 262.25799560546881 14.497499942779543 14.93650007247925 0.24437357485294345 26.531499862670902 2.1750258207321171 18.492500305175785 177.76414489746097 18.1855001449585 17.586500167846683 1.2181919217109682 0.26168896257877355 17.086142539978031 0.1454376503825188 19.733499526977543 12.60100030899048 22.065500259399418 18.1855001449585 0.70371484756469738 0.12351743131875993 19.810359001159672 0.068615678697824492 17.468500137329105 0.77726292610168468 -0.92914295196533192
decision_type=2 2 2 2 2 2 2 2 2 2 2 2 2 2 2 2 2 2 2 2 2 2 2 2 2 2 2 2 2 2
left_child=3 2 10 -1 24 6 15 8 25 13 -2 -12 26 14 -7 -4 -11 -9 -15 -20 -10 -21 -17 27 -5 -6 -8 -19 -14 -13
right_child=1 -3 5 4 7 9 12 17 20 16 11 29 28 18 -16 22 -18 23 19 21 -22 -23 -24 -25 -26 -27 -28 -29 -30 -31
leaf_value=-0.1240731962158038 0.058709448169577176 0.64388400245174582 0.031255841857710291 -0.0076071815941732629 -0.018435578478532479 0.026651890158325475 0.0010519605478013006 -0.045007667772482753 -0.0037410162619732294 0.032061820137234687 -0.0078170068403701446 0.026715382565222257 -0.011642331606821356 0.041581224472940728 -0.016452527794657269 -0.0042545322435916686 -0.033901874403676049 0.0086709058994040699 0.096765869982498393 -0.0043182213826018058 0.012709910092958144 0.026523111272879873 0.0122587655022941 -0.049766336990606334 0.010256802497297813 0.0023351109723888544 -0.016562133309820305 -0.021942889992499381 0.004275195208108329 0.0082458706863425494
leaf_weight=15930 3869 10818 783 115 629 488 196 5012 104 88 192 845 554 1736 502 325 345 306 888 677 500 601 526 440 642 146 1567 331 705 885
leaf_count=15930 3869 10818 783 115 629 488 196 5012 104 88 192 845 554 1736 502 325 345 306 888 677 500 601 526 440 642 146 1567 331 705 885
internal_value=-0.00230269 0.0326439 0.0212212 -0.0407721 -0.0277264 0.0104849 -0.00509021 -0.0328736 -0.00474982 0.0241033 0.0397254 0.0248179 -0.0206817 0.0277596 0.0069697 0.0237454 -0.0172055 -0.0392429 0.0330343 0.0240997 0.0299669 0.00892019 0.00746181 -0.0207521 0.0230515 -0.0318065 -0.0320193 -0.0066719 -0.0048054 0.0309827
internal_weight=50745 26590 15772 24155 8225 9981 4656 7468 1379 5325 5791 1922 3022 4892 990 1634 433 6089 3902 2166 604 1278 851 1077 757 775 1763 637 1259 1730
internal_count=50745 26590 15772 24155 8225 9981 4656 7468 1379 5325 5791 1922 3022 4892 990 1634 433 6089 3902 2166 604 1278 851 1077 757 775 1763 637 1259 1730
is_linear=0
shrinkage=0.05


Tree=12
num_leaves=31
num_cat=0
split_feature=18 95 98 18 18 98 104 23 66 36 66 24 102 66 66 98 18 104 23 66 101 66 36 68 18 18 23 104 53 18
split_gain=25871 2174.8 1024.79 812.394 773.339 735.295 616.099 548.967 679.009 444.863 399.231 614.895 261.997 251.634 189.865 187.533 182.707 176.856 196.336 165.017 163.676 163.631 247.685 159.879 192.258 138.692 112.534 108.639 103.881 93.3832
threshold=16.942500114440922 2.3429286479949956 14.001500129699709 26.244999885559086 14.443500041961672 11.847499847412111 -0.71471309661865223 13.260499954223635 0.27620926499366766 20.998499870300297 0.1597094610333443 19.795499801635746 16.892142295837406 0.12790708988904956 0.091834995895624175 17.514499664306644 18.117500305175785 0.70371484756469738 17.28549957275391 0.11195733025670053 2.3285639286041264 0.35483485460281378 38.128499984741218 0.23863327503204348 18.492500305175785 17.990499496459964 16.648500442504886 1.0108561515808108 105.59291839599611 18.047500610351566
decision_type=2 2 2 2 2 2 2 2 2 2 2 2 2 2 2 2 2 2 2 2 2 2 2 2 2 2 2 2 2 2
left_child=4 2 23 6 -1 14 -3 8 -7 13 25 27 -9 16 -6 -11 -4 18 19 -14 -16 22 -13 24 -2 -8 -15 -12 -18 -17
right_child=1 3 9 -5 5 7 10 12 -10 15 11 21 17 26 20 29 28 -19 -20 -21 -22 -23 -24 -25 -26 -27 -28 -29 -30 -31
leaf_value=-0.13164455128233296 -0.0023564636746134407 0.052269898698935259 -0.012312328525919902 0.64408974281988118 -0.017260480071510997 -0.01474332948873709 0.00097150768046194713 -0.050705289618558781 0.010382763684397035 0.016593651952282063 0.091414484145858843 -0.0079350664575866155 -0.014122785730552413 0.0067893513705251434 -0.0073831198412548822 -0.019698398225777503 -0.0067682786518656005 -0.050045737038314192 -0.027670631048519214 0.017838945485631186 0.0080431542473672121 -0.030127546931763585 0.025589399032857688 0.039005265607111463 0.01495477796514999 0.037584109240991384 -0.019423315490657612 -0.016648803519136203 0.0082602314924023375 0.0052682645920094197
leaf_weight=13298 426 4311 356 10193 165 965 337 6265 597 1006 905 973 174 82 181 356 161 649 451 310 731 618 681 1292 688 2011 1358 113 580 458
leaf_count=13298 426 4311 356 10193 165 965 337 6265 597 1006 905 973 174 82 181 356 161 649 451 310 731 618 681 1292 688 2011 1358 113 580 458
internal_value=-0.00224399 0.0313418 0.00680911 0.039579 -0.0402338 -0.030082 0.029415 -0.0345606 -0.0074904 -0.00765435 0.0185349 0.00729483 -0.0399478 -0.0211864 0.00905292 0.0112088 -0.00314494 -0.0217803 -0.00786096 0.0142562 0.0179825 -0.0071743 0.00102781 0.0330008 0.0191203 0.0342845 -0.0349306 0.0395874 0.0109987 -0.00663391
internal_weight=50691 26905 6763 20142 23786 10488 9949 9411 1562 4357 5638 3290 7849 2537 1077 1820 1097 1584 935 484 912 2272 1654 2406 1114 2348 1440 1018 741 814
internal_count=50691 26905 6763 20142 23786 10488 9949 9411 1562 4357 5638 3290 7849 2537 1077 1820 1097 1584 935 484 912 2272 1654 2406 1114 2348 1440 1018 741 814
is_linear=0
shrinkage=0.05


Tree=13
num_leaves=31
num_cat=0
split_feature=18 18 18 104 22 85 66 98 23 66 104 66 23 18 110 18 66 71 76 18 96 76 110 16 104 0 66 73 66 34
split_gain=25170.5 1918.08 1124.1 1065.16 917.889 738.512 727.564 649.702 351.51 329.43 322.278 316.559 605.239 682.254 268.293 246.761 235.647 250.483 204.761 167.374 145.529 144.063 143.217 139.051 133.701 128.46 126.102 124.218 112.832 110.896
threshold=17.227000236511234 26.595499992370609 15.88849973678589 -0.7307143211364745 16.0605001449585 277.79850769042974 0.15468210726976397 14.345499992370607 26.531499862670902 0.26168896257877355 -0.85292911529541005 0.28237956762313848 14.054500102996828 13.719500064849855 2.1369546651840214 18.553999900817875 0.10826305299997331 17.089034080505375 -0.72536745667457569 18.1855001449585 1.0048628449440005 -0.026176805607974526 1.2181919217109682 2.0025000572204594 -0.86350059509277333 148.83699798583987 0.21504832059144977 12.309366703033449 0.25204849243164068 45.163499832153327
decision_type=2 2 2 2 2 2 2 2 2 2 2 2 2 2 2 2 2 2 2 2 2 2 2 2 2 2 2 2 2 2
left_child=2 3 11 14 6 7 23 22 18 -10 -6 -1 13 -13 -2 -16 19 -18 28 -9 -21 -20 -5 -4 -17 -15 -23 -8 -7 -19
right_child=1 -3 4 5 10 8 27 16 9 -11 -12 12 -14 25 15 24 17 29 21 20 -22 26 -24 -25 -26 -27 -28 -29 -30 -31
leaf_value=-0.09498618069572462 0.05836261290062579 0.62293528924822317 -0.016840668955559492 0.031710220065768714 0.0067222701919391172 0.015452911968073125 -0.0034258045268650509 -0.0088840535554869145 0.038585275515312926 -0.031148136831717289 -0.037602758738098534 -0.048786191376876967 -0.16343843736753902 0.0003467422290874822 -0.0057675776282546387 0.023921810229221574 0.018808501018765789 8.7933490232572364e-05 0.062071751258848278 0.017490944854174906 -0.007102818299574043 0.024108371288641808 0.0033272418678820695 0.0042000247942217683 0.0063625937482765238 0.012103198063653231 -0.0047342846796417431 0.013850526110564499 -0.018584822487731145 -0.014734498328351543
leaf_weight=16206 3462 10066 712 674 227 576 125 275 227 481 2878 620 1841 465 240 1474 144 291 2707 444 136 843 742 156 729 469 374 1090 255 1861
leaf_count=16206 3462 10066 712 674 227 576 125 275 227 481 2878 620 1841 465 240 1474 144 291 2707 444 136 843 742 156 729 469 374 1090 255 1861
internal_value=-0.00209096 0.0322776 -0.0381399 0.0214842 -0.0174441 0.0115653 0.00823332 -0.00327348 0.0239703 -0.00889831 -0.0346699 -0.0436177 -0.0297349 -0.00675676 0.0383319 0.0256447 -0.0159156 -0.0242596 0.0288644 0.00649123 0.0217241 0.0336391 0.0248588 -0.0267281 0.0308897 0.0202355 0.0193509 0.0332099 0.00631769 -0.0285316
internal_weight=50790 26001 24789 15935 5188 10030 2083 4567 5463 708 3105 19601 3395 1554 5905 2443 3151 2296 4755 855 580 3924 1416 868 2203 934 1217 1215 831 2152
internal_count=50790 26001 24789 15935 5188 10030 2083 4567 5463 708 3105 19601 3395 1554 5905 2443 3151 2296 4755 855 580 3924 1416 868 2203 934 1217 1215 831 2152
is_linear=0
shrinkage=0.05


Tree=14
num_leaves=31
num_cat=0
split_feature=65 104 9 91 36 85 98 104 106 20 66 44 19 71 66 66 99 70 116 35 70 84 101 19 36 72 66 66 71 70
split_gain=22523 2217.49 1584.68 816.135 810.822 654.176 607.441 408.409 388.197 503.433 347.668 543.391 270.835 380.909 382.697 266.236 249.595 540.464 266.131 158.87 180.525 158.543 172.201 166.361 154.392 154.857 146.744 126.797 177.081 119.444
threshold=17.877666473388675 -0.50850200653076161 4.4564998149871835 1.4614999890327456 20.488500595092777 262.25799560546881 14.240499973297121 -0.98807239532470692 46.105499267578132 13.671499729156496 0.21149494498968127 39.579500198364265 15.041500091552736 15.740900039672853 0.10128287971019746 0.11623013392090799 12.017499923706056 0.83943185210227977 12.454071044921877 48.63349914550782 0.62489885091781627 162.75150299072268 2.486311793327332 16.357500076293949 38.128499984741218 1.1693276166915896 0.34213042259216314 0.27802558243274694 14.654299736022951 0.53897115588188182
decision_type=2 2 2 2 2 2 2 2 2 2 2 2 2 2 2 2 2 2 2 2 2 2 2 2 2 2 2 2 2 2
left_child=1 7 3 -2 16 6 -5 -1 29 -10 -7 24 27 14 -14 -8 17 -3 -19 20 -15 22 23 -11 25 -12 -13 -6 -29 -9
right_child=2 4 -4 5 12 10 15 8 9 21 11 26 13 19 -16 -17 -18 18 -20 -21 -22 -23 -24 -25 -26 -27 -28 28 -30 -31
leaf_value=0.030127725216609669 0.044494753457772346 -0.046709509303721225 0.5828634683282925 0.012301336274434594 -0.064726806435854031 0.035305055760994276 0.0036052152612580102 -0.0015664462646751256 -0.033508700619203684 -0.0085352216131465049 -0.0074343926606340819 0.0030861073937025196 -0.019502721189088846 0.0035901871493967622 0.016281798325544907 -0.011058832835812283 -0.10418688577531832 -0.0076035105592541898 0.0045983159105650985 -0.044353514513986704 -0.046086494237486876 0.018218652843864102 0.010189025328534208 0.0041201019460999971 0.1297676454919662 0.074431788812082997 -0.032469412262121987 0.015329566385014105 -0.14051427675642483 -0.027498571787136862
leaf_weight=529 3847 2251 10218 1352 1443 3310 839 284 362 321 296 580 197 669 603 1815 15241 675 556 1005 415 622 478 212 729 302 570 163 138 603
leaf_count=529 3847 2251 10218 1352 1443 3310 839 284 362 321 296 580 197 669 603 1815 15241 675 556 1005 415 622 478 212 729 302 570 163 138 603
internal_value=-0.0018479 -0.033334 0.0334772 0.022324 -0.0388337 0.0146584 -0.000873689 0.00432425 -0.00308813 0.00914787 0.0254104 0.0112434 -0.0201058 -0.010713 0.018625 -0.0147702 -0.0434679 -0.03139 -0.00475223 -0.0219483 -0.00867159 0.0209737 0.00875371 -0.010788 0.0330445 0.014214 -0.013913 -0.0356651 -0.00614618 -0.0306088
internal_weight=50625 26767 23858 13640 23356 9793 4006 3411 2882 1995 5787 2477 4633 2889 800 2654 18723 3482 1231 2089 1084 1633 1011 533 1327 598 1150 1744 301 887
internal_count=50625 26767 23858 13640 23356 9793 4006 3411 2882 1995 5787 2477 4633 2889 800 2654 18723 3482 1231 2089 1084 1633 1011 533 1327 598 1150 1744 301 887
is_linear=0
shrinkage=0.05


Tree=15
num_leaves=31
num_cat=0
split_feature=18 18 105 102 18 23 66 98 98 23 66 66 102 35 24 98 66 23 66 24 66 70 35 116 18 8 66 94 70 18
split_gain=22986.3 2264.6 1121.14 1100.08 938.142 821.362 983.618 590.404 571.661 422.915 304.711 278.314 257.793 247.415 232.613 263.016 242.841 205.538 558.83 195.08 238.534 196.764 176.435 166.043 159.478 156.704 188.059 155.931 137.17 119.112
threshold=16.822500228881839 27.651999473571781 49.939498901367195 16.984214782714847 14.047500133514406 13.482500076293947 0.22390896081924441 12.372499942779543 14.001500129699709 27.598500251770023 0.08805048838257791 0.30258406698703771 19.315001487731937 49.036499023437507 19.721500396728519 21.465000152587894 0.12058929353952409 16.873499870300297 0.13355065137147906 15.792500019073488 0.081799890846014037 0.44433176517486578 50.398498535156257 12.454071044921877 18.553999900817875 456.54350280761724 0.19597080349922183 1.049525320529938 0.35309344530105596 18.308500289916996
decision_type=2 2 2 2 2 2 2 2 2 2 2 2 2 2 2 2 2 2 2 2 2 2 2 2 2 2 2 2 2 2
left_child=4 2 3 8 -1 6 -6 10 24 12 -7 -11 14 17 15 -5 -16 18 -9 21 -21 -10 -23 -8 -2 -14 -27 -4 -29 -22
right_child=1 -3 27 9 5 7 23 13 19 11 -12 -13 25 -15 16 -17 -18 -19 -20 20 29 22 -24 -25 -26 26 -28 28 -30 -31
leaf_value=-0.124377560178569 -0.0010132889853507799 0.60352040477515922 0.040649001764779327 0.030239277822853163 -0.018569451410581372 -0.012493168816155364 -9.5177234430465776e-05 -0.017259569648533635 -0.01911641455083677 0.021612773361060711 0.0076335166687158118 -0.043553362343113022 0.071024155138972853 -0.061856163755823174 0.014894208130617592 -0.011943139262115033 -0.0077104002908058968 -0.042296117894295909 0.014925989922097217 0.0043491083231046446 -0.032186029394695483 0.013628443428070014 -0.0048350867534995958 0.0092437540151866678 0.013339521405017951 0.032097961741629003 0.0022800417027914579 0.015561288548424201 -0.0042021245612902545 -0.0080684109356475627
leaf_weight=11605 476 9398 4354 1187 1167 379 569 1335 262 323 586 453 2739 4751 516 274 912 1508 385 418 829 370 242 1002 836 1112 729 294 294 1240
leaf_count=11605 476 9398 4354 1187 1167 379 569 1335 262 323 586 453 2739 4751 516 274 912 1508 385 418 829 370 242 1002 836 1112 729 294 294 1240
internal_value=-0.00183104 0.0293345 0.0188802 0.0111318 -0.0383111 -0.0283085 -0.00434624 -0.035644 -0.00824952 0.0221164 0.00129534 -0.0130155 0.0257665 -0.0401115 0.0140706 0.0280972 -0.000280112 -0.02943 -0.0176163 -0.0191758 -0.0263168 0.00114416 0.0166667 0.0214831 0.0197409 0.0331441 0.0218631 0.039134 0.014966 -0.0332769
internal_weight=50545 27258 17860 12918 23287 11682 2738 8944 4673 8245 965 776 7469 7979 2889 1461 1428 3228 1720 3361 2487 874 612 1571 1312 4580 1841 4942 588 2069
internal_count=50545 27258 17860 12918 23287 11682 2738 8944 4673 8245 965 776 7469 7979 2889 1461 1428 3228 1720 3361 2487 874 612 1571 1312 4580 1841 4942 588 2069
is_linear=0
shrinkage=0.05


Tree=16
num_leaves=31
num_cat=0
split_feature=18 18 104 18 17 23 66 86 98 66 23 18 18 23 36 98 70 112 66 96 18 62 44 66 35 70 109 104 111 93
split_gain=22166.8 2215.78 1145.87 1050.13 879.479 865.708 1000.9 648.857 626.68 330.633 979.031 452.281 414.556 313.61 457.836 276.319 255.702 231.804 225.781 206.127 216.528 184.331 177.394 157.9 143.96 142.208 217.066 135.042 129.096 88.9135
threshold=16.942500114440922 28.413499832153324 -0.78978490829467762 13.907499790191652 1.5454999804496767 14.831500053405763 0.16145725548267367 152.08142089843753 13.528500080108644 0.1454376503825188 17.847000122070316 18.553999900817875 18.308500289916996 26.531499862670902 38.128499984741218 12.372499942779543 1.0352227687835696 14.602499961853029 0.064299646764993681 0.98865792155265819 18.553999900817875 0.23025917261838916 45.987499237060554 0.30258406698703771 48.375499725341804 0.58686718344688427 48.949857711791999 0.23693084716796878 0.64928245544433605 1.5724285244941714
decision_type=2 2 2 2 2 2 2 2 2 2 2 2 2 2 2 2 2 2 2 2 2 2 2 2 2 2 2 2 2 2
left_child=3 2 19 -1 16 6 -6 8 -4 12 -11 -12 24 14 21 18 -5 29 -7 -2 -21 -13 -16 -15 -9 26 27 -17 -10 -8
right_child=1 -3 7 4 5 15 17 9 28 10 11 13 -14 23 22 25 -18 -19 -20 20 -22 -23 -24 -25 -26 -27 -28 -29 -30 -31
leaf_value=-0.12155867415877629 0.05380658286154523 0.59566932807888162 0.01182947793655611 -0.057385548295775385 -0.018142772173715026 -0.013715583908540198 -0.0076121636280207742 0.0079278556250232061 -0.011265884550530637 0.052303173989244736 -0.026777585296305608 -0.010242729980358424 0.029687500424268622 0.005376106643550216 0.10941113745306393 0.0050372240490458966 -0.0019770232467077875 0.012996560276335778 0.0052272730574854272 -0.0053291909340822848 0.01815984760887961 0.0092285043653062889 0.0043875046770645021 -0.041193830535694614 -0.0041577840480412579 -0.059022520561075355 -0.023341421397158647 -0.021254202247926735 0.026184760637003104 0.0034571005411864423
leaf_weight=11071 3116 9017 801 4594 1043 265 169 486 1816 1353 782 810 3054 334 961 419 475 1137 411 225 2083 418 360 592 660 1652 1258 485 85 781
leaf_count=11071 3116 9017 801 4594 1043 265 169 486 1816 1353 782 810 3054 334 961 419 475 1137 411 225 2083 418 360 592 660 1652 1258 485 85 781
internal_value=-0.0019216 0.0291155 0.0189507 -0.0371296 -0.0273111 -0.0165748 0.00361022 0.0106298 -0.0110659 0.0166055 0.0086631 -0.00311252 0.0272143 0.00461871 0.013672 -0.0306459 -0.0434504 0.0235985 -0.00118343 0.0381453 0.0268198 -0.00830619 0.034103 -0.0203024 0.00157068 -0.0358679 -0.0274283 -0.00873894 -0.0266965 0.00536842
internal_weight=50713 26953 17936 23760 12689 7620 3130 12512 2702 9810 5610 4257 4200 3475 2549 4490 5069 2087 676 5424 2308 1228 1321 926 1146 3814 2162 904 1901 950
internal_count=50713 26953 17936 23760 12689 7620 3130 12512 2702 9810 5610 4257 4200 3475 2549 4490 5069 2087 676 5424 2308 1228 1321 926 1146 3814 2162 904 1901 950
is_linear=0
shrinkage=0.05


Tree=17
num_leaves=31
num_cat=0
split_feature=18 18 104 18 17 71 66 18 22 32 66 114 70 66 75 109 70 66 9 102 24 66 84 72 60 104 24 18 11 113
split_gain=21309.3 2310.46 1097.66 1014.06 813.039 652.53 1054.32 608.975 1149.17 746.458 502.382 482.054 403 278.743 246.589 217.704 208.189 183.536 174.718 162.817 142.723 129.945 202.202 132.375 128.722 203.295 126.828 195.54 133.253 123.721
threshold=16.881500244140629 29.278499603271488 -0.8855004310607909 14.193500041961672 1.6744999885559084 16.005833625793461 0.11485546454787256 18.244500160217289 17.348000526428226 46.576499938964851 0.1597094610333443 20.562714576721195 1.0285306572914126 0.079379539936780943 0.87248763442039501 49.235570907592781 0.48294988274574285 0.12496132403612138 3.5694999694824223 15.122428894042971 12.76349973678589 0.36750645935535436 480.83250427246099 1.0207648277282717 0.1615116894245148 -0.30714368820190424 10.756999969482424 13.484499931335451 1.5814999938011172 29.384999275207523
decision_type=2 2 2 2 2 2 2 2 2 2 2 2 2 2 2 2 2 2 2 2 2 2 2 2 2 2 2 2 2 2
left_child=3 2 -2 26 12 6 -6 8 13 10 11 18 -5 -4 21 -8 19 -10 -9 -7 -14 22 23 -12 25 -11 27 -1 -29 -27
right_child=1 -3 7 4 5 16 15 9 17 24 14 -13 20 -15 -16 -17 -18 -19 -20 -21 -22 -23 -24 -25 -26 29 -28 28 -30 -31
leaf_value=-0.046750319605103743 0.041444810612913677 0.59718583420911731 -0.0022200530378226448 -0.048344704158180998 -0.016135852516983729 -0.023317286295796793 0.010758486219667596 0.0041104389987208561 -0.0035808887389350732 0.03251855208100958 -0.011497744580117521 0.03613094192996176 0.0012242740001521925 0.017923198708959465 0.070380611520389283 -0.00079630246200199659 -0.043916807164974793 -0.028278593262232921 -0.0089984813280127082 -7.6390419619087882e-05 -0.099688916523763466 -0.030719522596332906 0.016154426178357807 0.0028025756502795931 0.047905241809365333 -0.0011218567228883814 -0.11368072786233646 0.0092366800887519595 -0.014935057534790408 0.030315577535183991
leaf_weight=466 4092 8735 473 4647 1406 286 1549 598 903 798 1016 1856 517 1194 512 605 1515 1244 473 637 130 756 732 451 2137 541 11515 154 94 734
leaf_count=466 4092 8735 473 4647 1406 286 1549 598 903 798 1016 1856 517 1194 512 605 1515 1244 473 637 130 756 732 451 2137 541 11515 154 94 734
internal_value=-0.00179845 0.0283006 0.0182982 -0.036663 -0.025859 -0.0132544 0.000393258 0.0118116 -0.0053225 0.0179743 0.00720988 0.0224633 -0.0401398 0.0258248 -0.00566772 0.022377 -0.0331829 -0.0295063 -0.00424837 -0.0144637 -0.00316847 -0.0112183 -0.00507049 -0.0157805 0.034323 0.0254462 -0.0466391 -0.0261905 0.00967742 0.0130588
internal_weight=50766 27245 18510 23521 11292 5998 3560 14418 3814 10604 6394 2927 5294 1667 3467 2154 2438 2147 1071 923 647 2955 2199 1467 4210 2073 12229 714 248 1275
internal_count=50766 27245 18510 23521 11292 5998 3560 14418 3814 10604 6394 2927 5294 1667 3467 2154 2438 2147 1071 923 647 2955 2199 1467 4210 2073 12229 714 248 1275
is_linear=0
shrinkage=0.05


Tree=18
num_leaves=31
num_cat=0
split_feature=65 104 27 104 102 24 70 76 76 105 104 98 84 65 105 104 99 53 114 110 13 68 24 23 68 17 64 65 98 70
split_gain=19196.7 1893 1809.78 776.135 747.812 608.691 773.671 542.212 582.631 519.303 374.267 372.047 349.306 329.738 456.294 303.899 276.666 250.674 223.195 222.671 210.93 209.353 179.103 173.584 167.011 183.914 147.143 142.882 112.617 107.317
threshold=17.747333526611332 -0.48264265060424799 41.397499084472663 -0.91785764694213856 17.258358001708988 11.754499912261965 0.91724953055381786 0.1305249631404877 -0.67879429459571827 50.355499267578132 0.60914182662963878 15.046499729156496 139.21350097656253 15.283833503723146 50.501499176025398 -1.0662155151367185 14.283500194549562 121.23906707763673 12.828143596649172 1.9391916990280154 1.4294999837875368 0.33843995630741125 17.645500183105472 18.546500205993656 0.47229063510894781 3.4505000114440922 0.44997344911098486 13.520166873931887 13.437500000000002 0.62489885091781627
decision_type=2 2 2 2 2 2 2 2 2 2 2 2 2 2 2 2 2 2 2 2 2 2 2 2 2 2 2 2 2 2
left_child=1 12 -2 -4 5 6 -3 8 11 18 22 -5 15 -7 20 -1 -17 -8 28 27 -15 26 -6 -23 25 -13 -20 -14 -9 -24
right_child=2 4 3 7 10 13 17 9 -10 -11 -12 24 19 14 -16 16 -18 -19 21 -21 -22 23 29 -25 -26 -27 -28 -29 -30 -31
leaf_value=0.026135670191553918 0.58977660811145438 -0.040143578289490917 0.04673830712535168 0.020910172911558257 0.01643646636690228 -0.10054668307688566 -0.0037823965120249883 0.0028946115751152138 0.053004959253669354 0.023193559948033828 -0.032617483516714965 -0.0041245998753364436 -0.0166971850171862 -0.0002062370488030041 0.0017138714997137151 0.0087325403140256167 -0.0095251279489827929 0.0061467840743397069 0.0015037946092450129 -0.009595610425062873 -0.03813694894118598 0.051659760476592001 0.0078552727494145113 -0.013798753932121155 -0.01744260185406148 0.024069212661582642 0.029956296437256925 0.012744243863317718 -0.0099471814474250131 -0.036114191512353337
leaf_weight=210 8406 1730 3207 1001 655 12585 567 251 4572 846 1205 920 84 340 689 340 1408 786 1172 285 3964 107 193 1084 687 583 452 1232 1046 213
leaf_count=210 8406 1730 3207 1001 655 12585 567 251 4572 846 1205 920 84 340 689 340 1408 786 1172 285 3964 107 193 1084 687 583 452 1232 1046 213
internal_value=-0.00190083 -0.0313562 0.0301594 0.0202536 -0.0366228 -0.0396133 -0.019121 0.0147119 0.0229615 0.00179508 -0.00935569 0.00656534 0.00257095 -0.0432074 -0.0323353 -0.0115935 -0.0184211 0.00920177 -0.00554475 0.0198938 -0.0383829 0.00236234 0.0122997 -0.01356 -0.00497717 0.00435795 0.0140394 0.0285714 -0.0227062 -0.0137931
internal_weight=50820 26486 24334 15928 22927 20661 3083 12721 7763 4958 2266 3191 3559 17578 4993 1958 1748 1353 4112 1601 4304 2815 1061 1191 2190 1503 1624 1316 1297 406
internal_count=50820 26486 24334 15928 22927 20661 3083 12721 7763 4958 2266 3191 3559 17578 4993 1958 1748 1353 4112 1601 4304 2815 1061 1191 2190 1503 1624 1316 1297 406
is_linear=0
shrinkage=0.05


Tree=19
num_leaves=31
num_cat=0
split_feature=18 18 18 104 23 35 66 18 22 32 23 66 66 112 66 76 76 66 18 13 17 27 72 68 102 92 96 53 66 72
split_gain=19743.4 2401.98 1059.32 1045.05 946.579 825.581 702.553 647.621 1113.71 696.217 512.018 833.203 511.209 449.268 276.234 242.617 540.276 242.151 175.735 169.02 165.428 159.148 148.101 144.39 126.315 118.984 118.566 118.158 95.8642 100.872
threshold=16.766500473022464 30.098000526428226 13.622499942779543 -0.91785764694213856 12.967500209808351 48.891498565673835 0.22930087149143222 18.244500160217289 17.28750038146973 46.772499084472663 16.441499710083011 0.081799890846014037 0.15800351649522784 17.273500442504886 0.08053708449006082 -0.032719015143811696 -0.52249366044998158 0.12496132403612138 14.882500171661379 1.3564999699592593 1.7714999914169314 45.321498870849616 1.0597772002220156 0.12006548419594766 16.575644493103031 1.7624999880790713 1.0364245772361758 152.05219268798831 0.36750645935535436 1.0207648277282717
decision_type=2 2 2 2 2 2 2 2 2 2 2 2 2 2 2 2 2 2 2 2 2 2 2 2 2 2 2 2 2 2
left_child=2 3 -1 26 6 10 -4 8 14 12 11 -6 13 21 25 16 28 24 -13 -8 22 -9 -11 -12 -10 -5 -2 -21 29 -14
right_child=1 -3 4 7 5 -7 19 9 17 20 23 18 15 -15 -16 -17 -18 -19 -20 27 -22 -23 -24 -25 -26 -27 -28 -29 -30 -31
leaf_value=-0.11367634571828047 0.046574686762911724 0.57283775024006134 -0.012395509192123288 -0.0071963274929705895 -0.013545549335295082 -0.048990184026353578 0.010401669507432577 -0.0086429312119988399 -0.0070045459582910759 -0.0011423675456773807 -0.0031136819885593248 -0.000915403611014698 -0.009909698357139618 0.028966254357166401 0.015642757696683062 -0.010091558097950683 0.097092707718732824 -0.026595681577224098 0.011512609657193452 -0.0021077439858756988 0.040095959074835368 0.0033943642073477778 0.026643129520531873 -0.03832467805864042 0.0024254481410943998 0.0056990418010169465 0.013978304770779548 0.0058276982818563638 -0.039471150378711253 0.0062210151527073883
leaf_weight=9860 2896 8251 934 291 1052 6430 785 480 527 510 424 430 521 2479 1342 1675 905 1376 977 494 2879 625 580 1479 518 215 838 303 345 399
leaf_count=9860 2896 8251 934 291 1052 6430 785 480 527 510 424 430 521 2479 1342 1675 905 1376 977 494 2879 625 580 1479 518 215 838 303 345 399
internal_value=-0.00189886 0.0266274 -0.0359461 0.0170172 -0.0267433 -0.033182 0.000874404 0.0113519 -0.00525884 0.0175733 -0.0163916 -0.00132168 0.00854085 0.0221261 0.0239719 -0.00412224 0.00691244 -0.0275713 0.0238451 0.0211757 0.0344797 -0.00438914 0.0178899 -0.0358644 -0.00942584 -0.00750988 0.0407874 0.00495609 -0.0141897 -0.00576087
internal_weight=50820 27652 23168 19401 13308 10792 2516 15667 4269 11398 4362 2459 7429 3584 1848 3845 2170 2421 1407 1582 3969 1105 1090 1903 1045 506 3734 797 1265 920
internal_count=50820 27652 23168 19401 13308 10792 2516 15667 4269 11398 4362 2459 7429 3584 1848 3845 2170 2421 1407 1582 3969 1105 1090 1903 1045 506 3734 797 1265 920
is_linear=0
shrinkage=0.05


Tree=20
num_leaves=31
num_cat=0
split_feature=18 18 91 102 18 23 66 17 98 44 66 23 66 36 98 23 66 53 22 18 23 104 18 22 110 68 108 70 18 66
split_gain=18975.8 2472.49 1083.94 1161.24 993.766 921.041 768.623 644.059 468.999 444.349 778.364 437.799 750.452 407.258 341.963 318.52 305.336 217.69 216.308 328.407 192.694 178.471 166.104 156.169 149.895 139.155 136.32 120.936 120.208 124.961
threshold=16.657500267028812 30.542500495910648 1.3195000290870669 17.402500152587894 13.622499942779543 13.159500122070314 0.21323096752166751 1.9135000109672549 14.141499996185305 47.48649978637696 0.24827426671981814 16.648500442504886 0.10267748683691026 37.561500549316413 17.902500152587894 18.301500320434574 0.11336861923336984 138.47881317138675 16.395500183105472 17.990499496459964 19.494500160217289 -0.67200279235839833 18.553999900817875 17.463500022888187 2.1186138391494755 0.57332083582878124 2.2427108287811284 0.45371274650096899 15.251500129699709 0.051866279914975173
decision_type=2 2 2 2 2 2 2 2 2 2 2 2 2 2 2 2 2 2 2 2 2 2 2 2 2 2 2 2 2 2
left_child=4 2 21 8 -1 6 -6 -7 22 13 -11 12 28 14 24 -16 -17 25 -10 -20 27 -2 23 -4 -5 -8 -23 -21 -9 -30
right_child=1 -3 3 9 5 7 17 11 18 10 -12 -13 -14 -15 15 16 -18 -19 19 20 -22 26 -24 -25 -26 -27 -28 -29 29 -31
leaf_value=-0.10796290659650537 0.035337718914856001 0.55454589934915199 0.0038661214997147476 0.042875067014956962 -0.014892859328955767 -0.049120170257265186 -0.0023624281806818638 -0.018543816220544598 0.0043002561970903134 0.026391837410890063 -0.025545269389270778 -0.030202387340221206 0.0078795617752804858 0.078985300469012643 0.021405460841202473 0.01640805941619039 -0.016802895134978613 0.0094805651096019801 -0.024892771745630784 -0.0013708629784464855 -0.0066548858950195473 0.014358707976444941 0.010297815464134531 -0.006704715807443762 0.0087956578385233186 0.006876635300551737 -0.0028294882526701316 0.022475524312939223 -0.0091401665099556158 0.0026333508216916713
leaf_weight=9939 3277 8069 382 1016 1009 6014 574 710 361 1673 1286 1626 1104 2822 622 329 775 950 1395 592 1616 824 1247 341 795 264 259 338 334 273
leaf_count=9939 3277 8069 382 1016 1009 6014 574 710 361 1673 1286 1626 1104 2822 622 329 775 950 1395 592 1616 824 1247 341 795 264 259 338 334 273
internal_value=-0.00191869 0.0256415 0.0161955 0.0100321 -0.035792 -0.0266138 -0.00123346 -0.0336696 -0.00660077 0.0212277 0.00522136 -0.0182481 -0.00477076 0.0286759 0.0173735 0.00144844 -0.0146739 0.0184564 -0.0158531 -0.0192464 -0.00856245 0.0382339 0.0136041 -0.00546335 0.0325511 -0.000119332 0.0206371 0.00956989 -0.0302582 -0.0139209
internal_weight=50816 28019 19950 15590 22797 12858 2797 10061 6272 9318 2959 4047 2421 6359 3537 1726 1104 1788 4302 3941 2546 4360 1970 723 1811 838 1083 930 1317 607
internal_count=50816 28019 19950 15590 22797 12858 2797 10061 6272 9318 2959 4047 2421 6359 3537 1726 1104 1788 4302 3941 2546 4360 1970 723 1811 838 1083 930 1317 607
is_linear=0
shrinkage=0.05


Tree=21
num_leaves=31
num_cat=0
split_feature=18 18 18 22 66 105 85 18 22 66 26 44 66 98 66 84 23 104 17 66 23 66 13 70 92 99 99 18 98 62
split_gain=18074 1925.02 1762.75 1171.36 876.208 714.652 577.468 493.882 1106.39 455.2 388.861 388.049 657.461 354.507 352.735 311.048 269.972 332.235 258.489 254.743 236.311 460.695 224.747 179.86 166.458 162.971 148.419 143.321 142.104 137.295
threshold=17.791500091552738 15.580500125885012 31.934499740600589 16.539500236511234 0.091834995895624175 50.313499450683601 191.43049621582034 13.345499992370607 13.16249990463257 0.19264589995145801 12.655499935150148 56.281499862670906 0.24827426671981814 13.484499931335451 0.13498642295598987 486.79550170898443 19.733499526977543 -0.67200279235839833 1.6955000162124636 0.13355065137147906 14.879499912261965 0.12496132403612138 1.3564999699592593 0.53897115588188182 1.5494999885559084 17.040500640869144 16.179500579833988 16.158500671386722 13.306499958038332 0.23528999090194705
decision_type=2 2 2 2 2 2 2 2 2 2 2 2 2 2 2 2 2 2 2 2 2 2 2 2 2 2 2 2 2 2
left_child=1 7 5 4 24 6 13 -1 9 -9 27 15 -13 -2 26 16 23 -18 -10 -19 21 -20 -11 25 -3 -8 -5 -6 -16 -21
right_child=2 3 -4 14 10 -7 11 8 18 22 -12 12 -14 -15 28 -17 17 19 20 29 -22 -23 -24 -25 -26 -27 -28 -29 -30 -31
leaf_value=-0.11178738287407458 0.009523189763552509 -0.014118721801166379 0.57594360819639179 -0.012888055664271647 -0.010307460127901225 0.03689122293814897 -0.0024246742911762098 -0.021711241397971828 -0.057491477137294834 0.012226101043089344 0.010763651872843207 0.029918618114604636 -0.027501141430659716 -0.0039887841810651642 0.013142100226103804 0.08001856318296402 0.023728994256961844 0.016990959528745721 -0.019107166241792498 -0.011958750391431039 -0.033279219411070218 0.00343162011012641 -0.0008070824837289603 0.047601616758093539 -0.0025629337749927929 0.024670859195609119 -0.00045160240764809958 0.0019436402689245293 -0.042031120688059788 0.0031530786558143123
leaf_weight=8603 1117 788 7474 767 332 2868 444 381 4401 700 2291 1001 1029 2367 80 2613 1528 555 808 859 1857 803 486 1203 782 593 1038 296 2069 524
leaf_count=8603 1117 788 7474 767 332 2868 444 381 4401 700 2291 1001 1029 2367 80 2613 1528 555 808 859 1857 803 486 1203 782 593 1038 296 2069 524
internal_value=-0.00177567 -0.0303112 0.0294829 -0.0106064 0.00687235 0.0204509 0.0157413 -0.0395338 -0.0316342 0.00673261 0.023073 0.0216688 0.00206897 -0.00186567 -0.0304502 0.0264515 0.0199089 0.0111656 -0.0392744 -0.00257998 -0.0290657 -0.0150528 0.0220067 0.0334375 -0.0232484 0.0181774 -0.0141551 -0.0117834 -0.0441368 -0.0140636
internal_weight=50657 26482 24175 8443 4489 16701 13833 18039 9436 1567 2919 10349 2030 3484 3954 8319 5706 3466 7869 1938 3468 1611 1186 2240 1570 1037 1805 628 2149 1383
internal_count=50657 26482 24175 8443 4489 16701 13833 18039 9436 1567 2919 10349 2030 3484 3954 8319 5706 3466 7869 1938 3468 1611 1186 2240 1570 1037 1805 628 2149 1383
is_linear=0
shrinkage=0.05


Tree=22
num_leaves=31
num_cat=0
split_feature=19 104 9 36 105 102 96 19 25 70 44 66 23 32 66 84 19 19 102 70 36 98 23 66 104 104 22 103 70 35
split_gain=16146.5 2096.38 1825.01 890.406 670.165 568.812 493.579 546.924 475.25 651.893 463.062 676.705 420.51 403.072 771.546 313.081 302.294 285.87 256.621 247.893 244.802 274.198 230.227 226.104 213.913 199.04 179.278 159.791 155.37 153.902
threshold=17.995500564575199 -0.42621374130249018 5.8275001049041757 17.672999382019047 50.355499267578132 17.705573081970218 0.94478026032447826 16.064499855041507 11.931499958038332 0.81904551386833202 48.917499542236335 0.24827426671981814 20.064499855041507 49.535499572753913 0.18946386873722079 149.16199493408206 12.485499858856203 15.135499954223635 18.724571228027347 0.61337095499038707 38.128499984741218 17.902500152587894 18.791500091552738 0.11762274801731111 -0.14500141143798825 -0.21828365325927732 17.28750038146973 2.2408680915832524 0.65364298224449169 49.036499023437507
decision_type=2 2 2 2 2 2 2 2 2 2 2 2 2 2 2 2 2 2 2 2 2 2 2 2 2 2 2 2 2 2
left_child=1 6 4 8 5 12 7 15 9 -3 20 -12 19 18 17 27 -16 -15 25 24 21 -7 -23 -24 -2 -5 -9 -1 -20 -10
right_child=2 3 -4 13 -6 10 -8 26 29 -11 11 -13 -14 14 16 -17 -18 -19 28 -21 -22 22 23 -25 -26 -27 -28 -29 -30 -31
leaf_value=0.0037562073367403137 0.0030190869229910437 -0.029226813667821185 0.52987147585175765 -0.0027663088030762673 0.036713222739523134 0.030537364656007607 -0.016070060633060646 0.014221032146893898 -0.037077287601928965 0.00084051078470723803 0.027696711610860361 -0.022357873837239597 -0.0061967649344962794 -0.038012797954587722 -0.037371047070512996 0.0043723396748173386 0.014859380606275608 4.678626548404452e-06 0.012275014745641367 0.02181231685457128 0.077110641989930784 0.03029799566341982 0.016097738022222252 -0.014121839295840211 -0.0095944911410231985 -0.048485204035436484 -0.00052845794225788725 -0.0095623937604778497 -0.032587497234186101 -0.085698021359765342
leaf_weight=219 1468 1581 7729 538 2414 1532 632 1539 3673 1335 1542 1334 1979 1093 115 700 973 695 394 997 2813 348 307 635 394 2594 388 994 391 9323
leaf_count=219 1468 1581 7729 538 2414 1532 632 1539 3673 1335 1542 1334 1979 1093 115 700 973 695 394 997 2813 348 307 635 394 2594 388 994 391 9323
internal_value=-0.00176143 -0.0280035 0.028597 -0.0341665 0.0188384 0.0144543 0.00328712 0.010026 -0.040636 -0.0223937 0.0222359 0.00591099 0.000764779 -0.0190122 -0.00479833 -0.0089127 0.0284007 -0.025 -0.0294486 0.013029 0.0305679 0.020163 0.00317829 -0.0096603 0.00225564 -0.0358557 0.0288272 -0.0242786 -0.00388535 -0.0447291
internal_weight=50669 27177 23492 22705 15763 13349 4472 3840 15912 2916 8511 2876 4838 6793 2876 1913 1088 1788 3917 2859 5635 2822 1290 942 1862 3132 1927 1213 785 12996
internal_count=50669 27177 23492 22705 15763 13349 4472 3840 15912 2916 8511 2876 4838 6793 2876 1913 1088 1788 3917 2859 5635 2822 1290 942 1862 3132 1927 1213 785 12996
is_linear=0
shrinkage=0.05


Tree=23
num_leaves=31
num_cat=0
split_feature=18 18 104 18 23 35 18 22 32 23 68 76 76 26 31 68 68 9 68 70 99 25 99 110 18 107 68 7 58 104
split_gain=16645.2 2512.61 1066.98 1048.09 905.508 719.962 706.712 1184.89 659.506 524.72 533.889 415.063 577.323 354 331.491 210.256 201.54 193.351 188.32 172.597 164.966 140.799 139.815 132.484 121.259 115.917 111.854 110.256 107.744 126.216
threshold=16.547500610351566 32.918498992919929 -0.97585630416870106 13.57350015640259 12.654500007629396 49.168498992919929 18.553999900817875 17.586500167846683 46.772499084472663 15.709499835968019 0.18001166731119159 0.06540259532630445 -0.59831893444061268 11.369500160217287 49.787498474121101 0.60406136512756359 0.34430493414402014 3.5694999694824223 0.28357814252376562 0.47280439734458929 10.130499839782717 18.898500442504886 16.813499450683597 2.1483249664306645 14.792500019073488 49.564216613769538 0.088870692998170867 80.213500976562514 0.072178944945335402 -0.2987146377563476
decision_type=2 2 2 2 2 2 2 2 2 2 2 2 2 2 2 2 2 2 2 2 2 2 2 2 2 2 2 2 2 2
left_child=3 2 -2 -1 14 9 7 13 11 10 24 12 15 -4 -5 23 27 -13 21 22 -16 -9 -11 -8 -6 -12 -26 -15 29 -10
right_child=1 -3 6 4 5 -7 8 18 28 19 25 17 -14 16 20 -17 -18 -19 -20 -21 -22 -23 -24 -25 26 -27 -28 -29 -30 -31
leaf_value=-0.094428873308919678 0.040430587438901183 0.54950283720931636 -0.011346961676638491 -0.0048752390082487558 -0.016297085430707802 -0.042577936886500203 0.016625561424930348 -0.007805756203511649 0.027840605521835118 -0.012862311075195355 0.0088172578563639799 0.0026499168604071422 0.054902036049261228 -0.0048362269038372046 -0.0019789445458224366 -0.029119547856117034 0.021692870134472922 -0.010450669028299409 -0.023413602324766993 -0.03770192336009584 0.008282470600595105 0.0011012160450288634 0.0014491682371954974 -0.00093660009390346139 -0.0085793806936329542 -0.0024325198026295073 0.0030408394351491455 0.004692577623412398 0.04141867998158482 0.0059999891139809417
leaf_weight=9616 3087 7050 314 865 593 5763 615 847 608 496 1059 1684 2921 164 231 466 1007 1569 1448 1496 953 709 430 1314 308 214 298 1505 2077 858
leaf_count=9616 3087 7050 314 865 593 5763 615 847 608 496 1059 1684 2921 164 231 466 1007 1569 1448 1496 953 709 430 1314 308 214 298 1505 2077 858
internal_value=-0.0018145 0.0236891 0.0150875 -0.034083 -0.0246576 -0.0305105 0.0104551 -0.00358692 0.0174042 -0.0164078 -0.000202265 0.00990197 0.0185102 0.0186957 0.00578331 0.000313152 0.0245889 -0.00416539 -0.0257656 -0.032948 0.022973 -0.0136889 -0.0159827 0.00759461 -0.0241451 0.0223488 -0.00841584 0.0139305 0.035549 0.0251705
internal_weight=50565 28243 21193 22322 12706 10657 18106 5994 12112 4894 2472 8569 5316 2990 2049 2395 2676 3253 3004 2422 1184 1556 926 1929 1199 1273 606 1669 3543 1466
internal_count=50565 28243 21193 22322 12706 10657 18106 5994 12112 4894 2472 8569 5316 2990 2049 2395 2676 3253 3004 2422 1184 1556 926 1929 1199 1273 606 1669 3543 1466
is_linear=0
shrinkage=0.05


Tree=24
num_leaves=31
num_cat=0
split_feature=18 18 18 104 23 104 18 22 66 32 96 99 66 26 112 66 102 13 66 23 16 66 68 104 18 22 66 53 17 106
split_gain=15863.5 2542.84 1027.64 1006 989.383 727.778 699.513 1189.37 665.74 602.01 401.344 382.904 445.916 433.299 366.343 311.129 295.055 280.414 246.027 234.227 175.21 167.979 164.429 163.893 157.906 348.808 193.625 156.363 156.017 135.523
threshold=16.492500305175785 33.433000564575202 13.205500125885012 -0.97585630416870106 12.816500186920168 -0.36828374862670893 18.371500015258793 17.348000526428226 0.19264589995145801 46.772499084472663 0.49299018085002905 19.981500625610355 0.26168896257877355 28.230999946594242 44.964500427246101 0.17274130135774615 17.123571395874027 1.3564999699592593 0.14996110647916797 15.086500167846681 1.6464999914169314 0.091834995895624175 0.16474465280771258 -0.78978490829467762 15.303500175476076 15.5314998626709 0.075579244643449797 164.90471649169925 1.7885000109672549 42.690999984741218
decision_type=2 2 2 2 2 2 2 2 2 2 2 2 2 2 2 2 2 2 2 2 2 2 2 2 2 2 2 2 2 2
left_child=2 3 -1 -2 8 10 7 15 -4 11 -6 23 29 14 -14 20 24 -10 -9 21 22 -18 -5 -8 -7 26 -26 -19 -11 -13
right_child=1 -3 4 6 5 16 9 18 17 28 -12 12 13 -15 -16 -17 19 27 -20 -21 -22 -23 -24 -25 25 -27 -28 -29 -30 -31
leaf_value=-0.10279554511786487 0.038683408371977548 0.53965274112521766 -0.017856440502847626 -0.01096958098655243 0.0075935571882005176 -0.047234101236982885 0.0047615200859199014 -0.0030399070961816934 0.0091949974081649618 0.0098566177457968251 -0.0061887993320103975 0.055327927597914696 -0.004368450861805151 -0.027369684348898551 0.13954112677279351 0.019438386574484046 -0.013677783319305315 -0.0028909753899410973 -0.02395848091192132 -0.029218239865831209 0.0057358975300969561 0.011077650146159891 0.0019229170614856628 -0.0056577294292543103 -0.010526944443712428 -0.035248992472358423 0.0040388444645913513 0.0053910760273097047 0.032546498547990237 0.013826138549844914
leaf_weight=8092 3116 6856 710 409 692 5257 676 1446 1066 1039 1450 1265 593 1130 683 1068 118 704 1534 899 729 281 469 1895 302 1953 414 252 2839 2833
leaf_count=8092 3116 6856 710 409 692 5257 676 1446 1066 1039 1450 1265 593 1130 683 1068 118 704 1534 899 729 281 469 1895 302 1953 414 252 2839 2833
internal_value=-0.00165649 0.0229706 -0.0333754 0.0145922 -0.0252234 -0.0317174 0.0101892 -0.00448276 0.00179356 0.0165946 -0.00546218 0.00954821 0.0160055 -0.00108063 0.0188871 0.0197196 -0.0378144 0.0164194 -0.0262081 -0.0157165 0.00581829 0.0161654 -0.00922551 -0.00678724 -0.0414333 -0.0315287 -0.00167598 -0.00324268 0.0330841 0.0260371
internal_weight=50770 28580 22190 21724 14098 11366 18608 5655 2732 12953 2142 9075 6504 2406 1276 2675 9224 2022 2980 1298 1607 399 878 2571 7926 2669 716 956 3878 4098
internal_count=50770 28580 22190 21724 14098 11366 18608 5655 2732 12953 2142 9075 6504 2406 1276 2675 9224 2022 2980 1298 1607 399 878 2571 7926 2669 716 956 3878 4098
is_linear=0
shrinkage=0.05


Tree=25
num_leaves=31
num_cat=0
split_feature=18 18 18 22 66 105 76 76 24 68 17 104 66 66 116 114 110 104 72 18 98 64 98 84 70 91 58 24 66 8
split_gain=15168.6 1907.62 1863.2 927.74 916.771 666.057 602.171 782.851 557.186 551.905 548.151 463.79 330.518 290.527 267.653 265.51 252.079 215.954 205.547 186.802 183.364 180.796 201.041 164.5 146.618 144.766 141.645 134.518 132.525 128.351
threshold=17.728500366210941 14.696499824523928 33.868499755859382 16.110500335693363 0.08053708449006082 50.355499267578132 -0.01963366940617561 -0.66912424564361561 11.571499824523928 0.54873743653297435 1.2254999876022341 -0.19600152969360349 0.34457139670848852 0.34213042259216314 12.310643196105959 12.908357143402101 2.0376747846603398 -0.44271421432495112 1.0037872195243838 16.300499916076664 13.258500099182131 0.47841487824916845 14.705500125885012 354.02600097656256 0.70576322078704845 0.97749999165534984 0.097954887896776213 10.756999969482424 0.13804548233747485 585.77749633789074
decision_type=2 2 2 2 2 2 2 2 2 2 2 2 2 2 2 2 2 2 2 2 2 2 2 2 2 2 2 2 2 2
left_child=1 8 5 4 -3 6 7 13 9 24 -6 16 15 18 25 20 19 -10 28 -5 -8 22 -17 -13 -1 -12 -9 -26 -2 -28
right_child=2 3 -4 11 10 -7 12 26 17 -11 14 23 -14 -15 -16 21 -18 -19 -20 -21 -22 -23 -24 -25 27 -27 29 -29 -30 -31
leaf_value=-0.044500314930679345 0.0038308248158543281 -0.0090568150327571938 0.52199503616734544 -0.01119578703071218 -0.010343279053025701 0.030361024368908751 0.004338434949252257 0.032920318214854305 -0.0042990206112136775 0.011865172806042336 0.0051545832585760294 -0.04149794673109071 -0.026488372579572508 -0.026890284481036898 0.0092528322716839643 0.012901255290019443 -0.017114374230650941 -0.076786464606327709 0.014662172234227456 0.0018021035603315917 -0.0067280270386765656 0.024809268798550301 -0.0015553704648532118 -0.011052034836625424 -0.0098421243446443554 -0.0026793301852483967 0.092892584588315508 0.00711663062734389 -0.0079311324944990602 0.014328635939391533
leaf_weight=708 1035 2102 6700 346 746 2800 578 3019 689 451 450 2953 686 544 2399 752 594 11914 1194 1252 1024 1055 1802 535 381 699 2106 172 770 291
leaf_count=708 1035 2102 6700 346 746 2800 578 3019 689 451 450 2953 686 544 2399 752 594 11914 1194 1252 1024 1055 1802 535 381 699 2106 172 770 291
internal_value=-0.00159123 -0.0278523 0.026864 -0.0132163 -0.000156348 0.018345 0.014129 0.022296 -0.0401991 -0.0134346 0.013088 -0.0279225 0.00172121 0.00402202 0.0212796 0.00601612 -0.00989964 -0.0438348 0.01012 0.000438048 -0.0109238 0.0135356 0.00634299 -0.0392489 -0.0304124 0.00143603 0.0342504 -0.0111212 -0.000526316 0.043325
internal_weight=50747 26391 24356 12076 6396 17656 14856 8959 14315 1712 4294 5680 5897 3543 3548 5211 2192 12603 2999 1598 1602 3609 2554 3488 1261 1149 5416 553 1805 2397
internal_count=50747 26391 24356 12076 6396 17656 14856 8959 14315 1712 4294 5680 5897 3543 3548 5211 2192 12603 2999 1598 1602 3609 2554 3488 1261 1149 5416 553 1805 2397
is_linear=0
shrinkage=0.05


Tree=26
num_leaves=31
num_cat=0
split_feature=18 18 18 17 23 104 66 76 76 105 105 72 68 85 24 18 13 88 56 66 23 98 60 15 64 98 102 77 99 103
split_gain=14606.7 2191.04 1362.91 1033.93 1069.6 816.893 799.711 518.267 532.607 447.036 432.479 307.212 294.847 272.525 231.554 329.32 371.845 219.223 247.563 187.78 183.395 164.445 162.656 173.876 148.9 152.563 146.375 145.717 124.812 119.921
threshold=16.998499870300297 32.453001022338874 13.765500068664553 1.5254999995231631 15.664499759674074 -1.0015001296997068 0.075579244643449797 0.11753643304109575 -0.66912424564361561 49.770500183105476 50.432498931884773 1.1864017844200136 0.21795091032981875 132.96700286865237 12.014500141143801 12.766499996185305 1.3205000162124636 125.9915008544922 0.057571211829781539 0.1597094610333443 16.873499870300297 12.099500179290773 0.19978905469179156 4.4354999065399179 0.45750868320465093 14.705500125885012 16.666499137878422 -0.60785768926143635 18.299499511718754 2.1699692010879521
decision_type=2 2 2 2 2 2 2 2 2 2 2 2 2 2 2 2 2 2 2 2 2 2 2 2 2 2 2 2 2 2
left_child=2 5 14 11 6 -2 -5 8 9 19 17 -4 26 29 15 -1 -17 -9 24 -7 -21 -14 27 -24 25 -19 -6 -10 -28 -8
right_child=1 -3 3 4 12 7 13 10 22 -11 -12 -13 21 -15 -16 16 -18 18 -20 20 -22 -23 23 -25 -26 -27 28 -29 -30 -31
leaf_value=-0.050047033904167204 0.039393494876530613 0.45382031792831407 -0.038931030312633653 -0.0090501336648471046 -0.0076586438282574502 0.0028199755457053222 0.0052804951892382324 -0.0060519382403928295 0.0065558954951548294 0.015030431221843622 0.011208090396833814 -0.0026988005940207674 0.0058917838857595051 0.0086751623608158478 -0.087412578810409702 0.011084390328192485 -0.027871347056577279 0.0090433557764427516 -0.0093444825430073486 0.018448215873999897 -0.013298050337115086 -0.040029536431822971 0.068966621906193029 0.012670316249759851 0.020509683961530991 -0.0026720283485694553 -0.010242514144333593 0.030338669927324348 0.0039959622804961901 -0.0023408859879179736
leaf_weight=917 2724 7305 4137 1110 1106 1520 336 1729 1078 1227 1256 1117 94 2233 8884 388 287 487 1198 164 1465 1880 1779 463 671 1337 214 2370 486 800
leaf_count=917 2724 7305 4137 1110 1106 1520 336 1729 1078 1227 1256 1117 94 2233 8884 388 287 487 1198 164 1465 1880 1779 463 671 1337 214 2370 486 800
internal_value=-0.00138095 0.0240074 -0.0297157 -0.0192222 -0.00819106 0.0152455 0.00833891 0.0111144 0.0182794 0.00516453 0.000314465 -0.0365626 -0.0277778 0.020466 -0.0432512 -0.025691 0.000814815 -0.00580966 0.00106959 -0.00481105 -0.0166053 -0.0411348 0.0283656 0.0388492 0.0100401 0.00263158 -0.0131783 0.0215487 0.00471429 0.000528169
internal_weight=50762 26773 23989 13513 8259 19468 4479 16744 10066 4376 6678 5254 3780 3369 10476 1592 675 5422 3693 3149 1629 1974 5690 2242 2495 1824 1806 3448 700 1136
internal_count=50762 26773 23989 13513 8259 19468 4479 16744 10066 4376 6678 5254 3780 3369 10476 1592 675 5422 3693 3149 1629 1974 5690 2242 2495 1824 1806 3448 700 1136
is_linear=0
shrinkage=0.05


Tree=27
num_leaves=31
num_cat=0
split_feature=18 18 18 22 26 105 24 68 76 76 18 22 104 66 66 66 18 98 86 88 84 72 72 17 56 16 98 113 66 66
split_gain=13714.8 1983.01 1760.48 1017.16 701.694 650.208 641.632 737.64 518.081 731.545 498.551 448.815 445.233 409.763 341.258 340.287 320.391 237.859 212.109 207.542 197.469 191.638 178.646 196.853 159.195 151.145 143.607 141.991 141.087 136.904
threshold=18.047500610351566 15.166500091552736 34.788000106811531 16.592499732971195 11.750500202178957 50.432498931884773 12.095499992370607 0.46238186955451971 -0.032719015143811696 -0.59831893444061268 16.063499450683597 15.298500061035158 -0.39350080490112299 0.14996110647916797 0.36417776346206671 0.34701760113239294 12.552500247955324 12.931499958038332 139.69292449951175 204.84563446044925 137.21699523925784 1.0207648277282717 0.80408617854118358 1.6955000162124636 0.055938458070158965 1.5695000290870669 13.484499931335451 13.435500144958498 0.073151290416717543 0.13646285980939868
decision_type=2 2 2 2 2 2 2 2 2 2 2 2 2 2 2 2 2 2 2 2 2 2 2 2 2 2 2 2 2 2
left_child=1 6 5 4 -3 8 7 -1 9 14 11 27 20 25 21 18 -9 -15 26 -14 -8 29 23 -21 -11 -5 -10 -6 -25 -2
right_child=2 3 -4 13 10 -7 12 16 15 24 -12 -13 19 17 -16 -17 -18 -19 -20 22 -22 -23 -24 28 -26 -27 -28 -29 -30 -31
leaf_value=-0.028087378325482162 0.0057090891990208455 -0.012741882115356474 0.50917934323062897 -0.011069390411563696 -0.00050035576401388229 0.030537616958459957 -0.0082057374416871116 -0.023256560378769109 0.0040333889968096059 0.031351490203240219 0.008558041423835672 -0.008986830093505916 -0.073091931940812052 0.017387166883437468 -0.033728664959719358 -0.027313543501831641 0.0084414606790768516 -0.034335818640761143 0.0082767199186122298 -0.02436660316878099 0.0031631292967072345 0.016576164298984609 -0.066585715448640226 -0.016424547375452649 0.092512280261474622 -0.00093799060551331699 -0.0050076718526167246 0.0065194649741545877 0.0086985335720044087 -0.0060431841572119007
leaf_weight=1636 1230 1060 6335 579 607 2361 646 192 689 2520 2548 1213 10381 81 526 679 900 2399 3323 463 478 1426 1047 145 2255 1722 1096 798 429 938
leaf_count=1636 1230 1060 6335 579 607 2361 646 192 689 2520 2548 1213 10381 81 526 679 900 2399 3323 463 478 1426 1047 145 2255 1722 1096 798 429 938
internal_value=-0.00134511 -0.0253989 0.0267688 -0.00899882 0.00432059 0.0184035 -0.036462 -0.0143328 0.0144871 0.022063 0.0119241 -0.00339954 -0.0409044 -0.0263439 0.00662621 0.00284258 0.0174908 -0.0404435 0.00726312 -0.0436221 -0.0107651 0.0121313 -0.0292226 -0.014513 0.0353822 -0.0111473 -0.00663866 0.0158363 0.00505226 0.00276753
internal_weight=50702 27324 23378 11007 6226 17043 16317 2728 14682 8895 5166 2618 13589 4781 4120 5787 1092 2480 5108 12465 1124 3594 2084 1037 4775 2301 1785 1405 574 2168
internal_count=50702 27324 23378 11007 6226 17043 16317 2728 14682 8895 5166 2618 13589 4781 4120 5787 1092 2480 5108 12465 1124 3594 2084 1037 4775 2301 1785 1405 574 2168
is_linear=0
shrinkage=0.05


Tree=28
num_leaves=31
num_cat=0
split_feature=65 104 9 102 24 70 104 23 84 109 44 66 113 96 104 104 42 68 111 96 24 68 65 104 25 66 88 102 101 24
split_gain=12094.6 2146.04 1801.45 1000 1097.19 924.536 638.417 568.997 498.07 483.425 361.397 693.411 458.592 421.218 357.571 350.534 298.4 272.196 266.833 263.908 245.44 244.425 165.738 154.753 154.089 144.631 141.406 129.839 127.491 120.017
threshold=18.213500022888187 -0.34257030487060541 6.8355000019073495 16.738213539123539 12.362500190734865 0.68254145979881298 0.71157169342041027 18.725500106811527 135.17300415039065 47.90092849731446 55.588499069213874 0.234790213406086 45.715499877929695 1.0227765440940859 -1.0662155151367185 0.048357963562011726 12.283500194549562 0.20546775311231616 0.27099895477294927 0.94478026032447826 16.533500671386722 0.56875422596931469 12.601500034332277 -0.73885679244995106 15.40150022506714 0.46950317919254309 180.30792999267581 19.315001487731937 2.5309402942657475 14.339499950408937
decision_type=2 2 2 2 2 2 2 2 2 2 2 2 2 2 2 2 2 2 2 2 2 2 2 2 2 2 2 2 2 2
left_child=1 8 7 4 5 -3 20 17 14 10 12 -12 13 15 -1 -9 21 -2 26 28 22 -7 -5 -11 -16 -13 -6 -22 -10 -28
right_child=2 3 -4 6 18 16 -8 9 19 23 11 25 -14 -15 24 -17 -18 -19 -20 -21 27 -23 -24 -25 -26 -27 29 -29 -30 -31
leaf_value=0.02044722672255235 0.0042870508723779292 -0.033107571920845839 0.50487039285376556 -0.021860424777326949 -0.062612839097144588 -0.0036448789856254218 -0.027418375083421067 0.021459395120816183 0.0034376309519085881 0.0032147499093688305 0.028930279508094084 -0.0088600253947208607 0.080366802535129359 -0.0038700578157627066 -0.00087890068553706522 -0.0088455998534950463 0.0062226329924275348 0.041175471937037682 -0.0025688047834907302 -0.0066889354611960883 -0.01239931486244843 0.0074046992602562426 0.013342961263931219 -0.0049802898984517624 -0.0084322701669492517 -0.058062513275622507 -0.012133008520794153 0.013690155196192322 0.012521690706920731 -0.043131157062918306
leaf_weight=284 1128 1938 6017 100 10528 1017 1533 2515 1476 1124 1348 982 2660 1667 1153 525 1039 2565 754 318 614 304 1006 1850 1485 506 941 250 1123 2083
leaf_count=284 1128 1938 6017 100 10528 1017 1533 2515 1476 1124 1348 982 2660 1667 1153 525 1039 2565 754 318 614 304 1006 1850 1485 506 941 250 1123 2083
internal_value=-0.00135247 -0.0234237 0.0255975 -0.0305446 -0.0351591 -0.013006 -0.00603768 0.0172199 0.00353656 0.0123587 0.0175292 0.00236248 0.0233677 0.0139898 -0.0110541 0.0250658 0.00800847 0.0345654 -0.0418146 0.0181522 0.0127919 -0.00775927 0.0283906 -0.00537996 -0.016793 -0.0211694 -0.0434253 -0.00717593 0.0234129 -0.0338955
internal_weight=50833 27946 22887 22107 18604 4298 3503 16870 5839 13177 10203 2836 7367 4707 2922 3040 2360 3693 14306 2917 1970 1321 1106 2974 2638 1488 13552 864 2599 3024
internal_count=50833 27946 22887 22107 18604 4298 3503 16870 5839 13177 10203 2836 7367 4707 2922 3040 2360 3693 14306 2917 1970 1321 1106 2974 2638 1488 13552 864 2599 3024
is_linear=0
shrinkage=0.05


Tree=29
num_leaves=31
num_cat=0
split_feature=18 18 18 35 23 104 68 76 76 91 91 24 104 68 85 104 68 68 64 98 18 98 26 43 23 18 55 60 108 11
split_gain=12586.3 2511.32 1167.56 1232.44 1039.51 846.535 815.938 628.833 747.524 544.28 500.156 357.879 324.51 257.148 234.695 215.101 206.425 174.766 205.622 212.661 163.356 137.831 132.411 127.683 121.206 136.499 149.16 119.622 113.403 104.952
threshold=16.300499916076664 35.268499374389656 13.028500080108644 49.520500183105476 15.575500011444094 -1.0177145004272459 0.1755669713020325 0.052335681393742568 -0.68834799528121937 1.188499987125397 1.4265000224113467 12.300499916076662 -0.63685512542724598 0.13409727811813357 115.26499938964845 0.52985858917236339 0.29777669906616216 0.599502593278885 0.48793163895607 15.564499855041506 14.743500232696535 15.468500137329103 13.518499851226808 8.9904999732971209 14.982500076293947 18.492500305175785 3.6018333435058598 0.12200491875410081 2.2150874137878422 1.7904999852180483
decision_type=2 2 2 2 2 2 2 2 2 2 2 2 2 2 2 2 2 2 2 2 2 2 2 2 2 2 2 2 2 2
left_child=2 5 -1 4 6 -2 20 8 10 28 -7 16 -8 -6 -11 -10 -5 18 19 -16 -4 -12 -17 -14 -23 -26 -27 -21 -9 -22
right_child=1 -3 3 11 13 7 12 9 15 14 21 -13 23 -15 17 22 -18 -19 -20 27 29 24 -24 -25 25 26 -28 -29 -30 -31
leaf_value=-0.090406710936521598 0.035530433319102349 0.47617686100404594 -0.010380955105889367 -0.015587776555107303 -0.0026472433911835847 0.011605721724268925 -0.0019196910643071608 0.010494833903639301 0.040080926124023454 -0.006803112246725718 0.0028125505818525909 -0.040688300626975066 0.00046850198359464916 -0.032893921476424469 0.0025134026025002143 -0.012135293112663171 -9.0078744590726967e-05 -0.026420615442784623 0.014837107661220639 -0.01247871152257778 0.0044670305259157054 0.0052663175164741286 0.022750424529571059 0.010369277414715761 -0.016035037600262925 0.0023367899336104616 -0.016720681224337588 -0.0013457391941924968 0.00038568355956565271 -0.0043327399799463432
leaf_weight=7233 2755 6077 1201 686 812 1341 528 1232 4624 1793 1021 5092 348 1943 1581 227 855 638 1020 952 298 260 1761 1985 855 913 762 1108 378 303
leaf_count=7233 2755 6077 1201 686 812 1341 528 1232 4624 1793 1021 5092 348 1943 1581 227 855 638 1020 952 298 260 1761 1985 855 913 762 1108 378 303
internal_value=-0.00104187 0.0202164 -0.0303045 -0.0219024 -0.0078997 0.0127277 0.00648724 0.00922506 0.016763 -0.000965295 0.00248447 -0.0375622 0.0230863 -0.0322505 -0.00692329 0.0278887 -0.0164504 -0.00163238 0.0017271 -0.00383137 -0.0198668 -0.00675676 0.0141348 0.0310973 -0.012509 -0.0158498 -0.00755224 -0.0144175 0.0252795 0.00141431
internal_weight=50582 29298 21284 14051 7418 23221 4663 20466 11764 8702 5152 6633 2861 2755 7092 6612 1541 5299 4661 3641 1802 3811 1988 2333 2790 2530 1675 2060 1610 601
internal_count=50582 29298 21284 14051 7418 23221 4663 20466 11764 8702 5152 6633 2861 2755 7092 6612 1541 5299 4661 3641 1802 3811 1988 2333 2790 2530 1675 2060 1610 601
is_linear=0
shrinkage=0.05


Tree=30
num_leaves=31
num_cat=0
split_feature=18 18 18 35 23 66 104 18 22 32 76 76 66 26 104 66 24 66 18 66 70 34 35 66 102 85 113 9 66 16
split_gain=11939.1 2577.44 1059.5 1263.12 968.489 1119.52 837.19 691.299 1176.59 524.616 457.045 713.12 333.166 300.302 295.137 276.971 266.478 249.703 219.843 209.225 207.295 175.594 174.678 171.136 159.793 149.63 136.166 130.065 122.934 118.062
threshold=16.158500671386722 36.158000946044929 12.766499996185305 49.584499359130866 15.575500011444094 0.10426515340805055 -1.0339293479919431 18.553999900817875 17.051500320434574 46.872501373291023 -0.032719015143811696 -0.58777976036071766 0.19597080349922183 11.023999691009523 -0.63685512542724598 0.1910616531968117 12.300499916076662 0.15628001838922503 14.395500183105471 0.1759709566831589 0.28965483605861669 45.792499542236335 49.282501220703132 0.17767823487520221 16.713928222656254 120.68650054931642 44.333000183105476 3.5694999694824223 0.046252924948930747 3.5655000209808354
decision_type=2 2 2 2 2 2 2 2 2 2 2 2 2 2 2 2 2 2 2 2 2 2 2 2 2 2 2 2 2 2
left_child=2 6 -1 4 5 18 -2 8 13 10 11 15 24 -8 -7 29 19 21 -4 -5 -6 -12 -11 -16 -10 -15 -13 -19 -20 -9
right_child=1 -3 3 16 20 14 7 9 12 22 17 26 -14 25 23 -17 -18 27 28 -21 -22 -23 -24 -25 -26 -27 -28 -29 -30 -31
leaf_value=-0.09648639389097724 0.035982854111501442 0.49699291877171459 -0.015163431432610164 -0.015364203108462694 -0.0018682610949987577 -0.002025747381297727 -0.0076710543781653767 -4.5514823736780845e-05 -0.0049091708705482524 0.027245025552546754 0.011561067189749875 0.018029551651481412 -0.023775845679818854 0.00033542707034399659 0.0025809843321930705 -0.01204384397616165 -0.04196914094738733 -0.0009236830188681822 -0.0061085273699553085 -0.00013785729333672946 -0.030701482896675271 -0.0019024167998667352 0.0065690372666027848 0.011154254839495926 0.0011848658578808902 0.0090242061475004579 0.067755695996883872 -0.023576679675375269 0.0022328659108297624 0.019208197800191673
leaf_weight=6276 2683 5708 1211 818 563 493 364 763 1586 2674 1040 821 1500 618 908 1292 5104 949 351 707 2160 1019 794 1704 1172 2438 2704 1068 444 774
leaf_count=6276 2683 5708 1211 818 563 493 364 763 1586 2674 1040 821 1500 618 908 1292 5104 949 351 707 2160 1019 794 1704 1172 2438 2704 1068 444 774
internal_value=-0.00111427 0.0190693 -0.0302787 -0.0228341 -0.00924177 0.0035903 0.0119564 0.00868094 -0.00336025 0.0153331 0.00973154 0.0181146 -0.0209018 0.0184795 0.0223994 -0.000583245 -0.0388973 -0.0033366 -0.0255234 -0.0205574 -0.0333272 0.00891209 0.0321799 0.0290965 -0.0105874 0.0235929 0.0331206 -0.0158404 -0.00509434 0.0137606
internal_weight=50706 29967 20739 14463 7834 5111 24259 21576 7678 13898 10430 6354 4258 3420 3105 2829 6629 4076 2006 1525 2723 2059 3468 2612 2758 3056 3525 2017 795 1537
internal_count=50706 29967 20739 14463 7834 5111 24259 21576 7678 13898 10430 6354 4258 3420 3105 2829 6629 4076 2006 1525 2723 2059 3468 2612 2758 3056 3525 2017 795 1537
is_linear=0
shrinkage=0.05


Tree=31
num_leaves=31
num_cat=0
split_feature=18 18 18 17 23 66 97 68 76 76 85 66 35 57 24 18 66 18 72 23 56 110 85 104 43 23 106 36 18 23
split_gain=11445.5 1875.51 1795.43 1268.82 1227.18 834.171 576.773 561.441 530.973 662.983 337.053 305.887 288.534 270.831 239.682 319.094 358.203 211.862 198.875 191.507 191.087 184.516 183.417 171.612 161.913 146.53 144.094 139.637 137.599 136.217
