tree
version=v4
num_class=1
num_tree_per_iteration=1
label_index=0
max_feature_idx=118
objective=regression_l1
feature_names=inflow_vehicles_per_hour_lag_0 inflow_vehicles_per_hour_lag_1 inflow_vehicles_per_hour_lag_2 inflow_vehicles_per_hour_lag_3 inflow_vehicles_per_hour_lag_5 inflow_vehicles_per_hour_lag_10 inflow_vehicles_per_hour_lag_15 inflow_vehicles_per_hour_lag_20 inflow_vehicles_per_hour_lag_29 queue_length_vehicles_lag_0 queue_length_vehicles_lag_1 queue_length_vehicles_lag_2 queue_length_vehicles_lag_3 queue_length_vehicles_lag_5 queue_length_vehicles_lag_10 queue_length_vehicles_lag_15 queue_length_vehicles_lag_20 queue_length_vehicles_lag_29 average_wait_seconds_lag_0 average_wait_seconds_lag_1 average_wait_seconds_lag_2 average_wait_seconds_lag_3 average_wait_seconds_lag_5 average_wait_seconds_lag_10 average_wait_seconds_lag_15 average_wait_seconds_lag_20 average_wait_seconds_lag_29 average_speed_kmh_lag_0 average_speed_kmh_lag_1 average_speed_kmh_lag_2 average_speed_kmh_lag_3 average_speed_kmh_lag_5 average_speed_kmh_lag_10 average_speed_kmh_lag_15 average_speed_kmh_lag_20 average_speed_kmh_lag_29 saturation_percent_lag_0 saturation_percent_lag_1 saturation_percent_lag_2 saturation_percent_lag_3 saturation_percent_lag_5 saturation_percent_lag_10 saturation_percent_lag_15 saturation_percent_lag_20 saturation_percent_lag_29 inflow_vehicles_per_hour_mean_3 inflow_vehicles_per_hour_std_3 inflow_vehicles_per_hour_mean_5 inflow_vehicles_per_hour_std_5 inflow_vehicles_per_hour_mean_10 inflow_vehicles_per_hour_std_10 inflow_vehicles_per_hour_mean_15 inflow_vehicles_per_hour_std_15 inflow_vehicles_per_hour_mean_30 inflow_vehicles_per_hour_std_30 queue_length_vehicles_mean_3 queue_length_vehicles_std_3 queue_length_vehicles_mean_5 queue_length_vehicles_std_5 queue_length_vehicles_mean_10 queue_length_vehicles_std_10 queue_length_vehicles_mean_15 queue_length_vehicles_std_15 queue_length_vehicles_mean_30 queue_length_vehicles_std_30 average_wait_seconds_mean_3 average_wait_seconds_std_3 average_wait_seconds_mean_5 average_wait_seconds_std_5 average_wait_seconds_mean_10 average_wait_seconds_std_10 average_wait_seconds_mean_15 average_wait_seconds_std_15 average_wait_seconds_mean_30 average_wait_seconds_std_30 minute_sin minute_cos weekday_sin weekday_cos is_weekend intersection_code phase_code strategy_code device_status_code inflow_vehicles_per_hour_same_time_day_7 inflow_vehicles_per_hour_same_time_day_14 inflow_vehicles_per_hour_recent_week_mean inflow_vehicles_per_hour_recent_week_std inflow_vehicles_per_hour_previous_week_mean inflow_vehicles_per_hour_previous_week_std inflow_vehicles_per_hour_week_over_week_delta queue_length_vehicles_same_time_day_7 queue_length_vehicles_same_time_day_14 queue_length_vehicles_recent_week_mean queue_length_vehicles_recent_week_std queue_length_vehicles_previous_week_mean queue_length_vehicles_previous_week_std queue_length_vehicles_week_over_week_delta average_wait_seconds_same_time_day_7 average_wait_seconds_same_time_day_14 average_wait_seconds_recent_week_mean average_wait_seconds_recent_week_std average_wait_seconds_previous_week_mean average_wait_seconds_previous_week_std average_wait_seconds_week_over_week_delta average_speed_kmh_same_time_day_7 average_speed_kmh_same_time_day_14 average_speed_kmh_recent_week_mean average_speed_kmh_recent_week_std average_speed_kmh_previous_week_mean average_speed_kmh_previous_week_std average_speed_kmh_week_over_week_delta saturation_percent_same_time_day_7 saturation_percent_same_time_day_14 saturation_percent_recent_week_mean saturation_percent_recent_week_std saturation_percent_previous_week_mean saturation_percent_previous_week_std saturation_percent_week_over_week_delta
feature_infos=[35:1144.373046875] [35:1143.51904296875] [35:1144.4320068359375] [35:1144.373046875] [35:1144.4320068359375] [35:1143.51904296875] [35:1144.373046875] [35:1144.4320068359375] [35:1144.4320068359375] [0.75:17.011999130249023] [0.75:17.027000427246094] [0.75:17.025999069213867] [0.75:17.011999130249023] [0.75:17.025999069213867] [0.75:17.027000427246094] [0.75:17.011999130249023] [0.75:17.025999069213867] [0.75:17.025999069213867] [8.8839998245239258:73.344001770019531] [8.8909997940063477:73.400001525878906] [8.8839998245239258:73.376998901367188] [8.8839998245239258:73.344001770019531] [8.8839998245239258:73.376998901367188] [8.8909997940063477:73.400001525878906] [8.8839998245239258:73.344001770019531] [8.8839998245239258:73.376998901367188] [8.8839998245239258:73.376998901367188] [10.423999786376953:51.387001037597656] [10.414999961853027:51.387001037597656] [10.446999549865723:51.387001037597656] [10.423999786376953:51.387001037597656] [10.446999549865723:51.387001037597656] [10.414999961853027:51.387001037597656] [10.423999786376953:51.387001037597656] [10.446999549865723:51.387001037597656] [10.446999549865723:51.387001037597656] [3.434999942779541:100] [3.434999942779541:100] [3.4360001087188721:100] [3.434999942779541:100] [3.4360001087188721:100] [3.434999942779541:100] [3.434999942779541:100] [3.4360001087188721:100] [3.4360001087188721:100] [35:1143.18505859375] [0:10.657426834106445] [35:1143.465576171875] [0:84.149345397949219] [35:1140.290771484375] [0:86.634246826171875] [35:1136.739990234375] [0:92.146446228027344] [35:1127.52197265625] [0:97.102348327636719] [0.75366663932800293:17.02166748046875] [0:0.24086649715900421] [0.76099997758865356:17.011199951171875] [0.00040000019362196326:0.97860175371170044] [0.79500001668930054:16.965099334716797] [0.0012688577407971025:1.0715705156326294] [0.84886664152145386:16.880399703979492] [0.0016519349301233888:1.187225341796875] [1.0839333534240723:16.588333129882812] [0.012067818082869053:1.9474644660949707] [8.9173336029052734:73.373664855957031] [0:0.99613296985626221] [8.94219970703125:73.303802490234375] [0.00074832624522969127:3.3725080490112305] [9.1282997131347656:73.090202331542969] [0.0054046283476054668:3.8981418609619141] [9.4459333419799805:72.706466674804688] [0.016141043975949287:4.9151420593261719] [10.78773307800293:71.233436584472656] [0.10528100281953812:8.2019529342651367] [-0.99999046325683594:0.99999046325683594] [-0.99999046325683594:0.99999046325683594] [-0.97492802143096924:0.97492790222167969] [-0.90096884965896606:1] [0:1] [0:11] [0:3] [0:2] [0:3] [35:1153.3740234375] [35:1144.676025390625] [43.862712860107422:1023.4545288085938] [6.6567287445068359:158.13336181640625] [44.792289733886719:1023.0302734375] [6.6567287445068359:163.64022827148438] [-13.927570343017578:14.085281372070312] [0.75:17.221000671386719] [0.75:17.191999435424805] [1.5411428213119507:13.933857917785645] [0.22044433653354645:2.9986586570739746] [1.5412856340408325:13.916000366210938] [0.20490722358226776:3.3295767307281494] [-0.53328585624694824:0.55785703659057617] [8.9139995574951172:73.817001342773438] [8.939000129699707:75.260002136230469] [13.175143241882324:61.779426574707031] [0.87105578184127808:11.335524559020996] [13.175143241882324:61.968433380126953] [0.87189322710037231:12.936964988708496] [-1.9184303283691406:2.0849990844726562] [9.880000114440918:51.387001037597656] [9.9770002365112305:51.387001037597656] [18.520715713500977:49.686428070068359] [0.47360092401504517:8.2404270172119141] [18.558145523071289:49.686431884765625] [0.4406965970993042:9.1543693542480469] [-1.1994285583496094:1.1625709533691406] [3.437000036239624:100] [3.434999942779541:100] [5.0032858848571777:97.464576721191406] [0.43157610297203064:15.818800926208496] [5.0709996223449707:96.072998046875] [0.45697438716888428:15.629770278930664] [-2.086578369140625:2.6900100708007812]
tree_sizes=2761 2907 2910 2914 2920 2945 2915 2931 2939 2953 2940 2932 2950 2945 2954 2943 2949 2962 2962 2959 2955 2956 2958 2963 2959 2972 2981 2959 2976 2966 2984 2974 2967 2974 2989 2964 2982 2988 2984 2974 2985 2989 2982 2991 2999 2995 2986 2977 2992 2988 2995 2991 2977 2980 2988 3002 2986 3008 2983 2993 2993 3004 2993 2997 2993 2986 2984 3000 2999 3012 2999 3004 2986 3003 2987 2997 3030 2975 3001 3004 3002 2985 2986 3008 3002 2997 2992 3009 3001 3002 2998 2993 3005 2995 3001 3019 3009 2995 2997 2986 2990 3001 3000 2965 3006 2987 2998 2997 3009 3000 2996 2982 2992 3027 2993 3008 2988 3004 2992 3001

Tree=0
num_leaves=31
num_cat=0
split_feature=18 104 95 104 85 25 18 104 102 102 104 66 24 68 104 95 98 18 98 116 66 104 102 70 88 69 70 66 66 19
split_gain=31600.6 3286.39 1830.63 670.411 644.236 403.155 398.691 530.368 329.717 294.506 237.305 234.155 169.17 168.489 166.543 154.084 150.354 148.973 326.745 147.327 145.135 117.781 121.589 113.534 110.661 161.88 102.817 79.9767 75.6904 75.6211
threshold=17.532500267028812 -0.62807226181030262 2.2864285707473759 -0.3511433601379394 298.52799987792974 18.708499908447269 20.255499839782718 -0.5532846450805663 16.197357177734379 17.509143829345707 -0.78978490829467762 0.27802558243274694 15.300499916076662 0.2922984659671784 0.92221164703369152 1.6661429405212405 18.493499755859379 15.969500064849855 12.164499759674074 17.334213256835941 0.26347252726554876 -0.23778676986694333 19.93457126617432 0.52350199222564708 190.2901306152344 15.609200000762941 0.64248076081275951 0.1597094610333443 0.26786583662033087 14.059500217437746
decision_type=2 2 2 2 2 2 2 2 2 2 2 2 2 2 2 2 2 2 2 2 2 2 2 2 2 2 2 2 2 2
left_child=1 10 3 5 17 15 7 -4 -5 20 -1 19 13 -6 -11 -2 -10 -3 -19 -12 -9 -14 -23 -7 -20 28 -24 -16 -26 -13
right_child=2 4 6 8 12 23 -8 9 16 14 11 29 21 -15 27 -17 -18 18 24 -21 -22 22 26 -25 25 -27 -28 -29 -30 -31
leaf_value=17.482775878906249 17.399775886535643 17.223750877380372 17.527250862121583 17.353900909423828 17.368675899505615 17.42635087966919 18.064350843429565 17.422375869750976 17.467000865936278 17.503000879287718 17.391800880432129 17.411550855636598 17.453850841522218 17.469100856781004 17.471650886535645 17.490950870513917 17.388550853729249 17.448250865936281 17.316000890731811 17.450700855255128 17.36700086593628 17.319050884246828 17.478350830078124 17.37137589454651 17.398575878143312 17.325600862503052 17.335650873184203 17.361450862884521 17.455750894546508 17.474150848388671
leaf_weight=930 106 18247 3067 902 150 171 16346 224 338 1282 526 82 138 259 113 1484 324 179 2431 131 267 1007 141 234 90 870 147 189 92 340
leaf_count=930 106 18247 3067 902 150 171 16346 224 338 1282 526 82 138 259 113 1484 324 179 2431 131 267 1007 141 234 90 870 147 189 92 340
internal_value=17.4152 17.3763 17.4551 17.4219 17.3711 17.4411 17.4606 17.4485 17.3974 17.429 17.4377 17.4217 17.3995 17.4278 17.4395 17.4525 17.4242 17.3687 17.3779 17.4031 17.3951 17.3914 17.3867 17.3966 17.3745 17.3881 17.4153 17.4061 17.4309 17.4508
internal_weight=50807 25760 25047 3559 23751 1995 21488 5142 1564 2075 2009 1079 1842 409 1584 1590 662 21909 3662 657 491 1433 1295 405 3483 1052 288 302 182 422
internal_count=50807 25760 25047 3559 23751 1995 21488 5142 1564 2075 2009 1079 1842 409 1584 1590 662 21909 3662 657 491 1433 1295 405 3483 1052 288 302 182 422
is_linear=0
shrinkage=1


Tree=1
num_leaves=31
num_cat=0
split_feature=18 95 97 101 98 102 18 18 22 97 98 86 66 109 85 18 23 98 98 102 102 66 18 22 66 92 0 98 18 66
split_gain=30815.2 1966.72 1811.53 1148.38 556.049 538.757 453.695 409.764 607.67 316.525 314.64 303.744 290.471 261.752 215.406 205.563 272.209 182.636 117.87 116.659 112.999 103.027 101.573 199.813 180.499 101.618 99.5617 149.973 115.737 124.554
threshold=17.41250038146973 2.2902141809463505 -0.12399989366531371 2.2679474353790288 14.345499992370607 17.301786422729496 20.255499839782718 19.108499526977543 19.371500015258793 -0.27257120609283442 12.778500080108644 234.82978820800784 0.23679362982511523 49.416496276855476 222.48000335693362 14.645500183105471 14.783500194549562 17.581500053405765 20.592499732971195 18.934787750244144 16.952999114990238 0.20290446281433108 21.5004997253418 21.385499954223636 0.26168896257877355 3.6254999637603764 212.26350402832034 15.653500080108644 14.345499992370607 0.24250246584415439
decision_type=2 2 2 2 2 2 2 2 2 2 2 2 2 2 2 2 2 2 2 2 2 2 2 2 2 2 2 2 2 2
left_child=2 4 3 9 13 26 11 8 18 -1 -5 -6 -10 -2 -11 -7 21 -13 -3 -20 -12 -17 23 -9 -25 -26 -4 28 -28 -30
right_child=1 7 5 10 6 15 -8 22 12 14 20 17 -14 -15 -16 16 -18 -19 19 -21 -22 -23 -24 24 25 -27 27 -29 29 -31
leaf_value=0.037359952926635742 0.06755240917205807 0.096287412643432546 -0.18601879477500916 0.054437489509582451 -0.052895069122314453 -0.12088755607604984 0.056752429008483853 0.14400745630264283 0.028731193542480507 -0.066187562942504927 -0.040890073776245123 0.044352469444274872 -0.052825044393539411 -0.025794419050216622 0.013786237239837629 -0.024283823966979947 -0.05643001794815064 -0.036577563285827709 -0.038218746185302702 0.091716197729110771 0.027214999198913504 0.060145001411438061 0.73710743188858041 0.069882452487945557 -0.024920068979263289 0.017624975442886371 -0.094912543296814006 -0.15038756370544437 -0.03349252223968513 0.02856246829032898
leaf_weight=135 1313 1883 16758 1225 1147 593 479 3394 279 1765 185 371 406 158 244 81 1053 413 127 290 105 267 14318 363 224 166 312 2114 369 134
leaf_count=135 1313 1883 16758 1225 1147 593 479 3394 279 1765 185 371 406 158 244 81 1053 413 127 290 105 267 14318 363 224 166 312 2114 369 134
internal_value=-4.83511e-05 0.0389503 -0.0390331 -0.00649084 0.00619686 -0.0445252 -0.00858921 0.0448765 0.0276884 -0.0300373 0.0268317 -0.0193941 -0.0136496 0.0304215 -0.0350174 -0.0197593 -0.00931478 0.00459184 0.04 0.0159472 -0.02 0.029023 0.047655 0.0407644 0.0174635 -0.00615385 -0.0470336 -0.0385285 -0.0203067 -0.0054672
internal_weight=50671 25331 25340 3659 3881 21681 2410 21450 2985 2144 1515 1931 685 1471 2009 1994 1401 784 2300 417 290 348 18465 4147 753 390 19687 2929 815 503
internal_count=50671 25331 25340 3659 3881 21681 2410 21450 2985 2144 1515 1931 685 1471 2009 1994 1401 784 2300 417 290 348 18465 4147 753 390 19687 2929 815 503
is_linear=0
shrinkage=0.05


Tree=2
num_leaves=31
num_cat=0
split_feature=18 104 109 88 104 18 104 0 25 96 18 110 18 22 104 103 66 66 66 66 18 85 23 66 88 23 37 24 70 101
split_gain=29770.3 3819.57 1284.5 865.909 626.926 296.276 486.886 312.564 270.036 258.62 275.15 251.038 233.583 300.049 191.123 286.928 156.572 152.876 149.784 140.455 127.941 125.462 122.831 221.894 122.757 122.696 112.636 186.542 133.172 112.147
threshold=17.856500625610355 -0.60842943191528309 48.061212539672859 279.23709106445318 -0.47371578216552729 21.994999885559086 -0.57178640365600575 241.306999206543 18.652500152587894 0.96426084637641918 15.841499805450441 1.2102359533309939 15.706500053405763 17.051500320434574 -0.48264265060424799 2.0653622150421147 0.11336861923336984 0.066353429108858122 0.25569665431976324 0.11195733025670053 14.002500057220461 266.42199707031256 19.733499526977543 0.25774449110031133 206.7787780761719 17.468500137329105 17.95100021362305 11.754499912261965 1.087075471878052 1.887201249599457
decision_type=2 2 2 2 2 2 2 2 2 2 2 2 2 2 2 2 2 2 2 2 2 2 2 2 2 2 2 2 2 2
left_child=1 9 5 14 8 6 -2 18 -4 10 20 -6 -5 16 15 -3 -14 -11 -8 -15 -1 -13 -9 -24 -17 29 -16 28 -28 -22
right_child=2 3 4 12 11 -7 7 22 -10 17 -12 21 13 19 26 24 -18 -19 -20 -21 25 -23 23 -25 -26 -27 27 -29 -30 -31
leaf_value=-0.030930639266967753 0.12432709157466881 0.026863434016704525 0.076874869585037156 -0.084268165111541837 0.022463086128234801 0.73987703740596766 0.014059596657753026 0.14078563117980955 -0.0037178087234497783 0.02640998029708861 0.068433616876602169 -0.04842402219772346 -0.012611021399497879 0.013136080026626652 -0.1731366136670113 -0.052636621296405832 0.075559576928615535 -0.032142855763435389 -0.028712794244289432 -0.10118102729320527 -0.018928199291229221 0.0083512904644011954 0.080629553198814374 -0.011650438904762162 0.011704946279525785 -0.025680652141570982 -0.03044189381599427 -0.1252155388593674 0.020461793452501278 0.025520560979843232
leaf_weight=118 4077 200 1363 988 668 13669 250 1021 371 86 1401 745 241 212 16523 737 442 252 322 453 81 257 756 465 82 91 199 4036 154 385
leaf_count=118 4077 200 1363 988 668 13669 250 1021 371 86 1401 745 241 212 16523 737 442 252 322 453 81 257 756 465 82 91 199 4036 154 385
internal_value=4.44269e-05 -0.0362861 0.0404941 -0.0422529 0.0120447 0.0452043 0.0367508 0.0207534 0.0331027 0.0236951 0.0302987 -0.00982036 -0.0133134 0.000222552 -0.0453354 -0.0241904 0.0234993 -0.0168639 -0.0122378 -0.0236842 0.00407407 -0.0256487 0.0291704 0.0184685 -0.0373016 0.0140934 -0.0463657 -0.0392458 -0.00439093 0.0244635
internal_weight=50645 26681 23964 24267 3404 20560 6891 2814 1734 2414 2076 1670 2336 1348 21931 1019 683 338 572 665 675 1002 2242 1221 819 557 20912 4389 353 466
internal_count=50645 26681 23964 24267 3404 20560 6891 2814 1734 2414 2076 1670 2336 1348 21931 1019 683 338 572 665 675 1002 2242 1221 819 557 20912 4389 353 466
is_linear=0
shrinkage=0.05


Tree=3
num_leaves=31
num_cat=0
split_feature=18 104 18 104 85 22 66 18 104 66 23 102 104 96 66 104 66 17 25 66 92 95 104 88 18 66 99 24 18 23
split_gain=28957.9 2875.84 1860.34 1326.04 619.016 432.709 303.102 294.63 402.11 335.158 369.332 245.959 241.096 226.274 218.927 196.811 223.5 164.876 189.144 152.302 149.45 137.429 147.623 136.357 128.227 191.537 124.756 100.854 98.3399 138.275
threshold=17.41250038146973 -0.62807226181030262 19.108499526977543 -0.5532846450805663 258.98651123046881 17.586500167846683 0.13071639835834506 22.88749980926514 -0.64571428298950184 0.22765275835990909 20.33800029754639 16.666499137878422 0.19571352005004886 1.0417192578315737 0.20460884273052218 -0.78978490829467762 0.27802558243274694 2.3654999732971196 16.005499839782718 0.10568874701857568 3.6484999656677251 2.3562141656875615 0.77035760879516613 159.57658386230472 14.989500045776369 0.11485546454787256 16.813499450683597 15.163499832153322 14.696499824523928 16.76149940490723
decision_type=2 2 2 2 2 2 2 2 2 2 2 2 2 2 2 2 2 2 2 2 2 2 2 2 2 2 2 2 2 2
left_child=1 15 3 13 17 6 27 8 -4 -10 -11 -7 28 -2 26 -1 23 -3 24 -15 -12 -14 -23 -17 -19 -26 -13 -5 -6 -30
right_child=2 4 7 5 12 11 -8 -9 9 10 20 14 21 19 -16 16 -18 18 -20 -21 -22 22 -24 -25 25 -27 -28 -29 29 -31
leaf_value=0.058215470647811962 0.0798311100840568 -0.1652297524660826 0.12770109280347822 -0.027408465270698026 -0.041181124502420376 -0.062037609040737254 0.07016662181913845 0.76970819392800327 0.074950253614783247 0.27069193542599684 -0.018535929527878813 -0.032866273295879371 -0.11228968958258632 0.031506095969676906 -0.048463029503822246 -0.022249468630552285 0.040296740865707475 -0.055038967041671327 -0.0800173807680606 -0.021888110399246232 0.020509646326303435 0.0089936504930258291 -0.093935134813189519 0.021447650992870316 -0.037965761204063767 0.024094261899590564 0.038932692140340924 0.015210866954922776 0.043036314538121269 -0.020440624934435016
leaf_weight=842 2039 18171 3826 196 181 1147 519 12630 2122 390 721 195 1088 152 420 444 406 246 1963 171 341 454 430 181 140 262 433 152 327 276
leaf_count=842 2039 18171 3826 196 181 1147 519 12630 2122 390 721 195 1088 152 420 444 406 246 1963 171 341 454 430 181 140 262 433 152 327 276
internal_value=9.92824e-05 -0.0376589 0.0377937 0.0118178 -0.0424038 -0.00989549 0.0200115 0.0448278 0.0369054 0.0248461 0.00633609 -0.0217084 -0.0201379 0.0399661 -0.00419847 0.0219701 0.00732299 -0.0453566 -0.0336078 0.00108359 -0.00894539 -0.0294625 -0.014819 -0.01144 -0.0101852 0.00721393 0.0144904 -0.016092 0.00331633 0.0130182
internal_weight=50865 25411 25454 5424 23538 3062 867 20030 7400 3574 1452 2195 2756 2362 1048 1873 1031 20782 2611 323 1062 1972 884 625 648 402 628 348 784 603
internal_count=50865 25411 25454 5424 23538 3062 867 20030 7400 3574 1452 2195 2756 2362 1048 1873 1031 20782 2611 323 1062 1972 884 625 648 402 628 348 784 603
is_linear=0
shrinkage=0.05


Tree=4
num_leaves=31
num_cat=0
split_feature=18 104 109 104 102 18 104 104 85 25 102 66 105 91 18 18 98 23 66 8 66 18 23 18 98 98 70 66 66 104
split_gain=27932 2379.37 2154.52 918.603 540.259 422.542 678.712 369.389 364.446 343.37 267.31 245.704 192.094 186.476 206.826 175.943 350.002 209.623 244.305 169.178 199.091 161.21 195.178 145.737 137.691 121.46 118.059 102.954 102.894 91.9406
threshold=17.227000236511234 -0.62807226181030262 48.052213668823249 -0.48264265060424799 17.086142539978031 23.527500152587894 -0.63685512542724598 0.66042804718017589 321.82798767089849 18.585499763488773 16.688927650451664 0.25204849243164068 50.276000976562507 1.3924999833106997 15.800499916076662 15.038499832153322 12.028500080108644 12.600500106811525 0.29650312662124639 436.40150451660162 0.34213042259216314 14.593500137329103 17.28549957275391 18.92350006103516 18.671500205993656 20.592499732971195 0.35309344530105596 0.29843553900718695 0.15151970833539966 -0.4095702171325683
decision_type=2 2 2 2 2 2 2 2 2 2 2 2 2 2 2 2 2 2 2 2 2 2 2 2 2 2 2 2 2 2
left_child=1 13 5 9 15 6 -2 21 11 -4 12 25 23 14 27 -3 29 18 -18 -10 -21 -6 -23 -5 -12 -8 -11 -1 -25 -17
right_child=2 4 3 10 7 -7 8 -9 19 26 24 -13 -14 -15 -16 16 17 -19 -20 20 -22 22 -24 28 -26 -27 -28 -29 -30 -31
leaf_value=-0.010044757366925517 0.11853317532718198 -0.17181830909326676 0.065442804248928968 -0.06388305590428392 -0.045444387812241964 0.75809780330508936 0.02181797934919576 -0.10469438938282433 0.16066279966190466 0.020021778454184513 0.056902953685373174 -0.022972706097364348 0.015274148139208599 -0.018703974548727322 0.058510725803375158 0.029667665388435085 -0.027718262935429828 -0.088918309474736473 0.020081705784052595 0.065908268521726224 -0.032339996625632139 0.039038380480259607 -0.032537490931004241 0.012453544613718927 -0.021262817113101563 -0.03598886161580666 -0.018943767440319094 0.022379708857536509 -0.033626020033806728 -0.013768296504765765
leaf_weight=406 5054 14501 1612 1167 290 11936 699 1110 1461 178 388 588 262 248 839 177 373 5449 191 1065 311 561 301 271 317 171 291 187 191 89
leaf_count=406 5054 14501 1612 1167 290 11936 699 1110 1461 178 388 588 262 248 839 177 373 5449 191 1065 311 561 301 271 317 171 291 187 191 89
internal_value=5.52443e-05 -0.0379824 0.0362761 0.00554843 -0.0421708 0.043028 0.0350679 -0.0189655 0.020454 0.0302979 -0.0142912 0.000137174 -0.0240878 0.0194643 0.0263966 -0.0446968 -0.037705 -0.0401879 -0.0111702 0.0308953 0.018314 0.000868056 0.0117169 -0.0304788 0.0119858 0.0170115 -0.00735608 0.00379427 -0.00670996 0.0184211
internal_weight=50684 24722 25962 4677 23042 21285 9349 2262 4295 2081 2596 1458 1891 1680 1432 20780 6279 6013 564 2837 1376 1152 862 1629 705 870 469 593 462 266
internal_count=50684 24722 25962 4677 23042 21285 9349 2262 4295 2081 2596 1458 1891 1680 1432 20780 6279 6013 564 2837 1376 1152 862 1629 705 870 469 593 462 266
is_linear=0
shrinkage=0.05


Tree=5
num_leaves=31
num_cat=0
split_feature=18 104 95 85 104 104 110 18 18 104 96 104 66 24 18 31 66 104 96 106 18 25 18 109 24 17 96 66 88 0
split_gain=27025.7 3524.48 1134.76 844.359 686.666 326.617 346.675 331.485 313.258 462.329 291.863 270.335 253.23 397.897 213.023 337.987 367.693 333.832 184.54 180.817 150.694 140.816 130.406 128.603 114.709 102.762 109.26 100.683 105.922 99.9934
threshold=17.921500205993656 -0.56185865402221669 2.3157856464385991 262.25799560546881 -0.5532846450805663 -0.8855004310607909 1.9323651194572451 14.345499992370607 24.878999710083011 -0.63685512542724598 0.56548151373863231 0.17492961883544925 0.24827426671981814 20.601499557495121 14.491499900817873 49.438499450683601 0.29650312662124639 -0.32628536224365229 1.0120617151260378 44.909999847412116 20.758500099182132 18.708499908447269 15.800499916076662 49.336788177490241 18.284500122070316 2.1525000333786015 0.48657791316509252 0.20290446281433108 145.59320831298831 406.75450134277349
decision_type=2 2 2 2 2 2 2 2 2 2 2 2 2 2 2 2 2 2 2 2 2 2 2 2 2 2 2 2 2 2
left_child=1 5 4 14 21 -1 7 -7 9 -4 -6 24 29 -14 -3 25 17 -17 -13 -15 -12 -2 -20 -9 -5 -16 -27 -19 -29 -11
right_child=2 3 8 11 10 6 -8 23 -10 12 20 18 13 19 15 16 -18 27 22 -21 -22 -23 -24 -25 -26 26 -28 28 -30 -31
leaf_value=0.082183163300066836 0.06697563048622017 -0.17172734976958479 0.12457999553373433 0.03004739356500661 0.02428145822852841 -0.022889858420751887 -0.024490720045082171 0.034307180297314943 0.78169289025165123 0.032629273298233841 -0.034293497279949396 -0.085213259817916942 0.26369005795898287 0.026122653416767519 -0.11431488753508781 0.012859274680353749 0.016625145662315256 -0.069513678387813291 -0.041622179325331035 -0.025441372764855787 0.023237144509103125 0.0075845516048968168 0.046743435893677271 -0.003860205971848352 -0.032933679061792988 -0.0048420453956349091 -0.055213911723606304 -0.025552394401542777 0.0021010904588680823 0.12817505983354902
leaf_weight=722 1492 12510 4666 547 839 265 523 1175 10992 1222 1055 1609 526 446 4685 285 336 1464 363 679 142 359 261 200 335 282 923 280 264 1319
leaf_count=722 1492 12510 4666 547 839 265 523 1175 10992 1222 1055 1609 526 446 4685 285 336 1464 363 679 142 359 261 200 335 282 923 280 264 1319
internal_value=6.6974e-05 -0.0341208 0.0389961 -0.040362 0.0142912 0.0181109 0.00839112 0.0196951 0.0438338 0.0368368 -0.00574656 -0.0160674 0.0247853 0.00953967 -0.0439607 -0.0378624 -0.0229555 -0.0301134 -0.0253247 -0.00724444 -0.0215957 0.0363317 -0.00224359 0.0295636 0.00736961 -0.0445161 -0.0314938 -0.0373008 -0.0189338 0.0346911
internal_weight=50766 27029 23737 24144 3887 2885 2163 1640 19850 8858 2036 3115 4192 1651 21029 8519 2629 2293 2233 1125 1197 1851 624 1375 882 5890 1205 2008 544 2541
internal_count=50766 27029 23737 24144 3887 2885 2163 1640 19850 8858 2036 3115 4192 1651 21029 8519 2629 2293 2233 1125 1197 1851 624 1375 882 5890 1205 2008 544 2541
is_linear=0
shrinkage=0.05


Tree=6
num_leaves=31
num_cat=0
split_feature=18 97 95 101 85 98 97 98 116 18 18 98 116 18 71 66 24 68 116 66 24 85 109 99 100 86 70 66 99 18
split_gain=26217.1 2381.09 1184.69 1156.35 773.66 581.81 406.456 389.821 359.053 326.543 318.656 263.36 318.698 220.975 291.741 288.658 217.905 433.533 219.689 199.663 302.63 197.693 195.475 180.612 150.647 131.131 135.33 122.776 105.712 103.85
threshold=17.921500205993656 -0.11207151412963866 2.3157856464385991 2.2679474353790288 258.98651123046881 14.705500125885012 -0.25971424579620356 12.726500034332277 17.581929206848148 26.244999885559086 19.906499862670902 15.416500091552736 18.50235748291016 14.593500137329103 15.440833091735842 0.14414614439010623 11.754499912261965 0.54873743653297435 12.310643196105959 0.25774449110031133 20.722499847412113 262.25799560546881 49.345285415649421 24.228500366210941 16.684071540832523 368.84764099121099 0.86425223946571361 0.21323096752166751 18.241499900817875 13.529500007629396
decision_type=2 2 2 2 2 2 2 2 2 2 2 2 2 2 2 2 2 2 2 2 2 2 2 2 2 2 2 2 2 2
left_child=1 3 5 6 16 22 -1 -5 -8 11 21 -4 -13 -6 15 -15 17 -3 -19 28 -21 -7 -2 -22 -9 -16 -27 -12 -14 -20
right_child=2 4 9 7 13 10 8 24 -10 -11 27 12 19 14 25 -17 -18 18 29 20 23 -23 -24 -25 -26 26 -28 -29 -30 -31
leaf_value=0.0283186973409979 0.062468621399004755 -0.061990994106666975 0.11312499741501086 0.046569250895795111 -0.10043354583427694 -0.040857914204713457 -0.049193199841664814 -0.022071125520011316 0.0059540561038410548 0.78075827015313115 0.042364137666698734 -0.014924789353676006 0.048480756454400802 -0.048779958560640324 -0.061254797993971447 0.043803644414142973 -0.15589100707663769 -0.014641016613380842 -0.009541004787819319 0.27093102904372551 -0.014082441084049614 0.01113281512059432 -0.0021552521328134233 0.062068663458410535 0.061045677161504754 0.047898118840054509 -0.074026388852471578 -0.0029588974571971073 0.12028816695095008 0.021317029857201589
leaf_weight=247 1501 2331 3945 1622 762 887 1920 382 544 10247 494 331 721 145 1149 457 16053 283 82 641 673 462 293 485 106 350 213 242 2826 318
leaf_count=247 1501 2331 3945 1622 762 887 1920 382 544 10247 494 331 721 145 1149 457 16053 283 82 641 673 462 293 485 106 350 213 242 2826 318
internal_value=0.00020508 -0.0335336 0.0385127 -0.00169052 -0.0404665 0.0132379 -0.023294 0.0260664 -0.0294237 0.0434471 -0.00472422 0.0368323 0.0299366 -0.0171977 -0.00950735 0.0204319 -0.0442204 -0.0318845 0.00314788 0.0328844 0.0193163 -0.0191623 0.0341137 0.00405872 -0.0131148 -0.020035 -0.00026643 0.0217391 0.039766 0.027
internal_weight=50712 26964 23748 4821 22143 3879 2711 2110 2464 19869 2085 9622 5677 3076 2314 602 19067 3014 683 5346 1799 1349 1794 1158 488 1712 563 736 3547 400
internal_count=50712 26964 23748 4821 22143 3879 2711 2110 2464 19869 2085 9622 5677 3076 2314 602 19067 3014 683 5346 1799 1349 1794 1158 488 1712 563 736 3547 400
is_linear=0
shrinkage=0.05


Tree=7
num_leaves=31
num_cat=0
split_feature=9 65 101 104 35 111 116 70 102 36 104 104 24 68 66 113 15 101 102 14 66 104 101 112 66 102 24 66 9 104
split_gain=24394.4 2273.16 1463.02 1158.72 1016.52 834.911 1207.31 443.693 367.571 305.144 288.198 280.06 237.529 437.631 217.932 209.952 201.041 207.908 188.56 203.094 199.212 166.009 148.2 178.461 144.534 143.306 162.656 160.701 124.645 149.876
threshold=2.5625000000000004 16.465999603271488 3.2303475141525273 -0.54385805130004872 48.891498565673835 0.56671714782714855 17.834286689758304 0.99991321563720714 17.165071487426761 32.495500564575202 0.59271287918090831 -0.3511433601379394 11.664999961853029 0.54873743653297435 0.27802558243274694 10.669499874114992 3.310500025749207 2.1055694818496709 15.635928630828859 2.2204999923706059 0.17274130135774615 -0.3511433601379394 2.9257785081863408 14.139500141143801 0.24998421967029574 18.33942794799805 18.093500137329105 0.16461740434169772 4.739499807357789 -0.63685512542724598
decision_type=2 2 2 2 2 2 2 2 2 2 2 2 2 2 2 2 2 2 2 2 2 2 2 2 2 2 2 2 2 2
left_child=1 3 5 14 11 6 16 9 12 21 24 -3 13 -5 22 -15 17 -2 -13 -20 -21 -6 23 -1 -10 26 -8 -28 29 -4
right_child=2 4 28 8 7 -7 25 -9 10 -11 -12 18 -14 15 -16 -17 -18 -19 19 20 -22 -23 -24 -25 -26 -27 27 -29 -30 -31
leaf_value=-0.02817458759871512 -0.025829167863788884 0.058510282164316335 0.12066100918051728 -0.059062072472164932 -0.0022556127084182977 0.063484120878242498 0.065146211401149942 0.039365371499006853 -0.013878395820892031 0.028465842739134752 -0.088237569015713738 -0.029720646048973089 -0.14860462262196714 -0.01503392000634456 0.030438594471347447 0.012725505596285203 -0.037582872791339567 0.013343342731770137 0.060947426528077921 0.04147305905778325 -0.059314853321745797 -0.07837386722019507 0.023736155044244447 0.010752054420620816 0.041288105578560601 0.098176444942943253 0.032582252976920321 -0.01979364484985462 0.7977203986071445 0.10130839417517441
leaf_weight=342 403 958 4472 2119 347 2414 490 278 457 277 944 337 15850 220 480 460 993 400 709 379 456 2061 148 167 248 1959 255 402 9362 2434
leaf_count=342 403 958 4472 2119 347 2414 490 278 457 277 944 337 15850 220 480 460 993 400 709 379 456 2061 148 167 248 1959 255 402 9362 2434
internal_value=0.000437811 -0.0317968 0.0376654 -0.0393119 -0.00403309 0.0190951 0.00724194 -0.0245191 -0.0420633 -0.0307449 -0.019436 0.0173477 -0.044064 -0.0306359 0.00980651 0.00426471 -0.0253898 -0.00678705 0.00614035 0.0135363 -0.00317365 -0.0364618 -0.00890411 -0.0217092 0.00475177 0.0261108 0.012075 -0.00418569 0.0460167 0.0409209
internal_weight=50821 27237 23584 21435 5802 7316 4902 2963 20298 2685 1649 2839 18649 2799 1137 680 1796 803 1881 1544 835 2408 657 509 705 3106 1147 657 16268 6906
internal_count=50821 27237 23584 21435 5802 7316 4902 2963 20298 2685 1649 2839 18649 2799 1137 680 1796 803 1881 1544 835 2408 657 509 705 3106 1147 657 16268 6906
is_linear=0
shrinkage=0.05


Tree=8
num_leaves=31
num_cat=0
split_feature=18 18 104 104 22 116 68 110 92 104 66 24 104 99 96 101 66 23 66 66 99 24 70 116 18 112 20 104 103 104
split_gain=24898 2085.62 1862.96 1415.98 531.536 528.138 444.514 395.402 389.033 483.429 315.181 433.319 296.528 269.496 248.36 313.555 241.428 290.291 236.101 200 196.729 190.495 332.744 203.461 170.001 165.295 163.207 150.236 344.859 133.525
threshold=17.111499786376957 19.299499511718754 -0.54385805130004872 -0.5177173614501952 18.174499511718754 19.656071662902836 0.23028338700532916 2.2024930715560918 4.054499864578248 -0.71471309661865223 0.18786638230085376 20.135499954223636 0.52985858917236339 15.867499828338625 0.92790186405181896 2.4526444673538212 0.25774449110031133 17.107500076293949 0.1094232350587845 0.098441746085882201 15.096499919891359 11.571499824523928 1.0564367771148684 12.310643196105959 14.834499835968019 13.624499797821047 13.574500083923342 -0.34257030487060541 1.7378846406936648 -0.73885679244995106
decision_type=2 2 2 2 2 2 2 2 2 2 2 2 2 2 2 2 2 2 2 2 2 2 2 2 2 2 2 2 2 2
left_child=2 3 14 7 6 21 13 -2 9 -3 -11 -12 16 -5 15 25 24 -18 20 -9 -6 22 -4 -24 -7 29 -17 28 -23 -1
right_child=1 8 5 4 18 12 -8 19 -10 10 11 -13 -14 -15 -16 26 17 -19 -20 -21 -22 27 23 -25 -26 -27 -28 -29 -30 -31
leaf_value=0.01196877107806822 0.060184121768472036 0.1134186407340577 -0.057228015536636437 -0.032665424259323041 -0.02589009175765682 -0.074293828297066974 0.047903593581384032 0.019711323844632478 0.65398430009402364 0.061462426495795967 0.21596395792736695 -0.0045717566724091446 -0.10652624109386118 0.024618245034387878 -0.027286244080364775 -0.011147810848567641 0.040829810458986149 -0.12164385347406892 -0.061105825196727893 -0.023488660566986931 0.030068750738884199 0.012444873778466637 -0.011694751620859201 0.011265220025640588 -0.010530405078795725 0.014013173449510497 0.044092736445849573 -0.14966624085049657 -0.045622578866749655 -0.021429628081301468
leaf_weight=162 2592 3773 1902 622 236 731 816 272 11133 2244 739 1539 1948 345 349 100 376 121 1477 293 312 289 326 355 952 331 789 13883 1264 393
leaf_count=162 2592 3773 1902 622 236 731 816 272 11133 2244 739 1539 1948 345 349 100 376 121 1477 293 312 289 326 355 952 331 789 13883 1264 393
internal_value=0.000436207 0.0340488 -0.0361151 0.0105743 -0.00995273 -0.040405 0.00995513 0.0353342 0.0424645 0.0342676 0.0232419 0.0101405 -0.0242733 -0.0129783 0.00861582 0.0161972 -0.0116055 0.0190141 -0.0274815 -0.00256637 0.000547445 -0.0441007 -0.0315331 -0.00154185 -0.0206477 -0.00485327 0.0371766 -0.0462037 -0.0314552 -0.0215315
internal_weight=50664 26393 24271 6965 3808 22147 1783 3157 19428 8295 4522 2278 4128 967 2124 1775 2180 497 2025 565 548 18019 2583 681 1683 886 889 15436 1553 555
internal_count=50664 26393 24271 6965 3808 22147 1783 3157 19428 8295 4522 2278 4128 967 2124 1775 2180 497 2025 565 548 18019 2583 681 1683 886 889 15436 1553 555
is_linear=0
shrinkage=0.05


Tree=9
num_leaves=31
num_cat=0
split_feature=27 17 101 19 111 114 85 104 66 24 95 24 68 36 104 65 23 66 66 24 104 102 19 66 106 104 76 76 111 104
split_gain=22714.1 2345.52 1453.01 1343.75 827.899 1024.83 543.918 466.874 457.988 420.397 312.502 312.176 494.568 350.064 264.557 261.216 221.134 237.029 185.521 283.08 183.62 177.767 158.95 148.492 148.316 161.865 182.355 159.503 134.372 125.277
threshold=47.476501464843757 1.9135000109672549 3.450810551643372 15.582499980926515 0.59400272369384777 15.901713848114015 321.82798767089849 -0.35942697525024409 0.21149494498968127 16.806499481201175 1.8849285840988161 12.095499992370607 0.48224699497222906 12.625500202178957 -0.8855004310607909 13.252500057220461 17.164500236511234 0.17274130135774615 0.18090175092220309 19.278499603271488 -0.43485784530639643 19.608572006225589 16.772500038146976 0.075579244643449797 42.432498931884773 -0.67200279235839833 0.15643314272165301 -0.67879429459571827 0.51100349426269542 -0.38542890548706049
decision_type=2 2 2 2 2 2 2 2 2 2 2 2 2 2 2 2 2 2 2 2 2 2 2 2 2 2 2 2 2 2
left_child=2 6 4 8 5 14 11 -5 29 15 -9 12 -2 -14 -1 -10 23 -18 -7 -20 22 -21 -13 -12 -4 -26 27 -27 -16 -3
right_child=1 3 24 7 -6 18 -8 10 9 -11 16 20 13 -15 28 -17 17 -19 19 21 -22 -23 -24 -25 25 26 -28 -29 -30 -31
leaf_value=0.029176998456720862 -0.067976956785561524 -0.023714520397869168 0.74688513696920522 0.044170938520101101 0.064649251535818575 0.059430901159345774 -0.00090568696409674141 -0.025565939368700087 -0.028635195985648922 -0.16539909844220962 -0.016076588862080677 -0.028610623454210862 -0.01733383608952721 0.013993408052059841 -0.033837176254615554 0.019050880516472191 0.028256751585043996 -0.066134239189235444 0.1732852676582054 -0.014557500017857095 -0.1428329055383184 0.047794087378452504 0.0060050245342258895 0.065480658775353723 0.11338154194209285 0.018430708411840604 0.0039560976149211058 0.19051325433811961 -0.0011423201360464042 -0.077775550881527711
leaf_weight=155 2424 858 8955 1430 2314 1835 796 765 243 384 127 275 561 627 1260 777 708 577 507 691 13668 748 238 536 3981 474 515 1540 406 2419
leaf_count=155 2424 858 8955 1430 2314 1835 796 765 243 384 127 275 561 627 1260 777 708 577 507 691 13668 748 238 536 3981 474 515 1540 406 2419
internal_value=0.000267748 -0.0306114 0.0364719 -0.0093835 0.01905 0.00865762 -0.040688 0.0113565 -0.0277398 -0.00384615 -0.00082934 -0.042497 -0.0293743 -0.00294613 -0.0221582 0.0129412 0.00980493 -0.00229572 0.0234991 0.0127441 -0.0458395 0.0014246 -0.0164717 0.0332579 0.0453896 0.0396467 0.0297548 0.0365442 -0.0279712 -0.0379768
internal_weight=50794 27413 23381 8824 7916 5602 18589 4143 4681 1404 2713 17793 3612 1188 1821 1020 1948 1285 3781 1946 14181 1439 513 663 15465 6510 2529 2014 1666 3277
internal_count=50794 27413 23381 8824 7916 5602 18589 4143 4681 1404 2713 17793 3612 1188 1821 1020 1948 1285 3781 1946 14181 1439 513 663 15465 6510 2529 2014 1666 3277
is_linear=0
shrinkage=0.05


Tree=10
num_leaves=31
num_cat=0
split_feature=18 109 104 98 18 104 18 31 66 102 85 44 66 17 102 23 69 17 99 25 104 18 66 23 35 60 98 104 66 23
split_gain=23315.6 2422.21 1414.51 1036.89 560.107 726.744 486.288 671.65 632.436 403.749 379.328 368.948 369.044 320.856 271.077 239.061 271.279 215.251 211.342 187.216 176.633 175.558 164.354 177.639 160.61 154.291 141.44 116.171 113.418 110.459
threshold=16.881500244140629 47.994928359985359 -0.53499841690063465 14.345499992370607 27.298999786376957 -0.67200279235839833 13.907499790191652 49.660499572753913 0.17767823487520221 16.261286735534672 342.12300109863287 43.929000854492195 0.35483485460281378 1.5155000090599062 14.349357604980471 18.044500350952152 13.064550399780275 2.0515000820159917 10.312500000000002 19.939499855041507 -0.26814222335815424 20.863500595092777 0.16951761394739154 17.783500671386722 48.009498596191413 0.1524087265133858 20.504499435424808 0.40542888641357427 0.1862021014094353 14.392499923706056
decision_type=2 2 2 2 2 2 2 2 2 2 2 2 2 2 2 2 2 2 2 2 2 2 2 2 2 2 2 2 2 2
left_child=2 4 15 14 5 -2 -4 17 20 21 22 -12 -13 -10 28 16 -1 -8 -15 26 -9 29 27 -24 -18 -19 -11 -7 -3 -5
right_child=1 3 6 9 -6 10 7 8 13 19 11 12 -14 18 -16 -17 24 25 -20 -21 -22 -23 23 -25 -26 -27 -28 -29 -30 -31
leaf_value=-0.020337589969990334 0.10228807096088639 -0.012719884462710685 -0.1419412602614025 0.0073977207283196129 0.66494087020253212 0.021518556360349984 -0.099397090094850524 0.010468485948266349 -0.018027953297042921 0.023473055258729759 0.14644932661470716 0.050309884532858541 -0.04974362406709254 -0.0066962721830355681 0.041226741866863398 -0.022174362624931644 0.028498196966315881 -0.0091124099716699547 0.022188563799564867 -0.026846521812877812 -0.051395542387815234 0.016100963618355113 0.073275403454393026 -0.015520215402974814 -0.0043836364125098724 -0.045847965267556745 -0.043853584105596172 -0.013440097439159616 0.01639992492386062 -0.043259843071563608
leaf_weight=269 5216 262 10848 115 9620 531 5466 161 426 1272 2416 1291 484 201 2173 382 966 605 888 459 1648 162 126 896 341 1338 178 183 84 1651
leaf_count=269 5216 262 10848 115 9620 531 5466 161 426 1272 2416 1291 484 201 2173 382 966 605 888 459 1648 162 126 896 341 1338 178 183 84 1651
internal_value=0.000313869 0.0319167 -0.0360954 0.00490875 0.0401845 0.0325541 -0.0397873 -0.0322417 -0.013568 -0.0114543 0.0205753 0.0287163 0.0114085 0.010264 0.0298333 0.00459653 0.013198 -0.0406195 0.0246556 0.00484547 -0.0335268 -0.0275934 0.000921659 -0.0119374 0.022609 -0.0263253 0.0136552 0.0193277 -0.0112717 -0.0321631
internal_weight=50658 27119 23539 6356 20763 11143 21581 10733 3324 3837 5927 4191 1775 1515 2519 1958 1576 7409 1089 1909 1809 1928 1736 1022 1307 1943 1450 714 346 1766
internal_count=50658 27119 23539 6356 20763 11143 21581 10733 3324 3837 5927 4191 1775 1515 2519 1958 1576 7409 1089 1909 1809 1928 1736 1022 1307 1943 1450 714 346 1766
is_linear=0
shrinkage=0.05


Tree=11
num_leaves=31
num_cat=0
split_feature=18 104 102 101 104 85 104 104 110 91 18 13 19 26 66 66 23 18 24 68 107 18 44 66 76 76 66 53 88 66
split_gain=22481.3 3039.58 1021.21 960.307 532.57 554.8 512.415 448.296 404.447 357.52 344.975 565.928 332.801 278.418 255.698 203.14 191.382 220.67 188.824 394.16 188.033 174.882 227.29 310.117 170.545 171.88 135.39 129.791 121.319 119.019
threshold=18.1855001449585 -0.49985837936401362 16.921214103698734 3.7341519594192509 -0.71471309661865223 282.13850402832037 0.69449996948242199 -0.90778636932373036 1.9323651194572451 1.5074999928474428 15.348499774932863 1.7095000147819521 13.760499954223635 12.294499874114992 0.11336861923336984 0.21149494498968127 17.714500427246097 14.242499828338625 12.237500190734865 0.56875422596931469 49.517282485961921 28.810000419616703 49.656499862670906 0.35483485460281378 -0.72536745667457569 0.14349137991666797 0.11762274801731111 146.21468353271487 153.9072189331055 0.10826305299997331
decision_type=2 2 2 2 2 2 2 2 2 2 2 2 2 2 2 2 2 2 2 2 2 2 2 2 2 2 2 2 2 2
left_child=1 7 10 4 -2 9 16 -1 12 -6 18 13 -9 -12 -15 20 17 -4 19 27 -14 22 -5 -24 -7 -26 -19 -3 -11 -18
right_child=3 2 6 21 5 24 -8 8 -10 28 11 -13 15 14 -16 -17 29 26 -20 -21 -22 -23 23 -25 25 -27 -28 -29 -30 -31
leaf_value=0.069812088700896349 0.071060312603853773 -0.073797129863394997 -0.02345561712743436 0.11331733189094013 0.022523375134356184 0.0069701219733799393 -0.073968732562726736 -0.020456748289031525 -0.019200758384107355 -0.019805691717149899 -0.033438931171048306 -0.064451203127461151 0.010638959629371492 -0.013685717391463915 0.016188841054056626 0.031566845088972249 0.02146854338572908 0.0012726881022899761 -0.13979419610392316 0.0058801230382960592 -0.013419668912723993 0.70481880761891924 0.083439378248485963 -0.054903993447713267 0.126068169204755 0.025250743004121293 0.052039175622350879 -0.024883884438794371 -0.0025405363493598899 -0.051180680553095749
leaf_weight=783 2694 1908 293 4659 700 604 1387 335 775 753 565 3958 614 496 684 979 155 317 12031 430 315 8528 772 286 2103 849 679 649 1059 385
leaf_count=783 2694 1908 293 4659 700 604 1387 335 775 753 565 3958 614 496 684 979 155 317 12031 430 315 8528 772 286 2103 849 679 649 1059 385
internal_value=0.000335994 -0.0299733 -0.0365689 0.0368779 0.023853 0.0156394 -0.0103545 0.0115627 0.00281643 -0.00234873 -0.0406375 -0.0301683 0.0135756 -0.00644699 0.00737288 0.0216457 0.0070257 0.0174942 -0.0446131 -0.0333612 0.00489774 0.0448894 0.0381231 0.0172023 0.0283465 0.0332995 0.0287149 -0.0408095 -0.0140728 -0.017963
internal_weight=50745 27738 23937 23007 8762 6068 3216 3801 3018 2512 20721 5703 2243 1745 1180 1908 1829 1289 15018 2987 929 14245 5717 1058 3556 2952 996 2557 1812 540
internal_count=50745 27738 23937 23007 8762 6068 3216 3801 3018 2512 20721 5703 2243 1745 1180 1908 1829 1289 15018 2987 929 14245 5717 1058 3556 2952 996 2557 1812 540
is_linear=0
shrinkage=0.05


Tree=12
num_leaves=31
num_cat=0
split_feature=18 95 104 98 18 104 101 18 23 66 102 76 76 17 95 84 113 66 66 104 24 105 23 66 98 18 25 116 35 18
split_gain=21388.1 2457.94 1327.23 1160.7 603.072 644.404 466.353 437.095 665.206 494.542 365.861 365.582 478.11 361.874 284.497 257.032 255.178 241.307 226.572 218.894 202.189 189.828 184.068 551.331 179.007 157.008 129.895 142.351 127.312 123.043
threshold=16.822500228881839 2.3429286479949956 -0.42621374130249018 14.705500125885012 28.810000419616703 -0.71471309661865223 2.6067185401916508 13.622499942779543 12.654500007629396 0.23855979740619662 16.261286735534672 0.15643314272165301 -0.66912424564361561 1.844500005245209 1.6872857213020327 170.88249969482425 10.185500144958498 0.29005937278270727 0.21323096752166751 -0.73885679244995106 20.045499801635746 50.392499923706062 16.441499710083011 0.12640323489904406 20.220499992370609 19.822500228881839 17.900499343872074 11.519642829895021 46.153499603271491 19.666500091552738
decision_type=2 2 2 2 2 2 2 2 2 2 2 2 2 2 2 2 2 2 2 2 2 2 2 2 2 2 2 2 2 2
left_child=2 3 6 14 5 -3 15 -4 9 -9 29 12 17 -10 -2 19 -11 -7 28 -1 24 -8 23 -15 -12 -22 -16 -28 -13 -5
right_child=1 4 7 10 -6 11 21 8 13 16 20 18 -14 22 26 -17 -18 -19 -20 -21 25 -23 -24 -25 -26 -27 27 -29 -30 -31
leaf_value=0.0081946072384720733 -0.0038693595311675823 0.10073297361785656 -0.1357045145274868 -0.04754069156533261 0.64892786189739704 0.021132707392310837 -0.0080350217684971529 -0.037514069374874649 -0.099964469455877947 -0.0082114686372218425 0.026408594985260516 0.027379761017358818 0.12317225467097118 -0.027662700763056769 0.047891762794430463 0.0091689878745125249 0.016109242895330136 -0.030378070542608528 -0.022093515032055144 -0.027412417510717369 -0.039163258286032045 0.026173880223288395 -0.067561134016857191 0.02397775341361932 -0.037702539226696002 0.0035261906036567758 -0.0067392346446910169 0.021727460816351574 -0.011459091262251066 -0.0012562087939164358
leaf_weight=216 437 4687 9506 1462 8828 899 286 645 6111 279 991 795 3551 1450 2084 418 815 473 797 1029 434 818 1330 481 223 310 291 487 226 332
leaf_count=216 437 4687 9506 1462 8828 899 286 645 6111 279 991 795 3551 1450 2084 418 815 473 797 1029 434 818 1330 481 223 310 291 487 226 332
internal_value=0.000214042 0.0302688 -0.0348828 0.00484328 0.0391193 0.0315366 -0.00236718 -0.0392467 -0.0325128 -0.00411156 -0.0141791 0.0216363 0.0287122 -0.0377828 0.0264777 -0.019092 0.016362 0.00364431 0.00247525 -0.0304819 0.000766088 0.0228261 -0.024333 -0.0144744 0.0133443 -0.0197581 0.0322152 0.0147815 0.0180705 -0.0304905
internal_weight=50691 27307 23384 7051 20256 11428 2767 20617 11111 1739 3752 6741 4923 9372 3299 1663 1094 1372 1818 1245 1958 1104 3261 1931 1214 744 2862 778 1021 1794
internal_count=50691 27307 23384 7051 20256 11428 2767 20617 11111 1739 3752 6741 4923 9372 3299 1663 1094 1372 1818 1245 1958 1104 3261 1931 1214 744 2862 778 1021 1794
is_linear=0
shrinkage=0.05


Tree=13
num_leaves=31
num_cat=0
split_feature=18 104 36 101 104 85 17 110 18 25 105 18 23 66 98 24 68 18 24 6 27 44 66 66 44 66 23 18 92 101
split_gain=20751.9 2793.5 1013.9 994.02 536.395 517.837 471.449 420.669 429.648 399.884 339.981 337.722 437.896 357.002 264.203 279.469 394.626 258.906 231.52 231.16 217.935 230.274 356.774 215.124 161.168 205.802 159.841 161.099 146.975 146.325
threshold=18.1855001449585 -0.54385805130004872 17.672999382019047 3.9175117015838627 -0.71471309661865223 312.45300292968756 1.5895000100135805 2.1247667074203496 16.063499450683597 13.998499870300295 49.877498626708991 14.345499992370607 17.164500236511234 0.097165953367948546 12.435500144958498 12.300499916076662 0.43250197172164923 13.484499931335451 12.54949998855591 112.04949951171876 40.589000701904304 52.325500488281257 0.35483485460281378 0.08805048838257791 40.705499649047859 0.292333334684372 16.76149940490723 19.906499862670902 2.1305000782012944 2.486311793327332
decision_type=2 2 2 2 2 2 2 2 2 2 2 2 2 2 2 2 2 2 2 2 2 2 2 2 2 2 2 2 2 2
left_child=1 7 14 4 -2 10 18 8 29 -8 26 -11 13 28 17 16 -16 -3 -4 -18 -5 -22 -23 -14 -7 -26 -6 -28 -13 -1
right_child=3 2 6 20 5 24 9 -9 -10 11 -12 12 23 -15 15 -17 19 -19 -20 -21 21 22 -24 -25 25 -27 27 -29 -30 -31
leaf_value=-0.012910048108490458 0.066637144640517579 -0.046197013311575531 0.00084572691578141965 0.71518151534183372 0.017893077616746213 0.11792512464091694 0.021564863748102917 -0.019949087325452287 0.038563126084107946 -0.071512416442228818 0.022623264990888362 -0.021206208071756195 0.0057853438736938049 0.039501553703685049 -0.064468318373365294 -0.1187378953144041 -0.016405940444015953 0.0030596537449715912 -0.093809750269553321 0.0062048665587991717 0.11689554602150416 0.090343659771520993 -0.044041521427826247 -0.063316616771787668 0.054711965035650678 -0.014753778325845169 -0.023845683042665124 0.00042655270387683688 0.015270471467314551 0.0092226655876816114
leaf_weight=602 2973 572 362 7564 292 1859 552 390 1852 1196 680 493 383 762 2213 12565 477 602 2300 640 4801 886 373 1070 1039 591 1056 903 239 503
leaf_count=602 2973 572 362 7564 292 1859 552 390 1852 1196 680 493 383 762 2213 12565 477 602 2300 640 4801 886 373 1070 1039 591 1056 903 239 503
internal_value=0.00019492 -0.0289004 -0.0347703 0.0353022 0.0227882 0.0146573 -0.0192538 0.0139379 0.0203754 -0.00972311 -0.000835892 -0.0150495 -0.00595521 0.0130522 -0.0414582 -0.0431488 -0.0302703 -0.018569 -0.0360631 -0.00604297 0.0439298 0.0368647 0.0178316 -0.025499 0.0276727 0.0161963 -0.0101955 -0.0153395 -0.0118852 -0.00429864
internal_weight=50790 27773 24426 23017 9393 6420 7357 3347 2957 4695 2931 4143 2947 1494 17069 15895 3330 1174 2662 1117 13624 6060 1259 1453 3489 1630 2251 1959 732 1105
internal_count=50790 27773 24426 23017 9393 6420 7357 3347 2957 4695 2931 4143 2947 1494 17069 15895 3330 1174 2662 1117 13624 6060 1259 1453 3489 1630 2251 1959 732 1105
is_linear=0
shrinkage=0.05


Tree=14
num_leaves=31
num_cat=0
split_feature=65 104 95 102 98 9 101 104 104 91 84 36 44 66 32 70 53 104 66 66 71 65 102 104 22 65 102 65 12 91
split_gain=18406.1 2484.27 1640.85 946.482 739.215 624.301 526.045 496.484 413.861 334.143 333.659 330.871 465.532 492.267 312.559 834.421 396.9 286.006 280.164 233.941 243.445 207.445 197.411 195.352 189.683 240.674 165.366 153.896 223.727 144.662
threshold=17.747333526611332 -0.38542890548706049 2.3429286479949956 17.086142539978031 14.396999835968019 5.8275001049041757 2.486311793327332 -0.7307143211364745 0.69449996948242199 1.3924999833106997 153.26249694824222 36.428501129150398 46.750999450683601 0.39682756364345556 50.438499450683601 0.77638718485832225 117.23471832275392 -0.73885679244995106 0.15151970833539966 0.15628001838922503 18.504632949829105 14.138833522796633 14.250357151031496 -0.19600152969360349 18.3105001449585 20.997499465942386 15.06828546524048 15.552499771118166 2.0835000276565556 2.9714999198913579
decision_type=2 2 2 2 2 2 2 2 2 2 2 2 2 2 2 2 2 2 2 2 2 2 2 2 2 2 2 2 2 2
left_child=1 6 4 14 22 7 10 -4 -5 21 17 19 -13 -14 23 -16 -17 -1 26 29 -21 -8 -2 27 -20 -26 -6 -3 -29 -9
right_child=2 3 5 8 18 -7 9 11 -10 -11 -12 12 13 -15 15 16 -18 -19 24 20 -22 -23 -24 -25 25 -27 -28 28 -30 -31
leaf_value=0.01085045987636617 -0.012030212669838215 -0.047499294865902542 0.10237857005415876 0.015381065694036701 -0.026811088182190447 0.66779734039261318 -0.0060775347536847768 0.030191283329170829 -0.058881111374126285 -0.0060704066982280487 0.0071044782352183596 0.19649595038613965 0.06284525413318294 -0.048201498499642885 -0.075238495021879015 -0.015996436491350963 0.010095246708460693 -0.026424485200876282 0.066162545397632042 0.081918807003608762 -0.012349690760405353 0.038682500264945047 0.033143596321790807 -0.1223409176425073 -0.038607084067734658 0.0086296514770138454 0.013274553166201653 0.0064368712104439403 -0.024616143610020871 -0.0052734653754828113
leaf_weight=240 155 1049 4243 1363 243 7735 202 858 1126 534 933 2406 1750 607 4441 639 993 1116 93 183 1103 1467 2035 11408 1105 271 1168 393 468 298
leaf_count=240 155 1049 4243 1363 243 7735 202 858 1126 534 933 2406 1750 607 4441 639 993 1116 93 183 1103 1467 2035 11408 1105 271 1168 393 468 298
internal_value=0.000230123 -0.0286819 0.0316682 -0.0356353 0.00637081 0.0383543 0.005187 0.0309399 -0.00660908 0.0226282 -0.011599 0.0229493 0.0306215 0.0148282 -0.039361 -0.0299605 0.000612745 -0.0274336 -0.0102778 0.00798526 -0.0066874 0.0336429 0.0282648 -0.0436477 -0.0255616 -0.0302326 0.0056343 -0.0288482 -0.0131823 0.024308
internal_weight=50625 26372 24253 21880 5070 19183 4492 11448 2489 2203 2289 7205 4763 2357 19391 6073 1632 1356 2880 2442 1286 1669 2190 13318 1469 1376 1411 1910 861 1156
internal_count=50625 26372 24253 21880 5070 19183 4492 11448 2489 2203 2289 7205 4763 2357 19391 6073 1632 1356 2880 2442 1286 1669 2190 13318 1469 1376 1411 1910 861 1156
is_linear=0
shrinkage=0.05


Tree=15
num_leaves=31
num_cat=0
split_feature=18 95 35 98 18 18 23 66 111 24 70 18 22 76 76 68 85 66 66 66 106 66 102 99 102 24 66 34 68 18
split_gain=19054.6 2318.32 1157.33 1001.65 749.362 705.46 582.006 828.439 421.846 418.834 582.128 393.849 425.476 332.377 429.705 294.245 263.56 261.542 258.688 233.3 199.979 191.051 161.166 156.002 143.862 139.976 136.391 125.733 120.364 121.921
threshold=16.766500473022464 2.3429286479949956 49.022499084472663 14.001500129699709 13.622499942779543 31.018499374389652 16.814499855041507 0.13208204507827762 0.53171348571777355 12.095499992370607 0.95100715756416332 19.518499374389652 17.051500320434574 0.15643314272165301 -0.65933948755264271 0.16700179874897006 119.5900001525879 0.34457139670848852 0.16310051083564761 0.1597094610333443 48.456501007080085 0.079379539936780943 14.064499855041506 15.867499828338625 14.85771417617798 19.213500022888187 0.29005937278270727 45.571498870849616 0.2922984659671784 18.92350006103516
decision_type=2 2 2 2 2 2 2 2 2 2 2 2 2 2 2 2 2 2 2 2 2 2 2 2 2 2 2 2 2 2
left_child=2 3 4 22 26 8 7 20 13 10 -4 12 21 14 17 -8 -12 -3 27 23 -6 -5 -2 -14 -9 -13 -1 -15 29 -24
right_child=1 5 9 11 6 -7 15 24 -10 -11 16 25 19 18 -16 -17 -18 -19 -20 -21 -22 -23 28 -25 -26 -27 -28 -29 -30 -31
leaf_value=-0.075248272211239711 -0.0066612371745758741 0.023475441284410526 -0.049691211661133085 -0.017566185175231654 0.0011970231292123047 0.62815747337298244 0.0034136838479008171 0.0035279292836532862 0.092120040264314806 -0.1167252410881349 -0.010241698864204807 0.041200190128551563 -0.027433290712879723 0.040143106242173945 0.11916551068570103 -0.056364152768809288 0.010282349025936277 -0.039583027306754739 -0.013156100011454442 -0.054237914785612421 -0.023533454049913118 0.028526523759073719 0.0031191640806138565 0.0031033670463578747 0.029503095316671769 -0.00065945764043107147 -0.0025203612559954627 -0.0017798773382242672 0.058282300714391867 0.03185933126379821
leaf_weight=2169 151 1362 2138 199 676 7839 440 563 4263 12026 405 562 796 691 4380 1314 689 382 1115 1203 1160 415 642 614 1311 793 200 323 1068 656
leaf_count=2169 151 1362 2138 199 676 7839 440 563 4263 12026 405 562 796 691 4380 1314 689 382 1115 1203 1160 415 642 614 1311 793 200 323 1068 656
internal_value=0.000329409 0.028484 -0.0331449 0.00388083 -0.017522 0.0370646 -0.00733895 0.0038814 0.029698 -0.0411653 -0.0251856 -0.0100393 -0.0195383 0.0231007 0.029017 -0.0310718 0.00447898 0.00802752 0.00608267 -0.0283391 -0.0199891 0.0179153 0.0292213 -0.014539 0.0272679 0.012583 -0.0410089 0.024359 0.0324176 0.022188
internal_weight=50545 27454 23091 7099 7833 20355 5464 3710 12516 15258 3232 4582 3227 8253 6124 1754 1094 1744 2129 2613 1836 614 2517 1410 1874 1355 2369 1014 2366 1298
internal_count=50545 27454 23091 7099 7833 20355 5464 3710 12516 15258 3232 4582 3227 8253 6124 1754 1094 1744 2129 2613 1836 614 2517 1410 1874 1355 2369 1014 2366 1298
is_linear=0
shrinkage=0.05


Tree=16
num_leaves=31
num_cat=0
split_feature=18 18 105 18 98 18 22 66 22 104 66 116 76 76 66 35 66 23 69 99 104 96 66 66 18 66 34 23 18 22
split_gain=18172 2178.71 1298.73 1185.03 1051.98 639.421 611.078 624.236 569.841 449.068 423.324 370.907 370.596 509.163 323.06 286.136 443.057 262.5 286.279 254.243 224.765 226.641 200.481 195.958 190.266 174.567 220.493 168.303 160.457 153.317
threshold=16.822500228881839 19.588500022888187 49.877498626708991 14.792500019073488 12.306499958038332 32.918498992919929 15.255499839782717 0.14414614439010623 17.463500022888187 -0.78978490829467762 0.15313973277807238 12.454071044921877 0.14349137991666797 -0.66912424564361561 0.11762274801731111 49.474498748779304 0.28237956762313848 14.196499824523928 11.060050010681154 16.985500335693363 -0.59992933273315419 0.51802507042884838 0.22059137374162677 0.16790606081485751 13.345499992370607 0.14697770029306415 49.057498931884773 17.164500236511234 15.800499916076662 15.664499759674074
decision_type=2 2 2 2 2 2 2 2 2 2 2 2 2 2 2 2 2 2 2 2 2 2 2 2 2 2 2 2 2 2
left_child=3 2 8 15 -5 9 7 -6 14 -3 19 -9 13 22 -2 16 24 18 -18 -10 -4 -22 -11 -14 -1 26 28 -12 -8 -27
right_child=1 5 20 4 6 -7 25 11 10 12 27 -13 23 -15 -16 -17 17 -19 -20 -21 21 -23 -24 -25 -26 29 -28 -29 -30 -31
leaf_value=-0.087629065499494993 -0.0051725652164460456 0.095972175527587397 0.050124512592080443 0.01724089704677443 -0.028352938218656254 0.65239973855931377 -0.018409965608256008 -0.010149156455897935 -0.020288815519311856 0.032360788398614386 0.054421747068415807 0.019020392828149647 0.024913354896824558 0.13996682791237749 0.043512995841860393 -0.13014329190166177 -0.023619722851867843 -0.15554274211730018 0.0098706724367030318 0.0093765031165348855 0.026252496670564264 -0.0040933722496154347 -0.016241087443195034 -0.0092694775017213796 -0.029783182505256356 0.025709503994046302 -0.046281691996753076 -0.044572779752230757 0.0013433513839608226 -0.1057185042734564
leaf_weight=3977 605 3687 2332 1211 1020 7065 618 368 821 880 86 1017 888 4215 846 7296 223 264 665 1269 437 585 745 1078 2257 83 1572 1813 779 2011
leaf_count=3977 605 3687 2332 1211 1020 7065 618 368 821 880 86 1017 888 4215 846 7296 223 264 665 1269 437 585 745 1078 2257 83 1572 1813 779 2011
internal_value=0.000150849 0.0278115 0.0073118 -0.0322353 -0.0175884 0.0375256 -0.0245983 -0.00384615 -0.00777574 0.0302488 -0.0175357 0.0180144 0.0234563 0.0297774 0.0190558 -0.0408936 -0.0339561 -0.00546875 0.00754505 -0.00200957 0.0317829 0.0122309 0.006 0.00467955 -0.0392204 -0.0344559 -0.0266588 -0.0346235 -0.0122047 -0.045511
internal_weight=50713 27352 8794 23361 8679 18558 7468 2405 5440 11493 3989 1385 7806 5840 1451 14682 7386 1152 888 2090 3354 1022 1625 1966 6234 5063 2969 1899 1397 2094
internal_count=50713 27352 8794 23361 8679 18558 7468 2405 5440 11493 3989 1385 7806 5840 1451 14682 7386 1152 888 2090 3354 1022 1625 1966 6234 5063 2969 1899 1397 2094
is_linear=0
shrinkage=0.05


Tree=17
num_leaves=31
num_cat=0
split_feature=18 104 116 106 104 104 84 24 24 68 116 17 99 72 51 110 66 24 70 68 99 24 66 105 76 76 36 98 18 101
split_gain=17418.7 2675.83 1101.6 1046.48 798.325 604.903 712.995 504.671 490.399 549.665 476.093 386.288 359.974 315.058 258.902 253.821 237.605 429.532 283.489 237.36 227.414 290.359 197.418 181.898 178.467 171.97 168.692 164.812 207.88 153.468
threshold=18.432499885559086 -0.39350080490112299 18.219643592834476 41.411499023437507 -0.79799985885620106 -0.92914295196533192 136.14949798583987 13.070499897003176 12.428500175476076 0.42172527313232427 14.731357097625734 1.8264999985694887 14.431499958038332 1.0597772002220156 128.19297027587893 1.9801756143569949 0.15151970833539966 19.795499801635746 0.47753646969795233 0.30068315565586096 23.445499420166019 25.782000541687015 0.35483485460281378 50.276000976562507 -0.78530952334403981 0.1305249631404877 35.844499588012702 13.856500148773195 15.251500129699709 1.761998236179352
decision_type=2 2 2 2 2 2 2 2 2 2 2 2 2 2 2 2 2 2 2 2 2 2 2 2 2 2 2 2 2 2
left_child=1 5 8 -2 -5 -1 12 19 9 -3 23 26 -7 24 -11 29 -12 18 -18 -4 -19 -22 -23 -6 -13 -26 -9 28 -10 -8
right_child=3 2 7 4 10 6 15 11 27 14 16 13 -14 -15 -16 -17 17 20 -20 -21 21 22 -24 -25 25 -27 -28 -29 -30 -31
leaf_value=0.061215961485185488 0.52092969212207074 -0.050393189767310713 -0.023611530225239985 0.080871173921693365 -0.0095333344168984993 0.0085671699743015139 -0.00088053651666708532 -0.068731463613023722 -0.048978880577392303 -0.0089656635721988565 0.0462915833244395 -0.018771559396144478 -0.016585957143288966 -0.057815146052832847 0.0084200000343425795 -0.0085841739810844867 -0.03159958589786447 -0.010592145126766718 0.13471245063405821 0.025114983105674019 0.21785028817516461 0.031106466766246222 -0.042411290926338552 0.011889040863350964 0.033215248718039624 -0.0082990703942954266 0.049627347790164048 -0.11005891422061431 -0.0033644626772353805 0.021783461527301286
leaf_weight=827 8469 2615 181 4488 1176 460 399 2429 1183 785 3307 574 1827 1129 730 442 180 1565 1108 644 672 570 386 310 716 531 108 10777 653 1525
leaf_count=827 8469 2615 181 4488 1176 460 399 2429 1183 785 3307 574 1827 1129 730 442 180 1565 1108 644 672 570 386 310 716 531 108 10777 653 1525
internal_value=8.47024e-05 -0.0257666 -0.0332314 0.0332666 0.0247566 0.00563869 -0.00136471 -0.0154309 -0.0399421 -0.0249879 0.0163791 -0.0209131 -0.0212724 -0.00861017 -0.0010231 0.0178783 0.0213277 0.013825 0.0381988 0.0210303 0.00399311 0.0170762 -0.000627615 -0.00955585 0.0042559 0.0148757 -0.0352188 -0.0448387 -0.0309913 0.0257277
internal_weight=50766 28535 23055 22231 13762 5480 4653 6312 16743 4130 9274 5487 2287 2950 1515 2366 7788 4481 1288 825 3193 1628 956 1486 1821 1247 2537 12613 1836 1924
internal_count=50766 28535 23055 22231 13762 5480 4653 6312 16743 4130 9274 5487 2287 2950 1515 2366 7788 4481 1288 825 3193 1628 956 1486 1821 1247 2537 12613 1836 1924
is_linear=0
shrinkage=0.05


Tree=18
num_leaves=31
num_cat=0
split_feature=95 104 85 104 101 53 24 36 8 104 85 70 104 102 106 14 95 24 68 68 68 19 25 70 27 8 68 101 16 19
split_gain=15638.6 3260.54 1397.81 1254.81 795.083 651.186 886.807 560.609 657.985 516.001 402.364 387.003 383.546 374.702 370.153 345.432 296.694 264.551 260.357 255.739 241.128 223.166 180.095 145.883 145.026 194.434 229.883 123.166 118.773 117.605
threshold=2.3250001668930058 -0.31671428680419916 574.48400878906261 -0.81678581237792958 2.1928601264953618 163.74478149414065 13.070499897003176 35.844499588012702 483.44000244140631 0.75385618209838878 183.13050079345706 0.64806091785430919 0.35657119750976568 15.729071617126467 45.875999450683601 2.8285000324249272 1.7208571434020998 11.147500038146974 0.51974955201148998 0.60406136512756359 0.21303239464759829 13.397500038146974 16.246500015258793 0.53390851616859447 39.092500686645515 663.86648559570324 0.58184966444969188 3.1085915565490727 3.6605000495910649 15.848499774932863
decision_type=2 2 2 2 2 2 2 2 2 2 2 2 2 2 2 2 2 2 2 2 2 2 2 2 2 2 2 2 2 2
left_child=1 4 3 -2 10 17 11 9 -9 15 -1 -7 13 -8 27 -5 29 18 -3 -10 -17 -18 -15 -24 -4 -26 -27 -6 -22 -16
right_child=2 5 24 7 14 6 12 8 19 -11 -12 -13 -14 22 16 20 21 -19 -20 -21 28 -23 23 -25 25 26 -28 -29 -30 -31
leaf_value=-0.019472690870132814 0.078671870778634911 -0.029388673807367385 0.64143319530893594 0.022804523694591874 -0.023535735350425569 -0.020911522977679644 -0.045503326511612041 0.14348425739537768 0.030178261196071435 -0.052669658996125794 0.0072841341301594477 0.015094117871666769 -0.092512555985329217 0.024000284920749949 -0.018808734216066103 0.013622489706121144 -0.012023453499019343 -0.093596514042283113 0.00083289147414058464 -0.042087336739140294 -0.015380233762875051 0.030575338732993097 0.0038268138905197093 -0.046159690214350138 0.23083782749333626 0.087133173183691792 -0.017193524366466307 7.7658012965819981e-05 0.00030575193410689041 0.0033392404727800697
leaf_weight=1744 4581 992 6504 1887 264 632 1669 1971 1338 1105 766 1001 3478 423 242 877 146 10972 608 624 979 2573 527 383 1583 795 383 599 582 592
leaf_count=1744 4581 992 6504 1887 264 632 1669 1971 1338 1105 766 1001 3478 423 242 877 146 10972 608 624 979 2573 527 383 1583 795 383 599 582 592
internal_value=-0.000120031 -0.0255496 0.0301327 0.0201305 0.00414381 -0.0354919 -0.0244484 0.009639 0.0240147 -0.000773481 -0.0183267 0.00848132 -0.0327469 -0.0196536 0.0169158 0.00701734 0.0240501 -0.0426185 -0.023625 0.00351682 -0.00541427 0.0320522 0.000112528 -0.0124176 0.0451862 0.0355849 0.0202037 -0.0124565 -0.0172005 -0.00203837
internal_weight=50820 27611 23209 13944 6926 20685 8113 9363 3933 5430 2510 1633 6480 3002 4416 4325 3553 12572 1600 1962 2438 2719 1333 910 9265 2761 1178 863 1561 834
internal_count=50820 27611 23209 13944 6926 20685 8113 9363 3933 5430 2510 1633 6480 3002 4416 4325 3553 12572 1600 1962 2438 2719 1333 910 9265 2761 1178 863 1561 834
is_linear=0
shrinkage=0.05


Tree=19
num_leaves=31
num_cat=0
split_feature=18 109 98 17 18 18 23 66 104 76 76 114 66 98 66 51 116 104 18 106 23 17 70 36 18 104 114 24 66 70
split_gain=16444.9 2373.48 1120.87 1022.82 1106.06 854.522 724.216 1016.1 544.628 457.017 520.291 407.787 327.285 293.62 290.867 288.624 258.033 257.827 243.233 225.635 207.669 192.39 183.092 179.515 172.632 135.548 130.733 130.317 129.631 127.087
threshold=16.397500038146976 47.918071746826179 14.240499973297121 1.6104999780654909 13.256499767303469 33.868499755859382 16.814499855041507 0.12640323489904406 -0.87421417236328114 0.052335681393742568 -0.6293143332004546 16.00807094573975 0.34457139670848852 16.698499679565433 0.19597080349922183 110.26109695434572 10.403357505798342 -0.96314334869384755 20.863500595092777 48.665500640869148 15.349500179290773 3.2975000143051152 0.3088729083538056 37.561500549316413 19.299499511718754 0.93264245986938488 12.828143596649172 10.756999969482424 0.1094232350587845 1.1196388006210329
decision_type=2 2 2 2 2 2 2 2 2 2 2 2 2 2 2 2 2 2 2 2 2 2 2 2 2 2 2 2 2 2
left_child=3 5 16 27 -5 8 7 19 -2 10 12 18 -10 -13 21 -9 17 -3 -4 22 -15 -11 26 25 -22 -12 -6 29 -8 -1
right_child=1 2 11 4 6 -7 28 15 9 14 23 13 -14 20 -16 -17 -18 -19 -20 -21 24 -23 -24 -25 -26 -27 -28 -29 -30 -31
leaf_value=-0.021252834383448785 0.097787448005389965 0.05682687320247766 -0.023504254320127996 -0.073119038714223011 -0.0050815309538186255 0.5961115660610673 -0.0078861235234937155 -0.0029388476490081143 0.019232415816464333 -0.010389561312939756 0.045831007704992648 0.014477062137250486 -0.04747698590314009 0.01842321194506269 -0.015692632957004626 0.017279766460970691 0.025019260446341108 -0.0052987587633944074 0.0099768017243215823 -0.024738309084803324 -0.041541309509590008 0.025570278882794728 -0.027078768758633312 0.16374442696544947 0.0097646570585319566 -0.036840670475988449 0.015930199384649592 -0.10318910469573482 -0.07348522460954561 0.0010186724881036113
leaf_weight=476 3240 255 1970 4427 287 6675 482 724 1819 373 911 1363 493 263 1263 2027 2722 752 309 1744 1041 1424 361 3693 360 144 373 9305 1273 271
leaf_count=476 3240 255 1970 4427 287 6675 482 724 1819 373 911 1363 493 263 1263 2027 2722 752 309 1744 1041 1424 361 3693 360 144 373 9305 1273 271
internal_value=-7.87092e-05 0.0245236 0.00324848 -0.0329609 -0.0229099 0.0341178 -0.0109132 -0.00201233 0.0268189 0.0211067 0.028102 -0.0115153 0.00865052 0.000512058 0.00496732 0.019502 0.0242558 0.00263158 -0.0274901 -0.0234177 -0.0135817 0.0178909 -0.00475024 0.0375737 -0.0212348 0.0193839 0.0109091 -0.0446578 -0.0388889 -0.0245649
internal_weight=50820 29070 9035 21750 11698 20035 7271 5516 13360 10120 7060 5306 2312 3027 3060 2751 3729 1007 2279 2765 1664 1797 1021 4748 1401 1055 660 10052 1755 747
internal_count=50820 29070 9035 21750 11698 20035 7271 5516 13360 10120 7060 5306 2312 3027 3060 2751 3729 1007 2279 2765 1664 1797 1021 4748 1401 1055 660 10052 1755 747
is_linear=0
shrinkage=0.05


Tree=20
num_leaves=31
num_cat=0
split_feature=18 18 98 18 116 22 17 104 18 23 76 76 104 66 51 66 66 17 98 23 23 66 0 84 107 36 116 72 106 23
split_gain=15408.9 2738.96 1496.02 1048.33 736.863 666.491 638.675 635.949 606.133 633.925 508.223 639.709 444.99 389.9 339.208 337.902 277.237 238.823 228.393 225.208 214.64 460.396 197.972 172.136 154.308 146.242 139.49 128.223 124.199 122.794
threshold=18.553999900817875 15.44749975204468 12.306499958038332 34.788000106811531 15.430357933044435 16.592499732971195 1.6744999885559084 -0.87421417236328114 12.766499996185305 12.764500141143801 -0.01963366940617561 -0.59831893444061268 -0.19600152969360349 0.30669927597045904 96.963066101074233 0.14414614439010623 0.26168896257877355 3.3765000104904179 13.815499782562258 13.90049982070923 15.925499916076662 0.10700519382953645 388.14849853515631 104.29050064086915 49.517282485961921 37.561500549316413 11.821000099182131 0.96340247988700878 48.456501007080085 19.733499526977543
decision_type=2 2 2 2 2 2 2 2 2 2 2 2 2 2 2 2 2 2 2 2 2 2 2 2 2 2 2 2 2 2
left_child=1 6 -3 7 18 15 -1 -2 -8 14 11 16 -7 17 -10 -6 -9 27 23 26 21 28 -14 -4 -23 -13 -20 -12 -11 -18
right_child=3 2 4 -5 5 12 8 10 9 20 13 25 22 -15 -16 -17 29 -19 19 -21 -22 24 -24 -25 -26 -27 -28 -29 -30 -31
leaf_value=-0.10046746650865629 0.087547753829359115 0.028490103903120279 -0.010438393198759055 0.6009060548966858 0.00086026075064973286 0.0053576434546574354 -0.077884553202537496 0.021581526769581496 -0.012649511003382586 -0.0081470697335273463 -0.0039816656642955193 0.038944402172942288 -0.050322709636318665 -0.026463681200775649 0.012968149176064259 0.037833706868303278 0.11600136446504 0.034748754202497172 -0.016694751402618113 -0.041765596212295988 -0.066995032413063885 0.010320426312772924 -0.00045853884806863477 0.0010107717644475046 -0.013814772327082548 0.16750140931349985 0.0047913913891874495 0.016678824713098808 -0.034306839672657845 -0.02022516817045901
leaf_weight=9044 3813 1893 538 6294 1040 1131 3116 2249 437 485 1395 714 1655 859 1042 1019 82 1565 278 2243 1291 749 509 787 150 3458 308 525 1258 889
leaf_count=9044 3813 1893 538 6294 1040 1131 3116 2249 437 485 1395 714 1655 859 1042 1019 82 1565 278 2243 1291 749 509 787 150 3458 308 525 1258 889
internal_value=-8.65869e-05 -0.023993 -0.00490746 0.0316234 -0.0129891 -0.000728427 -0.0363761 0.0246543 -0.0265596 -0.0164449 0.0188906 0.0268669 -0.0146737 0.00531768 0.0114604 0.0215881 0.0101242 0.0127547 -0.0287915 -0.0368151 -0.0269387 -0.0187737 -0.0279575 -0.0116604 0.0102892 0.0397891 -0.00921502 0.0009375 -0.0337636 -0.0122039
internal_weight=50816 28973 11401 21843 9508 5354 17572 15549 8528 5412 11736 7392 3295 4344 1479 2059 3220 3485 4154 2829 3933 2642 2164 1325 899 4172 586 1920 1743 971
internal_count=50816 28973 11401 21843 9508 5354 17572 15549 8528 5412 11736 7392 3295 4344 1479 2059 3220 3485 4154 2829 3933 2642 2164 1325 899 4172 586 1920 1743 971
is_linear=0
shrinkage=0.05


Tree=21
num_leaves=31
num_cat=0
split_feature=18 18 105 35 18 18 24 22 66 104 66 6 23 66 76 76 66 98 84 109 66 18 106 102 26 24 68 106 70 66
split_gain=14644.3 2469.43 1349.91 944.404 972.346 785.769 723.109 646.787 433.777 411.16 390.852 377.752 376.616 485.279 336.273 569.474 359.685 324.23 385.73 290.021 260.174 214.903 214.654 203.146 183.394 135.223 132.946 128.232 122.794 122.658
threshold=16.300499916076664 19.518499374389652 49.877498626708991 49.694499969482429 13.028500080108644 35.268499374389656 12.92449998855591 17.402999877929691 0.16790606081485751 -0.87421417236328114 0.17274130135774615 98.563999176025405 16.76149940490723 0.10700519382953645 -0.045798873528838151 -0.58777976036071766 0.30258406698703771 12.55550003051758 129.02649688720706 49.242074966430671 0.22765275835990909 14.193500041961672 48.456501007080085 16.713928222656254 11.568500041961672 11.032499790191652 0.51183390617370617 48.136501312255866 0.16617137193679812 0.13071639835834506
decision_type=2 2 2 2 2 2 2 2 2 2 2 2 2 2 2 2 2 2 2 2 2 2 2 2 2 2 2 2 2 2
left_child=3 2 7 4 -1 9 11 8 24 -3 23 26 13 22 15 20 -16 -4 -19 21 -11 -15 28 -9 -2 -5 -6 -25 -8 -14
right_child=1 5 17 25 6 -7 12 10 -10 14 -12 -13 29 19 16 -17 -18 18 -20 -21 -22 -23 -24 27 -26 -27 -28 -29 -30 -31
leaf_value=-0.072824423794025164 -0.02176639518430248 0.089464571092748191 0.04375495237240852 -0.011545026937806747 -0.020565465394516827 0.58821075825536706 0.0079220090556683335 -0.0093255797407010739 0.041894955988551974 0.030563082594011883 -0.042073555429892377 0.01504743016064234 -0.0094931497021644162 -0.0064441401919651756 0.019838789903932064 0.14918359166189976 -0.025430013887499749 -0.0072254785222344966 0.016706130702201793 -0.024705444608010742 -0.013331229266037071 0.019297794513611424 -0.025469033828419141 0.015345046022379806 0.0034718632897405401 -0.10045656160131866 0.00401033071397281 -0.015470228587286174 -0.012324555599577814 -0.080059608556854747
leaf_weight=4279 464 3072 1925 770 340 6097 327 1248 838 1527 2002 1178 561 464 2518 3831 756 606 1360 416 991 947 1824 733 1053 8123 202 379 569 1257
leaf_count=4279 464 3072 1925 770 340 6097 327 1248 838 1527 2002 1178 561 464 2518 3831 756 606 1360 416 991 947 1824 733 1053 8123 202 379 569 1257
internal_value=-8.88327e-06 0.0228503 0.00356335 -0.0316249 -0.0226868 0.0337378 -0.0124861 -0.0100119 0.011104 0.0266522 -0.0214122 0.0162791 -0.0202592 -0.0125687 0.0215681 0.02828 0.00855223 0.0269982 0.0127162 0.0073618 0.00980937 0.0181786 -0.0259559 -0.00762712 -0.00484509 -0.0440515 -0.0182657 0.00791367 -0.00591518 -0.0394939
internal_weight=50657 29400 10608 21257 12364 18792 8085 6717 2355 12695 4362 1720 6365 4547 9623 6349 3274 3891 1966 1827 2518 1411 2720 2360 1517 8893 542 1112 896 1818
internal_count=50657 29400 10608 21257 12364 18792 8085 6717 2355 12695 4362 1720 6365 4547 9623 6349 3274 3891 1966 1827 2518 1411 2720 2360 1517 8893 542 1112 896 1818
is_linear=0
shrinkage=0.05


Tree=22
num_leaves=31
num_cat=0
split_feature=95 104 85 104 84 14 66 19 104 104 116 85 101 102 65 101 85 105 76 76 66 105 103 16 8 104 84 86 99 106
split_gain=13003.2 2822.47 1415.98 979.221 827.229 650.441 1310.25 578.493 563.098 540.437 467.784 412.603 379.103 330.689 322.283 307.374 277.775 188.068 186.88 331.646 232.618 198.421 169.088 167.85 152.237 150.686 135.464 135.113 146.915 134.529
threshold=2.338571429252625 -0.24878501892089841 640.52099609375011 -0.91785764694213856 135.17300415039065 1.3525000214576723 0.19597080349922183 11.843500137329103 0.77928590774536144 -0.9513573646545409 13.782356739044191 290.53599548339849 2.150640726089478 20.709642410278324 15.152833461761476 2.4228541851043706 117.47000122070314 50.239500045776374 0.052335681393742568 -0.7071000039577483 0.32047533988952642 49.424499511718757 1.8463037610054018 0.86849999427795421 613.10601806640636 0.33242940902709966 486.79550170898443 220.95599365234378 14.897500038146974 45.875999450683601
decision_type=2 2 2 2 2 2 2 2 2 2 2 2 2 2 2 2 2 2 2 2 2 2 2 2 2 2 2 2 2 2
left_child=1 4 3 -2 9 6 14 -8 10 -1 22 -7 27 -10 -3 -11 -9 -17 19 21 -20 -12 -5 -16 26 -13 -15 28 -6 -14
right_child=2 5 -4 8 12 11 7 16 13 15 18 25 29 24 23 17 -18 -19 20 -21 -22 -23 -24 -25 -26 -27 -28 -29 -30 -31
leaf_value=0.04442646514805651 0.084976177090183042 -0.0642070743100744 0.45090017304035257 0.011575405901047464 0.010138427183003529 -0.0813345487572395 -0.031166495458094447 -0.0034133440152825049 -0.049383959477145738 -0.020334673772428591 -0.0039941323988698764 0.0047720205940631651 0.0014841693866514127 -0.010583908979424806 -0.018499159575505564 -0.0066345327730142683 0.013805564997915454 0.0071976764696346507 0.019338744476205341 0.089627806291774095 -0.027978688733788462 0.021917385851098193 -0.0079722513763543119 0.010029978840160681 -0.028361564143699704 -0.047665529115861242 0.10491779698031022 0.021009281633307356 -0.00738424614081481 0.025128478849566704
leaf_weight=394 3429 4227 7459 326 245 10811 558 646 1006 1758 1032 623 440 270 462 1258 1540 567 2088 3932 491 636 936 322 439 534 504 456 1105 2175
leaf_count=394 3429 4227 7459 326 245 10811 558 646 1006 1758 1032 623 440 270 462 1258 1540 567 2088 3932 491 636 936 322 439 534 504 456 1105 2175
internal_value=-2.26963e-05 -0.0227037 0.0282641 0.0194546 0.0015718 -0.0330401 -0.0217602 0.00601312 0.0125472 -0.0149736 0.0178742 -0.0403493 0.0164556 -0.0101172 -0.0369687 -0.0210857 0.0176121 -0.00671233 0.022246 0.027375 0.011109 0.00869305 -0.0104596 -0.00752551 0.00746084 -0.0119706 0.020801 -0.00116279 -0.00911111 0.0286233
internal_weight=50669 28121 22548 15089 8398 19723 7755 2744 11660 3977 9441 11968 4421 2219 5011 3583 2186 1825 8179 5600 2579 1668 1262 784 1213 1157 774 1806 1350 2615
internal_count=50669 28121 22548 15089 8398 19723 7755 2744 11660 3977 9441 11968 4421 2219 5011 3583 2186 1825 8179 5600 2579 1668 1262 784 1213 1157 774 1806 1350 2615
is_linear=0
shrinkage=0.05


Tree=23
num_leaves=31
num_cat=0
split_feature=18 18 22 18 18 22 68 104 105 68 42 98 106 76 76 23 68 16 68 31 51 116 102 95 35 104 88 84 68 68
split_gain=13222.7 2146.4 1422.63 1077.23 978.786 891.378 593.556 511.553 474.871 421.061 395.279 390.768 346.061 345.505 603.162 331.459 478.029 317.076 289.714 249.185 249.002 217.734 196.821 183.019 171.757 166.384 164.777 155.556 153.475 144.19
threshold=16.397500038146976 18.983499526977543 17.402999877929691 14.193500041961672 36.158000946044929 15.298500061035158 0.22800096869468692 -0.94092845916748036 49.663499832153327 0.18869594484567645 10.084499835968019 14.093500137329103 49.527500152587898 -0.01963366940617561 -0.58777976036071766 12.292500019073488 0.32021398842334753 1.7904999852180483 0.4053021520376206 45.94850158691407 147.72696685791018 35.237571716308601 17.123571395874027 1.7077857255935671 45.806499481201179 -0.22778224945068357 122.70306777954103 105.42100143432619 0.40174545347690588 0.56083971261978161
decision_type=2 2 2 2 2 2 2 2 2 2 2 2 2 2 2 2 2 2 2 2 2 2 2 2 2 2 2 2 2 2
left_child=3 2 9 15 7 6 17 -3 21 12 -8 26 -2 14 19 16 -1 -5 24 28 29 -4 -10 -11 -15 -21 -7 -19 -9 -18
right_child=1 4 8 5 -6 11 10 13 22 23 -12 -13 -14 18 -16 -17 20 27 -20 25 -22 -23 -24 -25 -26 -27 -28 -29 -30 -31
leaf_value=-0.06755466721993067 0.010058367082266706 0.089658596240393698 -0.026952553897621991 -0.028680950834451394 0.57958015904775884 -0.010371565053764976 -0.0067646233854484986 0.010050819077813244 -0.0019045200968090372 0.0016646788549953941 0.012797609380237773 -0.064263095057879083 -0.017047174873713943 0.037472881622174728 0.1330244565559493 -0.08906072075512067 -0.017465222448690022 -0.013510757679353658 -0.012709008241039222 0.042012790413296489 0.010808067781007581 0.0072540405042063943 0.023778676445740034 0.042620401393624441 0.0030299872494879312 0.0023352628679497835 0.003193303724190244 0.0089505911833539283 -0.019315101393734581 0.0059603776397993084
leaf_weight=1917 767 2812 2747 1337 5670 577 730 1152 1147 408 1854 3510 548 1407 4359 8745 826 210 1275 789 531 411 395 2185 1487 416 664 600 871 218
leaf_count=1917 767 2812 2747 1337 5670 577 730 1152 1147 408 1854 3510 548 1407 4359 8745 826 210 1275 789 531 411 395 2185 1487 416 664 600 871 218
internal_value=-9.98715e-05 0.0220863 0.00117333 -0.0295663 0.0309813 -0.0169163 -0.00155358 0.0241214 -0.0173617 0.0234647 0.0145898 -0.0322143 0.000418251 0.019539 0.025893 -0.0393683 -0.0263459 -0.0209828 0.00797553 0.00951053 -0.00593651 -0.0284674 0.00538262 0.0351523 0.0167243 0.0275104 -0.00809831 0.0037037 -0.00121107 -0.0201149
internal_weight=50565 28846 8608 21719 20238 9482 4731 14568 4700 3908 2584 4751 1315 11756 7587 12237 3492 2147 4169 3228 1575 3158 1542 2593 2894 1205 1241 810 2023 1044
internal_count=50565 28846 8608 21719 20238 9482 4731 14568 4700 3908 2584 4751 1315 11756 7587 12237 3492 2147 4169 3228 1575 3158 1542 2593 2894 1205 1241 810 2023 1044
is_linear=0
shrinkage=0.05


Tree=24
num_leaves=31
num_cat=0
split_feature=18 109 18 17 18 98 24 104 116 72 113 98 6 23 36 8 66 18 91 23 66 18 98 24 66 18 68 66 104 84
split_gain=12726.1 2239.94 975.681 974.327 857.249 856.721 621.027 583.299 499.831 427.749 387.475 366.909 339.602 306.013 298.486 561.813 577.557 292.434 269.082 298.747 202.793 197.586 194.163 187.91 179.244 173.282 159.917 157.746 142.828 181.848
threshold=16.158500671386722 47.918071746826179 36.158000946044929 1.6205000281333926 12.766499996185305 13.437500000000002 12.815499782562258 -0.84257221221923817 13.297642707824709 1.0998455882072451 17.441499710083011 15.416500091552736 96.262500762939467 15.086500167846681 36.962501525878913 544.39700317382824 0.24437357485294345 18.371500015258793 1.7904999852180483 17.228500366210941 0.19597080349922183 20.758500099182132 12.099500179290773 11.032499790191652 0.12351743131875993 18.736499786376957 0.52706289291381847 0.46950317919254309 -0.97585630416870106 132.05649566650393
decision_type=2 2 2 2 2 2 2 2 2 2 2 2 2 2 2 2 2 2 2 2 2 2 2 2 2 2 2 2 2 2
left_child=3 2 7 23 -5 20 12 -2 21 10 22 -10 -6 -13 18 -16 -17 -15 25 -20 28 -7 -8 26 -21 -9 -1 -18 -3 -30
right_child=1 5 -4 4 6 8 9 14 11 -11 -12 13 -14 17 15 16 27 -19 19 24 -22 -23 -24 -25 -26 -27 -28 -29 29 -31
leaf_value=-0.016391026599247072 0.077576910877440147 0.030920288354383454 0.55207619916055639 -0.065141338449059921 -0.0069870470005767519 -0.018653619032481219 4.996230410458935e-05 0.00085556070488248539 0.010458678816418755 -0.049303543482652312 0.0058121534902964463 0.013103224644279 0.01414838185624916 -0.03382910631986915 0.13677129136658336 0.061934623637120018 0.00097566458683999717 0.0013894333345655597 0.032832302007307849 0.0092812346434989479 0.045972136958044633 0.0078401519449593955 -0.019505072474530039 -0.085827992944986511 -0.024361079318632052 0.03078922285712711 0.003378600187152081 -0.069726444843510302 -0.0028391981031095528 0.012070667217544262
leaf_weight=620 3722 383 5673 3411 471 1846 783 682 1711 1563 1631 542 1087 1472 3127 1921 1198 1177 509 675 1089 297 2069 8881 1174 928 269 576 771 512
leaf_count=620 3722 383 5673 3411 471 1846 783 682 1711 1563 1631 542 1087 1472 3127 1921 1198 1177 509 675 1089 297 2069 8881 1174 928 269 576 771 512
internal_value=-9.65137e-05 0.0207454 0.0302675 -0.0301636 -0.0199682 0.00113265 -0.010626 0.0233944 -0.00811214 -0.0178796 -0.0100268 0.000693594 0.0175225 -0.0093231 0.017507 0.0238493 0.0106495 -0.0163269 0.00660282 -0.00415606 0.0247731 -0.0282548 -0.0211431 -0.0416581 -0.0134938 0.0223602 -0.0197413 -0.00992108 0.0138055 0.0058067
internal_weight=50770 29985 20185 20785 11015 9800 7604 14512 7045 6046 4483 4902 1558 3191 10790 6822 3695 2649 3968 2358 2755 2143 2852 9770 1849 1610 889 1774 1666 1283
internal_count=50770 29985 20185 20785 11015 9800 7604 14512 7045 6046 4483 4902 1558 3191 10790 6822 3695 2649 3968 2358 2755 2143 2852 9770 1849 1610 889 1774 1666 1283
is_linear=0
shrinkage=0.05


Tree=25
num_leaves=31
num_cat=0
split_feature=18 18 105 27 22 104 17 51 25 102 113 76 76 66 72 113 98 101 66 104 86 35 84 95 101 23 66 16 113 75
split_gain=11937.2 2537.19 1219.36 1080.94 697.78 567.904 566.203 550.966 550.869 484.682 436.474 352.061 585.193 403.248 318.712 370.835 283.112 278.928 268.665 221.769 220.088 202.465 199.353 174.718 163.168 153.687 152.346 152.286 150.692 147.483
threshold=18.675499916076664 15.123499870300295 50.392499923706062 37.668498992919929 15.709499835968019 -0.97585630416870106 1.5454999804496767 141.6542663574219 13.570499897003176 16.811356544494632 11.1564998626709 -0.045798873528838151 -0.56640076637268055 0.30258406698703771 0.81801879405975353 18.617500305175785 14.652500152587892 2.5309402942657475 0.29650312662124639 0.92221164703369152 131.63844299316409 45.806499481201179 108.88199996948244 2.2864285707473759 2.6350251436233525 19.163499832153324 0.074392352253198638 1.8815000057220461 43.636501312255866 -0.60875576734542836
decision_type=2 2 2 2 2 2 2 2 2 2 2 2 2 2 2 2 2 2 2 2 2 2 2 2 2 2 2 2 2 2
left_child=1 6 4 -2 7 -5 -1 -3 10 16 -8 12 18 21 15 27 20 22 -7 25 -6 -13 -4 -23 -12 -11 -9 -10 -14 -20
right_child=3 2 17 5 9 11 8 26 14 19 24 13 28 -15 -16 -17 -18 -19 29 -21 -22 23 -24 -25 -26 -27 -28 -29 -30 -31
leaf_value=-0.090215668156445439 0.52977233884852459 -0.0088461977564780799 -0.0055900999783973226 0.085107849333490304 -0.010202349121525334 0.017836349202409618 -0.016499026893960347 -0.0026966076601958378 -0.043656634090348638 0.017244853799346593 0.012628698967237995 0.030968412960077442 0.049900957290258501 -0.024978142278478367 -0.082778274582791148 0.0037124110103395227 -0.04043255002255091 0.029243500406546552 0.12447292919655002 -0.055844092802437656 0.0031694545115255935 0.011456023977581964 0.0070176020955281977 -0.004152108252980913 -0.013195254595175588 -0.009613626683130861 0.019116812496046978 -0.0080521736481853796 0.15930905059511311 -0.028885946003633478
leaf_weight=6991 5604 1008 482 2641 890 3000 1113 293 1734 1217 865 1888 1293 947 3249 889 3434 1577 97 458 645 857 1209 1252 203 761 1267 1084 3006 793
leaf_count=6991 5604 1008 482 2641 890 3000 1113 293 1734 1217 865 1888 1293 947 3249 889 3434 1577 97 458 645 857 1209 1252 203 761 1267 1084 3006 793
internal_value=-3.44848e-05 -0.0207242 -0.00450495 0.028389 -0.0131906 0.0216876 -0.0340402 0.00926791 -0.0258455 -0.0209791 -0.00392022 0.0174332 0.0237941 0.00689725 -0.03272 -0.0227003 -0.0299356 0.0220012 0.00974293 -0.00270936 -0.0120847 0.0138479 0.00789474 0.00320057 0.0189139 0.00455005 0.0278846 -0.0315827 0.0365085 -0.014382
internal_weight=50747 29369 13241 21378 9973 15774 16128 2568 9137 7405 2181 13133 8189 4944 6956 3707 4969 3268 3890 2436 1535 3997 1691 2109 1068 1978 1560 2818 4299 890
internal_count=50747 29369 13241 21378 9973 15774 16128 2568 9137 7405 2181 13133 8189 4944 6956 3707 4969 3268 3890 2436 1535 3997 1691 2109 1068 1978 1560 2818 4299 890
is_linear=0
shrinkage=0.05


Tree=26
num_leaves=31
num_cat=0
split_feature=18 18 27 98 116 23 66 104 66 76 76 66 92 23 66 86 23 66 35 22 104 17 26 105 104 76 9 109 0 72
split_gain=11295.4 2254.36 1172.43 1118.11 890.99 866.234 668.921 617.601 447.515 412.335 633.4 413.299 403.473 391.685 558.826 332.878 324.665 298.827 267.575 245.28 232.446 207.462 192.501 178.686 176.449 162.681 157.663 143.152 132.338 173.288
threshold=18.432499885559086 14.345499992370607 36.468500137329109 12.675499916076662 12.310643196105959 14.737500190734865 0.13355065137147906 -1.0015001296997068 0.086938034743070616 -0.0065448414534330359 -0.57713967561721791 0.30258406698703771 2.2344999313354497 11.843500137329103 0.22930087149143222 91.165718078613295 16.057499885559086 0.34213042259216314 49.428501129150398 10.458499908447267 -0.44271421432495112 3.2975000143051152 14.637499809265138 49.939498901367195 -0.98807239532470692 -0.81663373112678517 1.4254999756813052 47.918071746826179 165.31300354003909 0.68931370973587047
decision_type=2 2 2 2 2 2 2 2 2 2 2 2 2 2 2 2 2 2 2 2 2 2 2 2 2 2 2 2 2 2
left_child=1 13 -2 15 -5 8 12 -4 -6 10 17 21 -7 14 -1 24 18 23 -8 -16 -15 -11 -12 25 -3 -9 -21 -18 -22 -30
right_child=2 3 7 4 5 6 16 9 -10 11 22 -13 -14 20 19 -17 27 -19 -20 26 28 -23 -24 -25 -26 -27 -28 -29 29 -31
leaf_value=-0.052749993595257255 0.58678363035336401 0.035377786820002123 0.087044821357628532 -0.024555180857311856 -0.0088641620169998877 -0.008654015122402825 0.041523525437981768 -0.004184588344233387 0.014468243863752407 0.0010824531629602065 -0.0054002153589983951 -0.025097158112381737 0.0095347409653856029 -0.0027003909989697485 -0.021317596751244852 0.017760855311520451 -0.020736927571971365 -0.036368845208835945 -0.068984077495770721 0.011586141236503568 -0.085038429779199468 0.027246947920888512 0.12631454867065042 0.030943223365177987 -0.0062153408170994243 0.029474280522603105 -0.0029609534678741948 -0.058548984872847765 -0.022715078366306509 -0.092124794318600822
leaf_weight=1484 4819 148 2583 3412 626 2193 264 1040 1877 2322 303 1016 1397 484 316 2096 786 685 181 576 6313 2129 4830 701 615 1734 440 2119 1311 1962
leaf_count=1484 4819 148 2583 3412 626 2193 264 1040 1877 2322 303 1016 1397 484 316 2096 786 685 181 576 6313 2129 4830 701 615 1734 440 2119 1311 1962
internal_value=0.000248217 -0.020514 0.0270418 -0.00780196 -0.0140918 -0.00617918 -0.0152738 0.0209796 0.0190372 0.0170325 0.0234424 0.00613682 -0.000278552 -0.0360158 -0.0195312 0.0204792 -0.0313433 0.00894231 0.00842697 0.00397898 -0.0406256 0.012705 0.0351938 0.0148921 -0.00779817 0.0091925 0.0159449 -0.0374355 -0.0423326 -0.0341735
internal_weight=50762 28600 22162 15714 12855 9443 6940 17343 2503 14760 9293 5467 3590 12886 2816 2859 3350 4160 445 1332 10070 4451 5133 3475 763 2774 1016 2905 9586 3273
internal_count=50762 28600 22162 15714 12855 9443 6940 17343 2503 14760 9293 5467 3590 12886 2816 2859 3350 4160 445 1332 10070 4451 5133 3475 763 2774 1016 2905 9586 3273
is_linear=0
shrinkage=0.05


Tree=27
num_leaves=31
num_cat=0
split_feature=18 85 104 35 18 84 24 104 96 23 43 84 23 44 18 42 68 98 85 66 9 44 66 23 15 104 66 104 56 18
split_gain=10591.7 1999.63 1366.98 1021.91 983.676 876.899 753.933 513.049 606.677 416.24 498.854 415.388 620.963 409.461 321.47 301.568 298.829 286.507 265.428 221.117 217.919 197.155 236.09 173.662 188.812 180.966 172.718 164.846 147.694 133.669
threshold=16.2504997253418 646.57849121093761 -0.94092845916748036 49.850500106811531 12.496500015258791 136.14949798583987 12.600500106811525 -0.2069292068481445 0.98585510253906261 16.648500442504886 13.187500000000002 388.18299865722662 16.253499984741214 48.164999008178718 14.792500019073488 7.3585000038146982 0.16700179874897006 13.437500000000002 407.40000915527349 0.24047499895095828 7.6854999065399179 59.158500671386726 0.30669927597045904 13.618500232696535 1.1844999790191653 -0.32628536224365229 0.14996110647916797 0.15257167816162112 0.055948389694094665 14.934500217437746
decision_type=2 2 2 2 2 2 2 2 2 2 2 2 2 2 2 2 2 2 2 2 2 2 2 2 2 2 2 2 2 2
left_child=3 2 -2 4 -1 17 15 8 -7 10 29 12 16 28 23 -6 -9 -4 -10 -15 21 -3 -23 24 -12 -25 -11 -5 -13 -8
right_child=1 20 5 27 6 7 9 11 18 26 14 13 -14 19 -16 -17 -18 -19 -20 -21 -22 22 -24 25 -26 -27 -28 -29 -30 -31
leaf_value=-0.066506477869397923 0.063189284575582511 0.19126788308340573 0.00083056748052312557 -0.011798947044153608 -0.0079716100604322552 0.028964361228821647 -0.024800723390356529 -0.013265307092555646 -0.0033255008436528402 -0.0075993111623396288 -0.021693962247018608 0.032094544275251914 -0.031433487333765879 0.025735344216907308 0.010078090462125112 0.010523915548868334 0.019122809147915379 -0.013953758965234809 0.06433057744914672 -0.033922180754833157 0.56919447935327383 0.077217925096267598 -0.036274005995213798 0.0049002002034716167 0.011435088376359471 -0.02884133036236718 -0.070323073714835621 -0.081459932629455001 0.1279597924549874 -0.004591114280587583
leaf_weight=3448 3778 1347 1384 753 383 4401 1510 342 2023 711 262 1287 2016 896 1441 1550 825 2224 1120 1030 4665 843 415 292 504 1088 1352 7041 991 780
leaf_count=3448 3778 1347 1384 753 383 4401 1510 342 2023 711 262 1287 2016 896 1441 1550 825 2224 1120 1030 4665 843 415 292 504 1088 1352 7041 991 780
internal_value=0.000272179 0.0195779 0.0121589 -0.0267795 -0.0183657 0.00657263 -0.0103363 0.0119182 0.0210896 -0.0171537 -0.0103709 0.00255178 -0.0110745 0.0128687 0.00126847 0.0176668 0.017952 -0.0155488 0.00431117 -0.00410177 0.0423521 0.0307678 0.0165342 -0.0109972 0.00809399 -0.0215942 -0.036476 -0.0411599 0.0272169 -0.0286026
internal_weight=50702 29587 22317 21115 13321 18539 9873 14931 7544 7940 5877 7387 3183 4204 3587 1933 1167 3608 3143 1926 7270 2605 1258 2146 766 1380 2063 7794 2278 2290
internal_count=50702 29587 22317 21115 13321 18539 9873 14931 7544 7940 5877 7387 3183 4204 3587 1933 1167 3608 3143 1926 7270 2605 1258 2146 766 1380 2063 7794 2278 2290
is_linear=0
shrinkage=0.05


Tree=28
num_leaves=31
num_cat=0
split_feature=102 98 106 104 104 112 24 70 102 104 101 84 76 76 6 97 98 88 24 68 112 9 66 24 105 98 8 101 104 23
split_gain=9740.87 2206.27 1787.8 1528.97 678.314 655.9 491.632 540.397 464.204 443.702 440.154 397.256 243.436 292.274 243.312 219.856 215.525 198.385 247.034 181.868 181.733 177.671 207.189 294.061 171.781 170.635 169.199 156.348 149.794 139.135
threshold=16.343786239624027 14.093500137329103 39.353500366210945 0.71157169342041027 -0.97585630416870106 11.349500179290773 12.428500175476076 0.6307487189769746 20.709642410278324 -0.16399860382080075 2.6207662820816044 148.1809997558594 -0.75183266401290882 -0.071932327002286897 101.1060028076172 -0.25321435928344721 15.609499931335451 177.8774108886719 14.788499832153322 0.45580214262008673 13.214499950408937 8.106999874114992 0.44295170903205877 36.055000305175788 49.89649963378907 11.584499835968019 648.26049804687511 2.6067185401916508 0.90007209777832042 15.395500183105471
decision_type=2 2 2 2 2 2 2 2 2 2 2 2 2 2 2 2 2 2 2 2 2 2 2 2 2 2 2 2 2 2
left_child=1 5 21 4 -4 10 7 -3 28 20 -1 -6 24 -14 -9 -12 -15 -11 -19 27 -8 22 -2 -24 -13 -17 -10 -7 -5 -18
right_child=2 6 3 8 11 19 9 14 26 17 15 12 13 16 -16 25 29 18 -20 -21 -22 -23 23 -25 -26 -27 -28 -29 -30 -31
leaf_value=-0.013764158606372368 0.13160273620366311 -0.035688919750138569 0.068634512425903973 -0.015290752180495738 -0.002522650221256484 0.00016284011758465057 -0.015815380149399871 -0.0098233137055390614 0.040125699126585437 -0.077454681461386399 0.034123101933362147 -0.0022119605036699853 0.064473195968682617 0.021751176148731767 0.0057779309714681487 0.0055652966743063642 0.015466915453833253 -0.0083923750569129488 -0.063109440973799516 0.017056142037246504 0.00018442250648416093 0.58808478056261215 0.38950459116312219 -0.062060212616840006 0.015640256764081428 -0.0067548278643897678 -0.028493126625716948 0.010358929342431145 -0.069309689270461314 0.00090254079723681721
leaf_weight=2494 2232 1355 2892 979 1715 1941 1001 573 1072 8684 392 1891 5102 1168 1073 476 447 922 1480 853 889 4120 187 265 703 695 561 816 1199 2656
leaf_count=2494 2232 1355 2892 979 1715 1941 1001 573 1072 8684 392 1891 5102 1168 1073 476 447 922 1480 853 889 4120 187 265 703 695 561 816 1199 2656
internal_value=0.000268526 -0.0232025 0.0206793 0.013272 0.0198383 -0.0011543 -0.0337829 -0.0155448 -0.0152847 -0.0380009 -0.0149495 0.0151878 0.0184131 0.0221647 0.00370595 0.00585413 0.0125146 -0.0418185 -0.0291007 0.014349 -0.0156085 0.0428718 0.0328614 0.00199115 0.00485736 -0.00499573 0.00486834 0.00810664 -0.0303949 0.00562359
internal_weight=50833 23644 27189 20385 16574 7667 15977 3001 3811 12976 4057 13682 11967 9373 1646 1563 4271 11086 2402 3610 1890 6804 2684 452 2594 1171 1633 2757 2178 3103
internal_count=50833 23644 27189 20385 16574 7667 15977 3001 3811 12976 4057 13682 11967 9373 1646 1563 4271 11086 2402 3610 1890 6804 2684 452 2594 1171 1633 2757 2178 3103
is_linear=0
shrinkage=0.05


Tree=29
num_leaves=31
num_cat=0
split_feature=18 85 104 84 35 18 24 104 110 72 113 101 23 102 98 42 95 8 96 68 85 8 24 88 68 98 24 103 68 18
split_gain=9769.31 2133.7 1335.86 982.036 806.322 728.834 726.437 550.547 614.514 382.462 392.604 366.02 380.542 405.178 323.133 314.957 243.83 222.569 210.004 202.358 201.388 255.559 199.525 159.557 155.583 147.867 146.155 137.953 137.469 136.198
threshold=15.841499805450441 694.23947143554699 -1.0015001296997068 132.05649566650393 49.715499877929695 12.238500118255617 12.92449998855591 0.42985773086547857 2.0302053689956669 1.0684381723403933 13.963500022888185 2.3923476934432988 17.164500236511234 16.864928245544437 13.437500000000002 9.9815001487731951 1.7367857098579409 648.26049804687511 0.99150303006172191 0.33545222878456121 427.10350036621099 592.98849487304699 10.618500232696535 153.9072189331055 0.47229063510894781 15.18650007247925 14.788499832153322 2.7048405408859257 0.5863226354122163 20.442000389099125
decision_type=2 2 2 2 2 2 2 2 2 2 2 2 2 2 2 2 2 2 2 2 2 2 2 2 2 2 2 2 2 2
left_child=4 2 -2 14 5 -1 15 11 -9 10 -8 12 16 25 -4 28 -5 -10 -13 -15 -20 -22 -6 -24 -23 -14 -25 -12 -7 -16
right_child=1 -3 3 7 22 6 9 8 17 -11 27 18 13 19 29 -17 -18 -19 20 -21 21 24 23 26 -26 -27 -28 -29 -30 -31
leaf_value=-0.064276942982691529 0.066396964869023731 0.38628054382330002 0.00071815070063117057 0.00035451419922472027 -0.0028076416245126803 -0.0085884907640709773 -0.015270276777971103 -0.034721898465653746 0.031862492201674988 -0.048369534579978612 0.0064069940426032986 0.033702789003733184 0.0012837575766949884 0.018797673649156368 -0.015737053831833415 0.012491577422818657 0.027535622651997119 -0.01672227168760845 0.0009911894564851309 -0.0062765032582784213 0.12955920231702933 0.054767396940605374 -0.081304853987944903 -0.019018360681806314 -0.024498666009883419 -0.024844584109490954 -0.10214290608864976 -0.0060172116854841032 0.0086070196941098413 0.00016633389122979738
leaf_weight=2728 3135 5852 1744 683 466 652 2184 1863 1916 1835 1337 3999 329 1390 2109 1270 1182 732 1517 794 1509 631 4917 1300 534 992 1310 1111 154 407
leaf_count=2728 3135 5852 1744 683 466 652 2184 1863 1916 1835 1337 3999 329 1390 2109 1270 1182 732 1517 794 1509 631 4917 1300 534 992 1310 1111 154 407
internal_value=0.000260962 0.0174947 0.0112385 0.00694774 -0.0277564 -0.019142 -0.0119572 0.0120386 -0.00309244 -0.020218 -0.0125648 0.0170723 0.00692737 -0.00278174 -0.0146479 0.0137765 0.0251743 0.0123867 0.0237241 0.0104396 0.0159031 0.0241586 -0.0399037 -0.0418693 0.00656652 -0.0246404 -0.0318774 0.00118464 -0.01067 -0.0261129
internal_weight=50582 31318 25466 22331 19264 11271 8543 18071 4511 6467 4632 13560 5370 3505 4260 2076 1865 2648 8190 2184 4191 2674 7993 7527 1165 1321 2610 2448 806 2516
internal_count=50582 31318 25466 22331 19264 11271 8543 18071 4511 6467 4632 13560 5370 3505 4260 2076 1865 2648 8190 2184 4191 2674 7993 7527 1165 1321 2610 2448 806 2516
is_linear=0
shrinkage=0.05


Tree=30
num_leaves=31
num_cat=0
split_feature=18 18 106 98 85 23 66 104 23 66 106 104 66 42 76 76 66 110 104 23 98 84 26 104 98 105 60 112 96 104
split_gain=9281.24 2132.27 1130.31 1065.02 865.521 896.981 637.816 463.703 441.939 614.158 388.255 318.178 280.094 271.976 268.7 631.845 375.485 275.333 271.203 244.121 237.198 217.586 205.5 180.299 179.647 171.837 170.283 162.084 160.133 268.734
threshold=18.801500320434574 14.296499729156496 36.123500823974616 12.306499958038332 148.25300598144534 15.349500179290773 0.18786638230085376 -1.0662155151367185 12.292500019073488 0.17929429560899737 47.901500701904304 -0.35942697525024409 0.11195733025670053 12.88849973678589 -0.052335416898131364 -0.55556493997573841 0.30258406698703771 2.1800616979599003 -0.17535734176635739 13.308499813079836 14.444499969482424 88.525501251220717 15.250500202178957 -1.0491418838500974 14.497499942779543 50.313499450683601 0.19369192421436313 10.681499958038332 0.96740016341209423 -0.2069292068481445
decision_type=2 2 2 2 2 2 2 2 2 2 2 2 2 2 2 2 2 2 2 2 2 2 2 2 2 2 2 2 2 2
left_child=1 8 -2 21 19 12 10 -4 9 -1 -7 -10 -6 22 15 17 28 18 -9 -5 27 23 -11 -3 -8 -12 -17 -21 29 -16
right_child=2 3 7 4 5 6 24 14 11 13 25 -13 -14 -15 16 26 -18 -19 -20 20 -22 -23 -24 -25 -26 -27 -28 -29 -30 -31
leaf_value=-0.051446307187560603 0.49411590797536076 0.039909013723352163 0.083192339162695292 -0.00094188764888070153 0.00034645292708681554 0.0091941541899968737 0.069634324972836836 0.033566776948350974 -0.001520010177596598 0.0025206459318995568 -0.013502532491007191 -0.068955481923802256 0.01721634474771978 0.011568822332072237 0.031295600404282635 0.065936293778042374 -0.02295003812412091 -0.0041737583068739426 -0.010009539093793053 -0.010250659326500867 -0.037253286219769734 0.017331796097059638 -0.019898951507600328 -0.003078477049917705 -0.05387215015990035 0.0079062267193648946 0.15763137187076026 -0.00077679135658956797 0.0036714479821656101 -0.010949312902781651
leaf_weight=1669 4620 163 1938 887 1088 1563 90 1424 628 666 1912 8489 1833 699 1343 2376 1024 2219 573 1183 2526 1847 543 580 2068 398 2383 898 2683 393
leaf_count=1669 4620 163 1938 887 1088 1563 90 1424 628 666 1912 8489 1833 699 1343 2376 1024 2219 573 1183 2526 1847 543 580 2068 398 2383 898 2683 393
internal_value=0.000205104 -0.0177632 0.0256722 -0.00620451 -0.011498 -0.00191019 -0.0129249 0.0195035 -0.0332756 -0.0183813 -0.000787503 -0.0391192 0.0208319 0.000995807 0.016417 0.0217326 0.00765203 0.00763757 0.0211067 -0.0271205 -0.0317452 0.0233205 -0.0133581 0.000471063 -0.0347081 -0.0138095 0.0342194 -0.0192456 0.0139737 0.0258065
internal_weight=50706 29730 20976 17036 14446 8952 6031 16356 12694 3577 3873 9117 2921 1908 14418 8975 5443 4216 1997 5494 4607 2590 1209 743 2158 2310 4759 2081 4419 1736
internal_count=50706 29730 20976 17036 14446 8952 6031 16356 12694 3577 3873 9117 2921 1908 14418 8975 5443 4216 1997 5494 4607 2590 1209 743 2158 2310 4759 2081 4419 1736
is_linear=0
shrinkage=0.05


Tree=31
num_leaves=31
num_cat=0
split_feature=18 18 18 17 23 23 95 66 104 66 68 66 75 23 66 18 55 66 23 17 113 101 75 76 85 14 104 102 58 30
split_gain=8757.11 2035.51 1122.35 1097.31 991.299 624.969 610.778 543 485.447 444.027 431.66 394.529 365.996 348.144 493.365 295.346 416.45 260.742 372.21 359.218 239.731 233.566 194.24 569.004 192.426 189.264 181.158 173.511 169.983 139.35
